
#include "nn_compute.h"

#define g 9.82
#define mass 0.033
#define kf 3.16e-10
#define hoverRPM sqrtf((g * mass) / (4 * kf))

static const int structure[3][2] = {{64, 12},{64, 64},{4, 64}};
static float output_0[64];
static float output_1[64];
static float output_2[4];
static const float mlp_extractor_policy_net_0_weight[64][12] = {{-0.4109894037246704,-0.0722089558839798,0.28250306844711304,-0.5183795094490051,-0.5266575813293457,-0.23782065510749817,-0.4246165156364441,0.20156651735305786,0.7689538598060608,0.001325826859101653,-0.348518967628479,0.3849082589149475},{0.1882658749818802,0.5301995277404785,-0.47498807311058044,-0.7495145797729492,-0.7711571455001831,0.06948112696409225,0.35423555970191956,0.24195680022239685,0.4274587631225586,-0.23629167675971985,0.02616424486041069,-0.2978867292404175},{0.09731397032737732,0.4483031630516052,-0.26598748564720154,-0.5175391435623169,0.27655228972435,0.09139733761548996,0.20848023891448975,0.6272475123405457,-0.5659158825874329,-0.12018611282110214,0.5150707364082336,-0.1670076549053192},{0.7632723450660706,-0.11663316190242767,0.3977665901184082,-0.01196084264665842,0.4442022144794464,0.16124212741851807,0.13366484642028809,0.240381121635437,-0.20214521884918213,0.1707897186279297,0.34363308548927307,-0.3864710330963135},{0.028703181073069572,0.14004656672477722,0.2645008862018585,-0.7684303522109985,0.9473600387573242,-0.13723060488700867,0.06280825287103653,0.5289941430091858,-0.15236148238182068,0.020248522982001305,0.05537881329655647,-0.7947689294815063},{-0.7844634056091309,0.8146644234657288,-0.25939029455184937,-0.5230780839920044,-2.1840295791625977,-0.39923620223999023,-0.5384816527366638,0.29910412430763245,-0.11313876509666443,-0.042100418359041214,-0.7783253788948059,-0.05778523162007332},{0.6519500017166138,-0.1963513046503067,0.05939781293272972,-0.2692928910255432,1.116093397140503,-0.42420077323913574,0.5614302754402161,0.19700761139392853,0.6425833106040955,-0.1849907487630844,0.27200111746788025,0.39908644556999207},{-0.21948939561843872,0.3789297640323639,0.021250680088996887,-0.8132030963897705,-0.5361167192459106,-0.23118381202220917,-0.5246577858924866,0.33600690960884094,-0.4324924945831299,-0.7491896152496338,-0.25841259956359863,-0.9105849266052246},{0.2873641550540924,0.4954942762851715,-0.4161650836467743,0.3848971724510193,0.11206179112195969,-0.3138161897659302,-0.08055102080106735,-0.028967449441552162,0.07994560897350311,0.20945201814174652,-0.011558218859136105,-0.5589780807495117},{-0.40167999267578125,-0.2070315182209015,-0.3760872185230255,0.8912474513053894,0.04013262689113617,0.03510765731334686,-0.009797274135053158,-1.039628505706787,0.3114017844200134,0.1494968980550766,-0.06099499389529228,0.08250777423381805},{-0.9067779183387756,0.6386175751686096,-0.14995217323303223,-0.8833417296409607,-1.6018950939178467,-0.058027151972055435,-0.9042099714279175,0.5540065169334412,-0.2695397734642029,-0.25500375032424927,-0.44701188802719116,-0.026356320828199387},{-0.5843538045883179,-0.011966214515268803,0.25558072328567505,0.5493104457855225,-1.3768781423568726,-0.3118722438812256,-0.6632859706878662,-0.19366306066513062,0.2153635323047638,0.19924214482307434,-0.5886691212654114,-0.5436497926712036},{-0.36037811636924744,-0.2415453940629959,0.3832217752933502,-0.22780603170394897,-1.559066653251648,0.5986992716789246,-1.2699981927871704,0.12623807787895203,-0.2826569378376007,-0.07354139536619186,-0.4383273720741272,0.6395933032035828},{-0.7847158908843994,-0.4369330406188965,-0.14757005870342255,1.1860843896865845,-0.21433204412460327,-0.073939248919487,-0.25182607769966125,-0.6858342885971069,0.39330950379371643,-0.08889886736869812,-0.16980184614658356,-0.025498541072010994},{-0.10492010414600372,-0.1260579228401184,-0.20353592932224274,-0.7145845890045166,-0.5562631487846375,0.2963219881057739,0.18389439582824707,0.23022234439849854,-0.47365468740463257,0.0863194689154625,0.020234642550349236,0.5100994110107422},{0.2436438649892807,0.2868763506412506,0.2700478732585907,-1.2165932655334473,-0.5924320816993713,-0.009546187706291676,-0.8998671770095825,1.0620070695877075,-0.04240252450108528,-0.29252365231513977,-0.1586039513349533,-0.18716086447238922},{-0.7470634579658508,-0.164886936545372,-0.002187964506447315,0.9794509410858154,-1.5347185134887695,-0.1377464085817337,-0.7650336027145386,-0.6867775321006775,-0.3713633120059967,0.3087945878505707,-0.5041995644569397,-0.4222041666507721},{-0.014472627080976963,0.5953723192214966,0.19360622763633728,-1.4872665405273438,0.33307963609695435,0.27803856134414673,-0.31135326623916626,0.041434600949287415,0.09538394212722778,-0.41856691241264343,0.7954313158988953,-0.5748919248580933},{-0.2146185040473938,0.4229375720024109,-0.2618623673915863,-0.8606979846954346,-1.3004237413406372,0.11630930006504059,-0.5990509986877441,0.5148333311080933,-0.12531828880310059,-0.4301745295524597,-0.40209758281707764,-0.5490756034851074},{-0.5748851299285889,-0.6467183232307434,-0.38787946105003357,1.0369341373443604,-0.41173166036605835,0.004073499236255884,-0.10812976211309433,-0.7200987339019775,-0.0711403414607048,0.03198099136352539,0.1552797555923462,0.5995650887489319},{-0.058161258697509766,-0.07161743193864822,0.26229605078697205,-0.2966610789299011,0.062105946242809296,-0.15059076249599457,0.01577771082520485,-0.4888187348842621,-0.9737871289253235,-0.1427137702703476,0.3919614255428314,-1.1210432052612305},{1.1733201742172241,0.3660297989845276,0.013323732651770115,0.28415578603744507,1.48712158203125,-0.3663502037525177,0.9110206365585327,-0.07568968832492828,0.41730889678001404,0.08514893054962158,0.7826223969459534,-0.18703365325927734},{0.4300459623336792,-0.11942169070243835,0.2475573718547821,-0.48179876804351807,1.0508023500442505,0.06309577077627182,0.4388176202774048,1.0067297220230103,0.34368187189102173,-0.16720141470432281,-0.06300237029790878,0.5791649222373962},{-0.9636011719703674,-0.5168768763542175,-0.10545267164707184,0.8973801136016846,-0.7673372626304626,-0.025079967454075813,-0.4027700126171112,-0.48273634910583496,-0.16219668090343475,0.3543696403503418,-0.1247764304280281,0.3910912275314331},{-0.004904135130345821,0.2444826364517212,-0.2125009447336197,-1.7894331216812134,0.32099485397338867,-0.40367165207862854,-0.30556049942970276,0.6991559863090515,0.14558914303779602,-0.5954403877258301,-0.05051761865615845,0.21776865422725677},{0.25944992899894714,-0.010671469382941723,-0.49883222579956055,0.5680088996887207,-0.17263342440128326,-0.050374891608953476,0.63442462682724,-0.13242702186107635,0.4979923963546753,0.19474762678146362,-0.3972514569759369,-0.455266535282135},{0.6650961637496948,0.14436203241348267,0.43193432688713074,-0.44565334916114807,1.1525764465332031,-0.0767945945262909,0.49567562341690063,0.9622550010681152,-0.4077495336532593,-0.1067425087094307,0.004373428877443075,0.22705742716789246},{0.3338407576084137,1.024196743965149,-0.03127739578485489,-0.28194260597229004,0.2586226463317871,-0.5675104260444641,0.2476358860731125,-0.3250245451927185,0.05842454358935356,0.0222058966755867,0.11450955271720886,-0.4807190001010895},{-0.5137287974357605,-0.37854573130607605,0.11778105050325394,0.2622598707675934,-0.8637962937355042,-0.22426269948482513,-0.33066561818122864,-0.7064582109451294,-0.7541511058807373,0.36328211426734924,-0.09711761027574539,-0.1521114706993103},{0.8252465128898621,0.464957058429718,0.3169368505477905,-0.6605098843574524,0.7236796021461487,0.04696706309914589,0.19373920559883118,0.42642366886138916,0.19683043658733368,0.08865324407815933,0.07490143924951553,-0.47798874974250793},{-0.19281375408172607,-0.0881754457950592,-0.3246745467185974,0.6105956435203552,-0.3693646788597107,-0.25764283537864685,-0.6704831719398499,-0.12870559096336365,0.45226091146469116,0.32612738013267517,-0.27880585193634033,-0.31228700280189514},{-0.4392257034778595,-0.2973635196685791,0.18296483159065247,-0.7208772301673889,-0.5322735905647278,0.26231566071510315,0.056925494223833084,0.8100214004516602,0.4906838536262512,0.018378671258687973,-0.39123865962028503,0.6979576945304871},{0.34436020255088806,0.13839569687843323,-0.34551921486854553,-0.5842812061309814,0.652661144733429,0.33019113540649414,0.8282322883605957,-0.5422532558441162,-0.1337074339389801,0.0026771414559334517,0.3683004677295685,0.2587756812572479},{0.12988506257534027,0.037454526871442795,0.367933064699173,-0.24033960700035095,-0.8988257050514221,0.4723794162273407,0.015220806002616882,0.6174641847610474,0.3111916780471802,-0.014467927627265453,-0.32664141058921814,0.17092522978782654},{-0.7902629971504211,0.7158028483390808,0.39316898584365845,-0.17306165397167206,-0.6780511140823364,-0.11163375526666641,-0.846220850944519,0.47158101201057434,0.166801318526268,-0.105909064412117,-0.050741955637931824,-0.4495358467102051},{0.1796366572380066,0.6228052377700806,0.31902599334716797,-1.4174138307571411,-0.28474557399749756,0.2465825080871582,0.1892109215259552,1.0447406768798828,-0.2377174347639084,-0.21323226392269135,0.08360360562801361,-0.23077337443828583},{0.7000914216041565,0.3104168772697449,0.4163724184036255,0.2530055046081543,1.0337055921554565,0.05481165647506714,0.8380556106567383,0.0042097317054867744,-0.16183531284332275,-0.2258557379245758,0.25909534096717834,-0.1300123929977417},{0.828685998916626,0.3689061403274536,0.5175523161888123,-0.934821367263794,0.8773516416549683,0.3797489106655121,0.44075071811676025,0.6819032430648804,0.3817286491394043,0.01496126502752304,0.562557578086853,-0.09670507907867432},{0.2652154564857483,-0.3217770457267761,-0.2505151331424713,-0.09279564023017883,1.3173301219940186,0.04132062941789627,0.5410968065261841,-0.5267233848571777,-0.3836407959461212,0.309657484292984,0.7306152582168579,0.18470996618270874},{-0.947662353515625,-0.3680301010608673,-0.251349538564682,0.6932346224784851,-1.4830245971679688,0.05091527849435806,-1.5665180683135986,-0.2616475820541382,-0.5795966386795044,0.1541404277086258,-0.20672275125980377,0.37272313237190247},{0.854587733745575,0.36188697814941406,-0.0373174212872982,-0.19238494336605072,1.5590354204177856,-0.00918271578848362,0.8482101559638977,0.3530048131942749,0.012101585045456886,0.3280469477176666,0.27610182762145996,-0.4535462260246277},{0.038798220455646515,-0.6159958839416504,0.05642314255237579,-0.7469919323921204,0.7034847736358643,0.45288917422294617,0.4791104197502136,-0.23059587180614471,-0.17719969153404236,-0.11255998909473419,0.05037238448858261,0.491244912147522},{0.7225090861320496,1.3936558961868286,-0.07366181164979935,-0.34698086977005005,0.4203229248523712,-0.7419602870941162,0.09432032704353333,0.06186051294207573,0.3740861415863037,-0.11543437093496323,-0.027604173868894577,-0.5759315490722656},{-0.5964310765266418,-0.3848511278629303,0.32103902101516724,0.3603176772594452,-0.5177203416824341,-0.10007943958044052,-0.4981890320777893,0.4065242111682892,0.14975322782993317,0.03642117232084274,-0.42888590693473816,0.29808729887008667},{-0.7482970952987671,-0.5657570362091064,0.47566062211990356,0.15418455004692078,-1.042417287826538,-0.07720643281936646,-0.7981292009353638,-0.793363630771637,-0.4173179566860199,-0.05446445569396019,-0.5841660499572754,0.18651042878627777},{0.012100241146981716,-0.24811507761478424,-0.08272626250982285,-0.1836685687303543,-0.5370928049087524,0.03795666620135307,-0.14687344431877136,-0.1498817354440689,-0.8092591166496277,-0.1811385154724121,0.008567987009882927,0.2252877950668335},{-0.21831351518630981,-0.45267555117607117,0.3676064610481262,0.8005564212799072,0.6469551920890808,0.37998607754707336,0.15316317975521088,-0.16522441804409027,-0.13556768000125885,0.3576233685016632,0.4141417443752289,0.5391782522201538},{0.10757385194301605,0.19856026768684387,0.13716129958629608,0.2963581383228302,-0.09066057205200195,-0.30198100209236145,-0.10093963891267776,0.2519873380661011,0.6508460640907288,-0.14014369249343872,-0.3975820243358612,0.08336029201745987},{0.25642260909080505,0.20826499164104462,-0.44256827235221863,0.05514715611934662,0.6403350234031677,-0.606329083442688,0.19401927292346954,-0.052920032292604446,0.43939781188964844,-0.12607087194919586,0.41682863235473633,-0.6867765784263611},{-0.2797236740589142,0.7653980851173401,-0.1713455766439438,-1.0436569452285767,-0.8673862814903259,-0.012667495757341385,-0.4367900788784027,0.27660900354385376,-0.296231746673584,-0.3046339452266693,-0.08422791957855225,0.10790025442838669},{0.26788270473480225,0.3671282231807709,-0.08317458629608154,-0.32273584604263306,0.3676062226295471,-0.00048611685633659363,0.5888272523880005,-0.8562102317810059,0.2673057019710541,-0.3485249876976013,0.4822813868522644,-0.4486488401889801},{-0.6270727515220642,-0.3696332275867462,0.024043796584010124,1.523073673248291,-0.644288957118988,-0.5320320725440979,-0.4253862798213959,-0.7118515968322754,-0.4025481343269348,0.6579205393791199,0.03503312170505524,-0.3778808116912842},{-0.5407360196113586,-0.01514666248112917,0.46250757575035095,-0.2714638113975525,-0.5913999676704407,0.059098634868860245,-0.08097416907548904,0.37498554587364197,0.6556903123855591,0.08893750607967377,-0.4238514006137848,0.03399324789643288},{1.1331360340118408,0.9649981260299683,0.27808165550231934,-1.4873571395874023,1.0197956562042236,-0.21838977932929993,0.2861994504928589,0.8598726987838745,0.49711015820503235,-0.46489405632019043,0.19945283234119415,-0.24921338260173798},{0.601309597492218,0.6382792592048645,0.09883582592010498,-0.41088610887527466,0.5854853987693787,0.9795477986335754,0.5893149971961975,0.9422541260719299,-0.022098029032349586,-0.11199129372835159,-0.09958108514547348,0.24286523461341858},{-0.9861502647399902,-0.30603936314582825,0.025555336847901344,0.19087551534175873,-0.18092334270477295,0.06571586430072784,-0.10284373909235,-0.19414231181144714,0.43798765540122986,-0.05052396282553673,-0.22748829424381256,-0.15478859841823578},{0.658496081829071,0.6817188262939453,-0.20834887027740479,-0.16303028166294098,-0.29791876673698425,0.4632689952850342,0.15485739707946777,-0.8582603931427002,-0.05883409082889557,-0.244530588388443,0.5336487293243408,0.24058839678764343},{-0.9043323397636414,-0.037648968398571014,0.25166821479797363,-0.004857885185629129,-0.30285248160362244,0.15475723147392273,-0.8753206729888916,-0.09397146105766296,-0.5781298279762268,0.41363197565078735,-0.17327287793159485,-0.5734488368034363},{0.10705876350402832,0.030769795179367065,-0.021095436066389084,-0.380846232175827,0.7412438988685608,0.3896256983280182,0.8992322683334351,0.757352352142334,0.7324228882789612,-0.2144547402858734,-0.07525618374347687,-0.24648694694042206},{0.4029567241668701,0.881263017654419,0.03520161285996437,0.031041143462061882,-0.43141254782676697,-0.5323830842971802,-0.5372900366783142,0.14308112859725952,-0.14056675136089325,0.662052571773529,0.2967575490474701,0.2642553150653839},{-0.41273754835128784,-0.41834327578544617,0.3352225422859192,-0.2521052360534668,-0.26355060935020447,0.5773207545280457,-0.34810870885849,0.06222021207213402,0.0913781225681305,-0.059390801936388016,-0.48620468378067017,0.5135576128959656},{0.014913741499185562,-0.21841645240783691,0.0734090507030487,0.7011996507644653,-0.35239920020103455,0.17773611843585968,0.2399076521396637,-1.376258134841919,0.316509485244751,0.2682724595069885,0.20691558718681335,-0.15101565420627594},{-0.04747059568762779,-0.1966497153043747,-0.23024751245975494,-0.442687451839447,-1.1909269094467163,0.4427339434623718,0.002630052389577031,0.7140089869499207,-0.2841480076313019,-0.015021697618067265,-0.5051484704017639,0.20479470491409302},{-0.18644988536834717,-0.3849058449268341,0.11558271199464798,1.2389588356018066,0.9787458777427673,0.048472095280885696,0.655066967010498,-1.061666488647461,-0.042549822479486465,0.7046987414360046,0.6774836182594299,-0.2095411866903305}};
static const float mlp_extractor_policy_net_2_weight[64][64] = {{0.31594133377075195,-0.2691863179206848,-0.2284887731075287,0.08409418165683746,-0.0191390048712492,-0.27864792943000793,0.04070904478430748,0.009273415431380272,-0.06266400963068008,0.2125225067138672,0.010568714700639248,-0.04790231212973595,0.17197184264659882,-0.017633436247706413,0.18214629590511322,0.03068353421986103,-0.32707175612449646,-0.06811095029115677,-0.37537938356399536,0.07407967746257782,-0.15416716039180756,0.2278132289648056,0.2643722891807556,-0.21046555042266846,0.10727104544639587,-0.06444340944290161,-0.031158091500401497,0.013198219239711761,-0.16908714175224304,-0.035099711269140244,-0.020563719794154167,0.6268041729927063,-0.0720226913690567,0.7674249410629272,0.23182137310504913,-0.410634309053421,0.14473895728588104,0.6785202026367188,-0.3448021411895752,-0.16370095312595367,-0.22894848883152008,0.1736774742603302,0.05992021784186363,0.2476440966129303,-0.03306955471634865,-0.1943213790655136,0.22797639667987823,0.1320389211177826,-0.1338689625263214,-0.14813481271266937,0.24600239098072052,-0.3797658383846283,0.24421532452106476,0.44849953055381775,-0.019933044910430908,0.0010618077358230948,0.21679256856441498,0.24356037378311157,0.08587756007909775,-0.020535124465823174,0.6096352934837341,-0.16539551317691803,-0.2719357907772064,-0.35474705696105957},{-0.13535311818122864,-0.23499803245067596,-0.31868618726730347,-0.08664409816265106,0.14654256403446198,0.43856608867645264,0.034420471638441086,-0.14470268785953522,-0.21377913653850555,0.23215551674365997,-0.10019142180681229,0.025881338864564896,-0.015332340262830257,-0.14810208976268768,0.04724482446908951,0.07273992151021957,-0.008335146121680737,0.09937991946935654,-0.0038471606094390154,-0.050644684582948685,0.37224024534225464,-0.038329653441905975,0.1588701456785202,0.28775161504745483,0.27015766501426697,0.17546729743480682,0.0010816397843882442,-0.09202412515878677,-0.15121130645275116,-0.19560597836971283,0.29215094447135925,-0.1355365812778473,-0.31763675808906555,-0.09910658746957779,0.22469061613082886,0.09666158258914948,0.05868338793516159,0.03650751709938049,0.06282254308462143,-0.1762486696243286,-0.06408984214067459,0.2534555196762085,-0.08495652675628662,-0.26338130235671997,-0.12115281820297241,0.5052347779273987,0.08203775435686111,-0.23368188738822937,0.14271919429302216,-0.10109283030033112,-0.26123759150505066,-0.05210857838392258,-0.05958070978522301,0.33951541781425476,0.11358658969402313,0.05606669932603836,0.08671725541353226,-0.19440700113773346,0.14041578769683838,0.1915564090013504,0.25326868891716003,-0.1412646621465683,0.02020244300365448,0.05253560096025467},{0.04759090021252632,0.34786099195480347,0.022960765287280083,0.12062427401542664,-0.25420114398002625,0.45157548785209656,0.3324958086013794,0.4270443618297577,0.07935313880443573,0.20010627806186676,0.29364272952079773,-0.2459779977798462,0.410940557718277,-0.17213749885559082,-0.017149457708001137,0.05078741908073425,0.05132877826690674,0.15253601968288422,0.3119974732398987,-0.38997191190719604,-0.28088298439979553,-0.1590195894241333,0.17063486576080322,-0.15036727488040924,0.19721007347106934,0.33694690465927124,0.19322237372398376,-0.04829252138733864,-0.25358134508132935,0.29099389910697937,0.07998567074537277,0.0688323825597763,-0.06913520395755768,-0.07346699386835098,0.05318836495280266,0.1662406027317047,0.13033995032310486,0.23213839530944824,-0.26138657331466675,-0.03055870532989502,-0.13581261038780212,0.3579365313053131,0.07842821627855301,-0.15836985409259796,0.5070479512214661,-0.0959913432598114,-0.2194366753101349,0.6199337244033813,-0.3766426742076874,0.17246168851852417,0.2615964412689209,0.2210434228181839,0.07733737677335739,0.606461763381958,0.11128866672515869,-0.2028406709432602,0.416209876537323,-0.4063633680343628,-0.05807047709822655,0.1613544225692749,0.3781525492668152,-0.30996081233024597,0.3148822784423828,-0.600501298904419},{0.09670726954936981,0.3902735114097595,-0.13941211998462677,0.05573991686105728,-0.30682143568992615,0.07515043765306473,0.39588427543640137,0.0026704806368798018,-0.14766338467597961,0.19302792847156525,0.10594026744365692,-0.07204416394233704,0.23735742270946503,0.1485864669084549,0.08838427066802979,-0.0585801899433136,-0.23751398921012878,0.08376266062259674,-0.010810349136590958,0.04840442165732384,0.3581380546092987,-0.00855756364762783,0.11112271249294281,-0.2175576090812683,0.06482185423374176,-0.25935250520706177,-0.1336444616317749,-0.02776968479156494,0.45669928193092346,0.015292519703507423,0.13480067253112793,0.3567757308483124,-0.12315542995929718,0.035001806914806366,-0.16455678641796112,0.40215176343917847,0.055225953459739685,-0.18396472930908203,-0.020452752709388733,-0.020413706079125404,0.2641172707080841,0.10779483616352081,0.19160763919353485,-0.06798362731933594,-0.16332322359085083,-0.2575746774673462,-0.12449683994054794,-0.34934714436531067,0.046778902411460876,-0.1797172725200653,-0.041771240532398224,0.25426703691482544,-0.24922125041484833,-0.08195090293884277,0.13790510594844818,0.004777055699378252,-0.1831391304731369,0.015958314761519432,-0.035585179924964905,0.12027309089899063,0.23803701996803284,-0.03765961527824402,-0.07048455625772476,0.010683855041861534},{0.04177090525627136,-0.07757122814655304,-0.1779865026473999,0.25358009338378906,-0.13784967362880707,0.18540765345096588,0.3277621865272522,0.13959091901779175,-0.06755722314119339,-0.015716422349214554,0.04256211966276169,0.024152759462594986,-0.0026313846465200186,0.2804654538631439,0.36659595370292664,0.03678756579756737,0.1280440241098404,-0.3286486864089966,-0.007532213348895311,-0.2265801876783371,0.10422037541866302,-0.4195541739463806,0.07421707361936569,-0.036602672189474106,-0.0508306659758091,0.05444042757153511,-0.1865282505750656,0.06497298181056976,-0.29139259457588196,0.028801018372178078,-0.1994042843580246,-0.03474784269928932,-0.12148928642272949,-0.2796876132488251,0.06686887890100479,0.008598312735557556,-0.26422083377838135,0.3229612410068512,0.01041064690798521,-0.057399652898311615,0.14292646944522858,-0.006499363109469414,0.07831830531358719,-0.15725409984588623,-0.147286519408226,0.09940414130687714,0.4927765727043152,0.034384097903966904,0.07325433194637299,-0.03907611221075058,0.21799670159816742,0.07838302850723267,0.08113570511341095,-0.18322955071926117,0.027584820985794067,-0.09195179492235184,0.1275237649679184,0.04434512183070183,-0.08659671247005463,-0.1270090639591217,-0.1916128545999527,-0.024896763265132904,-0.08411098271608353,-0.25880539417266846},{-0.15015769004821777,-0.19613507390022278,0.2924160063266754,-0.08813567459583282,-0.003369554877281189,0.2569551467895508,0.3128132224082947,0.18930105865001678,0.036300286650657654,0.09821346402168274,-0.10095079243183136,0.0415717214345932,-0.016725504770874977,0.014353353530168533,0.07692600041627884,-0.11133784055709839,0.2117754966020584,0.012665732763707638,0.255709171295166,0.2995455265045166,0.22365154325962067,0.2024250626564026,0.14058668911457062,0.05873758718371391,0.0301166120916605,-0.3342567980289459,0.14148660004138947,0.13165569305419922,0.055775489658117294,0.4920079708099365,0.20105695724487305,0.23068779706954956,0.10178324580192566,-0.15123172104358673,-0.13593868911266327,-0.0498737208545208,-0.2294602245092392,0.2549227178096771,-0.18081392347812653,-0.08508322387933731,-0.07465945184230804,0.20577958226203918,0.29289475083351135,0.08338791131973267,-0.020691055804491043,-0.031539104878902435,0.16538117825984955,0.038346774876117706,0.09904249012470245,-0.09182070940732956,-0.1557367742061615,0.08117950707674026,0.00691367918625474,-0.1280357986688614,-0.14262500405311584,0.12680228054523468,0.24340292811393738,-0.047375231981277466,0.3039679527282715,-0.0024032359942793846,0.16672055423259735,0.14285291731357574,0.2781667709350586,-0.03221909701824188},{0.32889991998672485,-0.1801951378583908,-0.17880497872829437,0.048186372965574265,0.09386839717626572,0.07302523404359818,0.11576967686414719,-0.2944662570953369,0.1780928671360016,-0.17083939909934998,0.12664894759655,-0.007174315396696329,-0.215254545211792,0.19599507749080658,-0.13657109439373016,-0.056159257888793945,0.2724416255950928,0.154502734541893,0.026284869760274887,0.011087991297245026,0.18043015897274017,-0.03142067417502403,-0.07120863348245621,0.019259244203567505,-0.15488526225090027,0.038981202989816666,0.09024269133806229,-0.21933704614639282,-0.08326774090528488,-0.03001781739294529,-0.007868696935474873,0.11501294374465942,-0.16284257173538208,0.2767004668712616,-0.16298790276050568,0.24425123631954193,0.15395207703113556,-0.18827630579471588,0.28987687826156616,0.22921814024448395,0.24440525472164154,0.21291644871234894,0.00880387146025896,-0.11583124101161957,-0.13119100034236908,0.1568530648946762,-0.06981217116117477,0.2931540906429291,0.046542905271053314,0.4249609708786011,0.054273225367069244,0.07128111273050308,-0.1150311827659607,0.0066068777814507484,-0.19105634093284607,-0.022418666630983353,0.36776500940322876,0.12363839894533157,0.20908118784427643,0.018087085336446762,0.14622391760349274,0.028156301006674767,-0.028981195762753487,-0.012594067491590977},{-0.04909008368849754,-0.03808720409870148,-0.03136865422129631,0.026691565290093422,-0.07189314067363739,0.0323772095143795,0.3308701813220978,0.01053158100694418,-0.09337487816810608,-0.18178832530975342,0.30601924657821655,0.159165158867836,-0.09355838596820831,-0.1178474873304367,-0.31310105323791504,0.17240531742572784,-0.27590176463127136,0.010157282464206219,0.3119433522224426,0.16561369597911835,0.1551157832145691,0.2375335991382599,-0.07304214686155319,-0.013019777834415436,-0.36637061834335327,-0.021288974210619926,0.1228042021393776,0.07774262130260468,0.03569778427481651,-0.12389277666807175,0.2635706067085266,0.2825016379356384,0.19596992433071136,-0.18798217177391052,-0.3133469521999359,-0.1018252745270729,-0.13309480249881744,-0.12926292419433594,0.3383423686027527,0.11547309160232544,-0.017818089574575424,-0.15951938927173615,0.17522908747196198,0.2852187752723694,0.12660571932792664,-0.026845350861549377,0.030367404222488403,-0.17932464182376862,-0.03311579301953316,0.033772505819797516,0.14632941782474518,-0.08625199645757675,0.12420599907636642,0.06806905567646027,0.4416857659816742,0.20634078979492188,-0.05843784660100937,0.01180954184383154,0.12521034479141235,-0.004656960256397724,0.13039356470108032,-0.030152156949043274,-0.013281736522912979,-0.05636042356491089},{-0.3054364025592804,0.1905563324689865,-0.010197089053690434,-0.0807221382856369,-0.4876343905925751,0.5777202248573303,0.44709163904190063,-0.27346357703208923,0.5025331377983093,1.5260605812072754,0.2646991014480591,-0.3881289064884186,-0.3318421244621277,0.6224294900894165,-0.09653596580028534,-0.7735061049461365,0.21044711768627167,-0.3234526216983795,0.11207286268472672,0.9947836399078369,-0.511472761631012,-0.04383015260100365,-0.5427199602127075,-0.4902954697608948,0.24064655601978302,1.3330703973770142,-0.8703728914260864,0.3695458471775055,-0.784677267074585,-0.5600983500480652,0.6857786178588867,0.04378807544708252,1.0673023462295532,0.15873347222805023,-0.8094342947006226,-0.7606847286224365,-0.24194036424160004,-0.9605451822280884,-0.043256424367427826,0.2568265199661255,0.6602956056594849,-0.10972970724105835,0.7053964734077454,-0.631051778793335,-0.9486546516418457,-0.1564830243587494,-0.6356861591339111,0.14164729416370392,0.2850877344608307,-0.017329160124063492,0.14935161173343658,-0.5996021628379822,-0.7257707118988037,-0.716161847114563,0.08309819549322128,0.04161959886550903,0.3749825060367584,-0.6451005339622498,0.03586682304739952,0.08302599936723709,-0.410076767206192,0.5526151657104492,0.7984703183174133,0.05872223898768425},{-0.1938096433877945,0.32170701026916504,0.4620203673839569,-0.03581038489937782,0.11060569435358047,-0.28407570719718933,-0.14339588582515717,0.1420666128396988,0.021227573975920677,-0.22399497032165527,0.06899046897888184,-0.346623957157135,-0.24268032610416412,-0.1909017413854599,0.050164997577667236,-0.04723358899354935,-0.058219946920871735,0.5234757661819458,0.11451468616724014,-0.031061995774507523,0.3131716549396515,0.022867590188980103,-0.25403109192848206,0.006402092985808849,0.5630561113357544,0.06442470103502274,0.07925664633512497,-0.23009368777275085,-0.0843033492565155,-0.26002922654151917,-0.15908299386501312,0.1538345217704773,0.425292044878006,-0.42572882771492004,-0.1764671802520752,0.2870098948478699,-0.3817424774169922,0.2800905406475067,0.5778658986091614,-0.22234758734703064,-0.010472054593265057,0.3413734436035156,0.08176659047603607,-0.39876118302345276,-0.24718084931373596,-0.30196413397789,-0.017427993938326836,-0.6663112640380859,0.3183820843696594,0.03130174055695534,0.09686414897441864,-0.2669232487678528,-0.32332655787467957,-0.07024446129798889,0.22578246891498566,-0.4964714050292969,0.090842604637146,-0.0542217493057251,0.5266308188438416,-0.1733107566833496,0.13964690268039703,0.14396269619464874,0.12804508209228516,0.043901748955249786},{-0.009535872377455235,0.35598668456077576,-0.32225552201271057,0.41463157534599304,0.18950451910495758,0.40895721316337585,0.1261475831270218,0.3781422972679138,-0.15704908967018127,0.03923020511865616,0.16887521743774414,0.3141767680644989,-0.27050337195396423,0.12014958262443542,-0.39565354585647583,0.045447420328855515,-0.08402135223150253,0.017281215637922287,0.02137083001434803,-0.5300546884536743,0.5580277442932129,0.2831123471260071,-0.013224132359027863,-0.5547727346420288,-0.029293736442923546,0.3053765296936035,0.12024056166410446,0.18615677952766418,-0.04662523791193962,0.38563665747642517,-0.14473524689674377,-0.047281891107559204,0.12334571033716202,0.41650423407554626,0.09653954207897186,0.2304227352142334,-0.12455867230892181,0.2754576504230499,-0.25751394033432007,-0.8567730188369751,0.13162805140018463,0.12917746603488922,-0.006026253569871187,0.09419383108615875,-0.2641495168209076,0.05855494737625122,-0.4925204813480377,0.21651969850063324,-0.2221701592206955,0.3658600449562073,-0.05311242863535881,0.04394632577896118,0.25469720363616943,0.15201663970947266,-0.23938193917274475,-0.05996745824813843,-0.059956327080726624,0.03567700460553169,0.43602803349494934,-0.3121739625930786,0.3635132312774658,0.491213858127594,-0.050408735871315,0.08636905997991562},{0.016715915873646736,-0.019360894337296486,0.2306714951992035,-0.2182435542345047,-0.10268604755401611,-0.1811574548482895,0.03360600396990776,-0.2804218828678131,-0.22711734473705292,-0.15984532237052917,-0.2924067974090576,0.21689599752426147,-0.0905492976307869,-0.06691057235002518,0.15471337735652924,0.14680583775043488,0.24527542293071747,-0.08152996003627777,0.25058916211128235,0.30856379866600037,0.03517909348011017,0.22604165971279144,-0.5278640985488892,-0.32182547450065613,0.05839542672038078,0.23910224437713623,-0.13532735407352448,0.01826072856783867,-0.30807754397392273,0.18839868903160095,0.06440211832523346,0.04699145257472992,-0.3300606608390808,-0.029570814222097397,-0.09543430805206299,0.24650231003761292,0.05628512054681778,0.11158481985330582,0.10639131814241409,-0.07378914952278137,-0.2643820643424988,-0.008420074358582497,-0.015015115961432457,-0.13793587684631348,0.14279678463935852,-0.15420126914978027,0.2997138798236847,-0.05432946979999542,-0.09554038941860199,0.23454219102859497,-0.017316559329628944,0.09513052552938461,0.10250084847211838,-0.028047915548086166,0.26805412769317627,0.0917840227484703,-0.19252730906009674,-0.26237282156944275,-0.31003010272979736,-0.1612059324979782,0.058705516159534454,-0.31273239850997925,-0.18283329904079437,-0.03049076534807682},{-0.4613817036151886,-0.11170952767133713,0.2702060043811798,0.014613975770771503,0.3349843919277191,-0.3060697019100189,-0.14469121396541595,-0.3365325927734375,0.6298336982727051,0.2027982771396637,-0.5143110156059265,0.08445879071950912,-0.7146651744842529,-0.15615536272525787,-0.03537345305085182,-0.2850880026817322,-0.010558315552771091,-0.28673437237739563,-0.5541695952415466,0.04073295742273331,0.10797694325447083,0.7435564994812012,0.07944837212562561,0.16934822499752045,-0.3835855722427368,0.19410079717636108,0.4471952021121979,0.06099877506494522,-0.04631248861551285,0.2862734794616699,0.2426283359527588,-0.32276830077171326,-0.19772762060165405,-0.7640981078147888,-0.1356920301914215,-0.10766257345676422,-0.18981757760047913,0.24420088529586792,0.6418607831001282,0.032832447439432144,0.8093597888946533,-0.41041722893714905,0.6061193943023682,-0.21662335097789764,-0.3764095604419708,-0.22989366948604584,0.19702331721782684,-0.20559430122375488,0.1379377543926239,-0.08133162558078766,-0.26481762528419495,0.14235031604766846,-0.3180922269821167,-0.09123346209526062,-0.25820088386535645,-0.36329734325408936,-0.4215749502182007,-0.03180408477783203,-0.1889377385377884,-0.049430571496486664,-0.5565067529678345,-0.4656201899051666,-0.6463072896003723,0.255401611328125},{-0.1419229656457901,-0.3765575587749481,-0.5876118540763855,-0.3596045672893524,-0.3318096995353699,-0.3027426302433014,0.05779438838362694,0.3926725685596466,0.019529664888978004,0.002164674224331975,-0.014227465726435184,-0.18114815652370453,-0.0920904278755188,0.055497292429208755,-0.11755543947219849,-0.15745483338832855,0.10963987559080124,-0.2817741334438324,-0.04653773456811905,-0.33485496044158936,0.2240341603755951,-0.06205813214182854,-0.26679039001464844,-0.08616118133068085,-0.08842261135578156,-0.10018578171730042,0.00800459273159504,0.14432382583618164,0.10827970504760742,0.023208072409033775,-0.0030218660831451416,-0.2090887725353241,-0.05014241114258766,-0.2717183232307434,0.39773738384246826,-0.15468518435955048,0.09833940118551254,0.16468432545661926,-0.3382145166397095,-0.18338999152183533,-0.02308925986289978,-0.1599789410829544,0.32098332047462463,-0.24735035002231598,0.19802244007587433,0.14514611661434174,0.01895088702440262,0.025646163150668144,-0.07344243675470352,-0.03551461920142174,0.5131797194480896,-0.19604767858982086,0.21402031183242798,0.39473092555999756,-0.1217317283153534,-0.0015103199984878302,-0.2236880511045456,0.041241493076086044,-0.15039858222007751,-0.19804589450359344,0.41604259610176086,0.3447965979576111,-0.12521660327911377,0.07266460359096527},{0.24214638769626617,0.035887960344552994,-0.39465945959091187,0.1404246985912323,0.3430895209312439,-0.22083567082881927,-0.006780561059713364,0.47418802976608276,-0.4910959303379059,0.07512933015823364,0.3951351046562195,0.2542261481285095,-0.0011382406810298562,-0.18738777935504913,0.07179125398397446,-0.15662196278572083,0.024865714833140373,0.2846059501171112,-0.2675914168357849,0.1577139049768448,0.14346276223659515,-0.20077508687973022,-0.06607882678508759,-0.09797345101833344,0.06857983022928238,-0.2302161455154419,0.08859532326459885,0.00483201676979661,-0.1084693968296051,0.0383986160159111,0.24201832711696625,-0.043764833360910416,0.12892185151576996,0.21144172549247742,0.30909040570259094,0.01863427273929119,-0.07508182525634766,0.35398441553115845,0.03155508637428284,0.06941312551498413,0.008696841076016426,0.26527994871139526,-0.08657953143119812,-0.13842906057834625,0.07270091027021408,0.04499078169465065,0.21438166499137878,0.27978938817977905,0.051497407257556915,-0.38084352016448975,-0.08496124297380447,-0.26735419034957886,0.28326284885406494,0.09201966971158981,-0.0448438860476017,0.14738428592681885,0.0030235270969569683,-0.29624995589256287,0.25677236914634705,-0.26079320907592773,0.055208951234817505,-0.1895168125629425,-0.04394703730940819,-0.2410850077867508},{0.22555746138095856,0.7938166856765747,0.48033660650253296,0.20000524818897247,0.15389388799667358,-0.014107468537986279,0.3116203248500824,0.28436505794525146,-0.005127063021063805,-0.8206188082695007,0.16645373404026031,-0.3633884787559509,0.2767508029937744,-1.0335798263549805,0.2441125065088272,0.6222606897354126,-0.6593800783157349,0.12660256028175354,0.5533517003059387,-1.0080466270446777,-0.3399524688720703,0.14664582908153534,0.4910014271736145,-0.3265581727027893,0.5957469344139099,-0.5675094127655029,0.9648784399032593,0.4849528968334198,-0.17075568437576294,0.8652620315551758,-0.5079807639122009,0.1676512211561203,0.1278337985277176,0.6685187220573425,0.26614853739738464,1.0780431032180786,0.13892191648483276,1.0822603702545166,0.12942495942115784,-0.4648921489715576,0.27254605293273926,0.25529560446739197,0.029726436361670494,-0.33343571424484253,-0.42700305581092834,0.3577277362346649,-0.24775153398513794,-0.2717610001564026,-0.24524332582950592,0.6511252522468567,0.17872217297554016,-0.5098443627357483,0.26847946643829346,1.2140005826950073,0.4054914712905884,-0.49811288714408875,0.5399956703186035,-0.6072906851768494,0.5478653311729431,0.5357604026794434,-0.20964400470256805,-0.36710840463638306,0.31347495317459106,-0.5911614298820496},{-0.1545933187007904,-0.3069840967655182,-0.22316651046276093,0.11198702454566956,-0.32100552320480347,0.12653769552707672,0.05911225453019142,0.15121394395828247,0.029008999466896057,-0.03460961580276489,0.17569009959697723,-0.14693300426006317,-0.1939520686864853,-0.030152389779686928,0.06634552776813507,0.36449548602104187,0.24500399827957153,0.322834312915802,0.0020432546734809875,-0.037448298186063766,-0.3797731101512909,-0.07851554453372955,-0.07619284838438034,-0.12800456583499908,-0.1201932281255722,-0.02705044113099575,0.15946133434772491,0.016657358035445213,0.12664557993412018,0.02774418331682682,-0.12432466447353363,0.08228810131549835,0.23612862825393677,0.2875175178050995,-0.1653224676847458,-0.10035800188779831,-0.160207599401474,-0.18565060198307037,-0.2668219804763794,0.10773410648107529,0.22202089428901672,0.2127019315958023,0.03561955690383911,-0.22210288047790527,0.027060721069574356,0.1157311424612999,0.008935741148889065,-0.129854217171669,0.2962643802165985,-0.060643427073955536,-0.11449588090181351,0.07884567975997925,0.08714088052511215,-0.04980776086449623,0.22101573646068573,0.20856809616088867,-0.24302303791046143,-0.21955841779708862,0.05534929409623146,-0.051520828157663345,-0.15672647953033447,-0.24630217254161835,-0.4087211489677429,0.24115677177906036},{-0.5658857822418213,-0.13160067796707153,0.23757164180278778,0.4554350674152374,0.3580039441585541,-0.5481113791465759,0.14756211638450623,-0.11803795397281647,-0.06886063516139984,0.020430414006114006,-0.17974653840065002,-0.1641460657119751,-0.11038494855165482,-0.09414980560541153,0.31436142325401306,-0.028670908883213997,-0.19972920417785645,0.1324092000722885,-0.16429799795150757,-0.0261142086237669,0.027337897568941116,0.367746502161026,0.13310450315475464,-0.22296658158302307,-0.11562123149633408,-0.16087289154529572,0.05540875345468521,0.2476232498884201,-0.4103473126888275,0.12053533643484116,0.005183496978133917,-0.0482759028673172,-0.004448080901056528,-0.4044881761074066,0.15927931666374207,-0.014682847075164318,0.131644144654274,0.22479033470153809,0.5420464873313904,0.041717302054166794,0.12062086910009384,-0.2770175635814667,-0.09557311236858368,-0.11183879524469376,-0.39597514271736145,-0.05801313370466232,0.1392149180173874,-0.2717267572879791,0.222726508975029,-0.4128865599632263,-0.04799145087599754,0.306839257478714,-0.6487769484519958,0.4043743312358856,0.034779712557792664,-0.20970623195171356,0.09806396812200546,0.033877771347761154,0.40685510635375977,-0.46636703610420227,-0.019928816705942154,-0.1608942449092865,-0.24474631249904633,0.6193665862083435},{0.26064038276672363,-0.42965584993362427,-0.49794885516166687,0.1478687971830368,-0.1670522689819336,-0.03929312899708748,0.10105631500482559,0.1020335778594017,0.10393192619085312,0.09975669533014297,-0.13152721524238586,0.3330661356449127,0.5736865401268005,0.15493597090244293,0.042195286601781845,0.16569291055202484,0.28076937794685364,-0.23253676295280457,-0.06125431880354881,-0.37917134165763855,-0.7345644235610962,-0.15664967894554138,0.28288859128952026,-0.05529763177037239,-0.12824657559394836,-0.28908634185791016,0.1001582071185112,-0.04003940895199776,-0.4695746600627899,-0.0880056619644165,0.19802770018577576,0.21623623371124268,-0.5848137140274048,-0.028860237449407578,0.26087310910224915,-0.159161776304245,0.33405232429504395,0.08184729516506195,-0.45345374941825867,-0.18236064910888672,-0.2797107994556427,-0.17387595772743225,0.3721582591533661,0.16346938908100128,0.13836441934108734,0.0563143752515316,0.05999315157532692,0.5010850429534912,-0.6906470656394958,-0.3126136362552643,-0.5010413527488708,0.05877342075109482,0.25274789333343506,0.27816590666770935,-0.2629314064979553,-0.13939131796360016,-0.5715506672859192,0.13924823701381683,-0.3714374005794525,0.2683192789554596,0.45292478799819946,-0.10696043074131012,-0.18703603744506836,-0.3368982970714569},{-0.08641877770423889,-0.5458887219429016,-0.6436926126480103,0.24608024954795837,-0.10371259599924088,-0.699593722820282,-0.04108456149697304,-0.021945489570498466,0.5829442143440247,-0.2680659890174866,-0.43855971097946167,0.14360256493091583,0.3152603507041931,-0.09151557832956314,-0.18861089646816254,0.08195810765028,0.18479959666728973,-0.3801076114177704,-0.25917544960975647,0.1760929524898529,0.14323493838310242,-0.16425955295562744,0.0902339294552803,-0.17833486199378967,-0.28420019149780273,0.15263095498085022,0.41081783175468445,-0.5145660042762756,-0.003578943433240056,-0.07073801010847092,0.16223958134651184,-0.18875928223133087,0.03214520961046219,0.10773501545190811,-0.5384175777435303,-0.08458776026964188,0.0059059723280370235,-0.363294780254364,-0.22525542974472046,0.6334556341171265,-0.036722179502248764,0.250107079744339,-1.076590895652771,0.013004624284803867,0.13435965776443481,0.1023583710193634,0.3297330141067505,-0.48457908630371094,-0.24408242106437683,-0.46227675676345825,-0.22626902163028717,-0.03992694616317749,-0.23223091661930084,-0.45205923914909363,-0.050927113741636276,0.19972984492778778,-0.01539402361959219,0.16426432132720947,-0.003777576144784689,-0.05554854869842529,0.258316308259964,-0.011989954859018326,0.486217737197876,0.104286327958107},{0.03341261297464371,0.2898188531398773,0.06399886310100555,-0.004013554658740759,-0.21263544261455536,0.02272902801632881,0.17093215882778168,-0.05795722082257271,0.18462954461574554,0.11501141637563705,0.2921026647090912,-0.06884966045618057,-0.11170758306980133,0.4156971871852875,-0.08987759798765182,0.339180052280426,0.28287869691848755,-0.10522974282503128,-0.10486776381731033,0.09937933087348938,0.03440002351999283,-0.05356837809085846,-0.08523385226726532,0.2638210356235504,-0.15488781034946442,-0.10701481997966766,0.10678920894861221,0.19174732267856598,0.0685664638876915,0.18127624690532684,-0.12953978776931763,-0.12373456358909607,0.13107900321483612,0.11812101304531097,0.24637065827846527,0.04266585409641266,0.0352771170437336,0.13697341084480286,0.08866890519857407,-0.28926607966423035,0.10084371268749237,-0.07352757453918457,0.006815900094807148,-0.07567855715751648,0.07829638570547104,0.1740826964378357,0.16910508275032043,0.07362513244152069,-0.15083301067352295,-0.26633021235466003,-0.17982494831085205,-0.34063076972961426,-0.513554573059082,0.1552705466747284,-0.23594489693641663,0.23744992911815643,-0.2753239870071411,-0.04959090054035187,0.055088140070438385,0.025316527113318443,0.1982111781835556,-0.13931936025619507,0.11888536065816879,0.05579382926225662},{-0.48517081141471863,0.11291026324033737,-0.404618501663208,0.644100546836853,-0.01912139169871807,-0.2740844786167145,-0.3338874578475952,-0.26058804988861084,0.19457760453224182,-0.4454305171966553,-0.4108853340148926,-0.06623002141714096,0.0444582998752594,-0.6225666403770447,-0.10327804833650589,0.27228596806526184,0.04833614081144333,-0.14687903225421906,0.098798006772995,-0.21737733483314514,-0.04831155017018318,0.18564483523368835,0.24365770816802979,0.0056663635186851025,-0.32656410336494446,0.14238566160202026,0.5639036297798157,0.17210933566093445,-0.050953857600688934,0.7218144536018372,-0.2075209617614746,0.26935645937919617,-0.22721290588378906,0.5753546953201294,-0.18237090110778809,0.44935712218284607,-0.07495962083339691,0.2897338271141052,0.19640915095806122,-0.5631327629089355,0.3748985826969147,0.22421754896640778,-0.2748925983905792,-0.05199388787150383,0.27046239376068115,0.06821722537279129,0.19769097864627838,0.098933145403862,0.08429942280054092,-0.4253329038619995,-0.34853148460388184,0.21651703119277954,0.024367550387978554,0.20991511642932892,0.32177942991256714,-0.7523773908615112,-0.22014497220516205,-0.24469520151615143,0.2231074720621109,0.16415075957775116,-0.046235550194978714,0.08000641316175461,0.31429052352905273,-0.07059573382139206},{0.046125661581754684,0.1835133135318756,0.15495559573173523,0.08630222082138062,0.45774900913238525,0.27514418959617615,0.3701782822608948,0.15329104661941528,0.1818564087152481,-0.4654708206653595,0.4271481931209564,-0.6826874017715454,0.07420378178358078,-0.04707785323262215,0.45861494541168213,0.20271959900856018,-0.9887540340423584,0.3431110680103302,0.23769669234752655,-0.449426531791687,-0.30809468030929565,0.03432605043053627,0.5401355028152466,-0.6319761872291565,0.8404471278190613,0.03223844990134239,0.3742581903934479,-0.25312063097953796,-0.603020966053009,0.6240735650062561,-0.14486925303936005,0.44231197237968445,0.42216673493385315,0.07847370207309723,-0.4028037190437317,0.3370431363582611,-0.17805279791355133,0.1088135689496994,0.2311248928308487,-0.49389052391052246,0.07207746803760529,0.6820598244667053,-0.20345143973827362,-0.32219386100769043,-0.6318342685699463,0.13009189069271088,-0.2154199331998825,-0.27941757440567017,-0.13034643232822418,0.47469237446784973,-0.1576438695192337,-1.2069790363311768,-0.6663215756416321,0.5858538746833801,0.7540351748466492,-0.08383361250162125,0.008413173258304596,-0.5534523725509644,0.25002753734588623,-0.13881529867649078,-0.012851137667894363,-0.5943909287452698,0.8682171106338501,-0.8376256227493286},{-0.13284148275852203,0.28431227803230286,0.6985068917274475,0.24163898825645447,0.14340834319591522,0.19548407196998596,-0.006821644026786089,-0.23955634236335754,-0.31615039706230164,-1.043304681777954,0.5106003284454346,-0.38679438829421997,0.25741761922836304,-1.3241033554077148,0.9041294455528259,0.6095979809761047,-0.4177262485027313,0.009490286000072956,0.05402947589755058,-0.9290955066680908,-0.12799617648124695,-0.43223705887794495,0.5970860123634338,-0.08545662462711334,0.48321008682250977,-0.11266964673995972,1.2661744356155396,-0.4499158561229706,-0.3954939544200897,0.5565739274024963,-0.6206330060958862,0.7578165531158447,0.38422828912734985,0.8229480981826782,-0.5585178732872009,0.918788731098175,0.21412894129753113,0.910642147064209,0.023985128849744797,-0.6299644112586975,0.5629945397377014,0.19971171021461487,-0.40267860889434814,0.16578629612922668,-0.7472529411315918,0.12657007575035095,-0.03454987704753876,-0.14313547313213348,-0.3805182874202728,0.22992317378520966,-0.4049047827720642,-0.5639070868492126,-0.0962541252374649,0.5977863073348999,0.8066768646240234,-0.024630067870020866,0.16904641687870026,-0.0282219797372818,0.22689160704612732,-0.14114539325237274,0.11893101781606674,-0.6391591429710388,1.1702297925949097,-0.2539732754230499},{0.26453283429145813,-0.05618935078382492,-0.11389053612947464,-0.2878337800502777,0.2049449384212494,0.44879764318466187,-0.020475391298532486,0.24732278287410736,-0.18754585087299347,-0.09637993574142456,0.6476283073425293,0.938835084438324,0.5564236640930176,-0.09289189428091049,-0.19665291905403137,0.10524208843708038,0.556830644607544,0.0026559066027402878,0.6161288619041443,-0.18339838087558746,0.05763949453830719,-0.5283855199813843,-0.019715985283255577,0.25556811690330505,0.1377929002046585,-0.03186948597431183,0.09052382409572601,-0.08268143981695175,0.5390561819076538,-0.12176614254713058,-0.1725543737411499,0.5065082907676697,-0.6892864108085632,0.18095697462558746,0.3386012315750122,0.002032122341915965,-0.3837807774543762,-0.3564510941505432,-0.409578412771225,0.5514764189720154,-0.17421184480190277,-0.09698951989412308,-0.17992322146892548,0.18079927563667297,0.41478076577186584,0.08197536319494247,-0.13207405805587769,0.1935569792985916,0.18896859884262085,0.47194716334342957,-0.1939401626586914,-0.03588278219103813,0.031095074489712715,-0.3666225075721741,-0.2229493111371994,-0.011124396696686745,-0.2794882655143738,-0.000701272627338767,-0.14041484892368317,-0.26872894167900085,0.4058745801448822,-0.018932458013296127,0.19529478251934052,-0.15719006955623627},{-0.13285832107067108,0.11886096000671387,0.19462323188781738,-0.07492922246456146,-0.024473244324326515,0.7832973003387451,0.208870068192482,0.1399301141500473,0.49949735403060913,-0.13084092736244202,0.30590951442718506,0.5025408864021301,0.1222929060459137,-0.13643692433834076,0.08428167551755905,0.15648332238197327,0.12182363122701645,0.2607797384262085,0.2715546488761902,-0.4546724855899811,0.43951737880706787,-0.041200052946805954,-0.053618766367435455,-0.15661826729774475,0.5474118590354919,0.3408026099205017,-0.22994321584701538,0.7495973706245422,-0.04939917474985123,0.27697116136550903,0.39573007822036743,-0.1335545927286148,-0.1817249059677124,0.3618389964103699,0.11600658297538757,0.2057662159204483,-0.020584892481565475,0.045107513666152954,-0.12691809237003326,-0.06902677565813065,0.0057477219961583614,-0.41134655475616455,0.8723296523094177,-0.05725085735321045,-0.16023723781108856,-0.40976792573928833,-0.17439642548561096,-0.009007304906845093,0.043764788657426834,0.24711377918720245,-0.09942188113927841,0.10575735569000244,0.2088148146867752,0.46912869811058044,-0.4174281358718872,-0.32695722579956055,-0.20582762360572815,-0.14153455197811127,-0.00909794494509697,0.03753126412630081,-0.37898004055023193,-0.19417375326156616,0.2119479477405548,-0.21024520695209503},{0.6515551805496216,-0.4625876843929291,-0.11284007877111435,-0.24745000898838043,-0.1543147712945938,-0.12732337415218353,-0.0010436158627271652,0.22562521696090698,-0.18833772838115692,-0.17864260077476501,-0.1325288563966751,-0.03206869587302208,-0.141685351729393,0.15528857707977295,-0.22956030070781708,0.18304985761642456,0.05487282574176788,0.1881473809480667,0.00041675951797515154,-0.040679313242435455,0.017796715721488,0.08732040971517563,0.5414133667945862,0.18085835874080658,-0.1274220496416092,-0.09228259325027466,-0.33583807945251465,0.2974623739719391,-0.26619842648506165,0.1574464738368988,-0.16142308712005615,-0.034492459148168564,0.008271665312349796,0.0037459947634488344,0.1434735208749771,-0.024279644712805748,0.14120043814182281,0.3046194911003113,0.0692506656050682,0.042912643402814865,0.2083791047334671,-0.026448490098118782,-0.03149988874793053,-0.03231501579284668,-0.18127551674842834,-0.09323838353157043,-0.1532522290945053,0.18774498999118805,-0.3897381126880646,-0.43438833951950073,0.10400272160768509,-0.01367246638983488,0.25803127884864807,-0.02074744738638401,-0.023596864193677902,-0.07482270896434784,-0.028832999989390373,-0.03013967163860798,-0.20050805807113647,-0.0668015107512474,0.2231101095676422,0.04410913214087486,-0.308533251285553,0.30694159865379333},{-0.203416109085083,-0.2863894999027252,0.06715413182973862,-0.02908732369542122,0.08308170735836029,-0.37014418840408325,-0.09131516516208649,-0.3714803159236908,0.04439184442162514,-0.188972607254982,-0.16201627254486084,-0.18687987327575684,0.08194613456726074,0.42921167612075806,0.46602094173431396,0.11638401448726654,-0.27810266613960266,-0.25891026854515076,0.09663592278957367,0.20600074529647827,-0.39627307653427124,-0.28297004103660583,-0.15057869255542755,0.16717614233493805,0.08036866784095764,-0.21075180172920227,0.27064087986946106,-0.7739261984825134,-0.07052108645439148,0.12535950541496277,0.040563661605119705,0.3612091839313507,0.2772659659385681,0.3552555739879608,-0.8378405570983887,0.3565097451210022,0.04055878892540932,0.028016919270157814,0.29431214928627014,0.14881205558776855,-0.06543939560651779,0.15691229701042175,-0.7232826352119446,0.28044137358665466,-0.07234003394842148,0.1706959307193756,-0.06934154033660889,-0.24315939843654633,-0.040515996515750885,-0.30114805698394775,-0.10935501009225845,-0.27020806074142456,-0.07207412272691727,-0.1107800081372261,0.28448495268821716,-0.2802061140537262,0.2736198604106903,-0.4963439106941223,0.2910134792327881,0.04936040937900543,0.15963687002658844,-0.08716990053653717,0.22779692709445953,0.033331532031297684},{-0.09236598759889603,0.14017261564731598,0.11038456112146378,-0.03163517639040947,0.19582603871822357,0.01914242096245289,-0.033862195909023285,-0.1291506290435791,-0.17221404612064362,-0.15767325460910797,0.03162757307291031,0.09810780733823776,-0.05312846228480339,0.07638468593358994,-0.061620812863111496,-0.018836548551917076,0.05896153301000595,0.09895054996013641,0.11448795348405838,0.0826699361205101,0.24809573590755463,-0.336825966835022,0.2544358968734741,0.028086300939321518,0.25943219661712646,-0.14423467218875885,0.19381476938724518,0.3421378433704376,-0.04778580740094185,0.15133003890514374,-0.11809150129556656,0.2208227813243866,0.13613514602184296,0.12344544380903244,-0.43057629466056824,-0.2333976775407791,-0.20946376025676727,-0.10379450768232346,-0.292775422334671,0.06458597630262375,0.23680034279823303,0.10894667357206345,0.11499184370040894,-0.12991198897361755,-0.13366369903087616,-0.03736349195241928,0.25746235251426697,-0.023818770423531532,0.10134845227003098,-0.009123655967414379,-0.10050217807292938,0.3150477409362793,-0.34085628390312195,0.002139521762728691,-0.011488511227071285,0.3939357399940491,-0.054042451083660126,-0.13759782910346985,0.07701874524354935,0.32935264706611633,0.34688860177993774,0.35232648253440857,-0.09808823466300964,-0.19465802609920502},{0.4493752717971802,0.10393834859132767,0.22871622443199158,0.12383300065994263,-0.08922505378723145,0.11285771429538727,-0.09632363170385361,-0.15048158168792725,-0.08981603384017944,0.1584915965795517,-0.05767066031694412,0.040764983743429184,-0.060533273965120316,-0.4059179425239563,0.24137066304683685,0.08617297559976578,-0.008042591623961926,0.23048759996891022,0.09655607491731644,-0.19197650253772736,0.24928651750087738,-0.008667027577757835,-0.07443713396787643,-0.1132766455411911,-0.21963198482990265,-0.1646280586719513,-0.1511927992105484,-0.09051690995693207,0.10324347764253616,-0.018860887736082077,0.10389341413974762,-0.09056119620800018,-0.17628659307956696,-0.1329435408115387,-0.43688639998435974,0.007048519793897867,-0.3075755834579468,0.007762068882584572,-0.2762884795665741,-0.17035862803459167,-0.08820322901010513,0.12829771637916565,-0.03336205706000328,0.16694262623786926,-0.06255999952554703,-0.1500614881515503,-0.1279323548078537,0.0841013491153717,-0.09568750113248825,-0.0020824146922677755,0.21205013990402222,-0.17766326665878296,-0.10268537700176239,-0.13989511132240295,-0.3622073531150818,-0.06593973189592361,-0.07230623811483383,-0.22856999933719635,0.07950417697429657,0.28895172476768494,0.11821410804986954,-0.0027431785129010677,0.17058734595775604,0.4176439344882965},{-0.21124067902565002,-0.265011727809906,-0.026350293308496475,0.10273407399654388,0.20507030189037323,-0.07629495859146118,0.27222898602485657,-0.2543995976448059,0.3216439187526703,-0.0002536941028665751,-0.09603063017129898,-0.06067364290356636,-0.24880141019821167,-0.12749597430229187,-0.07307704538106918,-0.3349003493785858,0.11157234758138657,0.1718788594007492,-0.010656927712261677,0.13423246145248413,-0.06441356986761093,-0.07652517408132553,-0.017868096008896828,-0.059386927634477615,-0.01977391541004181,-0.22051125764846802,-0.15083546936511993,0.11946366727352142,0.1342579424381256,-0.3847096264362335,-0.14000019431114197,-0.04674763232469559,-0.049337584525346756,-0.19522415101528168,0.03634106367826462,0.23790982365608215,-0.37909364700317383,-0.07756322622299194,-0.22167082130908966,-0.18759915232658386,0.03911798819899559,-0.32987266778945923,-0.2718721628189087,-0.1859913021326065,0.15867406129837036,-0.03941483050584793,-0.028297221288084984,0.09053367376327515,-0.26811128854751587,-0.3411802649497986,0.09431259334087372,-0.10144467651844025,0.21152296662330627,0.0831761583685875,0.1722383052110672,-0.019611023366451263,0.3038741946220398,0.07712779939174652,-0.06168064847588539,-0.1938956081867218,-0.011343248188495636,-0.29548126459121704,0.07304801791906357,-0.43461063504219055},{0.03527671843767166,-0.15327824652194977,0.025203773751854897,0.12834925949573517,0.08553066104650497,0.03484306484460831,-0.05766696482896805,-0.11631429195404053,0.15072786808013916,-0.33192357420921326,0.17439377307891846,0.1154913678765297,0.31831902265548706,-0.1165403500199318,0.07406143844127655,0.2172257900238037,-0.24650217592716217,0.030437761917710304,-0.07680030912160873,0.377182275056839,-0.49088114500045776,0.1080877035856247,-0.22258181869983673,0.07785123586654663,0.01908903941512108,0.2004096657037735,-0.2172689288854599,0.196282297372818,0.16756929457187653,-0.1030140221118927,0.07221201062202454,-0.25688138604164124,0.12211696803569794,-0.16957780718803406,-0.33149266242980957,0.3364129662513733,0.3045225441455841,0.2682701647281647,-0.24817003309726715,-0.03769245371222496,0.15078100562095642,0.16524183750152588,-0.11205695569515228,-0.26911747455596924,-0.11307480186223984,0.10695116966962814,-0.12289157509803772,0.2719849944114685,0.17588849365711212,0.17546023428440094,0.21715500950813293,0.3617524802684784,-0.05445365235209465,-0.3409215807914734,-0.2058161497116089,0.11317574977874756,-0.22604705393314362,0.16895759105682373,-0.14358796179294586,0.10955265909433365,0.2838001549243927,0.3620646893978119,0.045079465955495834,0.03751629963517189},{0.047335125505924225,-0.017937079071998596,0.07215476781129837,0.06735483556985855,0.04376594349741936,0.030819477513432503,-0.01808469183743,-0.04633598402142525,-0.23185144364833832,0.23174522817134857,0.07667914032936096,-0.0818980485200882,-0.02695208415389061,0.1173911765217781,-0.19731047749519348,-0.21395523846149445,0.1020006537437439,-0.23063907027244568,-0.20886152982711792,0.11523420363664627,0.1577702909708023,0.10228709876537323,0.14137132465839386,0.0207303985953331,-0.14252640306949615,-0.21528229117393494,-0.15887859463691711,0.07623651623725891,-0.1940973550081253,0.09015102684497833,-0.17258824408054352,-0.17467477917671204,-0.05092440918087959,0.037546951323747635,-0.1354633867740631,-0.13027052581310272,-0.03451977297663689,0.05101466178894043,-0.24807685613632202,0.03977247700095177,-0.12807342410087585,0.10512695461511612,-0.01058847177773714,-0.41813862323760986,0.23137247562408447,-0.3038575053215027,-0.15465562045574188,-0.1835022121667862,0.3737453520298004,0.22961565852165222,-0.12849435210227966,-0.12878140807151794,0.14124184846878052,0.10578299313783646,0.17639000713825226,-0.3071378171443939,-0.2485581785440445,0.11184115707874298,0.10899575054645538,0.08805686235427856,0.06435484439134598,-0.36177393794059753,0.2502515912055969,0.028705144301056862},{-0.14887945353984833,0.29029181599617004,0.1445082724094391,-0.2847026288509369,0.36986100673675537,-0.03990574926137924,-0.3186482787132263,-0.05181432515382767,0.1019064337015152,-0.19851839542388916,0.22722233831882477,0.2954372763633728,0.15936261415481567,-0.25481197237968445,0.024637892842292786,0.17455454170703888,0.16650593280792236,0.2568015158176422,0.6215680241584778,-0.833641529083252,-0.07224316149950027,-0.16051793098449707,-0.17027053236961365,-0.22112393379211426,-0.04035114124417305,0.1454980969429016,0.15936756134033203,0.2662520110607147,0.047308698296546936,0.6089850068092346,-0.0719054639339447,0.20623797178268433,0.2519814968109131,0.15392883121967316,0.28199875354766846,0.46709856390953064,0.1746671199798584,0.3650873601436615,-0.48978251218795776,-0.2041397988796234,0.004578469321131706,-0.1973692625761032,0.347619891166687,-0.20543678104877472,-0.11123663932085037,0.07227063924074173,-0.4096102714538574,0.09015223383903503,-0.018718289211392403,0.12360905110836029,-0.061136458069086075,0.35856854915618896,0.26012566685676575,-0.2182861715555191,0.04510420933365822,-0.018247324973344803,0.17417871952056885,0.3311455249786377,0.40516844391822815,0.7175949215888977,-0.35109999775886536,-0.5211669206619263,0.31731176376342773,-0.3416255712509155},{-0.11226183921098709,0.10022269189357758,0.23090879619121552,-0.37013542652130127,-0.02354070171713829,-0.23123247921466827,-0.0871814712882042,0.06377588957548141,0.2591301500797272,0.23419445753097534,-0.11078532785177231,0.20669792592525482,0.026369430124759674,0.2002425640821457,0.3822025656700134,0.025908473879098892,0.1770712286233902,0.12047947943210602,0.00039915007073432207,-0.18889112770557404,0.08728644996881485,0.46420663595199585,0.0867619514465332,0.12037546932697296,0.01683998480439186,-0.19757798314094543,-0.05208746716380119,0.08924752473831177,0.03314358741044998,-0.209941104054451,-0.0009159079636447132,0.011499584652483463,-0.2416975349187851,-0.017993750050663948,-0.12501096725463867,0.08500490337610245,-0.022928589954972267,0.27281737327575684,-0.047023557126522064,0.09079400449991226,-0.04892804101109505,0.1942472606897354,-0.10104065388441086,0.021739047020673752,-0.18981444835662842,-0.07546954602003098,-0.08686081320047379,0.19180136919021606,-0.08115800470113754,-0.06907159090042114,-0.2233675867319107,0.014106767252087593,0.19103652238845825,0.2588769197463989,0.1555311679840088,-0.08025084435939789,-0.052588533610105515,-0.04094076529145241,-0.4334343373775482,-0.4255223572254181,-0.1976444274187088,0.16908104717731476,0.07259249687194824,-0.018240762874484062},{-0.11476818472146988,0.10828103870153427,0.24652330577373505,0.013948804698884487,-0.15426765382289886,-0.08555211126804352,0.05387520790100098,0.18022485077381134,-0.1702393740415573,0.023713747039437294,-0.0010892555583268404,0.13989366590976715,0.03311615809798241,0.18363535404205322,-0.05055033788084984,0.10217753052711487,-0.01732887327671051,0.044410474598407745,-0.260841965675354,-0.023247413337230682,0.10914774984121323,0.3572048544883728,-0.004123763181269169,0.015198771841824055,0.1485946774482727,0.13311630487442017,0.19417940080165863,-0.019448651000857353,0.09081599116325378,0.038675982505083084,-0.029529141262173653,0.28250595927238464,0.03473219648003578,-0.21467722952365875,-0.02481815591454506,-0.02469218708574772,-0.16021540760993958,-0.043473634868860245,0.070927694439888,0.08796209841966629,-0.1668921411037445,-0.3863418698310852,-0.19619178771972656,-0.4758590757846832,0.02062336541712284,0.19584929943084717,-0.0706353634595871,0.017989980056881905,-0.04972323030233383,-0.1886647343635559,-0.04289168119430542,-0.09733184427022934,0.3312332034111023,0.05033138766884804,0.10416685789823532,0.19835899770259857,-0.013049235567450523,-0.02973194606602192,0.05857917666435242,0.2624729871749878,0.15874458849430084,0.19368797540664673,0.19706445932388306,0.0212536808103323},{0.24939298629760742,0.23676161468029022,0.04886283352971077,-0.09883750975131989,0.02843446657061577,0.2503991723060608,-0.01921865902841091,0.05053764209151268,0.3575824499130249,-0.04244120791554451,-0.12621065974235535,0.03498106077313423,-0.002694009570404887,-0.13090212643146515,-0.05537340044975281,0.02644135244190693,-0.2233864963054657,0.20387978851795197,-0.2615492641925812,0.14396487176418304,0.004497846122831106,0.11338499933481216,-0.15504224598407745,-0.16547098755836487,-0.03477326035499573,0.0239432193338871,-0.09362496435642242,-0.29703250527381897,-0.03798343986272812,0.03709480166435242,-0.19800512492656708,0.025200804695487022,-0.09777109324932098,0.04453083500266075,0.007120870053768158,0.24441580474376678,0.19613899290561676,0.08670538663864136,-0.15424050390720367,0.19498485326766968,-0.007147521711885929,-0.21698777377605438,0.3969894349575043,0.1943095475435257,0.2368934601545334,0.09961065649986267,0.04416212439537048,-0.17146387696266174,0.09747790545225143,-0.39936113357543945,-0.1999736726284027,0.061029400676488876,-0.28356170654296875,-0.1581338495016098,-0.1754177063703537,0.0383952260017395,0.11727931350469589,-0.035944864153862,0.1562904715538025,-0.048761215060949326,0.15892896056175232,0.29453614354133606,0.16327491402626038,0.03627200052142143},{0.07989249378442764,-0.24006390571594238,-0.02042967826128006,-0.12192115932703018,0.17654210329055786,0.325139582157135,0.05262615904211998,0.15442517399787903,-0.12187396734952927,0.07949857413768768,-0.3551497757434845,-0.2656517028808594,0.21494260430335999,-0.051909659057855606,-0.198996439576149,-0.0745440348982811,0.0033525233156979084,-0.0407622866332531,-0.2286771833896637,-0.07466845959424973,-0.18855386972427368,0.0819244459271431,-0.21366238594055176,0.12731081247329712,-0.29414263367652893,0.10436563193798065,0.14766526222229004,0.06493715196847916,-0.15640605986118317,0.17971757054328918,-0.07528551667928696,0.17369461059570312,0.11306760460138321,0.1964467465877533,0.047278210520744324,0.3667801320552826,-0.31905606389045715,-0.02348809875547886,-0.11852992326021194,0.2248333990573883,-0.003431781427934766,-0.007936983369290829,0.06693549454212189,-0.057515949010849,-0.3473937511444092,0.1247144490480423,-0.16948610544204712,-0.04067457467317581,0.08114912360906601,-0.0024622816126793623,0.19813373684883118,0.13282951712608337,-0.27860957384109497,0.14885833859443665,-0.2512516975402832,0.11983104795217514,-0.1503778100013733,0.14798104763031006,-0.14209012687206268,-0.22500905394554138,-0.00012162314669694752,0.11967408657073975,-0.0014607476769015193,-0.04042128100991249},{-0.3412507474422455,0.5274134874343872,0.03225262835621834,0.33163702487945557,0.22944408655166626,0.3635587692260742,0.08086098730564117,0.5522334575653076,0.241019606590271,-0.10144468396902084,0.0144703583791852,0.6319528222084045,-0.7001216411590576,-0.36898133158683777,-0.14446836709976196,0.058019109070301056,0.1767716407775879,-0.1790994256734848,0.512432336807251,-0.33032286167144775,0.13549327850341797,-0.04089779034256935,-0.2640020549297333,0.1718297302722931,0.10170039534568787,0.17674978077411652,-0.057680342346429825,0.20463956892490387,0.23829570412635803,0.5127201080322266,-0.3035573661327362,-0.21972902119159698,-0.03667168691754341,-0.024212567135691643,0.09022218734025955,0.0029333969578146935,0.2174724042415619,-0.04892326146364212,0.03200472518801689,-0.22397933900356293,0.16654296219348907,0.2272631675004959,0.27817875146865845,-0.3415330946445465,-0.1393110454082489,0.06351850926876068,-0.2361307442188263,-0.17042528092861176,0.2084907591342926,-0.17286644876003265,0.13773851096630096,0.18956951797008514,0.3486652076244354,0.47051194310188293,-0.2783132791519165,-0.2576240599155426,-0.013028793036937714,0.4489075839519501,-0.06774989515542984,-0.07897301018238068,-0.21973738074302673,-0.0472547747194767,0.15914040803909302,-0.014585684053599834},{0.39555445313453674,0.21199412643909454,-0.10981006920337677,-0.044150177389383316,-0.39912620186805725,-0.13252778351306915,-0.18551857769489288,-0.32568681240081787,0.043633200228214264,-0.15503659844398499,0.015101189725100994,0.29017511010169983,0.4664428234100342,-0.04373657703399658,0.6804212331771851,-0.03376273065805435,-0.12619046866893768,-0.13528649508953094,-0.17364820837974548,-0.10326998680830002,-0.7826218605041504,-0.4476464092731476,-0.13570526242256165,0.41038456559181213,-0.6498755812644958,0.11090949922800064,0.13543041050434113,-0.32835134863853455,-0.20897093415260315,0.08340198546648026,0.09672267735004425,-0.20502015948295593,-0.15411101281642914,0.887704610824585,0.001038063201121986,0.014059139415621758,-0.26592010259628296,0.013544727116823196,-0.2057460993528366,0.12301645427942276,-0.35983896255493164,-0.12720510363578796,-0.17847378551959991,-0.0743623897433281,0.0354791022837162,-0.23472344875335693,0.11770059168338776,-0.05327194184064865,-0.5070108771324158,0.24078619480133057,-0.1274712234735489,0.17074495553970337,0.14672918617725372,-0.33872222900390625,0.4738619029521942,-0.020591922104358673,0.5228376984596252,-0.010581794194877148,-0.12441495060920715,0.012916714884340763,0.3054492771625519,0.23999856412410736,0.5356875658035278,0.15925635397434235},{-0.08583337813615799,0.16723310947418213,0.13982272148132324,0.022769153118133545,-0.025491757318377495,-0.054870184510946274,0.15835344791412354,-0.15013623237609863,-0.0072728670202195644,0.033146169036626816,-0.042260102927684784,-0.08951357752084732,-0.12472184002399445,0.0026424049865454435,-0.021839240565896034,0.30075278878211975,-0.265796035528183,0.08172325789928436,-0.34081512689590454,-0.2883216440677643,0.18138550221920013,0.06471992284059525,-0.34199249744415283,0.17335784435272217,0.09444337338209152,-0.061398427933454514,-0.026248209178447723,0.2935790717601776,-0.29839134216308594,0.04792356491088867,0.10881214588880539,0.2609122097492218,-0.24672335386276245,0.034142106771469116,0.338194340467453,-0.23217666149139404,-0.08189773559570312,-0.39960479736328125,-0.2739345133304596,0.06613120436668396,0.2744125723838806,0.43101760745048523,0.0263376422226429,0.018726781010627747,0.10350821167230606,0.2619861662387848,0.037172429263591766,0.16931851208209991,-0.13324271142482758,-0.10319694876670837,0.12908168137073517,0.06525111198425293,-0.04011213034391403,-0.3144869804382324,0.004137520212680101,-0.22915957868099213,0.15518105030059814,0.12042474746704102,-0.020789023488759995,-0.03197617083787918,-0.04327331855893135,0.18952320516109467,0.2160373479127884,0.07727968692779541},{0.4837972819805145,-0.20169125497341156,0.20275667309761047,0.3673294484615326,0.12606173753738403,0.1327318251132965,-0.029145753011107445,0.4771776795387268,0.39178773760795593,0.2263755351305008,-0.11873473227024078,0.3174133896827698,-0.4712204337120056,-0.056456685066223145,-0.27403154969215393,0.4003448188304901,0.2592489719390869,-0.3800170421600342,0.16712318360805511,-0.27391281723976135,0.3558896481990814,0.0624205581843853,-0.28908026218414307,-0.12696382403373718,0.12150613218545914,0.4660106599330902,-0.03009917587041855,0.398896723985672,0.12181629985570908,0.22417913377285004,0.5887705087661743,-0.0994858592748642,-0.20402021706104279,-0.34693631529808044,-0.16584299504756927,-0.26840609312057495,0.16383948922157288,-0.4399905800819397,-0.310727596282959,-0.18122589588165283,0.0409054271876812,-0.5209693908691406,0.4126800000667572,0.029178224503993988,-0.29549553990364075,-0.02227853611111641,-0.7703370451927185,0.2838931381702423,0.5549495816230774,0.07317683100700378,-0.12749774754047394,0.5779669284820557,-0.3594055771827698,0.22688300907611847,-0.23735558986663818,0.033190496265888214,-0.21272926032543182,-0.14905202388763428,0.03125966712832451,-0.05826512724161148,-0.32863369584083557,-0.15551988780498505,0.049160029739141464,-0.5548373460769653},{0.23401501774787903,-0.5642637014389038,-0.6043570637702942,0.3435113728046417,0.19107984006404877,-0.3200169801712036,0.6913518309593201,-0.1284959465265274,-0.16041049361228943,0.24684616923332214,-0.9349467754364014,0.3678399920463562,-0.11756493151187897,0.14319223165512085,-0.353802353143692,0.1630757600069046,-0.25341930985450745,-0.09768439829349518,-0.3421773612499237,-0.07476644963026047,-0.06719748675823212,0.16379497945308685,0.06340495496988297,-0.22769951820373535,-0.014232887886464596,-0.10888202488422394,0.3794125020503998,-0.023588204756379128,-0.1746547371149063,0.08459882438182831,-0.031917504966259,-0.1287565976381302,-0.01177200861275196,0.24442541599273682,0.6609777808189392,-0.20779158174991608,0.2356942594051361,0.32313814759254456,-0.12346117943525314,-0.44488173723220825,0.2510119676589966,-0.05430562421679497,0.21394598484039307,0.23130512237548828,0.2937294840812683,-0.5622395277023315,-0.21631835401058197,0.6193361282348633,-0.053402129560709,-0.5370137691497803,0.019170882180333138,-0.27243006229400635,0.1862993836402893,0.5735374689102173,0.041806407272815704,0.28408727049827576,-0.36910465359687805,0.005597270559519529,0.011939232237637043,0.10854620486497879,0.03910128027200699,0.3532727062702179,-0.166194349527359,0.11790502071380615},{0.0595976747572422,0.14166571199893951,0.009581047110259533,-0.03716191649436951,-0.050018906593322754,0.16593781113624573,0.22369273006916046,-0.024671664461493492,-0.1461048722267151,-0.34725433588027954,-0.1532103419303894,-0.0998658761382103,0.022077931091189384,0.04570610448718071,-0.029607657343149185,-0.3468080163002014,0.05566547438502312,0.047028012573719025,0.3005721867084503,-0.020442605018615723,0.20549118518829346,0.3364241123199463,-0.1587100774049759,0.337331622838974,-0.10607675462961197,-0.11784510314464569,0.0661495178937912,0.04176690801978111,-0.03016684204339981,-0.2080465406179428,0.4629534184932709,0.12359463423490524,0.19231964647769928,0.13796643912792206,-0.13575834035873413,0.013565032742917538,0.09274612367153168,0.12272379547357559,-0.18713749945163727,0.06590167433023453,-0.04196303337812424,-0.058681316673755646,-0.1232895478606224,-0.008816285990178585,-0.047816239297389984,-0.024598974734544754,0.19020655751228333,0.07882921397686005,0.0602857768535614,-0.020208895206451416,-0.11683832854032516,-0.3328225016593933,-0.18564380705356598,-0.036468662321567535,0.15236330032348633,-0.12025029212236404,-0.16640302538871765,0.34619081020355225,0.08834565430879593,-0.008443743921816349,0.0056903609074652195,-0.058863114565610886,-0.3156208097934723,-0.2033981829881668},{0.33484208583831787,-0.09410379827022552,0.095159612596035,0.2079750895500183,-0.16337299346923828,0.05857890471816063,-0.1544211059808731,-0.20432725548744202,-0.10481904447078705,-0.21074755489826202,0.04728590324521065,-0.020371459424495697,0.08368639647960663,-0.14995302259922028,-0.15126386284828186,-0.32559406757354736,0.11884015798568726,0.10392381995916367,0.31079375743865967,-0.2895224690437317,-0.18164363503456116,0.09223664551973343,-0.29924625158309937,-0.1438564956188202,0.31596624851226807,-0.14303560554981232,0.14113105833530426,-0.10962928086519241,-0.0006399289122782648,-0.1687210202217102,-0.2269749790430069,-0.06939500570297241,0.011912315152585506,0.05579559504985809,-0.2051200419664383,-0.16360773146152496,0.05557308718562126,-0.013772677630186081,-0.05927922949194908,-0.006116356234997511,0.07400454580783844,0.022868003696203232,0.02138543128967285,-0.028644394129514694,-0.2481635957956314,-0.17536036670207977,-0.07516981661319733,-0.08699074387550354,-0.00825085211545229,-0.1676005870103836,-0.1094827651977539,0.18113821744918823,-0.1123456358909607,-0.17023542523384094,-0.05883748456835747,0.19690269231796265,-0.050899144262075424,0.09243590384721756,0.025976872071623802,-0.045085567981004715,0.0481547936797142,0.18641377985477448,-0.21294331550598145,-0.2006710320711136},{-0.1283748298883438,-0.03532395511865616,-0.06805689632892609,-0.17966261506080627,-0.042553942650556564,0.1037304475903511,0.11237186938524246,0.19514626264572144,-0.4536333382129669,-0.23435567319393158,0.14272381365299225,-0.028441939502954483,-0.1981569230556488,0.07834971696138382,-0.006162586621940136,0.24143536388874054,0.11605668812990189,-0.11037802696228027,-0.09333238750696182,-0.2067849338054657,-0.36534082889556885,0.19386602938175201,0.03956644609570503,-0.11896086484193802,0.10909046977758408,-0.1636485755443573,-0.28114214539527893,-0.10311559587717056,0.014513366855680943,0.13231821358203888,0.1894713193178177,-0.019092611968517303,0.03338224068284035,0.06603778898715973,-0.24642127752304077,0.13684172928333282,-0.17332009971141815,0.14836835861206055,-0.03622933849692345,-0.016639944165945053,0.18097499012947083,-0.06939837336540222,-0.038367826491594315,0.011520572006702423,0.4697377681732178,-0.06303473562002182,-0.042891938239336014,-0.18727481365203857,-0.16817228496074677,0.09232241660356522,0.009102929383516312,0.15065009891986847,-0.43228891491889954,0.070043183863163,-0.22906820476055145,0.10636576265096664,0.1894233673810959,0.15737077593803406,0.2549314498901367,0.11510957032442093,-0.16519102454185486,0.18947166204452515,0.12286452203989029,0.2818971872329712},{-0.08634527772665024,0.11956116557121277,0.305990606546402,-0.12607836723327637,0.06113544851541519,0.276327520608902,-0.15995556116104126,0.1470886915922165,0.2498432695865631,-0.24122224748134613,0.6256983280181885,0.10391649603843689,-0.018980231136083603,0.015303066931664944,0.155104860663414,0.2188781350851059,0.13553476333618164,-0.03004315309226513,0.31971144676208496,0.6192045211791992,0.2488398551940918,-0.48609355092048645,-0.01094555389136076,-0.0896645113825798,0.668509304523468,-0.2733176350593567,0.41766679286956787,-0.10698924213647842,0.051030226051807404,-0.11444120109081268,0.2896778881549835,0.046428654342889786,-0.37546029686927795,-0.08821667730808258,0.13278260827064514,0.028519177809357643,-0.6363770365715027,-0.4178304970264435,-0.20899958908557892,0.6770535111427307,-0.2592405378818512,0.009408840909600258,0.0862041562795639,0.13957767188549042,-0.19140012562274933,0.19579368829727173,-0.39595115184783936,0.13548481464385986,-0.03147260099649429,0.04936707392334938,0.03696271404623985,0.3356863260269165,-0.1260261833667755,-0.3117655813694,0.08680269867181778,-0.28185927867889404,-0.21682533621788025,0.32978540658950806,-0.01617557741701603,0.23041124641895294,-0.3512282371520996,-0.4457162022590637,0.1557340919971466,-0.3932914733886719},{-0.008043864741921425,-0.5951269268989563,0.23390470445156097,0.47753262519836426,0.2664077877998352,-0.08122775703668594,-0.11422983556985855,0.21837589144706726,-0.2598316967487335,0.10892777889966965,0.3432018756866455,-0.004044998437166214,0.2272910624742508,-0.29238051176071167,-0.07992653548717499,-0.13172265887260437,0.1953619420528412,0.39412882924079895,-0.4077359139919281,-0.07065198570489883,0.7461692690849304,-0.16870638728141785,-0.24793003499507904,-0.03243463858962059,0.088055819272995,-0.7913333177566528,0.5104096531867981,0.5321555733680725,0.24889978766441345,0.25006186962127686,-0.4557034969329834,-0.4019092321395874,-0.004221401643007994,-0.21488651633262634,-0.3495396673679352,-0.02294737659394741,0.3808813691139221,0.17198790609836578,0.6217673420906067,0.3526028096675873,-0.22104626893997192,0.042770903557538986,0.03629111126065254,-0.21635574102401733,0.33310723304748535,0.6755938529968262,0.14849252998828888,-0.44845014810562134,-0.14106200635433197,0.39750775694847107,0.09289330989122391,0.4208506941795349,-0.45738911628723145,-0.2360231876373291,-0.5568088889122009,-0.40368691086769104,-0.0342753529548645,0.39166688919067383,-0.6552718877792358,0.750151515007019,-0.047774046659469604,0.09856954962015152,-0.24032586812973022,0.6083177924156189},{0.005941016599535942,-0.009708075784146786,0.11614394932985306,0.03331507742404938,-0.008003312163054943,0.008995553478598595,-0.03413660451769829,-0.15519483387470245,0.22525978088378906,-0.0962495431303978,0.07044442743062973,0.2281402200460434,-0.15523764491081238,0.010934804566204548,-0.0017582360887899995,-0.09702128916978836,0.1549306958913803,0.0702245756983757,-0.267426460981369,-0.11980873346328735,-0.1197625994682312,-0.07103907316923141,0.23580944538116455,0.03526017814874649,0.11384880542755127,-0.42541658878326416,0.05083500221371651,0.023668071255087852,-0.022955842316150665,0.10204868763685226,0.366851806640625,0.09580083191394806,0.3375246226787567,0.10642935335636139,0.06285443902015686,-0.1289581060409546,-0.02137952670454979,-0.03930848091840744,-0.042323485016822815,-0.10553526878356934,0.0345023013651371,-0.11798657476902008,-0.01973998174071312,-0.04205199331045151,0.25562426447868347,0.2407558113336563,-0.07806558907032013,-0.20453912019729614,0.16107246279716492,-0.11730454862117767,0.5061658024787903,0.021420177072286606,0.14555421471595764,-0.1534195989370346,0.22475634515285492,-0.09563303738832474,-0.15236639976501465,-0.21331840753555298,-0.16144204139709473,-0.22403684258460999,0.11982747912406921,-0.15338557958602905,0.21458573639392853,-0.16482038795948029},{-0.08662879467010498,0.0028225427959114313,-0.4175013303756714,-0.049810733646154404,-0.46048930287361145,0.13916686177253723,-0.20911076664924622,-0.4737280607223511,-0.2554837465286255,0.34918150305747986,-0.24566650390625,0.001597883994691074,0.4721502363681793,0.0937778577208519,-0.009248519316315651,0.3702464699745178,0.14101912081241608,-0.27872607111930847,-0.1946539282798767,0.029328608885407448,-0.16725151240825653,0.2440890520811081,0.07280473411083221,-0.2632315158843994,-0.5499048233032227,0.1058875322341919,0.08310318738222122,0.03200157359242439,-0.07204020023345947,-0.13863505423069,0.08866646140813828,-0.34966331720352173,0.31577548384666443,-0.0009965121280401945,0.07636886090040207,-0.13046225905418396,0.16423699259757996,-0.20193815231323242,-0.019750060513615608,-0.10768847167491913,-0.1598511040210724,-0.07887314260005951,0.06682592630386353,-0.36843910813331604,0.06149942800402641,-0.08074037730693817,0.0676041841506958,0.26129311323165894,-0.1201205775141716,-0.32312658429145813,0.33459362387657166,-0.2156057059764862,0.06900765001773834,0.047558970749378204,-0.17418988049030304,-0.37582969665527344,0.6078178882598877,0.208313450217247,-0.4660489559173584,-0.10871861129999161,0.015333524905145168,0.6940338015556335,-0.031398966908454895,-0.2472652941942215},{0.2526323199272156,0.12032049149274826,0.281252920627594,0.023099878802895546,0.09014800935983658,0.3370106518268585,0.10325770080089569,-0.1334981918334961,0.09411356598138809,-0.0788135826587677,-0.36755701899528503,0.22915421426296234,0.19927673041820526,0.13317811489105225,0.21990160644054413,-0.021493112668395042,0.2257029414176941,0.09650819003582001,-0.11162997037172318,0.2668392062187195,0.06852548569440842,0.03279295563697815,0.016138598322868347,-0.35086819529533386,0.07370978593826294,0.013780239969491959,-0.1264461725950241,-0.06628241389989853,0.05971818044781685,-0.20883899927139282,0.0785701796412468,0.09548034518957138,-0.02208447828888893,-0.15952470898628235,-0.11556150019168854,-0.2810384929180145,-0.09125751256942749,0.1850324124097824,0.17615826427936554,-0.07312995195388794,0.24402596056461334,-0.10362271219491959,-0.07867375016212463,-0.00985689926892519,0.3462282717227936,0.21871165931224823,0.06416399031877518,-0.02816173806786537,0.08701995760202408,0.10617382824420929,0.10149729996919632,-0.09092076867818832,0.10517336428165436,0.420272558927536,0.39625874161720276,-0.18911083042621613,-0.2388627827167511,0.18991439044475555,0.306275874376297,-0.08480384200811386,0.025805380195379257,-0.1296214610338211,-0.07934799045324326,-0.013346421532332897},{0.208285853266716,0.11864013969898224,-0.02949145995080471,-0.2710611820220947,0.5038334727287292,0.08902925252914429,0.3626428544521332,0.16202904284000397,0.20218484103679657,0.18135935068130493,0.23244830965995789,-0.21748575568199158,0.28977200388908386,-0.277393639087677,-0.19897210597991943,0.3074962794780731,0.3526538610458374,-0.14313864707946777,-0.22092188894748688,-0.18708482384681702,-0.09356383979320526,-0.09401357173919678,-0.23852822184562683,0.06443234533071518,0.12172680348157883,-0.16445474326610565,0.0783904492855072,0.1059345081448555,-0.018873153254389763,0.00480918912217021,-0.24335600435733795,-0.19513921439647675,0.13207653164863586,0.06362371146678925,-0.4349455237388611,-0.10001929104328156,-0.10745017230510712,-0.16400928795337677,0.11663330346345901,-0.012819705531001091,-0.09823211282491684,0.2044483870267868,-0.07570599764585495,0.07558132708072662,-0.12593118846416473,-0.0712689459323883,0.1631140112876892,-0.06687033921480179,0.033073339611291885,-0.0364609993994236,0.07888954132795334,0.09772931784391403,0.16081179678440094,-0.40825390815734863,0.2724193036556244,-0.13611721992492676,0.18180453777313232,-0.08341046422719955,0.19296325743198395,0.07221297174692154,0.03380858153104782,0.15575246512889862,-0.22819764912128448,0.06912828236818314},{-0.5149794816970825,0.1953447312116623,0.4919840097427368,-0.48313000798225403,0.055012691766023636,0.43113651871681213,-0.3613862991333008,0.2575981616973877,0.08224990963935852,-0.030283397063612938,0.20545783638954163,-0.245015949010849,-0.29355597496032715,-0.36639007925987244,0.7099316120147705,0.14981339871883392,-0.05128638073801994,-0.055008504539728165,0.4904234707355499,0.14839141070842743,0.23678207397460938,-0.2296072095632553,-0.03503037244081497,0.0891771987080574,-0.09629251807928085,0.0015799320535734296,-0.10635918378829956,-0.2393125742673874,0.054593078792095184,-0.5844119787216187,-0.22370028495788574,0.019511478021740913,0.2787390947341919,0.1318977028131485,-0.37807127833366394,-0.03841760754585266,-0.16915294528007507,-0.0941912829875946,0.5611955523490906,0.23342038691043854,-0.00942866038531065,0.05602167174220085,-0.35206684470176697,-0.2985955476760864,0.09275181591510773,0.3012635111808777,-0.14103469252586365,-0.367529034614563,-0.21909673511981964,0.47144371271133423,0.065017931163311,0.35166916251182556,-0.5240623354911804,-0.7404660582542419,0.08080831170082092,0.012371048331260681,0.017783379182219505,-0.08917641639709473,-0.05816191807389259,-0.15822891891002655,-0.1407691240310669,-0.12621857225894928,0.4113701581954956,-0.22135907411575317},{-0.42673200368881226,-0.17289230227470398,0.5228903293609619,-0.1099809855222702,-0.13493235409259796,-0.6515368223190308,0.1543910950422287,-0.056196682155132294,-0.23158025741577148,0.13473695516586304,-0.6638150811195374,-0.36073797941207886,-0.36822614073753357,0.2256786823272705,-0.15241730213165283,-0.13100206851959229,-0.7493568062782288,0.15473966300487518,-0.046058326959609985,-0.09922006726264954,-0.2983306646347046,0.015144120901823044,0.3796350955963135,-0.16193749010562897,0.05171611160039902,0.10118835419416428,0.2584987282752991,-0.38464683294296265,0.05711688473820686,-0.1472887098789215,-0.08182908594608307,-0.1577271819114685,0.14508584141731262,0.05227841064333916,-0.7402543425559998,0.09890985488891602,0.048670969903469086,0.12460675090551376,0.5375080704689026,-0.2398112565279007,0.25090813636779785,0.1663547158241272,-0.45725005865097046,-0.13590601086616516,-0.32096534967422485,0.2800939977169037,0.6467133164405823,0.1522735059261322,0.09747064858675003,-0.45639026165008545,0.11839516460895538,-0.1446719914674759,-0.20713481307029724,-0.18885542452335358,0.20281386375427246,0.06758425384759903,-0.1584469974040985,-0.002431649249047041,0.7357081174850464,-0.5260196328163147,0.08962113410234451,-0.36711597442626953,0.21886377036571503,0.07331042736768723},{-0.047656770795583725,0.33779653906822205,-0.047705572098493576,0.17673899233341217,0.32373616099357605,0.15337485074996948,-0.3571672737598419,0.44602105021476746,0.1951068490743637,-0.17172205448150635,0.29599058628082275,-0.08550243824720383,-0.0034979667980223894,-0.3335387110710144,0.158992201089859,0.5372743606567383,-0.05991046503186226,-0.03517978638410568,0.6520919799804688,-0.7152408957481384,-0.05448669195175171,-0.5045176148414612,0.12055263668298721,-0.3804531693458557,0.38949912786483765,-0.08925313502550125,0.1708499789237976,0.3036360442638397,-0.10592620819807053,0.4289136230945587,0.01009641494601965,0.09178371727466583,-0.14314624667167664,0.5315467715263367,-0.020285211503505707,0.7674703001976013,0.15696540474891663,0.11762326210737228,-0.12481148540973663,-0.15253160893917084,0.09226229786872864,0.22802960872650146,-0.15108489990234375,0.0188166294246912,-0.020580047741532326,-0.26081353425979614,-0.2574545443058014,0.040563277900218964,0.16669735312461853,0.25287020206451416,-0.06143555790185928,-0.5503199100494385,0.13600102066993713,-0.26907113194465637,0.2806239426136017,0.33305051922798157,0.21533478796482086,0.46506166458129883,0.6645334362983704,-0.10183067619800568,0.15823332965373993,-0.15904851257801056,0.4519696533679962,-0.3871987462043762},{-0.03526175394654274,0.26657626032829285,-0.0908970758318901,0.08182354271411896,0.14711922407150269,0.12194304913282394,-0.10277202725410461,-0.29246166348457336,0.016063956543803215,-0.09623577445745468,-0.024026725441217422,-0.056592416018247604,-0.16546712815761566,0.0740247368812561,-0.19910618662834167,0.009895382449030876,-0.059254154562950134,-0.3698214888572693,0.1439877152442932,-0.17233894765377045,0.31846171617507935,0.03285549581050873,0.0002549916389398277,-0.1717410385608673,0.02474135160446167,-0.37953904271125793,-0.09392248094081879,-0.11598909646272659,-0.15886959433555603,-0.22265119850635529,0.03796382620930672,-0.1379372626543045,0.44680196046829224,-0.09008429944515228,0.12998031079769135,0.10278680175542831,0.021232783794403076,0.014623104594647884,-0.11170247942209244,0.39492297172546387,0.053719084709882736,0.07374027371406555,0.34063616394996643,-0.04582186043262482,-0.0901876837015152,-0.008332355879247189,0.2063983976840973,0.16212964057922363,0.020572364330291748,0.07175036519765854,-0.2582605481147766,0.07315006852149963,0.1337384283542633,0.07668625563383102,-0.15414965152740479,-0.08336608111858368,-0.16620641946792603,-0.2074771523475647,-0.023703018203377724,-0.2860901355743408,0.2564209997653961,0.09495075047016144,0.07566376775503159,0.07442674785852432},{-0.19469322264194489,-0.004023016896098852,-0.25925931334495544,0.13771051168441772,-0.27288201451301575,0.11580447852611542,-0.37631601095199585,-0.39496910572052,-0.09083893150091171,-0.3073808252811432,-0.43683186173439026,-0.20986339449882507,0.1354437917470932,0.04121873155236244,0.1057567223906517,-0.024688927456736565,0.10415820777416229,-0.3551332652568817,-0.32886213064193726,0.19412484765052795,-0.7467823624610901,-0.38806289434432983,-0.05773109570145607,0.057799626141786575,-0.1343293935060501,-0.23378874361515045,0.25143665075302124,0.06901394575834274,0.40052807331085205,-0.17096363008022308,-0.18017390370368958,0.22286012768745422,0.21459607779979706,0.0004740036965813488,-0.24879305064678192,-0.11912205815315247,0.008234785869717598,0.11482672393321991,0.27175039052963257,0.31757885217666626,-0.2481146901845932,0.29939448833465576,-0.4645613133907318,-0.003496812656521797,-0.215437650680542,0.16868144273757935,0.30011361837387085,-0.09183035045862198,-0.44250521063804626,0.08258859068155289,0.14699722826480865,0.15946586430072784,-0.16832998394966125,-0.6340866088867188,0.16919107735157013,0.06272763758897781,0.365960955619812,-0.15957558155059814,-0.39932551980018616,0.3496437072753906,0.26682817935943604,-0.24083703756332397,0.27778148651123047,0.7477719187736511},{0.09722881764173508,0.028627470135688782,0.06451250612735748,-0.2645060122013092,0.2320067584514618,0.010858186520636082,0.2038193643093109,-0.07120446860790253,-0.15584968030452728,0.17278596758842468,0.14325332641601562,0.021001534536480904,-0.29986372590065,0.1373574286699295,-0.015933001413941383,-0.03691592067480087,0.13623647391796112,0.2508978545665741,0.1077188104391098,0.023194707930088043,-0.16449104249477386,-0.118768610060215,0.0248930212110281,-0.26447629928588867,-0.27509304881095886,0.29226210713386536,0.3230302035808563,0.20823271572589874,-0.048370007425546646,-0.21773819625377655,0.018399251624941826,-0.24922919273376465,0.06181402504444122,-0.07157102972269058,-0.05156451836228371,-0.034306880086660385,0.10819170624017715,0.3213801681995392,-0.06961607933044434,0.18314670026302338,-0.08896537125110626,0.11955411732196808,-0.14322343468666077,0.30463212728500366,0.13798581063747406,0.11862627416849136,0.0047275349497795105,-0.3532062768936157,0.22801120579242706,-0.10997491329908371,-0.11435920745134354,-0.07333589345216751,-0.012929624877870083,0.050695523619651794,0.19686594605445862,-0.26691746711730957,-0.11581776291131973,-0.04422091320157051,-0.24685823917388916,0.056492362171411514,0.2439718246459961,0.043263990432024,-0.04310474172234535,-0.23022747039794922},{-0.20826123654842377,0.0841972604393959,-0.31220996379852295,0.5363543033599854,0.07349266856908798,0.18778356909751892,-0.11515934020280838,0.2530505359172821,0.11721257865428925,-0.048246972262859344,-0.06043868884444237,0.0027450833003968,-0.306948184967041,0.24622952938079834,0.007132945116609335,-0.11331477016210556,0.32044005393981934,-0.21765093505382538,0.25027820467948914,-0.08166598528623581,0.20931388437747955,0.5788241624832153,-0.07833921909332275,0.06882797181606293,0.06816408038139343,0.3098529875278473,0.263553261756897,0.16746941208839417,0.05980855971574783,-0.21173647046089172,0.09924361854791641,-0.18966859579086304,-0.2501334846019745,0.0410473458468914,-0.4345594644546509,0.09912887215614319,0.054893530905246735,-0.14578913152217865,0.016787787899374962,-0.11137611418962479,0.312847763299942,0.030503882095217705,0.4941657781600952,0.1167331412434578,-0.2071501612663269,0.204513281583786,-0.023153655230998993,-0.11633758246898651,0.2318880558013916,-0.09703060239553452,0.29829350113868713,0.37889301776885986,-0.17472566664218903,-0.24676339328289032,-0.13547255098819733,0.11947192251682281,-0.06248669698834419,-0.15425825119018555,0.08005157113075256,0.07382906973361969,-0.40085506439208984,0.20499670505523682,0.6666867733001709,0.1221572682261467},{-0.05781017243862152,-0.1708143651485443,-0.24932515621185303,-0.01204410195350647,-0.16432464122772217,-0.2861482799053192,0.3333936333656311,-0.2524491548538208,-0.17614850401878357,-0.38268351554870605,-0.15324482321739197,-0.4348710775375366,-0.012913662008941174,-0.2532753050327301,-0.14235271513462067,0.35543811321258545,-0.05915093049407005,0.1557779312133789,-0.5563381910324097,0.00466573890298605,-0.334057480096817,-0.04063130542635918,0.2549687623977661,0.04242659732699394,-0.26462072134017944,-0.6162928342819214,0.25558820366859436,-0.15025338530540466,0.07480372488498688,0.192531555891037,-0.2243836671113968,0.13961824774742126,-0.34942710399627686,0.12049456685781479,0.07370313256978989,-0.1322799026966095,0.27197781205177307,0.47358450293540955,0.14854992926120758,0.20726093649864197,-0.10425833612680435,-0.0026065765414386988,-0.32891592383384705,0.2645026445388794,-0.403779536485672,0.007675389293581247,0.2505156099796295,0.22422124445438385,-0.15949808061122894,0.1245332807302475,-0.31832173466682434,0.1346580982208252,-0.02119116671383381,0.10485906898975372,0.0989767387509346,-0.36378803849220276,-0.18841469287872314,-0.18342138826847076,0.24251124262809753,0.007355020847171545,-0.16982042789459229,-0.08521601557731628,0.25503385066986084,-0.3475731611251831},{-0.3210751712322235,-0.24778559803962708,0.05976847559213638,-0.3697337508201599,-0.2953060269355774,0.0989878922700882,-0.3337700366973877,0.18986214697360992,0.050784170627593994,0.07674401998519897,-0.07407211512327194,0.045335765928030014,0.3847850263118744,0.38610705733299255,0.08312027901411057,-0.11342296004295349,-0.10890151560306549,0.09593167155981064,0.10556120425462723,0.38425731658935547,0.19879937171936035,-0.06610185652971268,-0.5514240860939026,0.2694111466407776,-0.0730423778295517,-0.16761881113052368,-0.24519218504428864,0.05099425092339516,-0.11124686151742935,-0.5017064213752747,-0.0780438780784607,-0.49266520142555237,0.16219313442707062,-0.5549837350845337,-0.14045286178588867,-0.2475353628396988,-0.40590715408325195,-0.39068466424942017,0.11085577309131622,0.43553677201271057,0.2099357694387436,-0.08367215842008591,-0.1895609050989151,0.2313469797372818,0.13245368003845215,0.30305102467536926,-0.06577671319246292,-0.18282152712345123,0.12841945886611938,0.13830238580703735,-0.19283320009708405,0.14525823295116425,-0.2958061397075653,-0.5859108567237854,-0.05629400536417961,-0.2476261705160141,0.1838548332452774,0.14968523383140564,-0.43868690729141235,-0.07446686923503876,0.21142414212226868,-0.5441697239875793,0.07004152238368988,-0.1538080871105194},{-0.13308502733707428,0.030230872333049774,-0.050376273691654205,0.02565564587712288,-0.03889721632003784,-0.09998966753482819,0.07514092326164246,0.2416241466999054,-0.1551750749349594,0.15512630343437195,-0.13339634239673615,0.31115981936454773,-0.001396620413288474,-0.24821139872074127,0.1601654291152954,-0.1984678953886032,0.22041380405426025,0.20462822914123535,-0.16579359769821167,0.04466208443045616,0.014771213755011559,0.30991294980049133,0.13404907286167145,-0.049626193940639496,0.1488019973039627,-0.10029558092355728,-0.13291165232658386,-0.18149806559085846,-0.029744377359747887,0.13417337834835052,-0.06446441262960434,-0.06925445795059204,0.17963655292987823,0.14750874042510986,-0.025530647486448288,0.1607264131307602,0.0008575182291679084,-0.3919544517993927,0.14872832596302032,0.04848567023873329,0.029202403500676155,-0.22128750383853912,-0.16106894612312317,0.3182849884033203,-0.11923620849847794,-0.04963443800806999,0.20634068548679352,0.18217511475086212,0.2304011434316635,0.1702384054660797,0.1801655888557434,-0.0090004438534379,-0.031666580587625504,-0.11212648451328278,0.05845515802502632,-0.057723525911569595,-0.1006939485669136,0.037678711116313934,0.05684293061494827,0.34722575545310974,0.2661954462528229,0.11593396961688995,0.21855272352695465,-0.1646585464477539},{-0.11696095764636993,-0.3064109981060028,-0.29740989208221436,-0.046575240790843964,-0.22985520958900452,0.320157915353775,-0.3437236249446869,-0.23443621397018433,0.033121515065431595,0.06325729936361313,0.25038981437683105,0.8919867277145386,0.03128839656710625,0.22699730098247528,-0.052105873823165894,-0.10451532900333405,0.7584785223007202,-0.5484603047370911,-0.21165738999843597,0.001287659048102796,-0.06601347029209137,-0.37840479612350464,-0.2317311316728592,0.471274733543396,-0.4051049053668976,0.5089935660362244,-0.27973702549934387,-0.12123703956604004,0.36451801657676697,-0.42465052008628845,-0.09263402968645096,-0.004997285082936287,-0.07281342893838882,0.24738402664661407,0.08088845759630203,0.046723946928977966,-0.38819271326065063,-0.4751969575881958,-0.3821229040622711,0.943188488483429,-0.6342225670814514,0.2369561344385147,0.031211011111736298,0.4222077429294586,0.3399185240268707,0.0237277802079916,-0.11159002780914307,0.2268771231174469,-0.2355266511440277,-0.2881543040275574,0.013789582997560501,0.3451424837112427,-0.17111088335514069,-0.8014880418777466,0.278980553150177,0.16707655787467957,-0.23166029155254364,-0.015536629594862461,0.23802047967910767,0.30449536442756653,0.1235063448548317,0.07637456059455872,0.12034029513597488,0.002283063717186451},{0.09839775413274765,0.2570500671863556,-0.30585670471191406,-0.18789389729499817,-0.21489711105823517,0.38050466775894165,-0.18172064423561096,-0.09493520110845566,-0.3064368963241577,0.49943315982818604,0.19044506549835205,-0.07973740994930267,0.3460783362388611,-0.08518301695585251,0.5362114906311035,0.18718589842319489,0.02166837640106678,0.5187633633613586,0.43463894724845886,0.10965104401111603,0.045990340411663055,-0.43497902154922485,-0.18299627304077148,0.1731857806444168,0.6300906538963318,0.07207045704126358,-0.2668514549732208,-0.1609031707048416,0.01253798883408308,0.025520097464323044,-0.20228084921836853,0.014226419851183891,0.2880345582962036,-0.14919529855251312,-0.1825779229402542,0.053973693400621414,-0.030382608994841576,-0.018049873411655426,-0.43337422609329224,0.5452294945716858,-0.15145044028759003,-0.09398394078016281,0.04481871426105499,-0.100742407143116,0.341683566570282,0.0984441414475441,-0.23253925144672394,-0.03708580508828163,-0.6826955676078796,0.5132359266281128,0.15788625180721283,-0.38964682817459106,0.2204408347606659,-0.13340337574481964,0.2090541124343872,0.05502045154571533,0.2988416850566864,0.0755854919552803,0.2168399840593338,-0.37212008237838745,0.49455389380455017,0.10418612509965897,0.10108346492052078,-0.4323343336582184}};
