
#include "nn_compute.h"

// #define g 9.81
// #define mass 0.033
// #define kf 3.16e-10
// #define hoverRPM sqrtf((g * mass) / (4 * kf))
#define hoverRPM 16003.60f

static const int structure[3][2] = {{64, 12},{64, 64},{4, 64}};
static float output_0[64];
static float output_1[64];
static float output_2[4];
static const float mlp_extractor_policy_net_0_weight[64][12] = {{0.24077169597148895, 1.1027344465255737, 0.04107734560966492, -0.6147522330284119, 0.05788379907608032, -0.4394319951534271, 0.33433598279953003, 0.4180246591567993, 0.14429636299610138, -0.06933470070362091, 0.11347593367099762, 0.0358370803296566},{-0.15524905920028687, 0.06029004603624344, -0.1915310025215149, 0.4277332127094269, -0.8225755095481873, 0.06100929528474808, -0.8879199624061584, -0.10140504688024521, -0.28267496824264526, 0.20290504395961761, -0.03365567699074745, -0.17817971110343933},{0.7183930277824402, -0.44023194909095764, 0.09296929091215134, 0.941718339920044, 0.3681122958660126, 0.02596324123442173, 0.6336864233016968, -0.5753421783447266, 0.21753086149692535, 0.19615572690963745, 0.20599085092544556, -0.20501475036144257},{-0.36750248074531555, 0.2853461503982544, 0.17209142446517944, -0.015714168548583984, -0.6665551066398621, -0.07504665851593018, -1.078441858291626, 0.3645319938659668, 0.21234314143657684, 0.2815009653568268, -0.23271416127681732, 0.15620900690555573},{0.03868420422077179, 0.8183841705322266, -0.13936619460582733, -0.9291519522666931, -0.17837725579738617, -0.3079319894313812, -0.22816766798496246, 0.9503083825111389, 0.10610406845808029, -0.2697937786579132, -0.17472487688064575, -0.29642337560653687},{-0.01403474248945713, -0.17026670277118683, 0.14766928553581238, 1.0360597372055054, -0.33566561341285706, -0.36557823419570923, -0.6484389305114746, -0.6113439202308655, 0.1819148063659668, -0.00835779681801796, -0.12907195091247559, -0.5562797784805298},{-0.7596455812454224, -0.6862829327583313, 0.12287165969610214, 0.27078378200531006, -1.0683238506317139, -0.4676722586154938, -1.2022182941436768, -0.1810147911310196, -0.19825850427150726, 0.001164891174994409, -0.49355295300483704, -0.08633928745985031},{0.32938486337661743, 0.5374017357826233, -0.17644916474819183, -0.1903291940689087, -0.6996336579322815, -0.15322266519069672, -0.36587968468666077, -0.09397079050540924, -0.26877138018608093, 0.15206697583198547, -0.022119080647826195, -0.35758888721466064},{-0.26478898525238037, 0.4416550397872925, -0.36448734998703003, -0.1283559501171112, -0.36380472779273987, 0.0676966980099678, -0.7723550200462341, -0.21850083768367767, -0.47845250368118286, 0.10057911276817322, -0.1501045823097229, 0.037523053586483},{0.0741971954703331, -0.4557384252548218, 0.02892395481467247, 0.6313153505325317, -0.3813219964504242, -0.04873351752758026, -0.535286009311676, -0.7259036302566528, -0.0740952119231224, 0.23762738704681396, 0.02129560336470604, -0.49465468525886536},{0.017884451895952225, -0.44200026988983154, 0.33566418290138245, 0.5035873651504517, 0.31557026505470276, 0.3378766179084778, 0.22038684785366058, -0.8090519905090332, -0.26674884557724, 0.14713235199451447, -0.24692019820213318, 0.014651182107627392},{-0.6499167084693909, -0.6078270077705383, 0.005528533831238747, 0.502652645111084, -0.05160566419363022, 0.05779353529214859, -0.130884051322937, -0.2030181735754013, -0.03437346592545509, 0.17052266001701355, -0.5331615805625916, 0.32478979229927063},{-0.775237500667572, -0.23469553887844086, 0.18332678079605103, -0.007891633547842503, -0.27570998668670654, 0.5333078503608704, -0.24673855304718018, -0.010237762704491615, -0.4867364168167114, 0.014815470203757286, -0.17498843371868134, 0.32264330983161926},{-0.04801555350422859, 0.31155556440353394, -0.40252968668937683, -0.37672752141952515, -0.8283588886260986, -0.4486105740070343, -0.7171834111213684, 0.33340391516685486, 0.5206543803215027, -0.19213660061359406, 0.0384620763361454, -0.31018567085266113},{0.6911505460739136, -0.14427083730697632, -0.20954333245754242, 0.8459947109222412, 0.2840494215488434, 0.16929732263088226, 0.6856358647346497, -0.37066611647605896, 0.01287482026964426, 0.4685154855251312, 0.1589580923318863, 0.029971985146403313},{-0.6843603253364563, -0.6229521632194519, 0.2777043581008911, 0.3923264145851135, -0.3011853098869324, 0.40600648522377014, -0.6319493651390076, -0.567628026008606, 0.10949859768152237, 0.20281945168972015, -0.31574177742004395, -0.012724624946713448},{0.838337779045105, 0.6571856737136841, 0.13398505747318268, -0.43439781665802, 0.49660035967826843, -0.026618558913469315, 1.0250098705291748, 0.313240647315979, -0.23021282255649567, -0.5438429713249207, 0.5795551538467407, -0.1362229287624359},{-0.20459693670272827, -0.4122955799102783, -0.12533994019031525, 0.2691422402858734, -1.1459572315216064, -0.3081783950328827, -0.9919341206550598, -0.30516883730888367, -0.05667557567358017, 0.040323562920093536, -0.2549130320549011, -0.03642819821834564},{1.2172539234161377, 0.16080088913440704, -0.05604647845029831, 0.055912084877491, 0.10887284576892853, -0.4162285327911377, 0.5633075833320618, 0.06625038385391235, -0.021996216848492622, -0.2849111557006836, 0.08942382037639618, -0.6059687733650208},{0.6830849647521973, -0.14723962545394897, 0.026282845064997673, 0.307869553565979, 0.8110150098800659, 0.3596770167350769, 1.1133631467819214, -0.19213703274726868, 0.07163217663764954, 0.13551953434944153, 0.4452051818370819, 0.17433252930641174},{0.10625043511390686, -0.6903003454208374, -0.06901052594184875, 1.3257774114608765, -0.12259168177843094, 0.0217274259775877, -0.06361319869756699, -0.7859461307525635, 0.44163262844085693, 0.28441041707992554, -0.18673202395439148, -0.4141533374786377},{0.629586398601532, 0.578389585018158, 0.04874827340245247, -0.17510896921157837, -0.11967301368713379, -0.2588360607624054, 0.24223464727401733, -0.09288276731967926, -0.10628347843885422, -0.2049342840909958, 0.42556068301200867, -0.0702921599149704},{0.3217128813266754, 0.017322294414043427, 0.09535830467939377, -0.08548638224601746, -0.12701913714408875, -0.02457273378968239, 0.15104791522026062, 0.14640994369983673, 0.4296659529209137, -0.1751265674829483, -0.09913423657417297, -0.6437454223632812},{-0.20466966927051544, 0.47467783093452454, -0.17914476990699768, 0.019032487645745277, -0.9694293141365051, -0.024709312245249748, -0.48845332860946655, 0.14337694644927979, -0.07194571942090988, 0.054079167544841766, 0.08953281491994858, 0.08226217329502106},{-0.3317534029483795, -0.1673315018415451, 0.07937733083963394, -0.4974517226219177, -0.5758625268936157, 0.3691537380218506, -0.9142570495605469, -0.09147699177265167, -0.2900807857513428, -0.33027055859565735, -0.26046276092529297, 0.28875860571861267},{-0.7653526663780212, 0.41717085242271423, 0.13618095219135284, -0.48927605152130127, -0.765178382396698, 0.06968915462493896, -0.657078742980957, 0.8066848516464233, 0.06556861102581024, -0.039744336158037186, -0.39973270893096924, -0.06757421046495438},{-0.11961966007947922, 0.3434920310974121, 0.0010760714067146182, -1.66568922996521, -0.24620060622692108, -0.21420174837112427, 0.2722332179546356, 0.7314732074737549, -0.0007239995757117867, -0.10008135437965393, -0.07162083685398102, 0.25981634855270386},{1.04220712184906, 0.6058502793312073, 0.004172515124082565, -0.1506175398826599, 0.2968094050884247, -0.13798321783542633, 0.5063145756721497, 0.39414557814598083, -0.043755367398262024, 0.0569024495780468, 0.04641202092170715, 0.15993517637252808},{-0.1292194128036499, 0.4955281615257263, 0.06587136536836624, -0.7904431223869324, -0.8063029646873474, -0.17575612664222717, -0.4191494584083557, 0.5779448747634888, -0.24185718595981598, -0.1973022222518921, -0.030303912237286568, -0.25300660729408264},{-1.1792173385620117, 0.23706381022930145, 0.11528366059064865, 0.20091649889945984, -0.6431308388710022, 0.15580540895462036, -0.9067581295967102, 0.11795336753129959, 0.09209825098514557, -0.06392370909452438, -0.4569140672683716, 0.06451423466205597},{-0.8880939483642578, -0.28144165873527527, 0.018041035160422325, -0.22250664234161377, -0.48881468176841736, 0.038075488060712814, -0.9361761808395386, 0.3953191936016083, -0.07250325381755829, -0.00665020989254117, -0.4335874915122986, 0.032322563230991364},{-0.6320646405220032, -0.027152199298143387, -0.038399651646614075, 0.3205834925174713, -0.9855126738548279, -0.3704061806201935, -0.8466717004776001, -0.049401797354221344, -0.37004056572914124, 0.13797052204608917, 0.06541699171066284, -0.3296913206577301},{0.3707166910171509, 0.1831076741218567, 0.30068352818489075, 1.3048248291015625, -0.4102174639701843, -0.05971330404281616, -0.40691351890563965, -0.5841227173805237, -0.20200832188129425, 0.6763617992401123, -0.1302630603313446, -0.2392723262310028},{-0.8218348622322083, -0.09803224354982376, 0.16410671174526215, -0.6505799293518066, -0.08135580271482468, 0.11384884268045425, -0.11564172059297562, 0.3157983422279358, -0.24483923614025116, -0.5089523792266846, -0.2664124071598053, 0.49443167448043823},{-0.4744050204753876, -0.39600127935409546, -0.05417702719569206, 0.20222994685173035, -0.3720207214355469, 0.13440684974193573, -0.0999641939997673, -0.28716611862182617, 0.3322468400001526, -0.07251706719398499, -0.2168593555688858, -0.26843103766441345},{-0.6666604280471802, -0.5872983932495117, 0.001160708605311811, 0.039075493812561035, 0.3001551926136017, 0.4127822816371918, 0.2914709150791168, -0.5273754000663757, -0.2454078197479248, 0.18489259481430054, 0.07642043381929398, 0.7692652344703674},{1.2821216583251953, -0.11945071816444397, -0.059618029743433, 0.787913978099823, 0.8267992734909058, -0.2323690801858902, 0.692272961139679, -0.10762740671634674, -0.10691127181053162, 0.03181189298629761, 0.4738728404045105, -0.40735146403312683},{-0.25872543454170227, 0.2958328127861023, -0.08426295220851898, -0.4391689598560333, -0.12453586608171463, 0.15907831490039825, -0.43564239144325256, 0.5032070279121399, -0.22130171954631805, -0.022532256320118904, -0.22081521153450012, 0.5514377355575562},{0.3850491940975189, -0.02109372988343239, -0.022017618641257286, 0.23593664169311523, -0.23774394392967224, 0.34782254695892334, -0.4117358922958374, -0.2336621731519699, -0.43828731775283813, 0.24167361855506897, 0.12426872551441193, 0.0701674222946167},{-0.12269052863121033, -0.06824852526187897, -0.04594007506966591, 0.21506039798259735, -0.04866456612944603, 0.2205270528793335, 0.05629759654402733, 0.0715668573975563, 0.6802593469619751, -0.14126454293727875, -0.030680393800139427, -0.10508108139038086},{-0.011736925691366196, 0.7683876156806946, 0.23725351691246033, -0.8937782645225525, 0.01984778791666031, -0.29903507232666016, 0.22152723371982574, 0.966401219367981, -0.1358962506055832, -0.3583502173423767, -0.17933295667171478, -0.3267143964767456},{-0.5991135239601135, -0.4352317750453949, -0.057298362255096436, 0.9774213433265686, -0.0728217214345932, 0.05588875710964203, -0.48926210403442383, -0.8045541048049927, -0.06438247859477997, 0.08965595811605453, -0.27820608019828796, -0.07368326932191849},{-0.45515841245651245, -0.07104938477277756, 0.014321518130600452, -0.017743078991770744, -0.7613976001739502, 0.08693665266036987, -1.5354245901107788, -0.12508302927017212, 0.011151202023029327, 0.026852114126086235, -0.37466612458229065, -0.3932761251926422},{-0.1529809981584549, 0.018333585932850838, -0.5466095209121704, 0.013435984961688519, -0.7701135873794556, 0.012617528438568115, -1.1190706491470337, -0.03359964117407799, 0.1827869713306427, 0.06773291528224945, -0.004060183651745319, -0.15836547315120697},{-1.0039139986038208, -0.21525712311267853, -0.097427599132061, 0.2139643430709839, -0.7690783143043518, -0.12083327025175095, -1.3318898677825928, -0.04849095270037651, 0.29093801975250244, 0.02385062538087368, -0.2740710377693176, -0.26971304416656494},{-0.11614503711462021, 0.033846210688352585, -0.01993488147854805, -0.02150527760386467, -0.15619689226150513, 0.322678804397583, -0.3877227008342743, -0.3796091675758362, -0.5004759430885315, 0.23987850546836853, -0.0018324756529182196, -0.01958894170820713},{0.6364073753356934, -0.19651952385902405, 0.12399999797344208, 0.8368229866027832, 0.03387536108493805, 0.004358349833637476, 0.41484567523002625, -0.5112115740776062, 0.07293917238712311, 0.07611718028783798, 0.02980443835258484, -0.7087162137031555},{0.027544843032956123, 0.027941135689616203, -0.14872702956199646, 0.659848153591156, -0.021631628274917603, -0.10990186035633087, -0.0903131291270256, -0.5310298800468445, 0.09781108051538467, 0.5952626466751099, -0.067334845662117, 0.0703136995434761},{0.860676646232605, 0.6389288902282715, -0.03843230381608009, -0.380635529756546, 0.2037355601787567, 0.06324151158332825, 0.2096966803073883, 0.6326956748962402, -0.28345397114753723, -0.0015807626768946648, 0.23262526094913483, -0.05711423605680466},{-0.3329988420009613, -0.06360738724470139, 0.07455364614725113, -0.6357336044311523, -0.15840181708335876, 0.010647516697645187, -0.4006049335002899, 0.4161199629306793, 0.38874396681785583, -0.52249675989151, -0.14479635655879974, -0.3855504095554352},{0.009875127114355564, -0.63348388671875, -0.16417628526687622, 1.3791991472244263, -0.2783491909503937, 0.2387697398662567, 0.1121021956205368, -0.7436181306838989, 0.28301942348480225, 0.2987479567527771, 0.033684127032756805, -0.03276776149868965},{-0.49958938360214233, 0.10655450820922852, -0.23984509706497192, -0.6500675082206726, -0.8354580998420715, 0.04698002710938454, -0.6189944744110107, 0.6077966690063477, -0.06018984317779541, -0.012349625118076801, -0.23133514821529388, 0.20625483989715576},{0.12704689800739288, -0.23647624254226685, 0.2878263592720032, 0.8650983572006226, 0.03090376779437065, 0.30994558334350586, -0.08229686319828033, -0.5692935585975647, 0.07503010332584381, 0.8028618097305298, 0.008972462266683578, -0.1653410643339157},{-0.07462093234062195, 0.7347328066825867, 0.012358554638922215, -1.1973108053207397, 0.30349111557006836, 0.13165435194969177, 0.1563412994146347, 1.0380668640136719, -0.08903041481971741, -0.186174213886261, 0.097423255443573, 0.2536342442035675},{0.4873243570327759, 0.5748459696769714, 0.06198104843497276, -0.2783293128013611, 0.2919768691062927, 0.0630996897816658, 0.3994995951652527, 0.30566251277923584, 0.2893635332584381, -0.22546063363552094, -0.21139411628246307, -0.620151698589325},{-0.5828863382339478, -0.015146525576710701, 0.07400055974721909, -0.5805606842041016, -0.4436589479446411, 0.1423971801996231, -0.17207007110118866, 0.14453954994678497, 0.3120172321796417, -0.30057716369628906, -0.17470423877239227, 0.20437997579574585},{0.023048337548971176, 0.5324451327323914, 0.01076221838593483, -0.9061263799667358, 0.06659829616546631, -0.09946440160274506, 0.03599104285240173, 1.2488757371902466, -0.05088918283581734, -0.3085109293460846, 0.11787240207195282, -0.20965415239334106},{-0.3682246506214142, -0.19577673077583313, 0.11850544065237045, 0.01648886501789093, 0.3946114480495453, 0.2962530553340912, 0.45577502250671387, 0.1565721482038498, 0.5960922241210938, 0.16795802116394043, 0.2315915822982788, 0.7808797359466553},{0.552617073059082, 0.04190193861722946, 0.03394646942615509, 0.6341596245765686, 0.14514975249767303, -0.22592541575431824, 0.28213486075401306, -0.19825702905654907, -0.32648417353630066, 0.5282281041145325, 0.32118552923202515, 0.11216370016336441},{0.3947323262691498, -0.155286505818367, -0.007501143962144852, 0.32619014382362366, 0.1391923725605011, -0.04538397490978241, 0.5947805643081665, -0.2750355005264282, -0.34209075570106506, 0.2643965780735016, 0.15523430705070496, -0.15663853287696838},{0.02150142937898636, -0.3613325357437134, -0.12427077442407608, 0.5206387042999268, 0.07957968860864639, 0.03321940079331398, 0.2945888936519623, -0.9517736434936523, 0.04676098749041557, 0.47178971767425537, -0.010399294085800648, 0.45501983165740967},{1.0582375526428223, -0.03410186246037483, -0.048709601163864136, 0.49082303047180176, -0.20564673840999603, -0.482729434967041, 0.06175588071346283, -0.25047415494918823, -0.05250183120369911, 0.1933244913816452, 0.10453500598669052, -0.28703176975250244},{0.2615697383880615, -0.6298985481262207, 0.05273871496319771, 1.057227373123169, 0.3483496904373169, 0.03347644582390785, 0.06548749655485153, -1.0175330638885498, 0.09057138860225677, 0.540183424949646, -0.3346061110496521, -0.15531013906002045},{0.07557620853185654, -0.07056275010108948, -0.32558396458625793, 0.6742358207702637, -0.09965628385543823, 0.46300575137138367, 0.44559839367866516, -0.2738444209098816, -0.2351391315460205, 0.3877079486846924, -0.1169518455862999, 0.15861351788043976}};
static const float mlp_extractor_policy_net_2_weight[64][64] = {{0.18321943283081055, 0.06079453229904175, 0.20269113779067993, 0.3098754286766052, 0.13173404335975647, -0.17353644967079163, 0.0714607685804367, -0.32957690954208374, -0.28744837641716003, -0.0320664681494236, 0.09395521879196167, 0.39157024025917053, -0.041970912367105484, -0.14343120157718658, 0.026297783479094505, 0.22870802879333496, 0.005664357915520668, -0.2437995970249176, -0.26536673307418823, -0.0481119304895401, -0.11925714462995529, -0.299670547246933, 0.09488726407289505, -0.4500580430030823, 0.15995892882347107, 0.12336792051792145, -0.49837636947631836, -0.173422172665596, -0.24899093806743622, -0.036195628345012665, 0.00629057502374053, -0.2811465263366699, 0.17472408711910248, 0.24832580983638763, 0.08762677758932114, 0.4002668261528015, -0.32311463356018066, -0.19747298955917358, 0.1053372174501419, 0.016385314986109734, 0.009073604829609394, 0.03899826854467392, -0.22137711942195892, -0.060973986983299255, 0.02146136946976185, -0.12536562979221344, -0.0933758094906807, 0.014377736486494541, -0.5125477313995361, 0.3915032148361206, 0.07085870951414108, -0.2159915268421173, -0.1907208263874054, 0.0802561491727829, -0.10456446558237076, 0.17504778504371643, -0.06863445788621902, 0.6962172985076904, -0.324188768863678, 0.11737571656703949, 0.3324967622756958, -0.0254990141838789, -0.29644298553466797, 0.04267331212759018},{0.17883625626564026, 0.23113958537578583, -0.026747172698378563, 0.5155156254768372, 0.06570105999708176, 0.021054863929748535, 0.012830630876123905, 0.24947509169578552, 0.36311981081962585, -0.14381027221679688, -0.2002166509628296, -0.11299248039722443, 0.06069464236497879, 0.28303343057632446, 0.2417612373828888, 0.013174719177186489, -0.013631787151098251, 0.46427077054977417, -0.22758013010025024, 0.3042456805706024, 0.026951152831315994, -0.20057697594165802, -0.30856627225875854, 0.4508821368217468, 0.05577646568417549, 0.2766825556755066, -0.044328536838293076, 0.10358626395463943, 0.1611863225698471, 0.06754323840141296, -0.10581507533788681, -0.14435523748397827, 0.2704155743122101, 0.300143301486969, -0.04263356700539589, -0.11746145784854889, 0.09622173756361008, 0.061554402112960815, 0.10400591790676117, -0.35942304134368896, 0.11654496192932129, -0.03684413060545921, 0.21425482630729675, 0.4381278157234192, 0.1181488037109375, 0.018467428162693977, -0.22600263357162476, -0.007105502299964428, -0.17185606062412262, -0.21118825674057007, -0.1816268265247345, 0.3801737427711487, 0.2782778739929199, 0.15785057842731476, 0.014708804897964, -0.04958343878388405, -0.008772741071879864, -0.329089492559433, -0.1317404955625534, -0.059969138354063034, -0.21044135093688965, -0.07043486088514328, -0.0888473391532898, -0.12029586732387543},{-0.4347948729991913, 0.1091124638915062, 0.17468126118183136, -0.07581747323274612, -0.2655627131462097, -0.5009070634841919, -0.02721497230231762, -0.10087857395410538, 0.37687548995018005, -0.3064136803150177, 0.28701695799827576, -0.08022064715623856, 0.5371324419975281, -0.1270962357521057, -0.07263469696044922, -0.08240499347448349, 0.09254872053861618, -0.29005950689315796, -0.4166112244129181, 0.11152900010347366, -0.14082498848438263, 0.12583161890506744, -0.41995570063591003, -0.21268205344676971, -0.08495797216892242, -0.5486245155334473, -0.141425222158432, -0.275569349527359, -0.36244210600852966, -0.14579446613788605, 0.10525936633348465, -0.002602958818897605, 0.04511898010969162, -0.007174186874181032, -0.10612862557172775, 0.3810206651687622, -0.05954333767294884, 0.34998688101768494, 0.3501879572868347, -0.1488088071346283, -0.08232145756483078, 0.2008799910545349, -0.04559151828289032, -0.12442482262849808, -0.11241068691015244, -0.20334410667419434, -0.6099268794059753, -0.2383115440607071, -0.002922789193689823, -0.16471265256404877, 0.12182383984327316, 0.00281352736055851, -0.13074572384357452, 0.2507268488407135, -0.011490325443446636, -0.22692348062992096, -0.16279497742652893, -0.009287395514547825, -0.0534026063978672, -0.048183001577854156, 0.12394515424966812, 0.01235159207135439, -0.09131362289190292, -0.08368553966283798},{0.0499514676630497, -0.1455489993095398, 0.12064195424318314, 0.1281699240207672, -0.23112282156944275, 0.22485223412513733, 0.13032324612140656, -0.14922896027565002, -0.4493204951286316, 0.04624463617801666, 0.1714591383934021, 0.1047133207321167, 0.2505854666233063, 0.17712748050689697, 0.17193937301635742, 0.318987101316452, -0.068069227039814, 0.13518331944942474, -0.02273589000105858, 0.17444349825382233, 0.15975116193294525, -0.20688828825950623, -0.017015069723129272, -0.7711256742477417, -0.1119135394692421, -0.008059900254011154, 0.06404010206460953, -0.08628902584314346, -0.10674189031124115, 0.28416675329208374, -0.10760698467493057, -0.06225081533193588, 0.13119709491729736, 0.17528808116912842, -0.02424384094774723, 0.03150668740272522, 0.0525829903781414, 0.0403931550681591, -0.21045459806919098, 0.795542299747467, -0.0963229164481163, 0.24036754667758942, -0.2982742190361023, -0.021562332287430763, 0.10154754668474197, -0.3851478695869446, -0.17066547274589539, -0.12274935841560364, -0.16541893780231476, 0.466619074344635, -0.17389601469039917, 0.06753355264663696, 0.04607125744223595, -0.23397575318813324, -0.3116529881954193, 0.03915666788816452, -0.15563715994358063, 0.3614790439605713, 0.023916322737932205, -0.243245467543602, 0.06432318687438965, -0.156889870762825, 0.14376300573349, 0.00026921002427116036},{0.18890886008739471, 0.42436209321022034, -0.03806569427251816, -0.16285286843776703, 0.08207488059997559, -0.2504292130470276, 0.006800468545407057, -0.1326744109392166, -0.1037391945719719, -0.05706839635968208, -0.03185800462961197, -0.32173416018486023, -0.15838812291622162, 0.035619620233774185, 0.41190338134765625, 0.10809370130300522, 0.02488710545003414, -0.054252926260232925, -0.10148516297340393, 0.32635900378227234, -0.16273187100887299, 0.15485821664333344, 0.13586725294589996, 0.22253307700157166, 0.5911192297935486, 0.3933938145637512, 0.0010546809062361717, 0.3174339532852173, 0.04580613225698471, 0.03701070696115494, 0.056076664477586746, -0.11764394491910934, -0.02408825419843197, -0.36574143171310425, -0.18985909223556519, 0.08614588528871536, -0.1984962373971939, 0.23302152752876282, 0.21356594562530518, -0.13847143948078156, 0.11242499947547913, 0.22456248104572296, 0.11730476468801498, 0.07391808927059174, -0.11663548648357391, -0.07266388088464737, -0.14823850989341736, -0.127487912774086, 0.46947985887527466, 0.0002214348060078919, 0.1681712418794632, 0.25790077447891235, 0.07716789841651917, 0.15630219876766205, 0.1879296600818634, 0.07730784267187119, -0.02698531746864319, -0.16967107355594635, 0.20218025147914886, 0.17194364964962006, 0.10268224030733109, -0.4213486313819885, 0.07168500870466232, 0.052384015172719955},{0.13547690212726593, -0.2833336889743805, 0.22340534627437592, 0.05426156148314476, -0.02567131817340851, -0.3859754800796509, -0.37433719635009766, -0.04188557341694832, -0.245589941740036, -0.060466475784778595, 0.11292492598295212, 0.21559752523899078, -0.08791464567184448, -0.11651290208101273, 0.05227876082062721, 0.16077934205532074, 0.0839281678199768, -0.2414531260728836, -0.03281012922525406, 0.09613589942455292, 0.310814768075943, -0.03940518945455551, 0.06939928978681564, -0.26829972863197327, -0.2664957046508789, 0.11743715405464172, 0.31451958417892456, 0.41587281227111816, 0.017871713265776634, -0.15526150166988373, -0.22164514660835266, -0.40509751439094543, -0.13771097362041473, 0.28347015380859375, 0.3524698317050934, 0.5372181534767151, -0.3216744363307953, -0.06317564100027084, -0.019381478428840637, -0.03467335179448128, -0.1597265750169754, 0.28286975622177124, -0.4093978703022003, -0.20992447435855865, -0.13718664646148682, -0.1716192215681076, -0.10358037054538727, -0.4831656515598297, 0.13975827395915985, -0.2326764464378357, 0.2127334624528885, -0.012476921081542969, -0.06070490926504135, -0.13347482681274414, 0.1777607947587967, 0.1731335073709488, -0.03056788071990013, 0.2811940014362335, -0.146743044257164, -0.172914519906044, 0.03861985355615616, -0.039842329919338226, 0.3453654944896698, -0.19715270400047302},{0.3264499008655548, -0.08459103107452393, 0.062060099095106125, 0.3358839452266693, -0.14942529797554016, -0.0754900798201561, -0.047353532165288925, -0.2283008098602295, -0.2685473561286926, -0.04805930331349373, -0.2465590536594391, 0.0541117861866951, 0.30149489641189575, 0.03918047994375229, -0.0025488347746431828, 0.41709887981414795, -0.12275909632444382, -0.07289761304855347, -0.23537105321884155, -0.1396895796060562, 0.020853009074926376, -0.3353504538536072, -0.12670621275901794, 0.19430354237556458, 0.06090516224503517, 0.2558338940143585, 0.48412156105041504, 0.45885446667671204, 0.26217567920684814, 0.33801156282424927, 0.31922540068626404, 0.3221529424190521, -0.1296120136976242, 0.11767972260713577, -0.2347525954246521, 0.20589101314544678, -0.41339877247810364, -0.10561476647853851, -0.26016542315483093, -0.06407500803470612, 0.08972800523042679, -0.46128883957862854, 0.14475949108600616, 0.3796466290950775, 0.0329655259847641, -0.04739564657211304, -0.4524483382701874, 0.26521387696266174, 0.07573354989290237, 0.1978970766067505, 0.09129657596349716, -0.19663047790527344, 0.07295946031808853, 0.4732895791530609, 0.18101969361305237, -0.06399119645357132, 0.006199267227202654, -0.07480569183826447, 0.18024854362010956, -0.05346348509192467, 0.22211313247680664, -0.26184460520744324, 0.21048612892627716, -0.22413195669651031},{0.03580053150653839, -0.13799822330474854, 0.3373478651046753, -0.16939008235931396, -0.06795339286327362, 0.5714105367660522, -0.09668606519699097, 0.1760692298412323, -0.01786571741104126, 0.09219015389680862, 0.06214093416929245, 0.02973778545856476, 0.205243319272995, 0.09067663550376892, 0.07871774584054947, -0.055916525423526764, 0.029790552332997322, -0.02421806938946247, 0.13184796273708344, 0.11863360553979874, 0.3570835292339325, -0.05876755341887474, 0.6868444681167603, -0.1458321362733841, -0.02386932261288166, 0.05808194354176521, 0.20700691640377045, -0.2758426368236542, -0.04437500610947609, 0.16791413724422455, -0.012284091673791409, -0.425717830657959, 0.3067948520183563, -0.25417688488960266, 0.19698244333267212, -0.20686596632003784, 0.23133151233196259, -0.5847012400627136, -0.07677802443504333, 0.15847162902355194, 0.36531803011894226, 0.2374499887228012, 0.33789193630218506, -0.15659144520759583, -0.08456544578075409, 0.05963687598705292, 0.0600595623254776, 0.12166725099086761, 0.00506594218313694, 0.3335651159286499, 0.012608666904270649, -0.17345070838928223, -0.11791215091943741, -0.2703014612197876, 0.675628662109375, -0.08067700266838074, -0.02079109661281109, -0.09066810458898544, -0.26366230845451355, 0.06266599148511887, 0.08581923693418503, 0.17190983891487122, -0.2079440802335739, 0.18417328596115112},{-0.1195465475320816, 0.3615158498287201, 0.2306658923625946, 0.2819025218486786, 0.12279979139566422, -0.0006379044498316944, 0.5772554874420166, 0.6044233441352844, 0.16273407638072968, 0.09685143828392029, -0.5865716934204102, -0.2349698394536972, -0.027049776166677475, 0.324509859085083, -0.05130793899297714, 0.18308191001415253, -0.42316552996635437, 0.11095032095909119, -0.2753026485443115, -0.30220863223075867, 0.0281281229108572, -0.25192540884017944, 0.2900311052799225, 0.5229925513267517, 0.01364322192966938, 0.46808716654777527, -0.04121449217200279, 0.07960669696331024, 0.07770352810621262, 0.5000375509262085, 0.28109434247016907, 0.14043377339839935, 0.07172434777021408, -0.22338621318340302, 0.24374231696128845, -0.1422329694032669, -0.3058367669582367, 0.18315435945987701, 0.1265122890472412, 0.1524261087179184, -0.32374289631843567, -0.22968904674053192, 0.2839435636997223, 0.16074234247207642, 0.5429402589797974, 0.138902485370636, -0.21312952041625977, -0.12891776859760284, -0.10742213577032089, -0.007888497784733772, -0.09985232353210449, 0.3628242313861847, -0.09780532866716385, -0.061746254563331604, -0.003820105455815792, -0.11442775279283524, 0.041125018149614334, -0.1263422966003418, 0.059352729469537735, 0.06065429747104645, -0.24319413304328918, 0.025128953158855438, 0.14643952250480652, 0.1254510134458542},{0.5937373638153076, 0.08734780550003052, 0.020291496068239212, 0.25025448203086853, 0.36312568187713623, 0.016723889857530594, 0.014734453521668911, -0.11168180406093597, -0.13473165035247803, -0.0648965984582901, -0.23021510243415833, -0.11577195674180984, 0.04359044134616852, 0.6130878329277039, -0.05377296358346939, -0.14577963948249817, 0.1093461737036705, -0.2530463933944702, -0.001810292829759419, 0.047738272696733475, 0.016548670828342438, 0.029142865911126137, -0.0751560628414154, 0.14236371219158173, -0.01527823694050312, 0.16813987493515015, 0.14612868428230286, 0.07268273830413818, 0.2962150275707245, -0.17773066461086273, -0.018432481214404106, 0.26415690779685974, 0.43371450901031494, -0.3627276122570038, 0.03381992131471634, -0.48814934492111206, 0.4634730815887451, 0.10394814610481262, -0.029657291248440742, -0.0665823295712471, 0.054205503314733505, -0.16044016182422638, 0.21139104664325714, -0.1856248527765274, 0.11673669517040253, 0.12155362963676453, 0.09684962779283524, -0.03533776476979256, 0.32093897461891174, -0.14294278621673584, 0.23736785352230072, 0.015056965872645378, -0.12378956377506256, 0.09737169742584229, 0.01437370479106903, 0.10760802775621414, 0.17306987941265106, -0.028078846633434296, -0.16427037119865417, -0.20870429277420044, 0.1328839361667633, 0.14541685581207275, 0.29072609543800354, 0.08565124124288559},{0.035797398537397385, -0.4194963872432709, 0.24876274168491364, 0.30915480852127075, -0.34790438413619995, 0.213082417845726, -0.11091028153896332, 0.21220636367797852, -0.24385255575180054, 0.13249823451042175, 0.004030921496450901, -0.02323262393474579, -0.19495859742164612, 0.22075261175632477, -0.1042824536561966, -0.03210754320025444, 0.03231298550963402, -0.03068120777606964, -0.037239037454128265, -0.07858062535524368, -0.11557424813508987, 0.2310219258069992, 0.08693079650402069, -0.17129725217819214, 0.4642477035522461, 0.0804368108510971, -0.2172240912914276, 0.2961409389972687, 0.25232362747192383, 0.2403622418642044, -0.01787126064300537, 0.08698106557130814, 0.3537524938583374, -0.2165614813566208, -0.23274166882038116, -0.17022082209587097, -0.33859723806381226, -0.25369951128959656, -0.1561780720949173, 0.049036793410778046, -0.1516256481409073, -0.172769695520401, -0.17627929151058197, 0.12647725641727448, 0.024730343371629715, 0.38948947191238403, -0.22631385922431946, 0.028546012938022614, -0.16449706256389618, -0.06371781975030899, -0.08045529574155807, 0.061777081340551376, -0.0674658939242363, 0.13062229752540588, -0.028006501495838165, 0.3693142533302307, 0.1772131621837616, -0.13686132431030273, 0.15913799405097961, -0.3020379841327667, 0.19206030666828156, 0.10866029560565948, -0.012521703727543354, -0.399356871843338},{0.10313523560762405, -0.10452291369438171, 0.544603705406189, -0.14904865622520447, 0.19245289266109467, 0.2430240958929062, -0.30751389265060425, 0.1474190652370453, -0.263059139251709, -0.05505011975765228, 0.271972119808197, -0.22549127042293549, -0.06784680485725403, -0.22193391621112823, -0.2173168957233429, -0.3318745791912079, 0.3263106346130371, -0.27455443143844604, 0.22945529222488403, 0.19073329865932465, 0.3460960388183594, -0.09996498376131058, 0.13300737738609314, -0.43034979701042175, -0.10021404176950455, -0.16414298117160797, -0.3855607211589813, -0.24968552589416504, -0.0515684150159359, 0.367790549993515, -0.2036551684141159, -0.06377602368593216, -0.09355323761701584, 0.15960635244846344, 0.07673289626836777, -0.4205433428287506, 0.014807995408773422, 0.06141331046819687, -0.387111634016037, -0.03827935829758644, 0.12732134759426117, -0.03533991053700447, -0.20071111619472504, -0.3679945468902588, -0.05046878755092621, -0.1249111145734787, 0.06985131651163101, -0.06700333952903748, 0.14987294375896454, 0.11767309904098511, 0.20941151678562164, -0.5175120234489441, 0.17070676386356354, -0.10833319276571274, 0.2261405736207962, 0.11829226464033127, -0.18900442123413086, 0.03537025675177574, 0.005238987971097231, 0.20253095030784607, -0.012119739316403866, -0.1963728666305542, -0.026310240849852562, 0.15739986300468445},{-0.3727578818798065, -0.4544054865837097, 0.12387162446975708, 0.5149537324905396, 0.053406622260808945, 0.11400877684354782, 0.2101406455039978, -0.5068731307983398, -0.04604148119688034, 0.11979512125253677, 0.08298882842063904, 0.037521544843912125, 0.20261114835739136, 0.11809194087982178, 0.16663606464862823, 0.10069302469491959, -0.3809197247028351, -0.34644314646720886, -0.17098449170589447, 0.41057121753692627, 0.02590940147638321, -0.08806995302438736, 0.35511139035224915, 0.01798752136528492, -0.033640433102846146, 0.1660717874765396, -0.08901915699243546, 0.06484998017549515, 0.07411552965641022, 0.2284238487482071, 0.29466763138771057, -0.05693689361214638, -0.18012411892414093, 0.12600530683994293, 0.20117008686065674, 0.28831368684768677, -0.20525439083576202, -0.07869686931371689, -0.10792376101016998, 0.35643088817596436, -0.34699079394340515, 0.1987881064414978, 0.21405118703842163, -0.32734936475753784, 0.10834219306707382, -0.3103208839893341, 0.10799775272607803, 0.11160285770893097, -0.22115562856197357, 0.33325013518333435, 0.10182090848684311, -0.23474808037281036, 0.2827858030796051, -0.06857223063707352, 0.009297087788581848, 0.4583609700202942, -0.28317368030548096, 0.2183682918548584, -0.3184504806995392, -0.26813068985939026, 0.13854338228702545, -0.3505186140537262, -0.2239995002746582, -0.239278644323349},{0.1982671618461609, -0.25701504945755005, 0.2261919528245926, -0.0003220719227101654, 0.013007794506847858, -0.35988062620162964, -0.11284910887479782, 0.035037726163864136, -0.14927658438682556, 0.0684729516506195, -0.16583627462387085, 0.03279712423682213, -0.001369195757433772, 0.3264719247817993, -0.03441377356648445, -0.1456921100616455, 0.10007800161838531, -0.1301446408033371, -0.03302251175045967, 0.095419742166996, -0.4418488144874573, 0.14735642075538635, 0.34586283564567566, 0.08847874402999878, -0.29364895820617676, 0.10111340135335922, -0.028006117790937424, 0.6371817588806152, -0.038891229778528214, -0.10198233276605606, 0.10560481995344162, -0.33393537998199463, 0.33425238728523254, 0.12205981463193893, -0.26572421193122864, 0.22793208062648773, 0.08920558542013168, -0.24658648669719696, -0.3150792419910431, -0.08426205068826675, 0.3513799011707306, -0.3466356098651886, -0.22007526457309723, -0.14106029272079468, -0.0825759544968605, -0.23187994956970215, 0.08875742554664612, 0.3117944300174713, 0.5606127381324768, -0.19953858852386475, 0.03718644008040428, 0.04159994795918465, 0.027310313656926155, 0.35999828577041626, -0.06195374205708504, -0.05983620136976242, -0.13119269907474518, 0.16826651990413666, 0.4254927635192871, -0.00418531009927392, -0.21156750619411469, 0.16128191351890564, 0.26063695549964905, -0.038100019097328186},{-0.21196556091308594, 0.1315661519765854, 0.2997705936431885, -0.01424386166036129, -0.18635773658752441, 0.043669380247592926, 0.019444873556494713, -0.1859520673751831, 0.08695125579833984, 0.016821565106511116, 0.19595986604690552, 0.12276113778352737, 0.3630484640598297, 0.03415357321500778, -0.08391465991735458, 0.1908988505601883, -0.03145908564329147, 0.1661967784166336, -0.306123822927475, -0.5247441530227661, 0.180071160197258, 0.03669285401701927, -0.04582427069544792, -0.3566429316997528, 0.11663245409727097, 0.12750740349292755, -0.054024603217840195, 0.01702835038304329, 0.34142056107521057, 0.14150959253311157, 0.2059514820575714, 0.08848901093006134, 0.08401497453451157, -0.1546732634305954, 0.2528328597545624, -0.1181282177567482, -0.409630686044693, -0.15212969481945038, 0.14188431203365326, -0.002602962078526616, 0.13146644830703735, 0.2599538266658783, 0.48565369844436646, -0.0869164988398552, 0.2710079550743103, 0.1685064136981964, 0.10236606001853943, 0.031738437712192535, -0.4360499382019043, 0.25960299372673035, -0.44217878580093384, -0.35526564717292786, -0.041194237768650055, -0.05412919074296951, -0.019673505797982216, 0.34843316674232483, -0.5445154905319214, 0.3055587112903595, -0.026976844295859337, -0.123536117374897, -0.22725407779216766, -0.40537863969802856, 0.17252692580223083, 0.04209897294640541},{0.12444736063480377, 0.2815127968788147, 0.1816115379333496, -0.15238073468208313, -0.0017283342313021421, 0.6564863324165344, 0.03265491873025894, -0.004691316280514002, 0.2951273024082184, 0.47302302718162537, 0.041684672236442566, 0.02024957537651062, -0.2852126657962799, 0.3190131187438965, -0.2401968538761139, -0.19396017491817474, -0.1486673504114151, 0.3255460262298584, 0.3714640140533447, -0.15842533111572266, 0.0739656537771225, -0.023190950974822044, 0.10501892864704132, 0.19240783154964447, -0.37198004126548767, 0.31650400161743164, -0.3874013423919678, -0.182146817445755, -0.015127846039831638, -0.08633922040462494, -0.04903782904148102, 0.041025228798389435, 0.20275188982486725, -0.15307936072349548, 0.34719881415367126, -0.6708434820175171, 0.008004311472177505, -0.09054352343082428, -0.017229579389095306, 0.022475622594356537, -0.3248613774776459, 0.33662381768226624, 0.24792489409446716, 0.1315038502216339, 0.2728719711303711, -0.3110870122909546, 0.22859825193881989, 0.167273610830307, 0.013430166058242321, 0.3768051266670227, 0.08605366200208664, -0.04944658279418945, -0.3566935062408447, -0.15340204536914825, 0.4030529260635376, -0.22963616251945496, 0.05330707132816315, -0.4404695928096771, -0.045638542622327805, -0.2275109440088272, -0.04180615395307541, -0.018007885664701462, -0.0027126320637762547, -0.315104603767395},{-0.23234961926937103, 0.6793063282966614, -0.4774094223976135, 0.19537827372550964, -0.12040788680315018, -0.012564710341393948, 0.233960822224617, 0.37355369329452515, 0.3934674859046936, 0.3416800796985626, -0.1188981682062149, 0.15966291725635529, 0.4942130148410797, -0.37411752343177795, -0.5695617198944092, 0.10938657820224762, -0.10870769619941711, 0.16828495264053345, -0.22575189173221588, -0.18969641625881195, 0.03185521066188812, -0.012766909785568714, -0.38790661096572876, -0.12079568207263947, 0.20169441401958466, 0.046054091304540634, -0.15299294888973236, -0.257222056388855, 0.3767816126346588, 0.3382376432418823, 0.07260608673095703, 0.3125332295894623, 0.03517274558544159, -0.07500942796468735, 0.21044717729091644, 0.372871458530426, -0.16312579810619354, 0.12325745075941086, 0.13857299089431763, -0.11094582825899124, -0.041617970913648605, 0.3386726975440979, 0.2505778968334198, 0.007486626971513033, 0.05503922700881958, 0.13616126775741577, 0.09293539822101593, 0.2091815322637558, 0.28674840927124023, 0.02410838194191456, -0.11895101517438889, 0.1613791435956955, -0.02502308413386345, -0.056884460151195526, -0.14630725979804993, 0.043872322887182236, 0.05662078782916069, -0.2637675106525421, 0.02945804037153721, 0.20166875422000885, 0.11522579193115234, 0.2934573292732239, -0.24354517459869385, -0.0981452539563179},{0.3966604173183441, -0.38694775104522705, -0.10271847993135452, 0.09739863872528076, -0.17946459352970123, -0.04517865926027298, -0.22844082117080688, -0.08516983687877655, -0.27195751667022705, -0.0009512563701719046, -0.029437217861413956, -0.2757050096988678, -0.08601955324411392, -0.10108087211847305, 0.08185063302516937, -0.013027057982981205, 0.24737529456615448, -0.5165258646011353, 0.15418732166290283, 0.16781938076019287, -0.10457351058721542, -0.26397472620010376, 0.30826428532600403, -0.5083721876144409, -0.38997122645378113, 0.14886389672756195, -0.11428502202033997, 0.4843881130218506, -0.10686498880386353, -0.6216817498207092, -0.21677273511886597, -0.21089722216129303, -0.13543400168418884, -0.24920132756233215, -0.21322795748710632, -0.24987755715847015, 0.22228656709194183, -0.08475832641124725, -0.1890893131494522, -0.1632770150899887, -0.17135250568389893, -0.4429152011871338, -0.2677695155143738, -0.11309715360403061, -0.2719830870628357, 0.06820051372051239, -0.07797174155712128, -0.03515699505805969, 0.2729314863681793, 0.1480179876089096, -0.31173789501190186, -0.141642764210701, 0.12055760622024536, -0.1358947902917862, 0.707008421421051, 0.2732335031032562, -0.21291200816631317, -0.009127597324550152, 0.31777504086494446, 0.12830230593681335, -0.07180531322956085, 0.22501729428768158, 0.05079825222492218, 0.08345255255699158},{0.2930670976638794, 0.06753885746002197, 0.0632607713341713, 0.1313074380159378, 0.45824310183525085, -0.0896589607000351, -0.07947254180908203, -0.08869749307632446, 0.3263972997665405, 0.242323100566864, -0.16702131927013397, -0.25682011246681213, -0.060426171869039536, 0.2103482186794281, 0.1279560625553131, -0.06657630950212479, 0.2834963798522949, 0.08598820120096207, 0.1944921463727951, -0.13168378174304962, -0.11450394988059998, 0.15239304304122925, 0.10979647934436798, 0.22044770419597626, -0.09935560822486877, -0.22148574888706207, 0.3766259551048279, 0.3914397060871124, 0.23881906270980835, 0.042371999472379684, -0.08328239619731903, -0.3085210919380188, -0.10960491746664047, -0.3632495403289795, -0.2633097469806671, -0.18544726073741913, 0.11883604526519775, 0.2479715198278427, 0.2127947360277176, -0.11064950376749039, 0.03674856200814247, -0.23789310455322266, -0.6475810408592224, 0.1457756757736206, -0.17746961116790771, -0.25629889965057373, -0.11220275610685349, 0.20517532527446747, 0.09093767404556274, -0.47728827595710754, -0.1101754754781723, 0.1348390430212021, 0.3347312808036804, 0.06852639466524124, 0.06275918334722519, -0.07244507223367691, -0.05124823749065399, 0.26456543803215027, 0.13246415555477142, -0.07805204391479492, 0.20866207778453827, 0.16686026751995087, -0.20678141713142395, -0.08970651775598526},{-0.17366015911102295, 0.43295061588287354, -0.14387011528015137, -0.002757073612883687, 0.2648470997810364, -0.06387444585561752, 0.5165647864341736, 0.23321188986301422, -0.08060671389102936, -0.043660718947649, -0.016666505485773087, 0.15416988730430603, 0.22307763993740082, 0.1515183001756668, 0.013959954492747784, 0.0631607249379158, 0.3381209075450897, 0.44916144013404846, -0.029562104493379593, -0.08023902028799057, -0.004915071185678244, -0.2507176995277405, 0.16647079586982727, 0.4438665509223938, -0.10669151693582535, -0.2330062836408615, -0.22151975333690643, -0.1887647956609726, -0.24057511985301971, 0.08257973939180374, -0.02291211485862732, 0.11111894249916077, -0.0577673576772213, -0.00654793344438076, -0.1621290147304535, -0.20218031108379364, -0.3703480660915375, 0.06332562863826752, -0.10947809368371964, 0.10789816826581955, -0.1388232260942459, 0.5189051628112793, 0.4198604226112366, 0.41326072812080383, 0.33467867970466614, 0.18537724018096924, 0.15953987836837769, 0.07569535821676254, 0.05278852954506874, -0.12533491849899292, -0.02727625146508217, -0.013214578852057457, -0.07492133229970932, -0.19580139219760895, -0.07917195558547974, 0.23479054868221283, -0.003804856678470969, -0.3029637634754181, -0.06020468845963478, -0.3201209008693695, 0.151885986328125, 0.22849395871162415, -0.09424732625484467, -0.10261226445436478},{0.8898140788078308, -0.0849866196513176, -0.4015015959739685, -0.16170385479927063, 0.809524655342102, -0.23269377648830414, 0.4212574064731598, -0.03158636763691902, -0.19572480022907257, -0.39610755443573, -0.37623387575149536, -0.3270341753959656, -0.1773352324962616, 0.5904549956321716, -0.6090674996376038, -0.4687338173389435, 0.3800179064273834, 0.011351428925991058, 0.15505479276180267, -0.3061961829662323, -0.36021673679351807, 0.39340725541114807, 0.3099392056465149, 0.4609597325325012, 0.048348408192396164, 0.38414913415908813, 0.6657674908638, 0.6762524843215942, 0.8012566566467285, 0.06820373982191086, 0.049408625811338425, -0.04894879460334778, -0.617012619972229, 0.4665077328681946, -0.20230208337306976, -0.5280194282531738, -0.0076338681392371655, 0.22629018127918243, -0.4705210030078888, 0.11987278610467911, 0.4977933168411255, -0.779898464679718, 0.05967031791806221, 0.20469164848327637, -0.14984585344791412, -0.07607130706310272, -0.43662580847740173, -0.8246835470199585, 0.19250571727752686, 0.883396327495575, -0.32343149185180664, 0.31962722539901733, -0.5010746121406555, 0.6753014326095581, 0.5669548511505127, 0.3060275614261627, 0.9842885732650757, -0.05982130020856857, -0.4732687175273895, -0.03515058010816574, -0.9233533143997192, 0.25876641273498535, -0.975706934928894, -0.6208744049072266},{-0.24775859713554382, -0.25943490862846375, 0.6057600975036621, -0.2194972187280655, -0.1913078874349594, 0.007993064820766449, -0.18819886445999146, -0.2772834599018097, -0.23040509223937988, 0.11330465972423553, 0.351555198431015, 0.268716037273407, 0.047261182218790054, -0.447211891412735, 0.34038183093070984, 0.23710329830646515, 0.32547685503959656, -0.0221451073884964, 0.04087553173303604, 0.37728872895240784, 0.08311276137828827, -0.04718499258160591, 0.20171397924423218, -0.44652900099754333, -0.11517629027366638, 0.10574941337108612, 0.09941459447145462, -0.4908866882324219, -0.0566890612244606, -0.14702506363391876, -0.06569238752126694, -0.06211293116211891, -0.16574905812740326, -0.02465995028614998, 0.26211103796958923, -0.17189733684062958, 0.2572720944881439, -0.06921384483575821, -0.2012365162372589, -0.009195169433951378, -0.014598026871681213, -0.2082497477531433, -0.17391148209571838, -0.39671754837036133, -0.24764341115951538, -0.3340089023113251, 0.2363002896308899, -0.2619703412055969, -0.017752252519130707, -0.08256358653306961, -0.1704077124595642, -0.32165440917015076, -0.22804059088230133, 0.3967871367931366, 0.12103494256734848, 0.5202683210372925, -0.08725959807634354, 0.153593510389328, 0.07092489302158356, 0.18950721621513367, 0.043885160237550735, 0.2979811131954193, 0.04085288941860199, -0.09154602140188217},{-0.2776498794555664, 0.03145619481801987, 0.2881961166858673, 0.3183305859565735, -0.04332634061574936, -0.16033898293972015, -0.2556488811969757, -0.129103884100914, 0.1698945015668869, -0.005031334236264229, -0.17229409515857697, 0.17938944697380066, 0.17295312881469727, -0.12004978954792023, 0.031754396855831146, 0.26908618211746216, 0.16967958211898804, -0.01130570750683546, 0.23480455577373505, -0.27380338311195374, -0.06896058470010757, 0.045785050839185715, -0.1476115882396698, 0.273499995470047, 0.1697811335325241, 0.2812408208847046, -0.1434435099363327, 0.15554168820381165, -0.0974968671798706, -0.08171587437391281, 0.12894023954868317, -0.32837244868278503, -0.044303253293037415, -0.14775463938713074, -0.1599496752023697, 0.03148797154426575, 0.09378544986248016, 0.25997841358184814, -0.3093027174472809, 0.027082279324531555, -0.170606330037117, 0.08392705023288727, 0.4067687392234802, -0.002132569206878543, 0.1245054304599762, 0.3038208484649658, -0.22057506442070007, -0.1639108508825302, 0.3879110515117645, 0.10350050032138824, -0.00960183423012495, 0.17698170244693756, 0.21835501492023468, 0.07399461418390274, 0.015091534703969955, -0.2209121137857437, 0.4989151656627655, 0.07540566474199295, 0.0903501883149147, -0.09264250844717026, 0.0606035478413105, -0.09115513414144516, -0.2935549318790436, 0.3171546459197998},{-0.2196163684129715, 0.37696608901023865, -0.24743372201919556, 0.3525080680847168, -0.1676838994026184, -0.056670792400836945, 0.3775599002838135, -0.14702172577381134, -0.04705345258116722, -0.1368466317653656, 0.3418530225753784, 0.36645057797431946, -0.16529801487922668, -0.09320749342441559, -0.33635208010673523, 0.19543246924877167, -0.3274175524711609, 0.22061088681221008, -0.3601369857788086, -0.16288916766643524, -0.39337992668151855, -0.04736227169632912, -0.08234240859746933, -0.12840183079242706, 0.20160910487174988, 0.2084878385066986, 0.3769089877605438, -0.008981541730463505, 0.1976366639137268, 0.4139902591705322, 0.4993600845336914, -0.4018231928348541, -0.1484762728214264, 0.38604748249053955, -0.16942119598388672, 0.3459431231021881, -0.33125343918800354, 0.4785405099391937, 0.07683946937322617, 0.00031635083723813295, -0.1701783835887909, -0.013250458054244518, 0.20482683181762695, -0.08150769770145416, 0.27030041813850403, 0.1551835983991623, -0.4731852114200592, 0.09463316202163696, -0.1974952667951584, -0.1342487335205078, 0.06717228889465332, 0.18924683332443237, -0.05307203531265259, 0.31902045011520386, -0.06281351298093796, 0.1693868786096573, -0.29551756381988525, -0.20994038879871368, -0.10868685692548752, -0.18424764275550842, 0.19560691714286804, -0.1857161819934845, 0.10049336403608322, 0.3650406301021576},{-0.06908349692821503, -0.034726306796073914, -0.25360777974128723, 0.37166619300842285, -0.25384607911109924, -0.08139941841363907, 0.02476857230067253, -0.4091205596923828, -0.31300145387649536, -0.08854877948760986, 0.04525413736701012, 0.06650012731552124, 0.4472889304161072, -0.35343262553215027, -0.025773879140615463, -0.10945947468280792, -0.10525789856910706, 0.11838815361261368, -0.17055568099021912, 0.3102435767650604, 0.356636106967926, 0.394461065530777, 0.24934959411621094, -0.5778434872627258, 0.040680207312107086, 0.17410406470298767, 0.014252183958888054, -0.2786152958869934, -0.05159161612391472, 0.2848640978336334, 0.41473302245140076, -0.03406995162367821, -0.0034806784242391586, 0.03826216980814934, 0.017049716785550117, -0.042505186051130295, -0.36455607414245605, -0.16384482383728027, -0.3512016236782074, -0.28148141503334045, -0.11052342504262924, 0.10863291472196579, -0.15899740159511566, -0.11457034200429916, 0.24320249259471893, 0.16819024085998535, 0.03772936016321182, -0.07477901130914688, -0.22571907937526703, 0.07561422884464264, -0.15188990533351898, -0.06868183612823486, -0.3055254817008972, 0.10476626455783844, -0.054815176874399185, -0.19031859934329987, -0.1714736819267273, 0.39050284028053284, 0.0678379163146019, 0.03797970712184906, -0.10959893465042114, -0.064598448574543, 0.005386744160205126, -0.08754176646471024},{0.2657843828201294, -0.13801485300064087, -0.05488951504230499, 0.01620788685977459, -0.45216619968414307, -0.8088623881340027, 0.09077410399913788, 0.02984677627682686, 0.49444374442100525, -0.1493084877729416, -0.1325363665819168, -0.1495189666748047, -0.16844217479228973, -0.14594174921512604, 0.09260162711143494, -0.26234036684036255, -0.03234521672129631, 0.07934726029634476, -0.026427512988448143, 0.10719229280948639, -0.20907531678676605, -0.010472187772393227, -0.49072667956352234, 0.2663698196411133, 0.046801742166280746, -0.0052858879789710045, 0.006216894369572401, 0.29310423135757446, 0.023825233802199364, 0.10626091808080673, -0.15789338946342468, 0.06900691241025925, -0.15584760904312134, 0.2650909423828125, -0.2643710672855377, 0.21944938600063324, 0.326373428106308, 0.12027890980243683, 0.1653665453195572, 0.06557410210371017, 0.08994892984628677, 0.16655579209327698, -0.26971158385276794, 0.1610814481973648, 0.014432040974497795, 0.20589764416217804, -0.1893835812807083, 0.1177089512348175, 0.46959784626960754, -0.43725621700286865, -0.011714333668351173, 0.23091770708560944, -0.17870458960533142, 0.20843292772769928, -0.15795384347438812, 0.23080883920192719, -0.19338595867156982, 0.2389729619026184, -0.0505480132997036, -0.018878111615777016, 0.1961234211921692, -0.08860752731561661, -0.2826208770275116, 0.2848391830921173},{-0.2931147813796997, 0.1429416388273239, -0.07973676174879074, -0.012952246703207493, 0.02964881807565689, 0.19761596620082855, 0.19946597516536713, -0.3382279872894287, 0.15956701338291168, 0.03694272041320801, 0.16492074728012085, 0.14675720036029816, 0.3079187273979187, 0.023018889129161835, -0.24267303943634033, 0.35239851474761963, -0.46646642684936523, 0.21871186792850494, -0.23918786644935608, -0.6402974724769592, 0.4128274619579315, -0.2795393466949463, 0.3312424421310425, -0.21800890564918518, 0.21954388916492462, 0.15902940928936005, -0.20492735505104065, -0.32550114393234253, 0.04640081897377968, 0.2138298600912094, 0.1550314575433731, 0.27501460909843445, 0.20522083342075348, 0.38192257285118103, -0.26481157541275024, -0.3188322186470032, -0.1886972039937973, -0.11047205328941345, -0.04853692650794983, 0.023369550704956055, -0.10479041934013367, 0.32246989011764526, 0.22923457622528076, -0.29806774854660034, 0.156401589512825, 0.17356258630752563, 0.059754110872745514, -0.18394538760185242, -0.10720357298851013, -0.06776078045368195, 0.2536470293998718, 0.3403613567352295, 0.043300025165081024, 0.037255678325891495, 0.13385121524333954, 0.08758839219808578, -0.15748552978038788, -0.14517411589622498, 0.0230247862637043, 0.18046671152114868, -0.171883225440979, -0.1811174750328064, -0.24811561405658722, -0.2135428488254547},{-0.21111668646335602, 0.023849574849009514, -0.014985324814915657, -0.05199450999498367, 0.08388296514749527, -0.057503070682287216, -0.3748501241207123, 0.03325670585036278, 0.040123164653778076, 0.25185900926589966, -0.04168326035141945, 0.059431545436382294, -0.12827232480049133, -0.03617173433303833, -0.0717499703168869, -0.04350470378994942, -0.252006471157074, -0.06036373972892761, -0.25772857666015625, 0.3428930938243866, -0.2484792023897171, -0.4650140702724457, -0.03895755484700203, 0.13725604116916656, -0.17924542725086212, -0.04263605177402496, -0.11831653118133545, 0.40585389733314514, 0.2240065336227417, 0.1757526844739914, 0.4243224263191223, -0.04673812538385391, -0.004045178182423115, -0.1778130680322647, -0.4791368842124939, -0.08739454299211502, -0.0277091171592474, 0.07074344903230667, 0.12095613777637482, -0.014366045594215393, 0.23141415417194366, 0.14074838161468506, 0.23671182990074158, 0.24219809472560883, -0.17997634410858154, -0.02641328237950802, -0.025924721732735634, -0.43290749192237854, 0.07480762898921967, -0.10218524187803268, 0.002003658330067992, 0.09192533046007156, -0.2445419877767563, -0.09607391804456711, 0.17994458973407745, 0.1066666841506958, 0.35192376375198364, 0.20937159657478333, 0.12349610775709152, 0.17766767740249634, -0.043872445821762085, -0.002226980635896325, 0.024447333067655563, 0.13262735307216644},{-0.07322145253419876, 0.3497549891471863, -0.1610926240682602, 0.24669773876667023, 0.12346667051315308, 0.3532188832759857, 0.2069094032049179, 0.11486512422561646, 0.17973539233207703, 0.012674600817263126, -0.2092626392841339, -0.06370335817337036, -0.3199811577796936, 0.27456939220428467, 0.08364233374595642, -0.0017633655807003379, -0.03150086849927902, -0.0034967130050063133, -0.1304856538772583, -0.22332541644573212, 0.3264234662055969, 0.14356738328933716, -0.12825879454612732, 0.9166596531867981, 0.29821857810020447, -0.021988755092024803, -0.010850189253687859, 0.13580626249313354, 0.13310973346233368, -0.0638316199183464, 0.06350956857204437, 0.06767100840806961, 0.14626158773899078, 0.078982412815094, -0.2651107907295227, -0.20234975218772888, 0.2775138318538666, 0.13543613255023956, 0.4270741939544678, -0.05131083354353905, 0.00996160227805376, -0.15619608759880066, 0.017196210101246834, 0.6089795827865601, 0.6931648254394531, -0.2058500051498413, 0.007032077293843031, 0.19470849633216858, 0.48045045137405396, 0.2535531520843506, -0.007339535281062126, 0.2415797859430313, -0.05826566368341446, -0.1874794214963913, 0.24606239795684814, 0.06915752589702606, 0.16586358845233917, 0.00435409601777792, 0.1774306744337082, -0.15764974057674408, -0.19103437662124634, 0.27208954095840454, 0.1832626461982727, 0.009597343392670155},{0.13626599311828613, 0.2941403090953827, 0.18140506744384766, -0.12172358483076096, -0.15492500364780426, 0.12191681563854218, -0.6945735216140747, -0.08521817624568939, -0.24820518493652344, -0.16091616451740265, -0.3073102831840515, -0.037326835095882416, 0.09158536046743393, -0.2004735916852951, 0.40913426876068115, -0.4304584264755249, 0.16616421937942505, -0.1608985960483551, -0.16402167081832886, 0.1895986944437027, -0.2537473440170288, 0.13850156962871552, -0.12387995421886444, -0.1569746434688568, -0.3495922386646271, -0.3582783043384552, 0.014766441658139229, 0.02057502418756485, -0.07371842861175537, -0.1417466551065445, -0.3864646553993225, -0.16384443640708923, -0.2896273732185364, 0.2186029702425003, -0.26195594668388367, 0.3555004298686981, 0.34766265749931335, -0.14972132444381714, 0.10249888896942139, -0.08154798299074173, -0.21408778429031372, -0.08058290928602219, -0.24319766461849213, -0.5672162175178528, -0.1651090830564499, 0.18219174444675446, 0.035693470388650894, -0.10355228930711746, -0.09928645193576813, -0.026619555428624153, 0.06442444771528244, -0.16525767743587494, 0.031504712998867035, -0.10488035529851913, -0.19921410083770752, 0.1288290172815323, -0.12091066688299179, 0.1965351551771164, 0.2915394902229309, -0.14101672172546387, 0.03541996330022812, 0.07554754614830017, -0.09437566995620728, -0.09202519059181213},{-0.11782261729240417, -0.24974660575389862, 0.0637921467423439, -0.06644938141107559, -0.16001571714878082, -0.4587508738040924, -0.3371608555316925, -0.3679100275039673, -0.16067096590995789, 0.12416298687458038, 0.4099394679069519, 0.060621194541454315, 0.4888960123062134, 0.06434118747711182, 0.08107691258192062, 0.13028962910175323, -0.14708459377288818, 0.08639796823263168, -0.3485410213470459, 0.33477187156677246, -0.18648569285869598, -0.12924298644065857, -0.09672659635543823, -0.27294716238975525, 0.23233847320079803, -0.08568476885557175, -0.002335450379177928, 0.19095274806022644, -0.08276672661304474, 0.2718285322189331, -0.09927080571651459, -0.3080616593360901, -0.1577083021402359, 0.4186038374900818, 0.11828386783599854, 0.19723594188690186, -0.2997952401638031, 0.2884141504764557, 0.1561601459980011, -0.20660391449928284, -0.4285419285297394, -0.2622115910053253, -0.20007939636707306, -0.25469109416007996, -0.5713750720024109, 0.38834038376808167, -0.014416194520890713, 0.1089891716837883, 0.2663244903087616, 0.13419996201992035, -0.11875083297491074, -0.3016826808452606, -0.028933102265000343, 0.138426274061203, 0.03500651568174362, -0.07952550053596497, 0.11651190370321274, 0.4828783869743347, -0.01030692458152771, 0.0868605226278305, -0.024916164577007294, 0.022806119173765182, 0.21212103962898254, 0.22894936800003052},{0.29179322719573975, 0.14428243041038513, -0.12194225192070007, 0.138440802693367, 0.1724291443824768, -0.273314893245697, -0.2684606909751892, 0.4004436433315277, 0.42390021681785583, 0.2916692793369293, -0.12168741226196289, -0.2702532410621643, -0.5179458856582642, -0.10491716116666794, 0.15657728910446167, -0.08618047833442688, 0.4423861801624298, 0.251361221075058, 0.1831737458705902, -0.027827637270092964, 0.19123168289661407, 0.05721437186002731, 0.20323804020881653, 0.48419103026390076, -0.12022488564252853, -0.07679444551467896, -0.013859868980944157, 0.0918625146150589, 0.07743123918771744, -0.21617695689201355, 0.177176833152771, 0.1308957040309906, 0.09633702784776688, -0.07899858057498932, -0.36123329401016235, -0.16959218680858612, 0.1603960543870926, 0.18588894605636597, 0.2749328911304474, 0.1298842430114746, -0.13465777039527893, -0.12216829508543015, 0.3871460556983948, 0.08753827214241028, -0.2551044523715973, -0.0026440336368978024, -0.2433094084262848, 0.1765301525592804, 0.28075510263442993, 0.25617095828056335, 0.2542441487312317, 0.3687405586242676, -0.13165511190891266, 0.04382968693971634, -0.2869322896003723, -0.1908685266971588, -0.14009429514408112, -0.0688755139708519, -0.1272788941860199, -0.09853895008563995, -0.11804689466953278, 0.18071311712265015, 0.12671628594398499, -0.08242812752723694},{-0.5258769989013672, 0.055990055203437805, 0.11663362383842468, -0.02286805957555771, 0.2014390379190445, 0.304762065410614, -0.048428576439619064, -0.17246472835540771, -0.08661693334579468, 0.06806744635105133, 0.15856963396072388, -0.1786808967590332, -0.018656304106116295, -0.12110042572021484, -0.13624133169651031, 0.15799817442893982, 0.0406547412276268, -0.053708720952272415, 0.11086226254701614, -0.10832176357507706, 0.1480693221092224, 0.022921839728951454, 0.5518280267715454, -0.34115028381347656, 0.12744757533073425, 0.11068671196699142, -0.16965006291866302, 0.14532537758350372, 0.13878482580184937, 0.3267459571361542, -0.22355706989765167, 0.5289626121520996, 0.1228574812412262, 0.27811869978904724, 0.3968495726585388, -0.11119523644447327, 0.28092700242996216, -0.03286029398441315, -0.3846842348575592, -0.23533934354782104, 0.09858280420303345, 0.33693525195121765, 0.21626044809818268, 0.073237843811512, 0.1823612004518509, -0.0602664053440094, -0.001414892147295177, 0.05472894012928009, -0.45626091957092285, 0.3017939627170563, -0.06315813213586807, -0.10088551044464111, -0.1994413435459137, -0.19580411911010742, 0.16135373711585999, -0.05504291132092476, -0.07784108817577362, -0.05539824068546295, -0.06374287605285645, -0.21544164419174194, 0.10616807639598846, 0.30579787492752075, 0.04331560805439949, 0.11498167365789413},{0.18390527367591858, 0.26096606254577637, -0.011828375980257988, 0.24107559025287628, -0.11969995498657227, -0.0743144229054451, 0.023333588615059853, 0.2811347544193268, 0.11227364093065262, 0.5214360952377319, 0.06531618535518646, 0.07796471565961838, 0.09308245778083801, 0.17043790221214294, -0.046193018555641174, 0.05114392191171646, -0.09556524455547333, -0.11824792623519897, 0.3401889503002167, -0.04821106046438217, 0.005816464778035879, 0.007886561565101147, 0.030875159427523613, 0.4454517662525177, 0.15491311252117157, -0.7366697788238525, 0.09982658177614212, -0.2448437213897705, 0.024742623791098595, -0.18925173580646515, -0.19978080689907074, -0.06226038932800293, -0.08602985739707947, -0.12253722548484802, 0.09080339968204498, -0.1922444850206375, 0.3083097040653229, 0.08623828738927841, -0.13863138854503632, -0.19249771535396576, 0.003779046470299363, 0.14668893814086914, -0.035789888352155685, 0.21684947609901428, 0.24399234354496002, -0.008129705674946308, 0.14246802031993866, -0.030073639005422592, -0.20295079052448273, 0.0864410549402237, 0.2102300375699997, 0.24647551774978638, -0.3389476537704468, -0.3319999873638153, -0.29806771874427795, 0.11448802798986435, -0.08411357551813126, -0.36417022347450256, 0.02279677614569664, 0.21808505058288574, -0.199304461479187, -0.0959235280752182, -0.04951521381735802, 0.05274170637130737},{-0.34080272912979126, 0.2285551279783249, -0.42145413160324097, 0.14532046020030975, -0.36023738980293274, -0.1919098198413849, 0.16337653994560242, -0.17004112899303436, 0.1281910389661789, -0.025239666923880577, 0.3532940745353699, -0.2833595275878906, 0.19476273655891418, 0.10289369523525238, -0.006064609158784151, -0.08417591452598572, 0.009568112902343273, -0.13990765810012817, -0.11275706440210342, -0.29351773858070374, -0.16213460266590118, -0.3537035584449768, -0.3960259258747101, 0.4542086124420166, 0.16996000707149506, 0.3517523407936096, 0.27202752232551575, -0.3017289638519287, -0.08909894526004791, 0.25440025329589844, -0.12283101677894592, -0.11284749209880829, -0.0024314038455486298, 0.1662123203277588, -0.15156131982803345, 0.2402096390724182, -0.3959334194660187, -0.04121578857302666, 0.0017016310011968017, -0.059557683765888214, -0.11012525856494904, 0.04575859010219574, 0.04174448177218437, 0.02563144639134407, 0.004154465161263943, -0.07405628263950348, -0.3049435019493103, -0.054827116429805756, -0.12091778963804245, -0.21214498579502106, 0.010676352307200432, 0.07985171675682068, -0.31630152463912964, -0.3713863790035248, -0.5974007248878479, -0.04859943315386772, -0.24277809262275696, 0.1841452717781067, -0.07520916312932968, -0.001293154782615602, 0.21978002786636353, 0.19293583929538727, -0.06546571850776672, -0.06277491897344589},{-0.19873212277889252, -0.20895949006080627, 0.22075113654136658, -0.24417872726917267, 0.06224607303738594, 0.27326634526252747, 0.0645870789885521, -0.19781546294689178, -0.13420523703098297, 0.39946448802948, -0.032907743006944656, -0.003851917339488864, 0.016890184953808784, -0.08577834814786911, 0.15955094993114471, -0.13642039895057678, 0.3352397680282593, -0.09641758352518082, 0.22002005577087402, 0.09198786318302155, 0.30681002140045166, -0.0895153060555458, -0.04334716871380806, -0.3575948476791382, -0.23607473075389862, -0.09433264285326004, -0.3772250711917877, -0.15809959173202515, 0.12284324318170547, -0.13652746379375458, -0.052880678325891495, -0.21800602972507477, -0.3757096230983734, -0.08284218609333038, 0.02661421149969101, -0.1001092866063118, 0.3010585904121399, -0.5341053605079651, 0.056076209992170334, -0.04474557563662529, 0.21382008492946625, 0.04591752588748932, -0.5164098143577576, -0.30017194151878357, -0.1162511482834816, 0.284579336643219, 0.1315835565328598, -0.44543418288230896, 0.1614072173833847, 0.19640225172042847, 0.14433367550373077, -0.44308292865753174, -0.1236603856086731, 0.10761842131614685, 0.008697783574461937, -0.245828777551651, -0.14260554313659668, -0.19263088703155518, -0.15022961795330048, -0.06849881261587143, 0.15295635163784027, 0.12492185831069946, 0.11575615406036377, 0.069117970764637},{-0.15387758612632751, 0.11538543552160263, -0.04572484269738197, -0.16047422587871552, -0.11609794199466705, 0.29877105355262756, 0.28865787386894226, -0.25984856486320496, -0.1065772995352745, 0.2558426558971405, -0.07515861093997955, -0.15883366763591766, 0.10399039089679718, -0.1295587718486786, 0.0842386856675148, 0.43879300355911255, -0.2057698667049408, -0.28956279158592224, 0.16980017721652985, 0.19072780013084412, 0.06646038591861725, -0.127950057387352, -0.21529962122440338, -0.3042369484901428, 0.050547581166028976, -0.23063956201076508, -0.20341956615447998, -0.4017544984817505, 0.08757447451353073, 0.1850292831659317, -0.08541512489318848, 0.03816068917512894, 0.06732945144176483, 0.17715872824192047, 0.1086195558309555, 0.26227033138275146, -0.4439215064048767, -0.02328561060130596, -0.08178991824388504, -0.18972957134246826, 0.092403843998909, 0.10699360817670822, 0.33341917395591736, -0.2551783323287964, -0.011618356220424175, 0.20242321491241455, -0.33935031294822693, 0.19057178497314453, -0.08592018485069275, -0.2000737339258194, -0.14936107397079468, 0.195869579911232, -0.09090431779623032, 0.3350870907306671, 0.0406515970826149, 0.06951139867305756, -0.07480818778276443, 0.44960257411003113, -0.09141088277101517, -0.33610016107559204, -0.3068600594997406, -0.08158572763204575, -0.02983079105615616, 0.03221028670668602},{-0.4620949923992157, 0.1167542040348053, -0.28463783860206604, 0.08347884565591812, -0.3180542588233948, 0.03503873199224472, 0.1624974012374878, 0.006868384312838316, -0.07954328507184982, 0.13789035379886627, 0.12715639173984528, 0.2179480791091919, 0.07855281233787537, 0.33220982551574707, -0.1917470544576645, 0.022738099098205566, 0.4925329387187958, -0.018054164946079254, 0.011966555379331112, -0.004960837308317423, 0.24179810285568237, 0.006170753389596939, -0.08436639606952667, -0.3148568868637085, -0.07252093404531479, 0.2202044278383255, -0.18015553057193756, -0.17622898519039154, -0.11563216149806976, 0.17646268010139465, -0.04733028635382652, 0.01787046529352665, -0.26532331109046936, -0.00979384034872055, 0.22571054100990295, -0.03383950889110565, 0.1356443464756012, -0.10254669934511185, -0.1206524595618248, -0.015527298673987389, 0.18084071576595306, 0.1525498330593109, 0.10061942785978317, -0.21435868740081787, -0.2721249461174011, -0.07232604920864105, 0.09895026683807373, 0.03772922232747078, -0.6110863089561462, 0.0952220931649208, 0.3752305805683136, -0.11800865083932877, 0.07915746420621872, 0.12249401956796646, 0.127924844622612, 0.1350482553243637, 0.10868575423955917, 0.21923166513442993, 0.32807043194770813, 0.0722590908408165, -0.1919967234134674, -0.1316702663898468, -0.02246471866965294, 0.0614374503493309},{-0.11056564748287201, -0.030355943366885185, -0.19883300364017487, -0.10608185827732086, 0.13863450288772583, -0.10250300168991089, -0.07183238863945007, 0.18933208286762238, 0.14605961740016937, -0.10953906178474426, -0.40998274087905884, -0.24697361886501312, -0.06719087809324265, 0.06722933799028397, -0.06755208969116211, -0.388667494058609, 0.0011667624348774552, 0.06840233504772186, 0.14768852293491364, -0.13707111775875092, 0.009047633968293667, -0.23855602741241455, -0.23394238948822021, 0.23984889686107635, 0.25839921832084656, -0.2079256772994995, 0.4214252233505249, -0.03679091855883598, -0.14534005522727966, -0.32073938846588135, -0.3694130778312683, -0.14594189822673798, 0.0733688548207283, -0.04430529847741127, -0.21083912253379822, 0.23221418261528015, 0.1060800775885582, 0.48247674107551575, 0.35675927996635437, -0.05166953429579735, -0.15900199115276337, 0.4451337456703186, -0.06394276767969131, 0.23001383244991302, -0.08648967742919922, 0.020852956920862198, 0.07855395972728729, -0.023119935765862465, 0.12158871442079544, 0.05589635297656059, 0.1387820541858673, -0.1084495261311531, -0.15990236401557922, 0.5811589360237122, -0.3766798973083496, -0.01570947654545307, -0.22020040452480316, -0.2338692545890808, 0.09927342087030411, 0.2627444267272949, -0.2657553553581238, 0.297336220741272, -0.17821107804775238, 0.03282937407493591},{0.2416129857301712, -0.032380737364292145, 0.0058808340691030025, -0.09676484018564224, 0.15596219897270203, -0.44942522048950195, -0.339456707239151, 0.19735929369926453, 0.04787236824631691, -0.46305495500564575, -0.10169907659292221, 0.025727026164531708, -0.2417297512292862, -0.03441586717963219, 0.31799477338790894, 0.0027888284530490637, 0.2575991451740265, -0.31133154034614563, 0.07277395576238632, 0.13643179833889008, -0.1417069137096405, -0.10067965090274811, -0.4739323854446411, 0.40213239192962646, -0.07815373688936234, -0.19858519732952118, 0.1813976764678955, 0.5224335789680481, 0.059854231774806976, -0.04405403137207031, 0.17962388694286346, -0.12013920396566391, 0.10515430569648743, -0.17482176423072815, -0.14299586415290833, -0.12336529046297073, 0.024562189355492592, -0.2052379846572876, 0.10416373610496521, -0.21943292021751404, -0.21299134194850922, -0.18623186647891998, -0.5362033843994141, -0.09851621836423874, -0.4682193398475647, -0.3220321238040924, 0.2086353898048401, 0.07584112882614136, 0.35605376958847046, 0.04197585582733154, -0.002059865975752473, 0.4628254771232605, -0.049379538744688034, 0.1694631427526474, -0.15047799050807953, -0.1199938952922821, -0.028532957658171654, -0.26557210087776184, 0.29459166526794434, -0.23227529227733612, -0.09603683650493622, 0.27929386496543884, -0.37441450357437134, 0.48874005675315857},{-0.3350841701030731, 0.05656009539961815, -0.2762645184993744, -0.24878905713558197, 0.042738448828458786, 0.24777339398860931, -0.14083591103553772, 0.2754848897457123, 0.21192137897014618, -0.13405859470367432, 0.3480846881866455, -0.27974990010261536, 0.17923851311206818, -0.08776819705963135, -0.07113592326641083, 0.3234054446220398, 0.23021608591079712, -0.09414416551589966, 0.11057528853416443, 0.11023084074258804, 0.11484451591968536, -0.07840520143508911, 0.012401055544614792, -0.05324877053499222, -0.13221614062786102, -0.1556880623102188, -0.1723964959383011, -0.35414090752601624, 0.21521782875061035, -0.088724784553051, 0.11267732083797455, -0.12334340065717697, 0.2953993082046509, 0.06588660180568695, -0.08852013945579529, 0.23566699028015137, 0.11079176515340805, -0.027764011174440384, -0.19239091873168945, 0.04722340404987335, -0.3948058485984802, 0.21363183856010437, 0.044943418353796005, -0.13561855256557465, 0.17900612950325012, 0.10476720333099365, 0.4311428666114807, -0.21358051896095276, -0.20168951153755188, 0.011511421762406826, -0.05854665860533714, -0.321617066860199, -0.1504497528076172, 0.3023262321949005, 0.1790298968553543, -0.04973265156149864, -0.0671660453081131, 0.25068381428718567, -0.20658545196056366, 0.08438081294298172, 0.19582511484622955, -0.43217435479164124, 0.010824721306562424, 0.09515955299139023},{-0.6970505118370056, 0.25662243366241455, 0.6897864937782288, -0.015309122391045094, -1.0963919162750244, 0.835869550704956, 0.39068394899368286, 0.03851095959544182, 0.10340768843889236, 0.6051138043403625, 0.8525585532188416, 0.1812099665403366, -0.10285061597824097, -0.5003156661987305, 1.1310077905654907, 0.4840015470981598, -0.46633264422416687, 0.30043795704841614, -0.2723805010318756, 0.2353367656469345, 1.1000727415084839, 0.0824206992983818, -0.30386602878570557, -0.4889300465583801, -0.5330457091331482, -0.8244508504867554, -1.2198054790496826, -0.5524312257766724, -0.43862131237983704, -0.13669565320014954, -0.1950930655002594, 0.04045625776052475, 1.2182143926620483, -0.7226582169532776, 0.4193405508995056, 0.49747565388679504, 0.30877453088760376, -0.49979302287101746, 0.06697836518287659, 0.1412229686975479, -0.8752317428588867, 0.972326397895813, 0.1871962696313858, -0.021950729191303253, -0.010285096243023872, 0.185878187417984, 0.6167638301849365, 0.925489068031311, -0.5911465883255005, -0.8466287851333618, 0.9325234889984131, -0.8497234582901001, 0.6046489477157593, -1.3056609630584717, -0.4243536591529846, -0.24382618069648743, -1.1829442977905273, -0.025067932903766632, 0.7220374345779419, 0.29541778564453125, 0.8498860001564026, 0.48587778210639954, 0.9137647151947021, 0.641270101070404},{0.17987626791000366, 0.14637435972690582, 0.3151807188987732, 0.08695582300424576, -0.20947273075580597, -0.2058642953634262, 0.11366124451160431, -0.08656500279903412, -0.18564429879188538, -0.241766557097435, -0.3895622491836548, 0.048797667026519775, -0.2291870266199112, 0.0076199681498110294, -0.037714093923568726, -0.3181767761707306, -0.05469034984707832, -0.29039672017097473, 0.22103187441825867, 0.012360231019556522, 0.06656242907047272, -0.012723252177238464, 0.2558441460132599, 0.24437643587589264, -0.11018827557563782, -0.052992768585681915, 0.03423106297850609, 0.33630087971687317, 0.37175971269607544, -0.10440386831760406, -0.1760796755552292, -0.23557813465595245, 0.11129207164049149, -0.08584923297166824, -0.22449512779712677, -0.13358408212661743, 0.2335953712463379, 0.13911068439483643, 0.041026365011930466, -0.09405452013015747, -0.02231426164507866, -0.4852856695652008, 0.1280527412891388, 0.4121861159801483, -0.6831269860267639, -0.1413530707359314, 0.3494201600551605, -0.16290420293807983, 0.33990293741226196, -0.09184128791093826, -0.21961601078510284, 0.26078858971595764, 0.10336758941411972, 0.09881898760795593, 0.07273374497890472, -0.25781217217445374, -0.07169262319803238, 0.05901123583316803, 0.14367106556892395, -0.11750078201293945, 0.3354516327381134, -0.10289080440998077, 0.19984325766563416, -0.10586188733577728},{0.32022222876548767, 0.2282150387763977, -0.13640710711479187, 0.3128771185874939, 0.03480914980173111, 0.3126845359802246, 0.1875276416540146, 0.25747931003570557, 0.537738025188446, -0.18679220974445343, 0.24277794361114502, 0.05031777545809746, -0.048687536269426346, 0.4236657917499542, 0.08351440727710724, -0.08620680123567581, -0.3060317039489746, 0.056725841015577316, 0.1798216700553894, -0.28524625301361084, -0.06907793879508972, 0.012608792632818222, 0.2617756128311157, 0.39743056893348694, -0.19550953805446625, 0.20775684714317322, 0.039993397891521454, -0.2516416311264038, 0.15904057025909424, 0.2018662393093109, 0.1329316347837448, 0.3449324369430542, 0.010112746618688107, -0.14005820453166962, 0.026946859434247017, 0.19109007716178894, -0.26875433325767517, 0.24457499384880066, 0.20999188721179962, -0.17328360676765442, 0.18600346148014069, -0.011144323274493217, 0.13245178759098053, 0.7219252586364746, 0.1586076021194458, 0.1933414340019226, -0.010531958192586899, -0.11915849894285202, 0.2693350911140442, 0.15917114913463593, 0.17010506987571716, 0.2686614394187927, 0.1783927083015442, 0.04799671843647957, -0.3264973759651184, 0.1822008490562439, 0.11837388575077057, -0.09436780959367752, 0.3152405619621277, -0.28301453590393066, -0.1503809690475464, 0.12287691980600357, -0.08843675255775452, 0.14260028302669525},{-0.25340282917022705, 0.20199544727802277, -0.18270064890384674, -0.0921669751405716, 0.03361458331346512, 0.015550398267805576, 0.005035115871578455, 0.1824183613061905, 0.44034498929977417, -0.3222145736217499, -0.04276350140571594, 0.14414449036121368, 0.2725127041339874, -0.20864537358283997, 0.05929834768176079, -0.01237725093960762, 0.02300487831234932, 0.3613550662994385, -0.011850675567984581, 0.18587853014469147, -0.22756581008434296, -0.2893203794956207, -0.31719422340393066, 0.16448406875133514, 0.2590200901031494, -0.11898700892925262, 0.09121749550104141, 0.3970126211643219, -0.34046703577041626, -0.29157698154449463, 0.09918590635061264, -0.02241474576294422, -0.029571842402219772, -0.058546282351017, 0.13144780695438385, 0.34010550379753113, 0.016263563185930252, 0.4731632471084595, 0.027252422645688057, -0.07033269107341766, 0.12073077261447906, -0.3589848577976227, -0.26080116629600525, -0.03980996087193489, -0.13876475393772125, 0.19448211789131165, -0.11183483898639679, -0.11684832721948624, 0.21429339051246643, -0.1661316305398941, 0.42275184392929077, 0.32105231285095215, -0.27523091435432434, -0.06168409064412117, -0.298667848110199, 0.03426562249660492, -0.4344167113304138, 0.16426242887973785, -0.11686603724956512, -0.08395826071500778, 0.15099799633026123, -0.14797405898571014, -0.15731678903102875, -0.05521107092499733},{0.3878990113735199, 0.13043655455112457, -0.030661463737487793, 0.32829707860946655, 0.3548225164413452, 0.23814795911312103, -0.10295742750167847, 0.15023134648799896, -0.1354145109653473, 0.12305391579866409, 0.08438350260257721, -0.062110960483551025, -0.2542189955711365, 0.11387984454631805, -0.1501234620809555, 0.08754806965589523, -0.19422303140163422, -0.055889829993247986, 0.35269346833229065, 0.005445594433695078, 0.055675093084573746, 0.27348676323890686, 0.23353229463100433, 0.05611066892743111, 0.04295997694134712, 0.005872030276805162, 0.010866744443774223, 0.4460449814796448, -0.29244446754455566, 0.17439284920692444, -0.3018699884414673, 0.09322366118431091, 0.008284110575914383, -0.2919425368309021, 0.012177580036222935, -0.5135126709938049, 0.4174620807170868, -0.6602782011032104, 0.07359340786933899, 0.19678008556365967, -0.053659114986658096, -0.33590981364250183, 0.349540114402771, 0.21402505040168762, -0.029337933287024498, -0.1101713702082634, 0.04226100444793701, -0.3677510619163513, 0.262043833732605, -0.1426524668931961, -0.12353639304637909, -0.34332868456840515, 0.0396406389772892, 0.2555234432220459, 0.216861754655838, -0.1319361925125122, -0.05994545668363571, -0.0013585120905190706, 0.1750551164150238, -0.22527487576007843, -0.2290651649236679, 0.10514196008443832, -0.07955729216337204, -0.12319296598434448},{-0.1537521779537201, 0.05219869688153267, 0.36892154812812805, -0.12731929123401642, 0.21385829150676727, -0.2674403786659241, -0.07063248753547668, -0.2224530428647995, -0.01575108803808689, 0.0711570754647255, 0.008603698574006557, -0.4546438753604889, -0.008445732295513153, -0.37335559725761414, -0.003966037184000015, 0.053502026945352554, -0.06308203190565109, 0.10677159577608109, 0.37738293409347534, 0.1934940367937088, -0.17465715110301971, -0.0015809828182682395, 0.14049559831619263, -0.4109327793121338, -0.17763039469718933, 0.012341915629804134, 0.07983406633138657, -0.33235451579093933, 0.07818098366260529, -0.1871974766254425, -0.3388538658618927, -0.1125764548778534, 0.2313830405473709, -0.1684819757938385, -0.0021815807558596134, -0.27271947264671326, 0.19276465475559235, -0.43976619839668274, -0.12506604194641113, 0.14119325578212738, 0.1440485417842865, -0.1083340048789978, -0.21076004207134247, -0.09449617564678192, -0.053280510008335114, 0.05066200718283653, 0.38139745593070984, -0.07245117425918579, -0.16689760982990265, 0.3730509579181671, 0.4202679991722107, -0.33937835693359375, 0.0166325643658638, -0.1303112655878067, 0.5421715974807739, 0.08338151127099991, 0.1966104805469513, -0.024763667955994606, 0.1053677573800087, -0.31793299317359924, -0.18508513271808624, -0.03733062744140625, 0.17968352138996124, 0.05604015663266182},{0.060918547213077545, -0.3899783790111542, 0.17833787202835083, 0.1500362604856491, 0.11194948852062225, -0.07638911157846451, 0.0995698869228363, -0.08710358291864395, 0.001872996799647808, -0.046959538012742996, 0.27521249651908875, -0.06529977917671204, 0.31420058012008667, -0.24709045886993408, -0.30586832761764526, -0.10682302713394165, 0.023637065663933754, 0.11851625889539719, -0.18326476216316223, 0.3142402172088623, 0.25597241520881653, -0.11275892704725266, 0.006673865485936403, -0.10661088675260544, 0.10647944360971451, 0.018267465755343437, -0.05015465244650841, 0.08502427488565445, 0.006734403315931559, -0.3155534267425537, -0.2801015377044678, -0.0801159217953682, -0.3121401071548462, 0.05018826201558113, -0.23936966061592102, 0.30153322219848633, -0.31588515639305115, -0.021397089585661888, 0.2134445309638977, -0.015762003138661385, 0.08539403229951859, -0.02085154689848423, 0.013810557313263416, -0.45128870010375977, -0.1343606412410736, -0.2154315710067749, 0.0659811943769455, -0.006685566157102585, -0.17788657546043396, -0.07034922391176224, -0.08838456869125366, 0.20132209360599518, -0.23888863623142242, 0.10586598515510559, 0.0032760275062173605, -0.05125708132982254, 0.07677401602268219, 0.023780062794685364, 0.21223004162311554, -0.2530118525028229, 0.22532445192337036, -0.09129375219345093, 0.12186560034751892, 0.5539982914924622},{0.040881045162677765, -0.1428765505552292, 0.36585626006126404, 0.11483410000801086, -0.012553613632917404, 0.040191978216171265, -0.43565475940704346, -0.1467859148979187, -0.5782496929168701, -0.2694913148880005, 0.3862136900424957, -0.48330262303352356, 0.08484631776809692, -0.2654258906841278, 0.22058531641960144, -0.16514281928539276, 0.32173269987106323, -0.09647747129201889, 0.28461605310440063, -0.05155758932232857, -0.0011205037590116262, -0.15121997892856598, 0.24302539229393005, -0.45470529794692993, -0.12134797871112823, -0.1815766841173172, -0.23370851576328278, 0.037486668676137924, 0.08416552096605301, -0.332101434469223, 0.0029956423677504063, -0.18007637560367584, -0.31758761405944824, -0.0797167494893074, 0.2199922502040863, 0.14024901390075684, 0.4659256041049957, -0.22258564829826355, 0.052429910749197006, 0.26312384009361267, 0.15304814279079437, -0.05989019200205803, -0.352959543466568, -0.38800936937332153, -0.4590989947319031, -0.07524926960468292, 0.2325083464384079, 0.22935281693935394, 0.20041073858737946, -0.2653582990169525, -0.024868644773960114, -0.2531755864620209, -0.4348238408565521, 0.1385442465543747, 0.34217193722724915, -0.05028975009918213, 0.4014275372028351, 0.03970729559659958, 0.03534846752882004, 0.08386018127202988, -0.2382887750864029, -0.1883579045534134, -0.08493629842996597, -0.20435376465320587},{0.14450494945049286, 0.344786673784256, 0.4236007332801819, -0.002755126217380166, -0.22925902903079987, 0.27192848920822144, -0.13509206473827362, -0.06473321467638016, -0.20076316595077515, 0.20998211205005646, -0.09991585463285446, -0.5428599715232849, -0.36790409684181213, 0.42680445313453674, -0.1936434954404831, 0.14234107732772827, 0.07764116674661636, -0.04702679067850113, 0.1009468138217926, 0.1082342267036438, 0.2459467053413391, 0.17663638293743134, 0.3037353456020355, -0.230905681848526, -0.32953256368637085, 0.027636701241135597, 0.28402554988861084, 0.4042481780052185, -0.2361568659543991, -0.2662294805049896, 0.04714573547244072, 0.17724788188934326, 0.034188006073236465, -0.06752610206604004, -0.09528683871030807, -0.36072438955307007, 0.02214585244655609, -0.33159634470939636, -0.06961865723133087, -0.1656077802181244, 0.11831753700971603, -0.31325727701187134, 0.044555969536304474, 0.122451052069664, 0.11912063509225845, -0.06013931706547737, 0.3923909664154053, 0.05399325117468834, 0.2188941389322281, 0.1026085838675499, -0.08402682095766068, -0.05166209116578102, 0.2604430317878723, 0.02563425898551941, -0.038620613515377045, 0.10603410750627518, 0.36550843715667725, -0.15106111764907837, -0.3238149881362915, 0.04061324894428253, -0.0007376655121333897, 0.07975111901760101, -0.18786132335662842, 0.06904324889183044},{0.29491978883743286, -0.1569284051656723, 0.34089526534080505, -0.21034158766269684, -0.1635195016860962, 0.08632782101631165, 0.0355655699968338, 0.03091328591108322, -0.08136538416147232, 0.3151000440120697, 0.2941396236419678, -0.049517713487148285, -0.012687849812209606, 0.002449110383167863, 0.233211949467659, -0.04736340790987015, 0.01189163513481617, -0.2368161678314209, 0.022967776283621788, -0.015061317943036556, 0.2833879590034485, -0.23181812465190887, 0.22786949574947357, -0.6626204252243042, 0.2005687654018402, 0.1648387461900711, -0.03504740446805954, -0.037666622549295425, -0.18704107403755188, 0.23621436953544617, 0.13694879412651062, -0.011209641583263874, -0.1698625236749649, -0.10069701820611954, -0.07775702327489853, 0.061861053109169006, 0.1821940839290619, 0.038686156272888184, -0.28293097019195557, -0.01420518010854721, 0.045009296387434006, -0.1307392716407776, 0.1883823424577713, -0.2994285821914673, 0.22159713506698608, -0.11243310570716858, 0.7219350337982178, -0.07274976372718811, -0.3607824444770813, 0.08921848237514496, -0.008983002044260502, -0.3573663830757141, 0.02260204404592514, 0.0006982430932112038, 0.5433890223503113, -0.3153080344200134, 0.10853195935487747, 0.04961363971233368, -0.052750587463378906, -0.3532956838607788, -0.10703098773956299, 0.1863665133714676, -0.016459347680211067, -0.3072822093963623},{-0.08200974762439728, -0.04956752061843872, 0.031638529151678085, -0.0750764012336731, -0.10079100728034973, 0.03823472559452057, -0.008797631599009037, 0.22773374617099762, 0.1273304969072342, -0.29083818197250366, 0.021834250539541245, 0.045593105256557465, -0.5560727715492249, 0.3004148602485657, 0.08087548613548279, 0.21948300302028656, 0.009290290996432304, 0.23335839807987213, 0.16461025178432465, 0.1591772586107254, 0.13984325528144836, -0.1331704705953598, 0.2589662969112396, -0.3212539255619049, -0.03951182961463928, -0.4659125506877899, -0.17061413824558258, -0.27821528911590576, 0.23424319922924042, -0.364907830953598, -0.3611251413822174, -0.06819124519824982, -0.2842743694782257, -0.22853074967861176, 0.06798316538333893, -0.24127958714962006, 0.27954238653182983, -0.17753596603870392, -0.2374432384967804, -0.21330086886882782, 0.1587165743112564, 0.2198750078678131, -0.16047504544258118, -0.5061540603637695, -0.08716308325529099, -0.209239661693573, 0.20447731018066406, -0.0410781055688858, 0.1546856015920639, 0.19363538920879364, -0.03148968517780304, -0.6498692631721497, -0.1624193787574768, -0.38686177134513855, 0.023969238623976707, -0.3462581932544708, -0.020449548959732056, -0.035600677132606506, 0.06330049782991409, 0.005206122063100338, -0.06590370088815689, 0.172403022646904, -0.0983152687549591, -0.15145456790924072},{-0.10967915505170822, -0.1882457137107849, 0.23063310980796814, -0.00752775464206934, 0.15081088244915009, 0.06322798877954483, -0.02979978732764721, -0.451599657535553, 0.059158679097890854, -0.23837578296661377, 0.16218706965446472, 0.05681110545992851, 0.018743256106972694, -0.0533919520676136, -0.17457547783851624, 0.4399893879890442, 0.03636753186583519, -0.16216889023780823, 0.24369317293167114, 0.15539203584194183, 0.39182814955711365, 0.06520065665245056, 0.085704006254673, -0.5351462364196777, -0.320325642824173, 0.07076199352741241, -0.14502866566181183, -0.08715011924505234, -0.37779366970062256, 0.5567050576210022, -0.04019413888454437, -0.20421835780143738, 0.016643930226564407, -0.08219170570373535, -0.0728980079293251, 0.16622622311115265, 0.10994881391525269, -0.03858758136630058, -0.029345497488975525, 0.0159798301756382, 0.1935984045267105, -0.0022841626778244972, -0.04407389461994171, -0.4596796929836273, -0.15508225560188293, 0.26988887786865234, 0.2712792158126831, 0.10629574954509735, -0.3376135230064392, 0.280390202999115, -0.3236546218395233, -0.25447866320610046, -0.3576774597167969, -0.16328071057796478, 0.1844271868467331, 0.2719680666923523, 0.08420645445585251, -0.19971610605716705, 0.009713954292237759, 0.20917871594429016, 0.04225054010748863, -0.03361048176884651, 0.325348436832428, -0.29378199577331543},{0.0751744881272316, -0.15948577225208282, -0.6066117882728577, 0.2348940521478653, 0.7387574911117554, -0.12436775118112564, 0.27415931224823, -0.049270011484622955, 0.14598704874515533, -0.006339302286505699, -0.44823408126831055, -0.16245566308498383, -0.08824444562196732, 0.6031237244606018, -0.3428080976009369, -0.24466918408870697, 0.10761243104934692, 0.24453987181186676, 0.043508630245923996, -0.5856134295463562, -0.23863592743873596, 0.10272306948900223, -0.03798867017030716, -0.19104230403900146, 0.4266999065876007, 0.3000871539115906, 0.3898214101791382, -0.12576380372047424, 0.27570345997810364, 0.3888508677482605, 0.42449915409088135, -0.07781922817230225, -0.2893429398536682, 0.7961986660957336, 0.2211982011795044, -0.16391335427761078, -0.663449227809906, 0.14760124683380127, -0.3230000138282776, 0.07277268171310425, 0.4950452446937561, -0.452631413936615, 0.6618601083755493, 0.1981707662343979, 0.2564917802810669, -0.20180709660053253, -0.1830473244190216, -0.6095188856124878, 0.19255298376083374, 0.5181753635406494, -0.4206843674182892, 0.478299617767334, -0.47592297196388245, 0.2655032277107239, 0.448070228099823, 0.4409865438938141, 0.4357907176017761, -0.17595839500427246, -0.06832104921340942, -0.018352238461375237, -0.09642494469881058, -0.2834613025188446, -0.4927044212818146, -0.3513313829898834},{-0.021483853459358215, -0.42929521203041077, 0.08393432945013046, 0.3380695581436157, -0.19141598045825958, 0.44985929131507874, -0.14876653254032135, -0.4681418538093567, -0.12502172589302063, -0.13266168534755707, 0.053738247603178024, -0.01692906953394413, 0.05149437114596367, -0.13153299689292908, 0.1438053846359253, 0.6173453330993652, -0.227194145321846, -0.24315574765205383, -0.7183932065963745, -0.03667128458619118, 0.09471679478883743, 0.09416580200195312, 0.3215971887111664, -0.22635692358016968, -0.1739494502544403, 0.1557820737361908, -0.307169109582901, -0.07352062314748764, -0.07938718795776367, 0.4329896867275238, -0.3595064878463745, -0.5466142296791077, -0.21547596156597137, -0.050854139029979706, 0.24260766804218292, -0.23885859549045563, -0.5683606863021851, 0.03695671260356903, -0.377098947763443, 0.5762072205543518, 0.1579560786485672, 0.10046424716711044, 0.20260322093963623, 0.031009988859295845, 0.27921080589294434, -0.3975208103656769, 0.38932734727859497, 0.05070975422859192, -0.38377416133880615, 0.29083511233329773, 0.40600675344467163, -0.0035130390897393227, -0.04528015851974487, 0.04383202642202377, 0.15912367403507233, 0.22402508556842804, -0.2315138429403305, 0.39022743701934814, -0.5298148989677429, -0.31893211603164673, 0.06661447137594223, -0.0560341402888298, 0.2725833058357239, -0.061471618711948395},{-0.12162133306264877, -0.4073668420314789, -0.06449132412672043, 0.07284042239189148, 0.046078916639089584, 0.17639678716659546, 0.2572650611400604, -0.18812480568885803, -0.5599364042282104, 0.2089156061410904, 0.25365355610847473, -0.12100917845964432, -0.10355932265520096, 0.03225797414779663, -0.23502689599990845, 0.3549308776855469, -0.09471012651920319, 0.2540719509124756, -0.430026650428772, -0.20427477359771729, 0.06448963284492493, -0.16245415806770325, 0.07028349488973618, -0.08851755410432816, -0.24619323015213013, 0.10606646537780762, -0.04203462973237038, -0.23599134385585785, -0.0003102625487372279, 0.5433155298233032, 0.09053506702184677, -0.0846184715628624, 0.14378760755062103, -0.1878097802400589, 0.45593154430389404, 0.04673439636826515, 0.03218159079551697, -0.00117947265971452, 0.06685250252485275, -0.24089878797531128, 0.007111423648893833, 0.11776776611804962, 0.48089441657066345, 0.13617916405200958, 0.5071579813957214, 0.18749582767486572, 0.09418290108442307, -0.02259806916117668, -0.13994638621807098, 0.3483770787715912, 0.05971461161971092, 0.2935487627983093, 0.11879158765077591, -0.06260153651237488, 0.019895391538739204, -0.005569904111325741, -0.2464112490415573, 0.09574297815561295, 0.035360757261514664, -0.21942465007305145, 0.1345178484916687, -0.26570865511894226, -0.2989698350429535, -0.24997131526470184},{-0.028924861922860146, -0.01284150779247284, -0.20820561051368713, -0.1289149969816208, -0.00455888919532299, -0.3958360254764557, -0.012462988495826721, 0.2577674090862274, -0.0004998291260562837, -0.004278986249119043, 0.06518764793872833, 0.1016598790884018, 0.09014487266540527, -0.28187018632888794, 0.4795829653739929, -0.25414010882377625, -0.047929782420396805, -0.17223328351974487, 0.05623995140194893, -0.06956615298986435, 0.04235966503620148, 0.00336451199837029, 0.13286945223808289, 0.15384581685066223, -0.29045528173446655, 0.01378562767058611, 0.2388259917497635, 0.5112528800964355, -0.038714565336704254, -0.03406307473778725, -0.4592718780040741, -0.07318606227636337, 0.19312570989131927, -0.11507721990346909, -0.2876569628715515, -0.20706859230995178, -0.0016581983072683215, 0.2579154372215271, 0.2235085815191269, -0.27112913131713867, 0.19596827030181885, -0.3589398264884949, -0.14755938947200775, -0.3371751606464386, -0.03521924838423729, -0.21952508389949799, -0.167429119348526, 0.06676959246397018, 0.29696962237358093, 0.14230184257030487, -0.06292837858200073, -0.03964843973517418, -0.171874538064003, 0.4236094653606415, 0.07202582061290741, 0.06599181145429611, 0.4405621588230133, 0.018710996955633163, -0.05561001971364021, -0.08259083330631256, 0.17244111001491547, -0.426682710647583, -0.11564134061336517, 0.07055498659610748},{-0.19853022694587708, -0.022747278213500977, 0.2541162669658661, 0.28712496161460876, 0.21158669888973236, 0.34258729219436646, 0.3368857800960541, 0.14652100205421448, -0.00995319802314043, 0.06495002657175064, 0.19350861012935638, 0.13989421725273132, -0.21391482651233673, 0.07693307846784592, -0.03420630469918251, -0.21696749329566956, 0.11168408393859863, 0.12087570130825043, -0.15548059344291687, -0.14122574031352997, -0.11819048225879669, 0.21103443205356598, -0.35599571466445923, -0.11735386401414871, -0.08719155937433243, -0.10711599886417389, 0.2738253176212311, -0.37074774503707886, -0.2448965311050415, 0.04097914323210716, -0.35007616877555847, 0.4079691469669342, -0.08381785452365875, -0.1728285402059555, -0.1828158050775528, 0.22261245548725128, 0.013594798743724823, -0.18089547753334045, -0.40967416763305664, -0.11394652724266052, -0.1413278728723526, 0.3081757128238678, -0.13422891497612, -0.015338646247982979, -0.18861128389835358, -0.024569913744926453, 0.16591213643550873, 0.07617565244436264, -0.022921474650502205, 0.18698358535766602, -0.022997498512268066, 0.1292966604232788, -0.17249523103237152, -0.17929242551326752, 0.18033729493618011, -0.056916482746601105, -0.21762296557426453, 0.22857628762722015, -0.26607996225357056, 0.2220519781112671, -0.19816915690898895, -0.09026985615491867, 0.053071070462465286, -0.07816632091999054},{-0.06660960614681244, 0.4163082242012024, -0.33300352096557617, -0.10676166415214539, 0.29702773690223694, -0.47605016827583313, -0.3488644063472748, -0.051681194454431534, 0.2983424663543701, 0.09167947620153427, 0.05891827493906021, 0.0234695877879858, -0.2711733281612396, 0.18717683851718903, 0.12694349884986877, -0.39149758219718933, -0.02492230385541916, 0.060016848146915436, -0.12845535576343536, 0.07458523660898209, 0.05260983482003212, -0.09746305644512177, -0.2673129737377167, 0.7044171690940857, 0.07390722632408142, -0.019137060269713402, -0.10549619793891907, 0.07529258728027344, 0.18834078311920166, -0.3099993169307709, -0.33525943756103516, 0.003367863828316331, 0.17932671308517456, -0.36861541867256165, -0.20986545085906982, 0.45636194944381714, 0.01977621018886566, 0.3603648543357849, -0.1006854698061943, 0.2466868758201599, 0.10068739205598831, -0.35372889041900635, -0.09765392541885376, 0.3073652684688568, 0.14975771307945251, 0.025967689231038094, -0.25380420684814453, -0.022564861923456192, 0.36012163758277893, -0.22050732374191284, -0.22767479717731476, 0.3372064530849457, 0.0444212444126606, 0.13585366308689117, -0.2976660430431366, -0.15428218245506287, -0.10576394200325012, -0.469686895608902, -0.1211315244436264, -0.04218471422791481, -0.2616783380508423, -0.015802843496203423, -0.31332144141197205, 0.2189742773771286},{-0.17427371442317963, 0.05565953254699707, 0.23490306735038757, -0.12167322635650635, 0.27246367931365967, -0.32369253039360046, -0.10149634629487991, 0.23720596730709076, -0.04883858188986778, -0.07258152216672897, 0.10220316797494888, 0.3042278289794922, 0.06861794739961624, 0.03832552954554558, -0.027074389159679413, 0.12077830731868744, -0.02263859659433365, -0.46611687541007996, -0.008605030365288258, 0.3856026530265808, 0.08060553669929504, -0.01233397051692009, -0.03556407615542412, -0.09331044554710388, 0.008039670996367931, 0.3986610770225525, 0.28471192717552185, 0.23723722994327545, 0.29368337988853455, -0.17866119742393494, -0.008259575814008713, -0.1753758043050766, -0.11939109861850739, 0.14923594892024994, -0.24399706721305847, -0.26028040051460266, -0.17226198315620422, 0.12895835936069489, 0.36635732650756836, 0.1498866230249405, 0.0449579618871212, -0.24632512032985687, 0.20081062614917755, 0.22544299066066742, 0.10032109916210175, 0.30822113156318665, 0.0031616720370948315, 0.3377649784088135, 0.24256521463394165, -0.1477709412574768, 0.14592887461185455, 0.18773025274276733, -0.12708927690982819, -0.07773906737565994, 0.09761492908000946, -0.17454594373703003, -0.09545367956161499, 0.03973079100251198, 0.14122317731380463, -0.024317435920238495, -0.09564258903265, -0.11099230498075485, -0.22132974863052368, -0.17431673407554626},{0.04685346037149429, 0.12702946364879608, 0.22207996249198914, 0.12196782231330872, 0.12036878615617752, 0.12892653048038483, -0.010141519829630852, 0.0362040251493454, -0.004408576060086489, -0.1372494399547577, 0.2293217033147812, -0.17286543548107147, -0.33152616024017334, 0.05773213878273964, 0.09006188064813614, -0.39709407091140747, 0.002636166289448738, -0.026646345853805542, 0.5938498973846436, 0.13084830343723297, 0.06498777866363525, -0.17178578674793243, 0.07106257230043411, 0.12226123362779617, -0.16605833172798157, -0.2233753204345703, 0.040612202137708664, 0.385824978351593, 0.07256385684013367, -0.17935161292552948, -0.020553123205900192, -0.026651261374354362, -0.010437455959618092, -0.20418310165405273, 0.28646761178970337, -0.5945409536361694, -0.0033473020885139704, -0.24061621725559235, -0.1284426599740982, 0.22850540280342102, 0.33637842535972595, 0.029361126944422722, 0.1119135320186615, -0.2265293300151825, 0.2856176197528839, 0.13457851111888885, 0.30579888820648193, -0.05170247331261635, 0.0029582828283309937, 0.3895815908908844, -0.06342179328203201, 0.20151641964912415, 0.25484514236450195, 0.21253566443920135, 0.36152157187461853, -0.21733970940113068, 0.13394829630851746, -0.021844301372766495, 0.09720179438591003, 0.31997767090797424, 0.10207052528858185, 0.41505590081214905, 0.16692863404750824, -0.2556551992893219},{-0.2091512680053711, -0.01657436601817608, -0.0014618801651522517, -0.18545693159103394, 0.16495241224765778, 0.3031179904937744, 