
#include "nn_compute.h"

#define g 9.82f
#define mass 0.033f
#define kf 4.85e-10f

typedef enum { ACT_LINEAR = 0, ACT_TANH = 1 } nn_activation_t;
static const float kHoverRPM = sqrtf((g * mass) / (4.0f * kf));

static const int structure[3][2] = {{64, 17},{64, 64},{4, 64}};
static float output_0[64];
static float output_1[64];
static float output_2[4];
static const float mlp_extractor_policy_net_0_weight[64][17] = {{-0.09490816295146942,-0.040753256529569626,-0.6506421566009521,-1.451160192489624,0.8362701535224915,0.4065229594707489,-0.008418957702815533,-0.10258293151855469,0.37996816635131836,-0.3068943917751312,-0.17624469101428986,-0.2925734519958496,0.06383085995912552,0.3053966462612152,-0.15195168554782867,-0.4464367628097534,0.27728554606437683},{0.16144590079784393,-0.01357108075171709,0.1482536941766739,-0.10275933891534805,-1.7704676389694214,-0.4458259344100952,0.07758331298828125,-0.055817849934101105,0.09836031496524811,-0.41150474548339844,-0.19501231610774994,-0.17703980207443237,-0.48786935210227966,-0.36859625577926636,0.021608659997582436,-0.19647960364818573,0.05852068215608597},{0.075702004134655,0.10008002072572708,0.5823618173599243,1.9182240962982178,0.06001463904976845,0.18869657814502716,-0.20719125866889954,-0.22715185582637787,-0.524701714515686,-0.04422317072749138,0.2693861722946167,0.2026861011981964,0.21514910459518433,-0.02903790771961212,-0.23787717521190643,-0.21883220970630646,-0.30287405848503113},{0.17507661879062653,0.012817594222724438,0.47575342655181885,-0.3854866027832031,1.9155402183532715,-0.307464599609375,-0.16786114871501923,0.20169638097286224,-0.0747465193271637,0.2788209319114685,-0.12818288803100586,0.42858755588531494,-0.04110853374004364,-0.10577422380447388,-0.05486735329031944,-0.12024176865816116,-0.2601158320903778},{-0.023715829476714134,0.07720088958740234,-0.44930171966552734,-2.3123879432678223,-0.5426532030105591,-0.07734906673431396,0.13296003639698029,-0.2862228751182556,0.4402133524417877,-0.20738628506660461,-0.20827758312225342,-0.11459898203611374,-0.03972199186682701,-0.3451622724533081,0.034541063010692596,0.17098525166511536,0.14792115986347198},{0.05867931246757507,0.10164371877908707,-0.08906900137662888,0.8475432395935059,-0.2524181604385376,0.19867336750030518,-0.12260828167200089,0.4079163372516632,-0.34018704295158386,0.03180790692567825,0.054709091782569885,-0.1748100221157074,0.34915056824684143,-0.1934560239315033,-0.06431858241558075,0.13142676651477814,0.3057701289653778},{-0.3470941483974457,-0.06685103476047516,0.016597144305706024,-1.789881706237793,-0.035704828798770905,0.261678546667099,0.37524446845054626,0.14406141638755798,0.056773338466882706,-0.1496894359588623,-0.4884115755558014,0.05120576173067093,0.06361192464828491,0.22335682809352875,-0.3382270336151123,-0.01870799995958805,0.22918258607387543},{0.24071164429187775,0.14928320050239563,0.4070129692554474,-0.8569619655609131,0.2956233620643616,0.46292373538017273,0.011676236055791378,0.15734775364398956,0.15129968523979187,0.4957020580768585,-0.16838982701301575,-0.31768861413002014,0.17375227808952332,-0.06850762665271759,-0.22536242008209229,-0.01834440790116787,-0.0599563904106617},{0.18862032890319824,0.12197232991456985,0.052419889718294144,0.7241357564926147,-2.1679155826568604,-0.49929678440093994,0.241341695189476,-0.2155287116765976,-0.4607739746570587,-0.4950505793094635,-0.027729006484150887,-0.06696593761444092,0.20236152410507202,0.21728193759918213,-0.13551564514636993,0.06555148214101791,-0.11388488113880157},{0.1479857861995697,0.2098664790391922,-0.020304379984736443,0.7506341338157654,-0.2712775468826294,0.6704103946685791,0.2225428819656372,-0.2836226224899292,0.2624936103820801,-0.11671584099531174,-0.4179019629955292,-0.02586875483393669,0.1930014193058014,0.015111325308680534,-0.09958247095346451,-0.09886191785335541,-0.17503397166728973},{-0.11985469609498978,0.26131966710090637,0.11621404439210892,1.7073482275009155,0.8931053876876831,0.6252241134643555,0.0671021044254303,-0.015538841485977173,0.09789761900901794,-0.058200668543577194,0.1939346194267273,0.1330641210079193,-0.06621512770652771,-0.07439389079809189,0.19415520131587982,0.13984845578670502,-0.16982395946979523},{0.013698382303118706,0.2129792422056198,0.12639059126377106,-0.9190316796302795,-0.18969330191612244,-0.16784465312957764,-0.3648701608181,0.2733747065067291,0.008597276173532009,0.3900337517261505,-0.3896922171115875,-0.5733218193054199,0.07192427664995193,0.2538331151008606,-0.5683441758155823,0.16400368511676788,-0.049166202545166016},{-0.042854078114032745,0.3432943820953369,-0.267503023147583,-1.7684054374694824,0.3832188546657562,-0.3886432945728302,0.06926791369915009,-0.11709608137607574,0.36588194966316223,0.281861275434494,0.3015090227127075,-0.27453234791755676,0.08393241465091705,0.10632003098726273,-0.16154123842716217,-0.011787265539169312,-0.08176781982183456},{0.029657918959856033,-0.014626367017626762,0.6676543354988098,0.1831289380788803,0.2881644666194916,-0.20582066476345062,0.29508769512176514,-0.174417182803154,0.3611449599266052,0.4960342347621918,-0.18597351014614105,-0.3036130368709564,-0.025477437302470207,0.3520163893699646,-0.21895109117031097,-0.32462239265441895,-0.23144859075546265},{0.052177220582962036,0.2450849711894989,-0.22172874212265015,1.1730527877807617,-1.5423096418380737,-0.2586045265197754,-0.26657429337501526,-0.2854284346103668,-0.3623373806476593,0.08980385214090347,0.37556493282318115,-0.09618858247995377,-0.2103109210729599,0.06549625843763351,0.5043030381202698,-0.012655599974095821,-0.1955430656671524},{-0.19566169381141663,0.024053744971752167,0.1859825849533081,-1.3281440734863281,-0.7632482051849365,-0.4131971299648285,-0.08388005942106247,-0.20774227380752563,0.01195067260414362,0.07716428488492966,-0.1949407011270523,-0.04933040589094162,0.11654052138328552,-0.21035386621952057,-0.23668968677520752,-0.04346904903650284,0.02884599193930626},{0.12267953902482986,-0.07265444099903107,0.11454698443412781,1.0471550226211548,2.056553602218628,-0.06168964505195618,-0.2830946147441864,-0.08111176639795303,-0.05001239478588104,-0.27837303280830383,0.016928914934396744,-0.09286972880363464,-0.3857426345348358,-0.15848448872566223,0.2255954146385193,-0.21585021913051605,-0.03078686259686947},{-0.03350488841533661,-0.01624198630452156,0.2156834751367569,1.8666796684265137,0.3383968472480774,0.2680714428424835,-0.06969539076089859,-0.05217750743031502,-0.2606745660305023,0.12396979331970215,0.42742452025413513,-0.0060390508733689785,0.11596400290727615,0.2521915137767792,-0.041720520704984665,-0.09456703811883926,0.14159971475601196},{-0.341676265001297,0.15401390194892883,0.15060628950595856,0.45993614196777344,-0.6401950716972351,0.013534437865018845,0.799544632434845,-0.1712285280227661,0.023068465292453766,0.41391250491142273,0.3415237069129944,-0.03059612214565277,0.3216167688369751,-0.0006970324320718646,0.053332529962062836,-0.11798781156539917,-0.18222816288471222},{0.3293241858482361,-0.4139211177825928,-0.19220301508903503,0.5013474225997925,1.3910937309265137,-0.2510126829147339,0.09150061011314392,0.019978363066911697,-0.3106784224510193,0.14847713708877563,0.014173343777656555,0.24531668424606323,0.12740816175937653,-0.05775723606348038,0.0650235190987587,-0.2980210483074188,-0.20949597656726837},{-0.03836151584982872,-0.3850565254688263,0.3621768057346344,0.4709726870059967,-1.2976691722869873,-0.13543282449245453,-0.18572448194026947,0.03762684762477875,-0.05142524838447571,0.6673319935798645,0.02487931214272976,-0.24984700977802277,-0.08197928965091705,0.0034992792643606663,0.19166766107082367,-0.2853962779045105,0.2508149743080139},{-0.14285683631896973,-0.011831616051495075,0.19511236250400543,0.5968044400215149,-0.4642564654350281,0.5230291485786438,0.10367361456155777,-0.23491007089614868,-0.1712622195482254,0.29827380180358887,0.3106396794319153,-0.06831104308366776,-0.18512491881847382,0.11696374416351318,-0.16677750647068024,-0.027399687096476555,0.017399104312062263},{-0.14769314229488373,-0.20918910205364227,0.4831887483596802,-0.799529492855072,-1.6103603839874268,0.13989010453224182,-0.007196139544248581,-0.39691343903541565,-0.1607268899679184,0.46486330032348633,-0.3426252603530884,0.4205630123615265,-0.2919984757900238,0.1426139920949936,0.07530425488948822,0.351292222738266,-0.41413161158561707},{0.1886179894208908,-0.18226657807826996,-0.4120769202709198,-0.9718300104141235,1.5140608549118042,-0.18963311612606049,0.20338426530361176,0.30012181401252747,0.15808817744255066,-0.6580707430839539,0.10677950084209442,0.3718637228012085,-0.01608840562403202,0.34240102767944336,-0.022680817171931267,0.03940889984369278,0.01569364406168461},{-0.01504869107156992,0.008916893973946571,0.36219125986099243,-0.29799148440361023,2.028463840484619,-0.08040982484817505,-0.0508810356259346,0.47787243127822876,0.06491494923830032,0.037298597395420074,-0.04417179152369499,0.3884478211402893,0.06076705455780029,0.2763575315475464,-0.1760152280330658,-0.06565587967634201,0.3158203661441803},{-0.11157981306314468,-2.371096343267709e-06,-0.9911303520202637,0.48685500025749207,1.1314983367919922,-0.004592740908265114,-0.030218200758099556,0.0563737191259861,-0.37501949071884155,-0.14710265398025513,-0.23023100197315216,-0.0735381618142128,-0.15535704791545868,0.16178523004055023,0.4550849497318268,-0.49343863129615784,0.16618067026138306},{-0.3912252187728882,0.20517270267009735,0.35499173402786255,-1.4783869981765747,1.068376064300537,0.1813146471977234,-0.20931535959243774,-0.19118493795394897,0.01462843082845211,-0.07259003072977066,0.036635514348745346,0.05978453531861305,-0.008501713164150715,0.2193792313337326,-0.11831164360046387,-0.2966526448726654,0.24211227893829346},{0.13675197958946228,0.127223402261734,0.21879450976848602,-1.4938617944717407,-1.3810492753982544,-0.07930967956781387,0.17008861899375916,-0.36656826734542847,0.04861659184098244,0.20419038832187653,-0.172962486743927,-0.40591663122177124,0.21228186786174774,-0.10691967606544495,0.05446654185652733,0.32631513476371765,0.10579487681388855},{-0.1554923802614212,-0.6008235216140747,0.5624391436576843,1.379843831062317,-0.6276063323020935,-0.012474913150072098,-0.31271910667419434,-0.014474194496870041,0.04523081332445145,-0.14656095206737518,0.38072723150253296,-0.18170809745788574,0.02448968216776848,0.14231008291244507,0.1265658438205719,-0.17868056893348694,-0.10322977602481842},{0.0114192059263587,-0.15025518834590912,0.31987327337265015,-0.39965057373046875,2.286628484725952,0.19688285887241364,0.18594567477703094,0.2760646641254425,0.020668381825089455,0.2396412491798401,-0.2676132023334503,-0.12640559673309326,0.2004171907901764,0.05202037841081619,-0.47848039865493774,0.03546948730945587,0.19060908257961273},{0.11115972697734833,-0.1870240867137909,-1.0420736074447632,-1.8520838022232056,-0.9961275458335876,0.11482782661914825,-0.04121388867497444,0.28399255871772766,0.11533405631780624,0.3739071786403656,0.21430860459804535,0.0038042347878217697,-0.25422942638397217,-0.09002150595188141,0.57188481092453,0.33633628487586975,0.22790266573429108},{-0.07057541608810425,-0.11571703106164932,-0.2197822779417038,0.7702780365943909,1.863147497177124,-0.5496406555175781,-0.18307392299175262,0.2755349278450012,-0.07979927211999893,0.36854273080825806,0.12103763222694397,0.486537367105484,-0.15593959391117096,0.20742589235305786,-0.3313767910003662,0.06142444536089897,0.09681244194507599},{0.21618248522281647,0.12518532574176788,-0.7762922644615173,1.1150490045547485,0.8362805247306824,0.44757401943206787,0.1081954836845398,0.08791353553533554,0.013173727318644524,-0.20362186431884766,0.17595449090003967,0.17339937388896942,0.11728612333536148,0.3497713804244995,-0.10965203493833542,-0.022532591596245766,0.148600235581398},{-0.309547483921051,0.03835822269320488,-0.02776068076491356,1.1780598163604736,1.525985598564148,-0.0032344884239137173,-0.20014852285385132,0.09522625058889389,0.036026064306497574,0.30072444677352905,0.3552294075489044,-0.03210867941379547,0.1995895951986313,0.06371550261974335,0.09994633495807648,-0.24977150559425354,-0.28971627354621887},{-0.023770302534103394,-0.019992362707853317,-0.00024251651484519243,-1.4333691596984863,1.273494005203247,-0.2259591668844223,-0.1933111995458603,0.35478121042251587,0.13661597669124603,0.00838478747755289,-0.16543002426624298,0.21406368911266327,-0.003806176595389843,-0.10058149695396423,-0.006460760720074177,0.06843986362218857,0.05869738757610321},{-0.1741475611925125,-0.05339299514889717,-0.8672610521316528,-0.18356505036354065,-1.4721688032150269,0.06524837017059326,-0.12256041914224625,0.09387578815221786,-0.13444377481937408,-0.4157881736755371,-0.2202981561422348,0.08595189452171326,0.08530440181493759,-0.12244890630245209,-0.2617962658405304,0.03162897750735283,-0.2556864619255066},{-0.038324881345033646,-0.04884655773639679,-0.36165833473205566,-0.023729639127850533,-0.1580212116241455,0.3276175260543823,-0.2411578893661499,-0.053514886647462845,0.0506107471883297,0.027138372883200645,-0.15894722938537598,-0.3186676800251007,0.5801366567611694,0.01163528487086296,-0.15529100596904755,0.42960208654403687,-0.005836822092533112},{-0.019253969192504883,-0.2532992959022522,-0.2293936014175415,0.9523673057556152,-2.100332260131836,-0.2823235094547272,0.11563039571046829,-0.5071527361869812,-0.10855279862880707,0.22983016073703766,-0.011255580931901932,-0.2829269468784332,-0.19200778007507324,0.04851994663476944,0.14570002257823944,-0.23170354962348938,0.02538362331688404},{0.1724260002374649,-0.16738849878311157,0.3964361846446991,-1.680649995803833,0.3527662456035614,0.5170618891716003,-0.09748736023902893,0.05325355753302574,0.007856868207454681,0.45189085602760315,-0.14016272127628326,0.12558840215206146,0.07848549634218216,-0.30385130643844604,0.04805704951286316,0.08074180036783218,-0.04156813398003578},{-0.1713065803050995,-0.39509904384613037,0.5892977118492126,-1.0521376132965088,-1.0609937906265259,-0.3357398509979248,0.35524776577949524,-0.29883792996406555,-0.11068268865346909,-0.19945794343948364,-0.20560479164123535,0.13927528262138367,0.2710590064525604,-0.4290718734264374,-0.09043600410223007,-0.058711305260658264,0.12402932345867157},{-0.05526350811123848,0.04697418957948685,0.08354377001523972,-1.7449171543121338,-1.2669410705566406,0.17094677686691284,-0.002020209329202771,-0.4583318531513214,-0.02785053849220276,0.10628865659236908,-0.19456517696380615,-0.0782308429479599,0.042165424674749374,0.2722403109073639,0.05742800608277321,-0.056168776005506516,0.2499207705259323},{0.16916149854660034,0.18177393078804016,-0.13261184096336365,0.10502787679433823,-1.4680427312850952,0.16780488193035126,-0.23145277798175812,-0.07381104677915573,0.057835809886455536,0.625396192073822,0.2597564458847046,-0.3938385844230652,0.1754121333360672,0.18233034014701843,-0.2252790629863739,-0.0669204592704773,0.05613070726394653},{-0.4667239487171173,-0.22147075831890106,-0.3377784788608551,1.670980453491211,-0.18339639902114868,0.014507370069622993,0.12400054931640625,-0.3359006345272064,-0.12298934906721115,0.16262228786945343,0.09884192794561386,0.02552894316613674,0.29048413038253784,-0.14348509907722473,-0.007371493149548769,0.09666922688484192,-0.08760474622249603},{0.32844215631484985,-0.10427224636077881,0.7027855515480042,0.2721341848373413,0.2984480559825897,0.07781221717596054,-0.005901049356907606,-0.14007903635501862,-0.255369633436203,0.16378240287303925,-0.20412088930606842,0.05439487099647522,0.3509792983531952,-0.016531337052583694,0.01545169297605753,0.08316860347986221,0.04854371398687363},{-0.03684275969862938,0.1802377849817276,0.20773236453533173,-0.27461597323417664,2.080538034439087,-0.2235008031129837,0.049076445400714874,0.5367924571037292,0.034524254500865936,0.2900483012199402,-0.48893970251083374,0.2646518647670746,-0.03871387243270874,-0.08341951668262482,0.16406112909317017,0.010666522197425365,0.25432249903678894},{-0.4610021412372589,-0.030175117775797844,-0.2277965247631073,1.1814031600952148,-0.641534149646759,-0.05705904960632324,0.07785753160715103,-0.2045956552028656,-0.22850914299488068,-0.21318331360816956,0.3169277608394623,-0.028016863390803337,-0.3609887957572937,0.061707351356744766,0.27480876445770264,0.22620393335819244,-0.18623293936252594},{-0.0022648877929896116,0.15097779035568237,-0.581289529800415,0.31057918071746826,0.4211346209049225,-0.010416949167847633,-0.21101103723049164,0.16260786354541779,-0.2618793249130249,-0.7344279289245605,0.229243665933609,-0.09317126870155334,-0.3005618155002594,-0.12337686121463776,-0.16342441737651825,-0.013157011941075325,0.031379640102386475},{-0.06130607798695564,-0.10363047569990158,-0.48507505655288696,0.9388088583946228,-1.4637871980667114,0.5043172240257263,-0.1292383223772049,-0.02885798178613186,-0.22011969983577728,-0.20664013922214508,0.2287181317806244,-0.12072067707777023,0.02383720874786377,-0.08125848323106766,-0.2640712857246399,-0.0543791726231575,-0.09156408160924911},{0.1110091283917427,0.3402612805366516,0.892674446105957,0.31778961420059204,-1.764951467514038,0.011899095959961414,-0.13281340897083282,0.09104309976100922,-0.07703506201505661,0.5611181855201721,0.15760496258735657,-0.3631191849708557,-0.4356423020362854,-0.17688043415546417,0.08111429959535599,0.13979363441467285,-0.0718400701880455},{0.3697039484977722,-0.45203790068626404,-0.5093498826026917,1.8598051071166992,1.3849419355392456,0.36490780115127563,0.15869396924972534,0.11656417697668076,-0.244448721408844,0.28502342104911804,-0.01999433897435665,0.08341172337532043,-0.1584150493144989,0.022977273911237717,-0.1073487177491188,0.1953575164079666,0.15573079884052277},{-0.04455184191465378,-0.026603393256664276,0.22716787457466125,-0.7938063144683838,-0.4078636169433594,0.22289536893367767,-0.5457525849342346,-0.18154123425483704,0.230137437582016,0.6273584365844727,-0.18417997658252716,0.08121183514595032,-0.32128316164016724,-0.22088545560836792,-0.35176363587379456,0.005840914789587259,-0.20553703606128693},{-0.063081756234169,-0.05013952776789665,-0.8188079595565796,0.24541978538036346,-0.13146893680095673,0.19324713945388794,-0.10057245939970016,0.095950648188591,-0.04785250872373581,-0.2820985019207001,-0.05503707379102707,0.03305831551551819,0.38753649592399597,0.2456052303314209,-0.0159884262830019,0.11680640280246735,0.0930357277393341},{0.0322832427918911,-0.016733892261981964,0.12821558117866516,1.2324659824371338,0.7832072377204895,-0.09346691519021988,0.40005484223365784,-0.08371315896511078,-0.21683049201965332,0.35380131006240845,0.22717896103858948,0.0873781144618988,-0.07795097678899765,0.020752498880028725,0.16202892363071442,-0.26930394768714905,0.11030357331037521},{-0.06034097820520401,-0.04592801630496979,-0.054609429091215134,-1.7177202701568604,0.12912948429584503,-0.2574882507324219,0.0953671783208847,0.0776369720697403,0.34358224272727966,0.12201792746782303,-0.3728264272212982,0.16222667694091797,-0.16559742391109467,0.1281401515007019,0.07183970510959625,0.15860800445079803,0.0879775881767273},{-0.08244431018829346,0.027853384613990784,-0.45635297894477844,0.46044987440109253,0.1353025585412979,0.0009279363439418375,0.2957507073879242,-0.2676834464073181,-0.1952047348022461,-0.19196029007434845,-0.0010942933149635792,-0.3067609667778015,-0.5414668321609497,-0.06517772376537323,0.0913434848189354,-0.16066449880599976,0.306473046541214},{-0.008824937976896763,-0.09575563669204712,0.1357378214597702,-0.8023673892021179,-2.1529412269592285,0.04656825214624405,-0.09117375314235687,-0.4739820659160614,0.3754991888999939,-0.13822107017040253,-0.004691443871706724,-0.1558399647474289,0.19874653220176697,0.07456469535827637,-0.08629269897937775,-0.0973430946469307,-0.17422889173030853},{-0.02515992894768715,-0.2172991931438446,-0.08551666885614395,2.090254306793213,-0.7969306111335754,-0.33570054173469543,0.03997116908431053,0.06209530308842659,-0.2464095950126648,0.44823238253593445,0.136111781001091,-0.5759055018424988,-0.01663867197930813,-0.23073096573352814,-0.10150469839572906,0.22749389708042145,0.029114438220858574},{0.3862455487251282,0.09840943664312363,0.48143425583839417,-0.9518003463745117,1.7269210815429688,0.7244309782981873,0.01740105263888836,0.047158725559711456,0.050469569861888885,0.21476680040359497,-0.10531697422266006,-0.2160627245903015,-0.4188343286514282,-0.19040946662425995,-0.1462658792734146,-0.6609047651290894,-0.16493652760982513},{-0.03129523620009422,-0.14043502509593964,0.11865975707769394,1.4720416069030762,1.524512529373169,-0.1333717405796051,0.19380056858062744,0.4353477358818054,0.14717033505439758,0.08603387326002121,0.27986475825309753,-0.1096700057387352,-0.12884904444217682,0.018496597185730934,-0.23754841089248657,-0.31719496846199036,0.31761351227760315},{-0.04820142313838005,-0.05963810160756111,0.2003115564584732,2.0696864128112793,1.0939069986343384,0.07010339200496674,0.1554899364709854,0.0021376328077167273,-0.01962500810623169,-0.014991139061748981,0.20064198970794678,0.16945327818393707,0.06924350559711456,0.1592559665441513,-0.05642888322472572,0.033554792404174805,0.14517304301261902},{0.043846771121025085,0.01654447801411152,-0.3924759328365326,1.486314058303833,0.5736380815505981,-0.3007946014404297,0.12742604315280914,0.24422933161258698,-0.3099047839641571,-0.4870227575302124,0.09720968455076218,-0.20892255008220673,-0.15378732979297638,0.0809449702501297,0.005646336358040571,-0.18725517392158508,-0.12003658711910248},{0.066741444170475,0.26622670888900757,-0.44931310415267944,-0.6812815070152283,1.604813814163208,-0.6999287009239197,0.028663864359259605,-0.27182164788246155,0.10210339725017548,0.1934472769498825,0.21563154458999634,0.3186359107494354,-0.29040345549583435,0.049603790044784546,-0.26154011487960815,0.06863299012184143,0.1247575655579567},{0.42285043001174927,-0.2084144949913025,-0.4334750175476074,-0.18850627541542053,0.7644138932228088,-0.4527769088745117,-0.17778198421001434,-0.34125974774360657,0.29185807704925537,-0.1470462530851364,0.1727413833141327,-0.08321872353553772,-0.14553286135196686,0.31565532088279724,-0.18052275478839874,-0.19347967207431793,0.3382010757923126},{0.04232661798596382,-0.07593850046396255,0.42757999897003174,-0.2967154085636139,-1.2067806720733643,0.26923662424087524,0.34256699681282043,-0.077755868434906,-0.027062680572271347,0.04141448438167572,0.0129579221829772,-0.23921392858028412,0.25678950548171997,0.208387091755867,-0.019587991759181023,0.4838953912258148,-0.05136118829250336}};
static const float mlp_extractor_policy_net_2_weight[64][64] = {{-0.18294592201709747,0.09422805160284042,0.40774524211883545,-0.15147660672664642,0.1472347527742386,0.2929351329803467,-0.10511300712823868,-0.049522530287504196,0.4074382781982422,0.06888239085674286,-0.12848462164402008,0.14015184342861176,-0.08875440061092377,-0.20826929807662964,0.23304244875907898,-0.21230092644691467,0.033542901277542114,0.3558845520019531,0.1392865777015686,-0.126626655459404,0.15692533552646637,-0.0013449541293084621,0.35578659176826477,-0.04164779558777809,-0.1412048488855362,0.14957977831363678,-0.09270109236240387,0.36979997158050537,-0.0016776496777310967,-0.5543709397315979,-0.13699562847614288,-0.09919093549251556,-0.07404603809118271,-0.2761196792125702,-0.5997677445411682,-0.42146506905555725,0.3759157657623291,-0.01205921359360218,0.10495343804359436,-0.2593706548213959,0.24368195235729218,0.12709002196788788,0.11009280383586884,0.24740710854530334,-0.38735970854759216,0.16907115280628204,-0.4958268105983734,0.10341253131628036,0.08930598199367523,-0.20598925650119781,0.14872877299785614,-0.01480083167552948,0.10736151039600372,-0.265166699886322,0.07075683772563934,0.03519194945693016,0.24955789744853973,-0.13388048112392426,-0.2215227633714676,0.11526114493608475,-0.057342562824487686,-0.2867407202720642,-0.1579715460538864,0.27965298295021057},{-0.02039908990263939,0.07335367053747177,-0.03762220963835716,0.02766370214521885,-0.25612881779670715,-0.12531951069831848,0.015953408554196358,0.03139675408601761,-0.4503302574157715,0.0013959147036075592,0.17330773174762726,-0.22537890076637268,0.036545585840940475,-0.3805721700191498,0.011101160198450089,0.07800531387329102,0.26303550601005554,0.33683228492736816,0.13831168413162231,0.09794203191995621,-0.018253473564982414,0.07602596282958984,0.3281327784061432,0.45526397228240967,0.05994176119565964,-0.18358200788497925,0.34003186225891113,0.02701817825436592,-0.2057403028011322,0.4296979606151581,-0.24295684695243835,0.18852651119232178,-0.0436258427798748,-0.35995978116989136,-0.11633183062076569,-0.17483362555503845,0.08992073684930801,-0.05200723558664322,0.17533749341964722,0.10125534981489182,0.0014854947803542018,-0.3135935366153717,-0.10927540063858032,-0.02224801480770111,0.07718930393457413,0.04875027760863304,0.2621510922908783,-0.2594362795352936,0.004005909897387028,0.020102201029658318,0.049052465707063675,-0.10951519757509232,0.25116166472435,0.4448526203632355,0.11108193546533585,-0.2181839942932129,-0.268099844455719,-0.15712480247020721,-0.1037663072347641,-0.1374310702085495,-0.2579440474510193,0.5922427773475647,0.13743199408054352,0.1274741142988205},{0.022609591484069824,0.038581326603889465,0.18998511135578156,0.0990670919418335,0.23691976070404053,-0.14691337943077087,-0.16586829721927643,-0.00712309405207634,-0.15078487992286682,-0.12361642718315125,-0.13342422246932983,0.15392769873142242,-0.05633748695254326,0.04092980921268463,-0.13342124223709106,-0.0655287429690361,0.06781666725873947,0.24106784164905548,-0.023678764700889587,-0.05623709410429001,-0.189734548330307,0.2332739531993866,-0.1878199577331543,0.2690143585205078,0.27024367451667786,-0.047636862844228745,-0.08437761664390564,-0.029140274971723557,-0.29643404483795166,0.10848833620548248,0.215431347489357,-0.19750264286994934,-0.1852005273103714,0.3803984820842743,0.0708405151963234,0.2091454267501831,0.018281202763319016,-0.07005874067544937,-0.0026811854913830757,0.1323443502187729,0.46398529410362244,-0.35068753361701965,-0.23889631032943726,0.24892835319042206,0.22946114838123322,0.06111988425254822,0.015934135764837265,0.06896182149648666,-0.11335821449756622,0.06261575222015381,0.0983094871044159,0.1691315621137619,0.29128560423851013,-0.05396752059459686,0.09152573347091675,0.17777736485004425,0.2649438679218292,0.12050064653158188,-0.021584421396255493,-0.22912029922008514,-0.12680451571941376,0.1845659762620926,-0.08656919747591019,0.05021073669195175},{0.17137840390205383,-0.09745869040489197,-0.32123473286628723,0.041979480534791946,-0.15161782503128052,-0.16935309767723083,-0.16085191071033478,-0.13313935697078705,-0.18178917467594147,0.05277371406555176,0.07482254505157471,-0.025856394320726395,0.23158228397369385,-0.20043489336967468,0.2244655042886734,-0.41041186451911926,-0.21452803909778595,-0.008821707218885422,0.18785978853702545,0.017795192077755928,0.020222896710038185,-0.17200523614883423,0.04313724488019943,0.15359731018543243,-0.21519911289215088,0.7343867421150208,-0.5278252959251404,0.15399044752120972,-0.19101667404174805,-0.22574880719184875,0.7541153430938721,0.3737550675868988,0.32765907049179077,0.24260318279266357,-0.21881946921348572,0.10455071181058884,0.031153319403529167,0.3220628499984741,-0.28835389018058777,0.018514787778258324,-0.08918580412864685,0.4791609048843384,0.25000473856925964,-0.01562870293855667,-0.11146081238985062,-0.15667036175727844,-0.03266472369432449,0.1992969512939453,-0.4882664382457733,0.44335535168647766,-0.025660881772637367,0.2518044412136078,0.3564397096633911,0.17873747646808624,0.0068734087981283665,-0.6472036242485046,0.08276625722646713,-0.14780569076538086,-0.22906774282455444,-0.18455085158348083,0.23755455017089844,0.2757704257965088,0.16943852603435516,-0.06656409800052643},{-0.036840975284576416,0.018688423559069633,-0.25819122791290283,-0.38007283210754395,-0.035176023840904236,-0.2636040449142456,0.26570960879325867,-0.06695334613323212,0.0599011555314064,0.2715098261833191,0.17788341641426086,-0.13533471524715424,0.2855251729488373,0.2895832061767578,-0.17971810698509216,0.09677565842866898,-0.28635644912719727,0.17441102862358093,0.5986939072608948,0.22349540889263153,0.027994396165013313,0.06401751190423965,-0.12981408834457397,0.06191427260637283,0.07357700914144516,0.06103244423866272,-0.13226282596588135,0.004550251644104719,0.05940955504775047,0.14137767255306244,-0.39206504821777344,-0.09485865384340286,0.3800767958164215,0.25950565934181213,0.008135144598782063,-0.4133352041244507,-0.22560329735279083,0.03557896241545677,-0.18375763297080994,0.08134084194898605,0.18083444237709045,-0.28841158747673035,0.38254740834236145,0.22600609064102173,-0.11641024053096771,-0.20140886306762695,-0.4210222363471985,-0.28247877955436707,-0.026311423629522324,-0.015546506270766258,-0.39865580201148987,0.21182797849178314,0.3543092906475067,-0.2747233808040619,-0.4766555726528168,-0.017580658197402954,0.3136226236820221,0.006929241586476564,-0.02914445474743843,0.44331568479537964,0.11986114084720612,-0.3093675971031189,-0.37368589639663696,0.5701547861099243},{-0.4014003574848175,0.2675602436065674,0.05066297575831413,0.09174022078514099,0.1217876523733139,-0.054324306547641754,0.07485075294971466,0.14905589818954468,0.37482044100761414,0.09505293518304825,-0.025142615661025047,0.00011696546425810084,0.1537739634513855,-0.34061679244041443,0.0106406444683671,0.44697481393814087,-0.09058985859155655,-0.30554860830307007,-0.04741334542632103,-0.10988917946815491,-0.40526074171066284,-0.15604513883590698,0.42648541927337646,0.2582520544528961,0.11126275360584259,-0.3646102249622345,-0.008019854314625263,0.14735983312129974,0.007342358119785786,-0.5556819438934326,0.11676731705665588,-0.17824861407279968,-0.3271578252315521,0.20153459906578064,0.17703358829021454,0.11813703924417496,-0.16783685982227325,-0.10158801078796387,-0.26041245460510254,0.06244419887661934,0.22731313109397888,-0.265064001083374,0.14974452555179596,0.21402782201766968,-0.44749072194099426,0.1881229132413864,0.2984231412410736,-0.266430526971817,-0.09401799738407135,-0.13590791821479797,-0.09468306601047516,-0.14740470051765442,-0.25958648324012756,-0.13184399902820587,0.04141373559832573,0.4940837621688843,-0.23576627671718597,-0.34844914078712463,-0.784005880355835,-0.1302632838487625,0.20813481509685516,0.13999469578266144,0.15158049762248993,-0.03870115801692009},{-0.17151577770709991,0.5830300450325012,0.28100883960723877,0.09352708607912064,-0.2159564346075058,0.00019332421652507037,-0.3576696515083313,-0.48367831110954285,-0.1332577019929886,0.20541375875473022,0.06442788243293762,-0.18097877502441406,-0.06424371898174286,0.09258495271205902,0.25047072768211365,0.0048307678662240505,0.6796263456344604,0.47339072823524475,-0.09674062579870224,-0.13718198239803314,0.2400980293750763,-0.055728815495967865,-0.07172037661075592,-0.3684939444065094,0.09828192740678787,0.44603756070137024,0.01132029015570879,-0.44579964876174927,0.6779831051826477,-0.06110605224967003,-0.2607240676879883,0.17899183928966522,-0.08189675956964493,0.21459834277629852,-0.04276011884212494,-0.31668704748153687,0.10389403998851776,0.09206650406122208,-0.0506313256919384,0.025292478501796722,0.1763894110918045,-0.006833918392658234,-0.2906755805015564,0.20148548483848572,-0.024230292066931725,0.13610950112342834,0.27987831830978394,-0.10437651723623276,0.1280326247215271,-0.1724274754524231,-0.04995492845773697,-0.14783801138401031,-0.1099248006939888,-0.13646183907985687,0.15883171558380127,0.029046637937426567,0.1534155309200287,-0.16547870635986328,0.13864819705486298,0.11790739744901657,0.3034874200820923,0.14506307244300842,0.003223737934604287,-0.4379177987575531},{-0.11056147515773773,-0.44619229435920715,0.13423281908035278,-0.19665461778640747,0.11294402927160263,0.04840622469782829,0.044015396386384964,-0.3312923312187195,-0.468373566865921,0.44770485162734985,-0.2586575746536255,-0.0789821520447731,0.007438345346599817,0.04536455124616623,0.050214268267154694,0.20709344744682312,-0.019684502854943275,0.03826000913977623,-0.0501607321202755,0.22824624180793762,-0.017667509615421295,-0.03114902228116989,0.033094506710767746,0.1695626974105835,0.1360980123281479,0.06417586654424667,-0.16410647332668304,0.2470947504043579,0.1726749688386917,-0.23574981093406677,-0.22835560142993927,0.1566607654094696,-0.04551568999886513,0.04044300317764282,0.05355636402964592,0.05968182533979416,-0.009494293481111526,-0.06944148987531662,-0.21019308269023895,0.035098206251859665,0.051282163709402084,0.03464612737298012,-0.19532978534698486,-0.09625861048698425,-0.11120118945837021,-0.09864439815282822,0.06048367917537689,-0.0024308604188263416,0.41739416122436523,0.11387590318918228,-0.0642559602856636,-0.2463255226612091,0.02135375700891018,0.07826072722673416,0.05300882086157799,-0.22133755683898926,0.0237086471170187,-0.09156151115894318,0.003216759068891406,-0.1494002640247345,0.037061892449855804,-0.15300914645195007,-0.08455614745616913,0.0632224977016449},{-0.2784465253353119,0.29858410358428955,-0.3245583176612854,0.23767098784446716,0.0025238064117729664,0.09550418704748154,-0.01680571958422661,-0.08087946474552155,-0.29075121879577637,-0.24988408386707306,-0.24855203926563263,-0.19003643095493317,-0.20138011872768402,-0.040125876665115356,-0.20657706260681152,0.08828144520521164,-0.23026201128959656,-0.47940850257873535,0.045353055000305176,-0.01643514260649681,-0.00036650916445069015,-0.09473201632499695,0.3639424741268158,-0.414883553981781,-0.3248745799064636,-0.08339478820562363,-0.14922817051410675,0.15021593868732452,0.20466870069503784,-0.016407916322350502,0.0169044341892004,-0.052950698882341385,-0.6167691946029663,-0.22015303373336792,0.3217090368270874,-0.22976523637771606,-0.07797134667634964,-0.14775808155536652,-0.13444016873836517,0.09804744273424149,0.017131898552179337,-0.18993553519248962,0.09674528241157532,0.2990483343601227,0.17235487699508667,-0.27414029836654663,-0.6978190541267395,0.06897997111082077,0.3342524468898773,0.20770229399204254,0.06765779852867126,-0.3449287414550781,0.17643702030181885,0.36113086342811584,-0.07846510410308838,-0.09426669031381607,-0.243184432387352,-0.24487997591495514,-0.18222656846046448,0.11176151037216187,-0.137014240026474,-0.09835696220397949,-0.4114147126674652,0.2552887499332428},{0.42878618836402893,-0.7493924498558044,0.3965437114238739,0.12954549491405487,-0.0004090680449735373,0.10674187541007996,0.42546987533569336,-0.11811473220586777,0.1854575276374817,0.08729913830757141,0.3540760278701782,0.0011440417729318142,-0.02804809808731079,0.06867743283510208,-0.21121788024902344,-0.12332195788621902,-0.28757718205451965,0.3586333692073822,-0.03678687661886215,0.25569286942481995,-0.22911693155765533,0.16891711950302124,-0.2544877827167511,-0.13644644618034363,0.35031387209892273,0.0447167307138443,0.152672678232193,0.06799131631851196,-0.0741535946726799,0.4792945981025696,-0.24646277725696564,0.32545825839042664,-0.011287281289696693,0.24235403537750244,-0.06884241104125977,-0.367757111787796,0.2170594334602356,-0.21224796772003174,-0.1141643300652504,-0.2768625319004059,0.3000241219997406,0.16438257694244385,-0.0280106533318758,0.09045456349849701,-0.06676986813545227,-0.07796260714530945,-0.16118380427360535,-0.1343623697757721,-0.3419570028781891,0.07429470866918564,-0.6213337779045105,0.2866736352443695,0.44867193698883057,0.15951350331306458,-0.04541569948196411,-0.012447798624634743,-0.17418701946735382,-0.08963488042354584,-0.19995072484016418,0.15195854008197784,-0.034232430160045624,-0.043393924832344055,0.049818381667137146,-0.050084132701158524},{0.2166362702846527,0.03178565576672554,-0.36690524220466614,-0.08411712199449539,0.2611590325832367,-0.11344597488641739,0.09689744561910629,-0.5022193789482117,0.022484375163912773,0.003103671595454216,-0.07105867564678192,-0.3085702061653137,-0.14141607284545898,-0.30619487166404724,-0.031349241733551025,0.10184196382761002,-0.07094307243824005,-0.1994783878326416,0.07813769578933716,-0.09494417905807495,0.1472797691822052,-0.16805718839168549,-0.27832117676734924,0.4344486594200134,-0.434304803609848,0.29379674792289734,-0.01314537599682808,-0.1679343581199646,-0.33163708448410034,-0.32001540064811707,0.3356439173221588,-0.007117285393178463,0.2743329405784607,-0.2781350016593933,0.13611607253551483,0.43847617506980896,0.444622665643692,0.34767237305641174,-0.35995131731033325,-0.010825702920556068,-0.17241956293582916,-0.36106789112091064,0.1183708906173706,-0.14164882898330688,-0.2206060290336609,0.16775894165039062,0.11441938579082489,-0.06640282273292542,-0.16601349413394928,0.16906651854515076,-0.38050663471221924,0.12391368299722672,0.28649893403053284,-0.1676354855298996,0.16927345097064972,0.3240450322628021,0.03777085989713669,-0.30838289856910706,0.2295970469713211,0.17007915675640106,0.42539891600608826,0.033626895397901535,-0.04675326868891716,-0.0024732586462050676},{0.07567034661769867,0.44881269335746765,-0.15680870413780212,-0.0581020787358284,0.4582556188106537,-0.21916580200195312,0.20479969680309296,-0.023907268419861794,0.10653307288885117,0.40513384342193604,0.09488367289304733,0.16277025640010834,-0.3805619478225708,0.08314495533704758,-0.20431341230869293,0.15917019546031952,0.09392384439706802,-0.649869978427887,-0.10348297655582428,0.18546803295612335,-0.04102848470211029,-0.3737281858921051,0.38802820444107056,-0.09224619716405869,-0.12952390313148499,-0.035004645586013794,-0.3513312339782715,0.38390785455703735,-0.37257876992225647,-0.03257845342159271,-0.07593536376953125,-0.23388424515724182,0.049819231033325195,-0.1325799971818924,0.1820157915353775,0.4928264915943146,0.15484975278377533,0.004493930377066135,-0.09674689173698425,0.1978049874305725,-0.012984040193259716,-0.44526728987693787,-0.012703384272754192,-0.015630247071385384,0.21072806417942047,0.07031837850809097,-0.26760607957839966,-0.02698391303420067,-0.6356517672538757,-0.2847152352333069,-0.2988024652004242,0.3010959327220917,0.04291507601737976,0.2626771926879883,-0.12444904446601868,-0.05216148495674133,-0.14786331355571747,-0.255938321352005,-0.29094889760017395,-0.4599492847919464,-0.09101562201976776,-0.3830161690711975,-0.16633261740207672,-0.022428346797823906},{-0.4959145486354828,-0.18590006232261658,0.34501340985298157,-0.30918237566947937,-0.3155754506587982,0.22603823244571686,0.01685410551726818,0.008055957965552807,-0.07739827781915665,0.2034420371055603,0.10491840541362762,-0.16035418212413788,-0.0919540524482727,-0.3317081034183502,0.07176152616739273,0.07461808621883392,0.05784508213400841,0.35049673914909363,0.2127935141324997,-0.09136045724153519,-0.29273852705955505,-0.12606215476989746,-0.06200471147894859,-0.11020532995462418,0.03588542714715004,-0.10592658072710037,-0.1714099645614624,-0.03511946275830269,-0.04954918473958969,0.4606701135635376,0.044379472732543945,-0.003013736568391323,0.04922549054026604,0.05194171890616417,-0.16462449729442596,0.25901180505752563,0.06609264761209488,-0.26225122809410095,-0.11101499199867249,-0.18558529019355774,-0.24733266234397888,-0.1453937590122223,0.12403324246406555,0.0037213668692857027,0.28557610511779785,-0.16742421686649323,-0.1619253009557724,0.18799979984760284,-0.15538109838962555,0.12847523391246796,-0.47515371441841125,0.31259942054748535,-0.03480008244514465,-0.07497654110193253,-0.09996562451124191,0.09271332621574402,0.23430390655994415,0.058705467730760574,0.18121972680091858,0.5992584228515625,0.5701741576194763,-0.2777709662914276,0.09493839740753174,0.16070523858070374},{0.7259358763694763,0.23173768818378448,0.13465110957622528,-0.2355049103498459,0.3846391439437866,-0.01836809143424034,0.06851902604103088,0.08948948234319687,-0.18326227366924286,-0.03278672695159912,-0.24872291088104248,0.04281735420227051,-0.022701092064380646,-0.23384980857372284,0.09102161228656769,0.1364647001028061,0.12361379712820053,0.04491351917386055,-0.31707489490509033,0.05769859254360199,-0.0494627021253109,-0.20497477054595947,-0.06456132978200912,0.040626030415296555,-0.18151269853115082,0.26305994391441345,0.26149851083755493,-0.14379149675369263,-0.03464895859360695,-0.16351400315761566,0.2870585322380066,-0.15402264893054962,-0.032810889184474945,-0.23821640014648438,0.07874520868062973,0.16086584329605103,0.0399455800652504,0.034109923988580704,0.3139868676662445,-0.29133808612823486,0.33532509207725525,0.20282641053199768,-0.04277579113841057,-0.2065770924091339,-0.07869251817464828,-0.569438099861145,0.05299602448940277,0.11638700217008591,-0.01817157492041588,-0.14169743657112122,0.05982368811964989,0.04158443957567215,-0.6432633996009827,-0.08717146515846252,-0.16432344913482666,0.31997212767601013,-0.15345720946788788,0.15115371346473694,-0.35661303997039795,-0.4017757773399353,-0.3782545328140259,-0.13656343519687653,0.20430754125118256,-0.26543182134628296},{-0.27333366870880127,-0.062166426330804825,0.32131248712539673,-0.2523096203804016,-0.2192004770040512,0.18002034723758698,-0.31153005361557007,0.4084007441997528,-0.04964711144566536,-0.0822971984744072,-0.11447930335998535,0.0680517628788948,-0.156591534614563,-0.1738266944885254,0.32017678022384644,-0.024929163977503777,-0.2011515200138092,-0.03877459838986397,0.12151492387056351,0.21100400388240814,-0.36133548617362976,0.12959028780460358,-0.08297690749168396,-0.056799665093421936,0.11879696696996689,0.12416498363018036,0.14659111201763153,-0.0264426376670599,0.29316654801368713,-0.2796683609485626,0.007543784566223621,0.15791141986846924,0.497091680765152,-0.17977963387966156,0.13033360242843628,-0.01018594391644001,0.522448718547821,0.28154903650283813,-0.019551821053028107,-0.20473429560661316,-0.017052730545401573,0.3243515193462372,-0.12324325740337372,0.23487015068531036,0.06174841523170471,-0.21947501599788666,0.17541854083538055,0.23458880186080933,-0.09639749675989151,-0.22537381947040558,-0.07432471960783005,0.2302163988351822,-0.060458216816186905,-0.5398381352424622,0.2273392528295517,-0.12283537536859512,0.03817370533943176,-0.3192409873008728,-0.21128518879413605,-0.29074767231941223,-0.037847112864255905,-0.06248174235224724,0.17683720588684082,-0.04302861914038658},{-0.44374576210975647,0.46648919582366943,-0.2050531804561615,-0.006378417368978262,-0.03409336134791374,0.04148443788290024,0.05261079967021942,0.018290380015969276,0.004633137956261635,-0.05330163985490799,-0.028135722503066063,-0.33261093497276306,-0.3637239933013916,-0.04004291072487831,0.5822088122367859,-0.4631517231464386,-0.024412032216787338,0.15396137535572052,-0.14084218442440033,-0.06369445472955704,0.028193825855851173,0.20871998369693756,0.0013799610314890742,0.3082062304019928,-0.3355942964553833,-0.23943829536437988,-0.25896063446998596,-0.36246439814567566,0.09074616432189941,-0.656684398651123,-0.19201713800430298,0.11859581619501114,-0.12405884265899658,-0.0060738688334822655,-0.1875264048576355,-0.11129646003246307,-0.4105667173862457,0.22875787317752838,-0.18391002714633942,-0.3383464813232422,0.3495018780231476,0.1311981976032257,-0.07061296701431274,-0.3419044315814972,0.043126948177814484,-0.08222585916519165,0.25041434168815613,-0.12344804406166077,0.03481638804078102,0.011396225541830063,0.05133265629410744,-0.24917511641979218,0.333766907453537,0.0793408676981926,-0.10951557755470276,-0.01213142927736044,-0.07917618751525879,0.026761656627058983,-0.03778114914894104,-0.028978152200579643,-0.007835346274077892,-0.07579657435417175,0.2099338173866272,-0.20768140256404877},{-0.01493079587817192,0.01868215575814247,0.2567819058895111,0.21950718760490417,0.175119549036026,0.2177651822566986,0.1142594963312149,0.08154679834842682,-0.22098618745803833,0.11050732433795929,-0.24865558743476868,0.19069050252437592,-0.06809600442647934,0.3559153974056244,-0.6116361618041992,0.21120180189609528,-0.350460410118103,-0.12410929054021835,0.23030461370944977,-0.1630713939666748,0.11808780580759048,0.14437438547611237,-0.0746375173330307,0.6325157880783081,0.007581935729831457,-0.06059081107378006,-0.10549111664295197,-0.23230159282684326,0.08639420568943024,0.6027898788452148,0.1639619916677475,0.18284718692302704,-0.10697466880083084,0.06074449419975281,0.13722781836986542,-0.42435523867607117,-0.21155144274234772,-0.07051093876361847,0.024062715470790863,0.21086758375167847,-0.02004064805805683,0.11711765080690384,0.02766047976911068,-0.0762098953127861,0.1272185742855072,0.025303898379206657,-0.32701683044433594,-0.35573604702949524,-0.32818958163261414,0.057041555643081665,-0.4811497926712036,0.08689835667610168,0.1877010464668274,-0.028480540961027145,-0.0023862780071794987,-0.042158689349889755,-0.2056083083152771,0.14862275123596191,0.04914240539073944,-0.018428171053528786,0.01633751578629017,0.04631741717457771,-0.036958951503038406,0.20513950288295746},{-0.1453186571598053,-0.29053816199302673,-0.14023122191429138,0.05591800808906555,-0.032959945499897,0.18532750010490417,-0.2091333568096161,0.05327029526233673,0.16620612144470215,0.01182267814874649,0.09324651956558228,0.035978153347969055,-0.5549588799476624,-0.015484064817428589,0.03756628558039665,0.31269875168800354,-0.2959294021129608,0.09384912252426147,0.019304336979985237,0.1320524960756302,0.3625662326812744,0.10219915211200714,0.3430040776729584,-0.24636295437812805,-0.09678572416305542,0.567130446434021,-0.04778987541794777,0.34533724188804626,-0.09023059159517288,-0.015533137135207653,0.1986888200044632,-0.1945003867149353,0.18514350056648254,-0.2398350089788437,0.0069500114768743515,0.41363298892974854,0.2611255943775177,0.2889801859855652,0.5296996235847473,0.025888748466968536,0.6824657320976257,0.4063606560230255,0.1953819990158081,0.17557761073112488,0.20687520503997803,-0.07526826113462448,-0.12879371643066406,-0.34791216254234314,0.29639872908592224,0.06427355855703354,0.09950550645589828,0.06627651304006577,0.04323888197541237,0.22505736351013184,0.050568535923957825,0.2631429135799408,-0.19622915983200073,0.2933509647846222,-0.4813324809074402,-0.2931079566478729,-0.13466337323188782,-0.18437577784061432,0.031010432168841362,0.0393691211938858},{0.024666978046298027,-0.04136090353131294,0.39915400743484497,0.003021305426955223,-0.24330691993236542,-0.16273273527622223,-0.3718127906322479,0.1202210783958435,-0.05563882365822792,-0.0496722012758255,0.26083433628082275,0.2042221873998642,-0.2551710307598114,-0.01491465512663126,-0.03489557281136513,-0.03003336861729622,0.45342400670051575,-0.17873582243919373,-0.04714106768369675,0.2263675034046173,-0.27825385332107544,0.07312627136707306,-0.28995928168296814,0.203714981675148,-0.18791617453098297,0.11982615292072296,-0.13976316154003143,-0.15822499990463257,0.32707086205482483,-0.026992935687303543,-0.16958977282047272,-0.08375640958547592,0.27577754855155945,0.05352840572595596,-0.42543312907218933,0.03600827232003212,-0.15130309760570526,-0.1847686767578125,-0.17657633125782013,0.12249765545129776,0.0866619199514389,-0.1375543773174286,0.39326727390289307,-0.30090993642807007,-0.08474049717187881,-0.16070911288261414,0.006359305698424578,-0.10039018094539642,0.018473073840141296,0.19004538655281067,0.1202881708741188,0.18979111313819885,0.054482314735651016,-0.0799613744020462,0.021702272817492485,-0.16444005072116852,0.016462041065096855,-0.3776686489582062,0.24954861402511597,0.06349869817495346,0.47224104404449463,0.18383948504924774,-0.09777738898992538,-0.4721440076828003},{0.07154861092567444,-0.25327035784721375,-0.2097616344690323,-0.07613494992256165,0.19480997323989868,0.269032746553421,-0.33550509810447693,-0.2727067470550537,0.3162538707256317,0.061031993478536606,-0.19885265827178955,-0.03664419800043106,-0.07607442140579224,-0.06219833344221115,-0.1444476842880249,0.03584855794906616,0.014350305311381817,-0.07690031081438065,0.17046791315078735,0.06605961173772812,-0.3160751760005951,-0.0689944177865982,-0.1899901032447815,0.0457913875579834,0.16800661385059357,0.14723147451877594,-0.03855159878730774,-0.06831768900156021,-0.3092832863330841,-0.5149528980255127,0.2818829417228699,0.5086630582809448,-0.018819140270352364,-0.14497175812721252,0.1582295298576355,0.16127195954322815,-0.04612508416175842,0.013387479819357395,0.07759133726358414,-0.08516547083854675,-0.0680939182639122,-0.2539786994457245,-0.12819434702396393,-0.20949594676494598,0.4314948618412018,0.04992695897817612,0.35599732398986816,-0.24983234703540802,-0.2988046109676361,-0.10313903540372849,0.010999109596014023,0.1427023708820343,-0.01273205317556858,0.2354802042245865,-0.5014027953147888,-0.1947338581085205,0.03272184357047081,-0.640533447265625,-0.5087358951568604,0.2235443890094757,0.20362630486488342,0.4388021230697632,-0.08479554206132889,0.24806226789951324},{0.04301563650369644,-0.20475007593631744,-0.048003412783145905,0.028566738590598106,0.06717820465564728,-0.10091321915388107,-0.20628060400485992,-0.4895518124103546,0.2028449922800064,-0.16367067396640778,0.040464822202920914,-0.1206650510430336,-0.12724171578884125,0.10151758044958115,0.046372320502996445,0.009367491118609905,-0.1427673101425171,0.3397843837738037,-0.42584726214408875,0.0648110881447792,-0.5475779175758362,-0.009688102640211582,0.12468190491199493,0.3235328197479248,0.2346320003271103,-0.15814387798309326,-0.17278172075748444,-0.33510974049568176,-0.025792526081204414,0.30172252655029297,-0.1511785387992859,0.04081558436155319,0.2919568717479706,-0.23836460709571838,0.004990309942513704,0.10265176743268967,-0.06815981864929199,0.028599385172128677,-0.22054103016853333,-0.07784813642501831,-0.12341773509979248,-0.40081289410591125,0.17923884093761444,0.09098503738641739,0.10972409695386887,0.23401746153831482,0.004246569238603115,-0.3133903741836548,-0.38029056787490845,-0.1266324520111084,0.018186137080192566,0.14037679135799408,-0.3297802209854126,0.03487906605005264,-0.06201896443963051,-0.1534556746482849,-0.43568819761276245,-0.1714267134666443,0.02502848580479622,-0.2531696856021881,0.4447470009326935,-0.06151161342859268,-0.0601641945540905,0.09189701825380325},{-0.16861173510551453,0.08172202855348587,0.02635696902871132,-0.03677637130022049,-0.1056908518075943,0.03938157856464386,-0.4581446647644043,-0.2438138872385025,0.2297716587781906,0.3256029486656189,-0.23230397701263428,0.17716431617736816,-0.13352447748184204,-0.1806960105895996,0.33612579107284546,0.0059904903173446655,0.05699681118130684,0.006050987634807825,0.23429562151432037,0.05478819087147713,-0.0547332838177681,-0.05449289083480835,0.04507197439670563,-0.09477095305919647,0.06692823022603989,-0.1835985779762268,0.14249150454998016,-0.2735556960105896,0.20291514694690704,0.11725188791751862,-0.23771969974040985,0.19312715530395508,0.10475940257310867,0.06280730664730072,-0.02512589655816555,-0.014735844917595387,0.13726717233657837,0.2775096297264099,-0.30074864625930786,-0.05982310324907303,-0.1666480302810669,-0.11742916703224182,0.18570247292518616,-0.27832338213920593,-0.23927345871925354,0.3514927327632904,-0.14605514705181122,0.18983310461044312,0.24638798832893372,0.41028353571891785,-0.09833937883377075,0.10470574349164963,0.26019275188446045,-0.10678275674581528,-0.2603225111961365,-0.09761376678943634,0.02841903641819954,0.2868587374687195,-0.19397084414958954,0.10348302125930786,0.033420901745557785,-0.13085663318634033,0.11279013007879257,-0.04872555285692215},{0.25409165024757385,-0.15819747745990753,-0.11102548241615295,-0.12526991963386536,-0.07072233408689499,-0.4063417315483093,0.04811621829867363,0.04046649858355522,-0.036513447761535645,0.13304267823696136,-0.41540345549583435,0.40090692043304443,0.15811394155025482,0.14484132826328278,-0.06208297237753868,0.20172424614429474,-0.44939175248146057,-0.23846054077148438,-0.12934820353984833,0.12443896383047104,0.22023998200893402,0.021912919357419014,0.32510700821876526,0.08987709879875183,-0.027551371604204178,0.25275370478630066,-0.025630125775933266,-0.3345127999782562,-0.24776223301887512,0.25143352150917053,-0.10212722420692444,0.09520223736763,0.03433908149600029,0.23521417379379272,-0.18306545913219452,0.013074886985123158,-0.15589983761310577,-0.3150288760662079,0.10339636355638504,-0.17793269455432892,0.10567357391119003,-0.0794198140501976,-0.3317977488040924,0.1266641616821289,0.06021757051348686,-0.18536125123500824,-0.13331033289432526,-0.14848116040229797,-0.17971359193325043,-0.2177744358778,0.4808714985847473,-0.18486744165420532,0.044162873178720474,0.325758159160614,0.19940997660160065,0.47623106837272644,-0.31972211599349976,0.013406878337264061,0.12939710915088654,-0.14427690207958221,-0.19164152443408966,0.36699378490448,0.09359448403120041,-0.05769911780953407},{0.23869873583316803,-0.018373262137174606,-0.13168823719024658,-0.25139912962913513,0.43995240330696106,-0.07753241807222366,-0.07008973509073257,0.23730075359344482,-0.19719715416431427,-0.32162946462631226,-0.11801332980394363,-0.22115154564380646,0.3185148537158966,-0.15346094965934753,-0.3626916706562042,0.12433438003063202,0.09048138558864594,-0.047803837805986404,0.28215673565864563,0.3243868052959442,0.11487775295972824,0.24369493126869202,-0.34565144777297974,-0.03210672736167908,-0.05280220881104469,-0.3017978072166443,-0.07463941723108292,0.4173250198364258,-0.0737743005156517,0.26391756534576416,0.3742331564426422,0.1803581863641739,0.06570803374052048,0.14614900946617126,0.2449444830417633,-0.349434494972229,0.3470383286476135,-0.37135207653045654,0.054413892328739166,-0.11907953023910522,0.05894553288817406,0.2931634187698364,-0.25805234909057617,-0.17148534953594208,-0.11826316267251968,0.06749158352613449,-0.34507501125335693,-0.2648053467273712,-0.1820635199546814,-0.0535985566675663,0.31805768609046936,-0.21730124950408936,-0.019824635237455368,0.04100911319255829,0.005209800787270069,-0.04231712222099304,0.11363177001476288,0.45752400159835815,0.0811304822564125,-0.1639457643032074,-0.10359750688076019,0.2679791748523712,0.5393168330192566,0.0582573227584362},{-0.0197660680860281,-0.2089596688747406,0.06213199719786644,0.6168572902679443,-0.29199931025505066,0.10212407261133194,0.2759671211242676,-0.1453329622745514,-0.13163737952709198,0.001421646447852254,0.08878063410520554,0.1427304595708847,-0.24872040748596191,-0.30589181184768677,-0.10565340518951416,0.3605833351612091,0.30041927099227905,0.3238290846347809,-0.11959800869226456,0.13213525712490082,-0.44853708148002625,-0.2620601952075958,-0.31986239552497864,0.055798374116420746,0.11027009040117264,-0.0037694284692406654,0.10571851581335068,-0.14427322149276733,-0.14032423496246338,0.06509778648614883,-0.27523544430732727,-0.09576782584190369,0.1580958217382431,0.3833734393119812,-0.004042403772473335,-0.27490949630737305,-0.020682070404291153,-0.22449742257595062,0.3561340272426605,-0.06507796049118042,-0.10983922332525253,-0.005742609966546297,-0.05930712819099426,-0.002050761366263032,0.32626426219940186,0.022972270846366882,-0.04012419283390045,0.011469712480902672,-0.17507098615169525,-0.027215398848056793,0.04946037754416466,-0.2299213707447052,0.12969936430454254,-0.41218748688697815,0.03435251861810684,-0.40337854623794556,-0.0786975547671318,0.20146948099136353,0.14896512031555176,0.19723090529441833,0.13232159614562988,0.4753795564174652,0.015403317287564278,-0.1158122569322586},{0.037310268729925156,-0.09875879436731339,-0.36591777205467224,0.04165764898061752,0.3843422830104828,-0.5811226963996887,0.5250797867774963,-0.3513103425502777,0.16013126075267792,0.01408433262258768,-0.01829875074326992,-0.6041122674942017,-0.2239045351743698,0.05047612264752388,-0.5116768479347229,0.04247382655739784,-0.1737412065267563,-0.1199999451637268,0.3001590669155121,-0.21849976480007172,-0.1684662401676178,-0.008035192266106606,0.1470271795988083,0.49361976981163025,0.4553721249103546,0.06333966553211212,0.06396585702896118,-0.22742150723934174,-0.1305171400308609,-0.1017504334449768,-0.2148505002260208,0.1953335851430893,-0.25947821140289307,0.3575733006000519,0.2150186151266098,-0.23074717819690704,-0.05061251297593117,-0.3613153100013733,-0.18760110437870026,0.7090362906455994,-0.12263404577970505,-0.42738810181617737,0.3964521288871765,-0.17699165642261505,0.40248286724090576,-0.051815465092659,-0.026825547218322754,-0.06965263187885284,-0.19756381213665009,-0.06689803302288055,-0.19837282598018646,-0.1223427876830101,-0.04979277029633522,0.40106505155563354,-0.0064413114450871944,0.056228894740343094,-0.3255409300327301,-0.21071116626262665,0.15478883683681488,0.062040772289037704,0.039371319115161896,-0.18754957616329193,-0.014949196018278599,0.06324014067649841},{0.1717379093170166,-0.2150437980890274,-0.5160182118415833,-0.37257111072540283,0.008541278541088104,0.20418964326381683,-0.026758410036563873,0.2117801159620285,-0.04204106703400612,-0.12420717626810074,-0.171532541513443,0.5869681239128113,0.13513287901878357,-0.09259010851383209,0.07776356488466263,0.018598007038235664,0.16960440576076508,0.32335227727890015,-0.4097839593887329,-0.534306526184082,0.20118875801563263,-0.20583684742450714,-0.0855572521686554,-0.1412312090396881,0.09060614556074142,-0.28264379501342773,0.0789259523153305,0.2024981528520584,0.31918206810951233,0.032892122864723206,0.8534080386161804,0.11603246629238129,0.36644718050956726,0.008550494909286499,0.11034774780273438,0.001785789616405964,0.614575207233429,0.007003198843449354,0.34015363454818726,-0.22045539319515228,0.4715742766857147,0.5498387813568115,-0.09683093428611755,-0.18381109833717346,0.17457090318202972,-0.2665311396121979,-0.27358272671699524,-0.08717438578605652,0.3567564785480499,0.13741351664066315,0.13462701439857483,0.08008845895528793,-0.07656238228082657,0.19319821894168854,-0.15005430579185486,0.12690110504627228,0.23128190636634827,-0.2962665557861328,-0.2849317491054535,-0.3195618689060211,-0.43958780169487,-0.016031814739108086,0.3740094006061554,-0.016993317753076553},{-0.10802236199378967,0.035413723438978195,0.044643159955739975,-0.37967100739479065,-0.025479305535554886,-0.2092670202255249,0.08474977314472198,0.1660052090883255,-0.038863055408000946,0.019845150411128998,-0.1805783212184906,-0.3716545104980469,-0.1706591099500656,0.12376531958580017,-0.3307611048221588,-0.28736612200737,-0.26696839928627014,-0.1348538100719452,-0.182016521692276,-0.023046433925628662,0.11343419551849365,-0.37700867652893066,-0.22913071513175964,-0.06759113818407059,-0.08088283985853195,-0.00939539447426796,-0.016949372366070747,0.13721205294132233,-0.11930409073829651,0.17691342532634735,-0.11731598526239395,0.2063353806734085,0.06325434893369675,0.19528380036354065,-0.20072367787361145,0.024807034060359,-0.09829366207122803,0.023111416026949883,0.20940987765789032,0.003924064338207245,0.024402743205428123,0.057268399745225906,-0.10234329104423523,0.12550494074821472,-0.0472172312438488,0.3058246076107025,0.21319863200187683,-0.031084924936294556,0.3077085614204407,-0.014242819510400295,0.11799392104148865,0.21944677829742432,0.007986441254615784,-0.042016394436359406,-0.07938903570175171,0.14351481199264526,-0.01661406271159649,-0.1453290432691574,-0.1026504635810852,-0.018000777810811996,0.0796196237206459,0.2332487404346466,-0.16555066406726837,-0.26124557852745056},{0.1701928675174713,-0.12494007498025894,0.040924038738012314,0.15246696770191193,0.04109097272157669,0.0640707015991211,-0.2694576680660248,0.3984125852584839,-0.19660940766334534,-0.022754328325390816,-0.1355295181274414,-0.22343596816062927,0.15750275552272797,-0.15877752006053925,-0.05122123658657074,-0.09914498776197433,0.02050052024424076,-0.012164498679339886,-0.21020708978176117,-0.11400000751018524,0.2963678240776062,-0.0162027720361948,0.03805563598871231,-0.2919568419456482,0.18446820974349976,-0.055766843259334564,-0.12432406842708588,-0.11221539229154587,0.2179764211177826,-0.28156688809394836,-0.2132641077041626,0.2068992555141449,0.0016132260207086802,-0.028810949996113777,-0.28491684794425964,0.18406276404857635,0.03935354948043823,-0.019054628908634186,-0.269461065530777,0.019094426184892654,0.0632026419043541,-0.24295106530189514,0.13737158477306366,0.028934160247445107,0.3148689568042755,0.06224159151315689,-0.14071382582187653,0.01107806246727705,0.11902565509080887,0.10244712978601456,-0.2870927155017853,0.08304804563522339,-0.027719147503376007,-0.009731128811836243,0.07574522495269775,0.05722276493906975,-0.26220646500587463,0.18040548264980316,0.06142022833228111,-0.11783646047115326,0.10646678507328033,0.23177649080753326,-0.02795305661857128,0.4450470805168152},{0.10500025749206543,0.4216102659702301,0.06501475721597672,-0.06175124645233154,0.08544185757637024,-0.3912888467311859,0.33528751134872437,-0.20806612074375153,-0.09231626987457275,0.15473559498786926,-0.31629157066345215,-0.2402358502149582,-0.056066397577524185,0.4867701530456543,-0.6357857584953308,-0.2838987112045288,0.2576667368412018,-0.19759619235992432,0.12104862183332443,0.09639741480350494,-0.4141191244125366,-0.017102286219596863,0.06944496184587479,0.19731415808200836,-0.05248618498444557,-0.18203000724315643,0.40733659267425537,0.1034817025065422,-0.030653437599539757,-0.03937949612736702,-0.05746349319815636,-0.09900886565446854,-0.06876233965158463,-0.31668663024902344,-0.26684921979904175,0.10370893031358719,-0.4795745313167572,0.23000644147396088,0.23676657676696777,0.3495014011859894,0.3394841253757477,0.059547293931245804,-0.3343479335308075,0.2496485710144043,-0.3837829828262329,-0.09676284343004227,-0.37438490986824036,-0.15099403262138367,0.07418190687894821,-0.033327311277389526,0.12937140464782715,-0.09802282601594925,0.19224201142787933,0.14663155376911163,0.13630104064941406,0.3923119902610779,-0.5190738439559937,0.3937837481498718,0.17104338109493256,0.02733643911778927,0.050860170274972916,-0.029668979346752167,0.3388381004333496,0.19969366490840912},{-0.046697452664375305,0.020476361736655235,-0.40971505641937256,-0.42642611265182495,0.036527592688798904,-0.5099508762359619,0.16768205165863037,0.03768348693847656,-0.06767840683460236,0.03461289778351784,-0.2793622314929962,0.06643238663673401,0.12530331313610077,0.42515769600868225,-0.31210193037986755,0.0007337446440942585,0.015486389398574829,-0.16327698528766632,0.2075241506099701,-0.1683821678161621,-0.03815606236457825,0.19592860341072083,0.23417364060878754,-0.46537894010543823,-0.1580326408147812,-0.05467773973941803,-0.2660422623157501,0.377564013004303,-0.14992253482341766,0.1831580102443695,0.04950018227100372,-0.3618728816509247,-0.37106961011886597,-0.20285728573799133,-0.4427660405635834,-0.6183284521102905,0.20593972504138947,0.6359869837760925,-0.2970733642578125,0.0659937635064125,0.38010841608047485,0.13640137016773224,0.3077487647533417,-0.08816660195589066,-0.17644202709197998,0.0854312852025032,-0.24000942707061768,0.028874758630990982,-0.019420048221945763,-0.2073376327753067,-0.28868716955184937,-0.10374575108289719,0.20546691119670868,0.024380823597311974,-0.11216120421886444,0.32408878207206726,0.2167443335056305,0.2058737874031067,0.11341797560453415,0.24579747021198273,-0.11442611366510391,0.05048273876309395,-0.06798185408115387,0.35673409700393677},{0.039717063307762146,0.0722251683473587,-0.1916423887014389,0.16007675230503082,-0.09631159901618958,-0.2632705867290497,-0.11181553453207016,-0.08244922757148743,-0.03317926079034805,0.18173454701900482,0.11145418882369995,0.04317673295736313,0.12356942147016525,-0.3071598708629608,-0.030228594318032265,0.14099553227424622,-0.19525451958179474,-0.2597595155239105,0.0661264955997467,0.07888073474168777,-0.07840069383382797,0.18598300218582153,-0.20257145166397095,-0.0768730640411377,-0.0072877854108810425,-0.009201465174555779,0.07960209250450134,-0.30181342363357544,0.19561736285686493,-0.004469915293157101,-0.12736517190933228,0.16242530941963196,-0.047749366611242294,-0.11292736977338791,-0.4844820499420166,0.16346418857574463,-0.07961016148328781,0.09928777068853378,-0.017013849690556526,-0.1584658920764923,0.14233815670013428,0.28033187985420227,-0.13402488827705383,0.3749762177467346,0.15414001047611237,0.2732502818107605,0.006970541551709175,-0.13229310512542725,0.16442635655403137,-0.0013348432257771492,-0.22780494391918182,-0.1303372085094452,-0.07596105337142944,0.05372105911374092,-0.06423194706439972,-0.12167008966207504,0.1542212963104248,-0.19721440970897675,0.1159340962767601,0.07899292558431625,-0.24088069796562195,-0.36220067739486694,0.1531539261341095,0.05413394048810005},{0.10706157982349396,0.23660485446453094,0.03290707617998123,0.2406223714351654,0.04725465178489685,-0.029680950567126274,0.15459494292736053,-0.0209277905523777,-0.031961776316165924,-0.07281441986560822,-0.04768181964755058,0.27463361620903015,0.04306173697113991,-0.23358161747455597,-0.07361303269863129,-0.030575329437851906,-0.0807565227150917,0.184644415974617,0.3214205205440521,0.2002796232700348,-0.07474099844694138,0.08360552042722702,0.04206095263361931,0.08723215013742447,-0.12608063220977783,0.06299300491809845,-0.14725570380687714,0.461031436920166,0.21600472927093506,-0.15396623313426971,0.047067735344171524,0.1821156144142151,0.08698097616434097,-0.024327298626303673,-0.11910610646009445,-0.081301249563694,-0.08559684455394745,0.10474377870559692,-0.2845529615879059,0.07805868983268738,-0.11868137866258621,0.009810000658035278,-0.08834242820739746,-0.03215232864022255,0.38297319412231445,0.03828311339020729,0.29059281945228577,0.06383935362100601,0.17514896392822266,0.07360751181840897,0.2605329751968384,0.3534191846847534,0.07727944105863571,-0.037017691880464554,-0.06886200606822968,0.3396947979927063,-0.22024290263652802,0.08654218912124634,0.05404308810830116,0.2607899606227875,-0.11098434031009674,-0.2637985646724701,-0.04339483007788658,-0.03675529733300209},{-0.03271675109863281,0.49731937050819397,0.06478381156921387,0.27757197618484497,-0.012007077224552631,-0.24901244044303894,0.3848491311073303,0.14701198041439056,0.18829770386219025,0.18494604527950287,-0.18619690835475922,-0.10140389204025269,-0.0771762803196907,-0.058756373822689056,-0.15367761254310608,-0.009295271709561348,-0.47540661692619324,-0.3367854058742523,-0.0696553885936737,0.28237882256507874,0.08310769498348236,-0.2146608978509903,-0.02378435805439949,0.2268153578042984,0.23114831745624542,-0.3987930119037628,-0.4536550045013428,0.008881857618689537,-0.15341562032699585,0.1087796688079834,0.054979871958494186,-0.09582214057445526,-0.29267656803131104,-0.7117192149162292,0.11254201829433441,-0.35636746883392334,-0.02202031947672367,0.013750092126429081,0.1671808660030365,0.7395390272140503,0.36462682485580444,-0.10698094218969345,-0.2906416058540344,0.15300822257995605,0.08466051518917084,0.038912419229745865,-0.43009239435195923,0.03778083249926567,0.22703780233860016,-0.07928011566400528,0.06791354715824127,-0.12855909764766693,0.0009968471713364124,0.30640050768852234,-0.20106469094753265,0.13573499023914337,0.003928474150598049,0.06392452865839005,-0.11954046785831451,0.04787387698888779,0.2355797290802002,-0.11359075456857681,-0.0832967758178711,0.22043690085411072},{-0.28525811433792114,0.2108442485332489,0.24848872423171997,0.10372666269540787,0.08026100695133209,-0.35116297006607056,0.07143669575452805,-0.17162516713142395,0.2173430621623993,-0.3435247540473938,-0.015615323558449745,-0.23962610960006714,0.39896875619888306,0.32873886823654175,0.3802972733974457,0.3623136281967163,0.06032727658748627,-0.16272985935211182,-0.04142499715089798,0.07090051472187042,0.011241556145250797,0.15042202174663544,0.19360126554965973,0.27425533533096313,-0.17545177042484283,0.13760939240455627,-0.26672226190567017,0.040424469858407974,0.07378284633159637,-0.5715277791023254,-0.15915660560131073,0.2926179766654968,0.15843553841114044,0.10264954715967178,-0.03536459431052208,0.20611239969730377,-0.15278799831867218,0.4078020453453064,0.1089470311999321,-0.23426128923892975,-0.1380697339773178,0.0033238891046494246,0.017722511664032936,-0.2289782613515854,0.13865050673484802,0.31289592385292053,-0.1685682237148285,0.35412514209747314,0.11134199798107147,0.1357349455356598,-0.33767905831336975,-0.09645501524209976,-0.0736861303448677,0.09791702777147293,-0.10759627819061279,0.17665985226631165,-0.18719680607318878,-0.2916698753833771,-0.2701272964477539,0.10265467315912247,0.1760413646697998,0.3615075945854187,-0.048442866653203964,-0.30512216687202454},{0.2662220299243927,0.23919560015201569,-0.2644636929035187,-0.143877774477005,0.4312101900577545,-0.19964203238487244,0.42749518156051636,0.1865588128566742,-0.16048692166805267,0.544012188911438,0.17928166687488556,-0.4592118263244629,0.06324218958616257,0.17166778445243835,-0.10498175770044327,-0.4612296223640442,-0.15664437413215637,-0.20393066108226776,0.3356214761734009,-0.07885972410440445,-0.24435415863990784,0.27608466148376465,0.013918121345341206,-0.17477580904960632,-0.15986549854278564,0.12547887861728668,0.009183726273477077,0.09981897473335266,-0.1624068170785904,0.09030532091856003,0.24524301290512085,-0.4055074453353882,0.4835222065448761,-0.1540936976671219,-0.45462751388549805,-0.35841643810272217,-0.4251876771450043,0.22381672263145447,0.02156655304133892,-0.2186356782913208,0.09975718706846237,-0.39378413558006287,-0.11929665505886078,-0.3255535960197449,0.30074426531791687,0.1361718624830246,0.03942333906888962,-0.10663484781980515,0.09158215671777725,0.19372643530368805,-0.11339113116264343,-0.4143182635307312,0.3527010679244995,0.1253117471933365,0.971574068069458,-0.5058566927909851,-0.09889103472232819,0.29648616909980774,0.018356213346123695,0.2660565674304962,0.2631646394729614,-0.19076478481292725,-0.3805381655693054,0.22245453298091888},{0.1713671237230301,0.13128304481506348,0.20138652622699738,-0.3453105688095093,0.0051146699115633965,0.21037527918815613,-0.018236445263028145,-0.24186359345912933,-0.1269761621952057,-0.07438202947378159,0.26361891627311707,0.2364145666360855,0.014876877889037132,0.05512857064604759,0.2306385487318039,-0.1519051194190979,-0.09847103804349899,-0.3946804702281952,-0.011867012828588486,0.17435480654239655,0.11006617546081543,-0.17420901358127594,0.11438906192779541,0.013902268372476101,-0.056194476783275604,-0.16161036491394043,-0.05279506370425224,0.06300527602434158,-0.02487322874367237,-0.04191581904888153,0.05098278075456619,0.3175128102302551,0.20883578062057495,0.24835477769374847,0.05583168938755989,-0.018016133457422256,0.18773622810840607,0.07696517556905746,0.07388705015182495,0.12103914469480515,0.24659419059753418,-0.05488206073641777,0.13756786286830902,0.17448154091835022,0.23845629394054413,0.00024299400683958083,0.2034204602241516,0.14032819867134094,0.04050852358341217,-0.0749235525727272,-0.09044580161571503,-0.4694341719150543,0.15281347930431366,-0.004703235346823931,-0.15260259807109833,0.02569708600640297,-0.2776641249656677,0.11127296835184097,0.1039576306939125,0.18504931032657623,0.1143125519156456,-0.14806047081947327,0.13328395783901215,0.1362997591495514},{-0.12715932726860046,0.2928043305873871,0.5837644338607788,0.025929652154445648,-0.10525994002819061,-0.0665227398276329,-0.0018440720159560442,0.29051855206489563,0.5554127097129822,0.263611376285553,0.06146954745054245,-0.23662391304969788,0.30076247453689575,0.28567346930503845,-0.3177042305469513,0.06378061324357986,-0.20724745094776154,0.3834749162197113,0.32800376415252686,-0.09046736359596252,-0.3052995800971985,-0.09553612023591995,0.03624626621603966,-0.43223604559898376,-0.5161111354827881,-0.37644144892692566,-0.4332035481929779,0.16773664951324463,-0.2904229164123535,-0.31618621945381165,-0.2993778586387634,-0.2680511772632599,0.3121141195297241,-0.31382086873054504,-0.06672993302345276,-0.16535036265850067,-0.19176040589809418,-0.046267129480838776,-0.41597846150398254,0.16327863931655884,0.05027129873633385,0.07780515402555466,-0.0056663085706532,0.35865408182144165,-0.19790901243686676,0.0035476810298860073,0.05106402561068535,-0.09895267337560654,0.2223133146762848,-0.1085996925830841,-0.2191573977470398,-0.3036547601222992,0.11413736641407013,-0.12470323592424393,-0.11285600066184998,0.11278806626796722,0.028224660083651543,0.13219358026981354,0.11540114879608154,0.07630079239606857,-0.1500258594751358,0.025373397395014763,0.017925195395946503,-0.0980137512087822},{0.1259048581123352,-0.33764275908470154,-0.21489235758781433,0.12513265013694763,0.24851076304912567,0.10164335370063782,-0.13835732638835907,-0.09650151431560516,-0.4286055266857147,0.1724134087562561,-0.043749481439590454,0.013825848698616028,0.38009384274482727,0.04462745413184166,-0.3193383514881134,-0.15628783404827118,-0.02580605074763298,0.043097563087940216,-0.06136196851730347,0.34863126277923584,0.018192755058407784,-0.3140730559825897,0.09329304844141006,0.2535991966724396,0.2341262847185135,0.1414913386106491,0.1444307118654251,-0.11072935909032822,0.027608640491962433,0.12514729797840118,0.10633866488933563,0.1992509514093399,-0.16280682384967804,0.06365761905908585,0.4279748499393463,0.1253238320350647,0.32479459047317505,0.07737796753644943,0.1489787995815277,-0.2853183448314667,0.300487756729126,0.13368237018585205,0.38647913932800293,-0.1476833075284958,0.3365168571472168,0.01565868966281414,0.018843289464712143,-0.04853452742099762,-0.4185422658920288,0.24877017736434937,0.34355175495147705,0.23084034025669098,-0.33751165866851807,0.22198860347270966,0.04212179780006409,-0.013320261612534523,0.07666283845901489,-0.04865312576293945,0.5185177326202393,-0.010777461342513561,-0.12438228726387024,0.22705209255218506,0.12396635115146637,-0.4315875768661499},{0.28077152371406555,-0.12461944669485092,0.01406752411276102,0.20247316360473633,-0.2616638243198395,-0.14104004204273224,-0.05281141400337219,0.11243315041065216,0.11845249682664871,0.22434422373771667,-0.17523212730884552,-0.16966021060943604,-0.14876896142959595,-0.24016743898391724,0.13338033854961395,-0.12161308526992798,0.15332335233688354,-0.09096331894397736,-0.024329321458935738,-0.43728533387184143,-0.11080923676490784,-0.05923762917518616,-0.13385121524333954,0.1657913476228714,-0.10718316584825516,0.004222646821290255,-0.382930189371109,0.384345144033432,0.15283480286598206,0.2361682951450348,-0.041395366191864014,0.4175476133823395,-0.011748049408197403,0.08412843942642212,0.33200109004974365,0.15654388070106506,-0.2656986713409424,0.2069038599729538,0.17479652166366577,-0.05506382882595062,0.21315482258796692,0.16009779274463654,0.07970962673425674,-0.030972741544246674,-0.1488490104675293,-0.05946451425552368,-0.005156608764082193,-0.019060930237174034,0.017340149730443954,-0.463971883058548,0.059432901442050934,-0.10806958377361298,-0.0022920258343219757,0.004748509731143713,0.2200571596622467,0.031585026532411575,0.1229885071516037,-0.021113093942403793,0.10709291696548462,0.07480750977993011,-0.15837715566158295,0.04480497166514397,-0.21104463934898376,0.21939711272716522},{0.21407195925712585,-0.289695680141449,-0.23461748659610748,0.07586914300918579,0.07615675777196884,0.373053640127182,0.0145938815549016,-0.01665124110877514,-0.004585206974297762,-0.005245759151875973,-0.13715437054634094,-0.194571852684021,0.19951583445072174,0.18760043382644653,0.06695176661014557,0.2133701741695404,-0.18318985402584076,-0.3537844121456146,0.22941459715366364,0.06320776790380478,0.022363629192113876,-0.15237140655517578,0.18714460730552673,-0.1265382319688797,-0.1310935914516449,-0.18641912937164307,-0.45851650834083557,0.015053048729896545,-0.15453559160232544,-0.07264775782823563,0.4155672788619995,-0.12143313884735107,0.021065711975097656,0.10420961678028107,-0.21180950105190277,0.0028437813743948936,0.6387427449226379,-0.14483492076396942,0.3533131778240204,0.14760202169418335,0.141699880361557,-0.19920623302459717,0.062546506524086,0.08901271969079971,-0.12548048794269562,-0.37255722284317017,-0.024872751906514168,-0.05326231196522713,0.1379707306623459,-0.3385133445262909,-0.06285480409860611,0.6038874983787537,-0.19576773047447205,0.1377488374710083,0.017597299069166183,0.149064302444458,-0.0638618916273117,0.17473146319389343,-0.20023563504219055,-0.21072542667388916,-0.39402154088020325,-0.3239484131336212,0.08112724125385284,-0.1292608678340912},{0.06110471487045288,-0.4556986093521118,0.08468738198280334,-0.25899529457092285,0.15020832419395447,-0.09293532371520996,0.38836175203323364,-0.11840447038412094,-0.4690169394016266,0.11232433468103409,0.3656863272190094,-0.2204366773366928,-0.06950844824314117,-0.4428531229496002,0.02979128621518612,0.006579999811947346,-0.14409054815769196,-0.0084058977663517,-0.07196685671806335,-0.6570345163345337,-0.3920722007751465,0.4659353196620941,0.32632961869239807,-0.10858751833438873,-0.21063628792762756,0.22278845310211182,0.39504826068878174,-0.3557876646518707,-0.05393294245004654,-0.27549993991851807,0.22371603548526764,0.19450397789478302,0.413836807012558,-0.049112290143966675,-0.08100884407758713,0.3417486250400543,0.1901642382144928,-0.39443138241767883,0.3023773729801178,0.2368983030319214,0.25292009115219116,-0.18754947185516357,-0.010520471259951591,-0.20237748324871063,-0.1322897970676422,0.37131091952323914,0.29372164607048035,0.2878419756889343,-0.4823150634765625,0.3403719663619995,0.27820298075675964,0.30690836906433105,-0.25838714838027954,0.18921302258968353,-0.11811612546443939,-0.21648183465003967,-0.45595765113830566,0.36969220638275146,-0.2233719527721405,0.017108213156461716,-0.1935664564371109,-0.050965648144483566,-0.5997976064682007,-0.03826209902763367},{0.19823041558265686,0.18532590568065643,-0.2822195589542389,-0.32539698481559753,0.356317400932312,-0.08400516957044601,0.21850937604904175,0.08196482062339783,0.26081353425979614,-0.21578270196914673,-0.13164636492729187,0.17502741515636444,0.43647557497024536,-0.09458810091018677,-0.01819194294512272,0.29541900753974915,-0.15916644036769867,0.011301695369184017,-0.14613893628120422,-0.05306117236614227,-0.11859554052352905,-0.11121364682912827,0.3908853530883789,-0.3287622630596161,-0.4599975347518921,0.143748939037323,0.4101080000400543,-0.09026150405406952,0.10747618228197098,0.15590867400169373,0.119979627430439,0.29008468985557556,-0.457730233669281,0.32068338990211487,-0.005895335227251053,0.36444714665412903,0.08972445875406265,0.012134766206145287,-0.21641501784324646,0.11807630211114883,0.17930863797664642,0.13491714000701904,0.19525982439517975,-0.25314781069755554,0.18548624217510223,0.26342013478279114,0.17533594369888306,0.18650448322296143,0.37869584560394287,-0.49852097034454346,0.17419566214084625,0.18104594945907593,0.17472746968269348,0.08532440662384033,0.2819809317588806,-0.14014071226119995,0.2320290058851242,-0.0037333329673856497,0.20744521915912628,-0.24544329941272736,0.16722442209720612,0.2072792798280716,-0.3581483066082001,0.16064080595970154},{-0.4101814925670624,0.05232703685760498,-0.026655755937099457,0.3015989661216736,0.29080575704574585,0.3340958058834076,-0.09774010628461838,0.12800778448581696,0.4084721505641937,-0.08865384757518768,0.0442407950758934,0.1364385336637497,-0.0809599980711937,-0.08378011733293533,-0.42227599024772644,-0.07020648568868637,-0.11728544533252716,-0.1161590963602066,-0.09935362637042999,0.21822121739387512,-0.3060561418533325,-0.12380174547433853,0.14753438532352448,0.4872511327266693,0.20497003197669983,-0.27651306986808777,-0.2483709305524826,0.25430312752723694,-0.10400934517383575,0.3950467109680176,-0.2560068368911743,0.24891576170921326,0.33526673913002014,-0.2025684416294098,-0.19588716328144073,0.18739424645900726,0.42860347032546997,-0.018695689737796783,0.019647542387247086,0.11887150257825851,0.17188473045825958,-0.13186465203762054,-0.5829870700836182,0.2054310441017151,-0.19868940114974976,-0.5816754102706909,-0.18591324985027313,0.07383432239294052,0.05695471167564392,0.3089759349822998,-0.20334263145923615,-0.19068533182144165,-0.23029033839702606,0.044847264885902405,-0.10104697197675705,-0.09064186364412308,-0.17600935697555542,0.2891501784324646,-0.32300448417663574,0.17906813323497772,-0.4661768972873688,0.1311914026737213,0.039592668414115906,0.2733815908432007},{-0.3475378751754761,0.10585976392030716,0.23564413189888,-0.11196965724229813,0.35999301075935364,0.25125864148139954,0.21722698211669922,-0.20705638825893402,0.4411415755748749,-0.08547770977020264,-0.3109470307826996,-0.02812696248292923,-0.09656606614589691,-0.26327288150787354,0.16764265298843384,-0.09602106362581253,0.22396399080753326,-0.25428080558776855,0.09340531378984451,0.14733901619911194,0.015585490502417088,-0.1552228182554245,-0.35398009419441223,0.1452222615480423,-0.22500920295715332,-0.08373390883207321,-0.3412136733531952,-0.046225644648075104,-0.17619688808918,0.22233884036540985,0.008630775846540928,-0.11620072275400162,-0.2107018530368805,-0.0518982820212841,0.12835215032100677,0.08410584926605225,0.04704802855849266,0.4521959125995636,0.062203921377658844,0.2753885090351105,-0.12288228422403336,-0.26767295598983765,0.11219855397939682,0.5159209966659546,-0.12267632782459259,-0.16438017785549164,-0.0017521869158372283,0.07666689157485962,-0.04323428124189377,-0.10499630123376846,0.2544896900653839,0.13455317914485931,-0.45479288697242737,0.24318207800388336,0.010881002992391586,0.2973730266094208,-0.2160010188817978,-0.3101750612258911,-0.2932644188404083,-0.37393516302108765,-0.05218242108821869,0.039046116173267365,0.32086360454559326,0.29985418915748596},{0.003272457979619503,-0.2333778738975525,0.06558972597122192,0.0463358499109745,0.3175269067287445,0.15748745203018188,0.13057756423950195,0.13619248569011688,-0.015997055917978287,-0.03994642198085785,-0.192383274435997,-0.2613402307033539,0.13929107785224915,-0.026777246966958046,-0.046140797436237335,0.28254058957099915,0.32583853602409363,-0.08170317113399506,0.04270769655704498,-0.006909073796123266,-0.11583709716796875,-0.10106156021356583,0.06417818367481232,0.029127294197678566,0.25672656297683716,0.14943110942840576,-0.10616623610258102,-0.06618872284889221,0.11629782617092133,0.4406014680862427,-0.03919867426156998,0.015073627233505249,0.2944314479827881,-0.2034974843263626,-0.13696230947971344,-0.03978459909558296,-0.21624472737312317,-0.21032196283340454,-0.07285528630018234,-0.02103864587843418,0.20645207166671753,0.18441759049892426,0.07395829260349274,-0.06139156594872475,0.11016887426376343,0.07301844656467438,0.2516419589519501,-0.003730238415300846,-0.1577645093202591,0.01506735198199749,0.1392168402671814,-0.12611238658428192,0.3771510124206543,-0.038428932428359985,-0.2195851355791092,0.03571775555610657,-0.03088429942727089,0.08073677122592926,0.007841477170586586,-0.15432268381118774,-0.05629267543554306,-0.09218480437994003,-0.03362010419368744,-0.02456584945321083},{-0.20944230258464813,0.13515259325504303,-0.30369216203689575,0.14346539974212646,4.421873381943442e-05,0.2741295397281647,-0.17530207335948944,-0.2722823917865753,0.39938944578170776,-0.44185325503349304,-0.6685956120491028,0.3116622269153595,0.544423520565033,0.13813582062721252,0.346017062664032,0.45260360836982727,-0.14097051322460175,-0.18937742710113525,0.07332339882850647,0.3144788444042206,-0.032348114997148514,-0.5671149492263794,-0.6293149590492249,0.3775368928909302,0.3159768283367157,-0.03204767033457756,-0.05364466458559036,0.5414586067199707,-0.30758270621299744,-0.03473113477230072,-0.1412975788116455,0.7080013155937195,-0.4097669720649719,-0.07002727687358856,0.3504408299922943,-0.10323011130094528,-0.19683192670345306,0.052256617695093155,-0.16920290887355804,0.3992532789707184,-0.10525481402873993,-0.14411260187625885,0.05762972682714462,0.22490821778774261,0.3502318561077118,-0.19428284466266632,-0.16468381881713867,-1.0532777309417725,-0.4804506301879883,-0.30664703249931335,-0.64958655834198,-0.027871455997228622,0.06538568437099457,0.24456724524497986,-0.08315122872591019,-0.13509657979011536,0.3348552882671356,-0.10491515696048737,0.07700996845960617,-0.0933811292052269,0.29907456040382385,0.581170916557312,0.2012057602405548,-0.4323998689651489},{-0.17961636185646057,-0.1503276526927948,0.24596446752548218,0.07310178130865097,0.404347687959671,0.03477180749177933,-0.3114715814590454,0.25410324335098267,0.17375929653644562,0.08497079461812973,0.18487529456615448,-0.01490203756839037,0.8687288761138916,-0.14856289327144623,0.45040789246559143,-0.21873845160007477,0.10372123122215271,-0.267024964094162,-0.008502964861690998,-0.4273896813392639,-0.7026414275169373,0.046281881630420685,-0.1876620054244995,-0.03827924281358719,0.234049990773201,-0.09187532961368561,-0.20621824264526367,0.17813906073570251,-0.4321646988391876,-0.3927977681159973,-0.11820723116397858,-0.47546833753585815,-0.10587751865386963,0.10403011739253998,0.18182140588760376,-0.24473051726818085,0.025287415832281113,-0.5042327642440796,-0.09448619186878204,-0.22081221640110016,-0.261466920375824,0.27090778946876526,-0.6485212445259094,-0.07556597143411636,0.2554400861263275,-0.15128561854362488,0.26111799478530884,-0.5266348123550415,0.5167803764343262,-0.5334975719451904,-0.18411648273468018,-0.20096850395202637,0.3427746891975403,-0.5044118165969849,-0.2482600063085556,-0.3267943859100342,-0.7132842540740967,0.17539139091968536,-0.22480803728103638,0.10558323562145233,0.14253093302249908,0.363360732793808,-0.14714489877223969,-0.20367558300495148},{-0.015587924048304558,0.12643207609653473,-0.0343749113380909,-0.09003203362226486,0.19255119562149048,-0.07590515911579132,0.21942146122455597,0.1384575515985489,0.15837080776691437,0.1648014485836029,0.0877162292599678,0.08559276163578033,-0.04615938290953636,-0.18323855102062225,-0.22046440839767456,0.08957667648792267,0.04669729247689247,0.19693228602409363,0.2516505718231201,-0.0038569134194403887,0.45659902691841125,0.4745528995990753,0.25950610637664795,-0.279997318983078,-0.044540420174598694,-0.6523246169090271,-0.0965520441532135,0.038993097841739655,0.048437945544719696,-0.1345270723104477,0.040397852659225464,0.22498857975006104,-0.43563270568847656,-0.021590471267700195,-0.14667783677577972,-0.010025332681834698,-0.28301212191581726,0.25210344791412354,0.3475572466850281,0.08364437520503998,0.0011381723452359438,0.2236175835132599,-0.01904868148267269,0.27634361386299133,-0.057389259338378906,-0.3328876495361328,-0.20839999616146088,0.1391569823026657,0.4950525760650635,-0.0046503180637955666,0.1325540393590927,-0.1560811549425125,-0.1251392662525177,-0.38984641432762146,-0.035647887736558914,0.05074111372232437,-0.15016476809978485,0.04159839451313019,0.2469080537557602,-0.21533992886543274,-0.0135841378942132,0.013171102851629257,-0.3085111975669861,-0.25215035676956177},{0.5960478186607361,-0.06494645774364471,-0.381249338388443,-0.31944283843040466,-0.20280438661575317,0.22381871938705444,0.5399206876754761,0.246056467294693,-0.18421806395053864,0.2409319281578064,0.006585841532796621,0.09364137053489685,0.055203985422849655,0.27728956937789917,-0.5220582485198975,-0.08707171678543091,0.48244279623031616,-0.17768095433712006,-0.10399526357650757,-0.3072144091129303,-0.1209784671664238,0.06147856265306473,-0.358967661857605,0.23986510932445526,0.1295354962348938,0.3189809024333954,-0.10854354500770569,-0.1340905725955963,-0.3170340657234192,0.4993976056575775,-0.22106195986270905,0.1940142661333084,0.12946492433547974,-0.21381875872612,-0.1406259834766388,-0.059768255800008774,0.21703091263771057,-0.23254576325416565,-0.3371453881263733,-0.1574012041091919,0.0013174345949664712,-0.25427675247192383,0.05592510476708412,0.2399674355983734,0.40443551540374756,0.16976085305213928,0.006427596788853407,0.18062403798103333,-0.23341895639896393,0.24930649995803833,0.28990551829338074,0.061431486159563065,0.044054482132196426,-0.18204845488071442,0.2616559863090515,-0.5387833714485168,-0.21118468046188354,0.318557471036911,0.01627364568412304,0.32256874442100525,0.29233309626579285,-0.1128094270825386,0.24288801848888397,-0.2823614180088043},{0.1980961412191391,0.3672724962234497,0.06340288370847702,-0.06472216546535492,-0.15241160988807678,-0.017627162858843803,-0.13738548755645752,-0.3252319395542145,0.1956043839454651,-0.05276857316493988,-0.3737639784812927,0.05828966200351715,-0.04717117175459862,-0.022895701229572296,0.11385884135961533,0.4309745728969574,-0.06528840959072113,0.03244020417332649,-0.05666883662343025,0.244266539812088,0.20073212683200836,0.130039781332016,-0.04098566621541977,-0.07281339168548584,-0.05532947555184364,-0.1779700219631195,-0.2474244236946106,-0.20479603111743927,-0.08280720561742783,-0.01235061977058649,-0.46300187706947327,0.150088831782341,0.1526249200105667,0.23824161291122437,0.021606411784887314,0.4792027473449707,0.13364875316619873,0.3594779968261719,-0.2576139569282532,0.2675582766532898,0.1010611429810524,0.44231685996055603,0.30843791365623474,-0.12582090497016907,-0.2797119915485382,-0.003784140571951866,-0.020825034007430077,0.045612942427396774,-0.47687119245529175,0.396746963262558,0.09855571389198303,0.545052170753479,0.016216455027461052,0.13006165623664856,0.33604955673217773,-0.08314383774995804,0.30712926387786865,-0.49459823966026306,-0.08181747049093246,0.4795248806476593,0.22053010761737823,0.05275818333029747,0.35146141052246094,0.11100177466869354},{-0.3095904588699341,0.46487390995025635,0.2878497838973999,0.5430949330329895,0.03085164912045002,-0.16181282699108124,-0.310698539018631,0.45721372961997986,0.43489548563957214,0.008073939941823483,-0.2782142162322998,0.14950625598430634,0.20826229453086853,0.2632651925086975,0.17850874364376068,-0.07475610077381134,0.21967846155166626,-0.28930845856666565,-0.06690044701099396,-0.11834800988435745,-0.029627753421664238,-0.2556516230106354,-0.17237600684165955,0.029819326475262642,-0.07387176156044006,-0.35620588064193726,-0.023552358150482178,0.6274609565734863,-0.35340121388435364,0.1652325689792633,-0.14057883620262146,0.024724667891860008,0.07917754352092743,-0.33403727412223816,-0.06311752647161484,-0.8878139853477478,-0.07309334725141525,-0.19156348705291748,0.3067653775215149,-0.3847840428352356,0.14891235530376434,0.13106584548950195,-0.561078667640686,0.40932759642601013,0.07177463173866272,-0.5146028995513916,0.27273476123809814,-0.38521480560302734,0.4333910644054413,0.4080476760864258,-0.1350060999393463,-0.15142616629600525,0.13304874300956726,-0.29072263836860657,-0.1503603607416153,-0.008745519444346428,-0.11462259292602539,0.2200642228126526,0.23254159092903137,-0.35386377573013306,0.3154580295085907,-0.07853188365697861,0.3163997530937195,0.30937039852142334},{0.44754576683044434,-0.04571514204144478,-0.29157939553260803,-0.3986722528934479,0.28641629219055176,0.10458157956600189,-0.1134500801563263,0.3128259479999542,-0.11824609339237213,0.12309066206216812,-0.14070484042167664,0.18471691012382507,-0.3130551874637604,-0.24414634704589844,-0.270228773355484,-0.378325492143631,0.17662358283996582,0.09304077178239822,0.10640415549278259,-0.22436244785785675,-0.3027074635028839,-0.15468186140060425,-0.09098803997039795,0.49415111541748047,-0.1292268931865692,-0.18921202421188354,-0.04475204274058342,-0.029920481145381927,-0.1449262499809265,-0.08511458337306976,0.19118958711624146,-0.48317086696624756,0.4975232183933258,-0.0855855643749237,0.010026317089796066,0.04719661921262741,0.1619373857975006,-0.27301836013793945,0.2879694998264313,-0.3817720115184784,-0.24345099925994873,0.11097866296768188,-0.2477143555879593,0.10036861896514893,-0.2342008650302887,0.20741772651672363,0.5329725742340088,0.31535768508911133,0.07806681096553802,-0.03160550072789192,-0.396615594625473,0.14130324125289917,-0.2602968215942383,0.37767407298088074,0.05974849686026573,-0.24609898030757904,-0.42978739738464355,0.38393059372901917,0.06301958858966827,0.03174140676856041,0.2202243059873581,-0.22978633642196655,-0.0942026749253273,0.11871898174285889},{-0.13404512405395508,-0.2614377439022064,-0.13662251830101013,0.15421631932258606,0.0198106337338686,-0.1004558801651001,-0.13901782035827637,-0.14844729006290436,-0.07187868654727936,-0.13279518485069275,0.14043641090393066,0.23591159284114838,0.2215331494808197,-0.21858756244182587,-0.3230281472206116,-0.4081728458404541,0.047689009457826614,-0.08154074847698212,0.28244033455848694,-0.14044468104839325,0.3497142791748047,-0.22693367302417755,0.0966116264462471,-0.015031365677714348,-0.2831053137779236,-0.09248431026935577,-0.006790486164391041,-0.12722958624362946,0.003919812850654125,0.08934201300144196,-0.33418700098991394,-0.053470198065042496,0.11630235612392426,-0.15049849450588226,-0.013878424651920795,0.05287408083677292,-0.2387547492980957,-0.029852688312530518,0.23304739594459534,0.09220052510499954,0.22140522301197052,0.060890015214681625,-0.15236838161945343,-0.25175413489341736,0.1914408802986145,-0.08205199241638184,-0.008474200963973999,0.1997351199388504,-0.06350898742675781,-0.18115991353988647,-0.11614509671926498,-0.08234882354736328,-0.05711952969431877,-0.17916011810302734,0.10379334539175034,0.007469309028238058,0.10500434041023254,-0.11772116273641586,-0.3179343044757843,-0.049907296895980835,0.17094217240810394,-0.08433458209037781,0.2987343668937683,-0.007355440407991409},{0.21479424834251404,-0.09720030426979065,-0.08357865363359451,0.037605948746204376,0.4728528559207916,0.02922203205525875,0.284458190202713,0.15721401572227478,-0.40590423345565796,-0.04051392897963524,0.28368550539016724,0.1595580130815506,0.42225900292396545,0.0703718513250351,0.3073793947696686,0.364257276058197,-0.40464261174201965,0.03273490071296692,0.5303317904472351,-0.8171495199203491,-0.23949745297431946,-0.013213579542934895,-0.22181886434555054,-0.40534114837646484,0.312557578086853,-0.023295676335692406,0.6870986223220825,0.061545733362436295,-0.4921165108680725,-0.17364366352558136,-0.09858265519142151,0.008376536890864372,0.13331428170204163,0.2098095715045929,-0.05370248481631279,0.2059423178434372,-0.021410899236798286,-0.2773939371109009,-0.6266724467277527,-0.35457584261894226,0.5025886297225952,0.23835770785808563,-0.02814275585114956,-0.5893799662590027,0.06998034566640854,0.3380849063396454,0.20015187561511993,0.08768698573112488,0.34967342019081116,-0.9176282286643982,0.14711040258407593,0.05910245701670647,-0.21966896951198578,0.12317118048667908,0.009728718549013138,-0.16693124175071716,-0.4706147611141205,-0.12594091892242432,-0.10434511303901672,0.02996544912457466,0.09617850929498672,0.139799103140831,-0.5999064445495605,-0.1541060507297516},{-0.25686225295066833,-0.4740636348724365,0.6763518452644348,0.5516077280044556,-0.5482381582260132,-0.09071270376443863,-0.15045005083084106,0.1670023500919342,-0.11739063262939453,0.010301738977432251,-0.09760598838329315,0.16178470849990845,-0.34255045652389526,-0.06932423263788223,0.021254420280456543,0.13784191012382507,0.3194461762905121,0.2290021926164627,-0.4802033305168152,0.16362285614013672,0.2236298769712448,-0.286009281873703,0.39000403881073,-0.14243528246879578,0.2703251838684082,-0.1556595265865326,0.3206597864627838,-0.3029721677303314,-0.1988726258277893,0.1788257360458374,-0.018242649734020233,0.3688565790653229,-0.1452273577451706,0.3274399936199188,0.21244722604751587,-0.041597723960876465,0.22036466002464294,0.00027184197097085416,0.0010148565052077174,0.18841275572776794,-0.0844784677028656,0.10055996477603912,-0.10701753944158554,0.10037515312433243,0.33692702651023865,-0.30567699670791626,-0.267652302980423,-0.5528739094734192,-0.03132528066635132,-0.06181326135993004,0.2711421251296997,-0.08205799013376236,-0.41594550013542175,-0.161095529794693,-0.2994684875011444,0.04051529988646507,-0.0421011820435524,0.07928011566400528,-0.24613329768180847,0.2876429557800293,-0.4238855540752411,-0.21093425154685974,-0.24629531800746918,-0.2139321118593216},{-0.3269230127334595,-0.35539790987968445,-0.0034629851579666138,0.2507171928882599,0.10593395680189133,-0.5798639059066772,0.0040070777758955956,-0.02492425963282585,-0.5056105256080627,-0.32660236954689026,0.22561629116535187,0.15913069248199463,-0.2997180223464966,0.13356956839561462,-0.10364090651273727,0.23439136147499084,0.1668999344110489,0.044753044843673706,0.17819857597351074,0.0932035744190216,0.11531077325344086,-0.42433714866638184,0.385320246219635,0.019107922911643982,0.3348626494407654,-0.020355982705950737,-0.2652733325958252,-0.5165350437164307,0.1568848341703415,-0.1863562911748886,0.02260550670325756,0.49276837706565857,-0.35929784178733826,-0.09663189947605133,0.3664352595806122,-0.24291616678237915,-0.3066798746585846,0.14109264314174652,0.19048039615154266,-0.015192861668765545,-0.2529847323894501,-0.39895233511924744,-0.14499880373477936,0.06507289409637451,0.16137267649173737,0.17342980206012726,-0.3209071755409241,-0.4134550392627716,0.11413093656301498,0.1911098062992096,0.25164473056793213,-0.028517745435237885,0.058173052966594696,0.4343690574169159,-0.15193310379981995,-0.2256784439086914,0.01593121327459812,0.01438222173601389,0.31447407603263855,0.19405266642570496,-0.26059862971305847,0.1457563191652298,0.3933035433292389,0.10898727923631668},{-0.09930121898651123,0.05033929646015167,0.006596556399017572,0.12546762824058533,0.04332473874092102,0.2265562266111374,-0.06430650502443314,0.28470364212989807,0.021368002519011497,0.1317267268896103,0.05504028871655464,-0.015947934240102768,0.24350881576538086,-0.12548156082630157,-0.15322519838809967,0.14125430583953857,-0.2039162814617157,0.09423762559890747,-0.2470281571149826,-0.14906346797943115,-0.032914694398641586,0.20894800126552582,0.15248622000217438,0.16302435100078583,-0.16842979192733765,0.3413589298725128,0.07419754564762115,0.11592014878988266,-0.1280042678117752,0.0971132293343544,0.027406632900238037,0.06166088208556175,-0.01100672036409378,0.10770931094884872,-0.020753366872668266,-0.06580245494842529,-0.010728140361607075,0.3321411907672882,0.13382937014102936,0.15968622267246246,-0.09312617778778076,-0.254536896944046,-0.1964932084083557,-0.17191459238529205,-0.15058808028697968,0.06057847663760185,-0.04108805954456329,-0.044261571019887924,0.08228366076946259,-0.31265655159950256,0.13209351897239685,0.06804917007684708,0.06539332866668701,0.14880822598934174,-0.25134727358818054,-0.21908345818519592,-0.10637391358613968,-0.11010432243347168,0.136466845870018,0.24936702847480774,0.045926351100206375,-0.2566628158092499,0.3261551856994629,0.01958382874727249},{-0.23112311959266663,-0.08069653064012527,0.18938292562961578,-0.21084357798099518,-0.24158230423927307,-0.15387780964374542,-0.16399624943733215,-0.003685303498059511,0.38300374150276184,0.13578744232654572,0.1282719373703003,-0.04866258427500725,0.208498015999794,0.16125303506851196,-0.23851773142814636,0.38640138506889343,0.05948542058467865,-0.05355940759181976,0.03762441873550415,0.09592575579881668,0.18386846780776978,-0.13101428747177124,-0.31280240416526794,0.14365868270397186,-0.0900799036026001,-0.27460551261901855,0.07698014378547668,-0.12864868342876434,0.11238064616918564,-0.12860780954360962,0.29662880301475525,-0.05074727535247803,-0.0863465815782547,-0.11549846082925797,-0.005724800284951925,0.1065492108464241,0.09473437815904617,0.24889546632766724,-0.08416464179754257,-0.2627338171005249,0.08275527507066727,0.07980211079120636,-0.07911050319671631,-0.12740035355091095,0.06095672398805618,-0.166751891374588,0.16059492528438568,0.3167267441749573,-0.28890135884284973,-0.07584945112466812,0.2283039093017578,0.07195593416690826,0.22365164756774902,0.22088934481143951,0.31526052951812744,-0.1004943773150444,-0.10262944549322128,0.05970490723848343,-0.06791967153549194,0.015716085210442543,0.031928591430187225,-0.1533394753932953,-0.30459505319595337,-0.01959955506026745},{0.17335563898086548,0.1528366655111313,-0.15169742703437805,-0.13359907269477844,-0.15252666175365448,0.35299116373062134,-0.13698406517505646,-0.07208963483572006,-0.10941925644874573,-0.17654886841773987,0.3366961181163788,-0.050669487565755844,0.01073480024933815,-0.07362961769104004,-0.036517295986413956,0.187393918633461,-0.1149282231926918,0.010488751344382763,0.10909941792488098,0.012952566146850586,-0.23362064361572266,-0.35330766439437866,0.09166169911623001,-0.0016489253612235188,0.22110778093338013,0.06208325922489166,-0.24912819266319275,-0.0860339105129242,