
#include "nn_compute.h"

#define g 9.8f
#define mass 0.033f
#define kf 3.16e-10f
static const float hoverRPM = sqrtf((g * mass) / (4.0f * kf));

static const int structure[3][2] = {{64, 12},{64, 64},{4, 64}};
static float output_0[64];
static float output_1[64];
static float output_2[4];
static const float mlp_extractor_policy_net_0_weight[64][12] = {{1.8848240375518799,1.4680593013763428,-0.02609979920089245,7.565216064453125,0.8072260022163391,3.3272998332977295,4.310421466827393,3.626908779144287,-0.09420307725667953,5.236078262329102,-0.6955733299255371,6.959834098815918},{0.22200404107570648,3.29339861869812,1.2080568075180054,-11.028297424316406,-6.209577560424805,-2.766324520111084,-2.294919013977051,3.491569757461548,-0.004770796280354261,-4.562553882598877,-5.622171878814697,-2.3327527046203613},{-0.003585074795410037,0.003884765552356839,-0.007086725905537605,-0.0484287403523922,-0.024111755192279816,0.005663266871124506,-0.012859290465712547,-0.0026442050002515316,-0.07207535952329636,-0.0009925232734531164,0.014048583805561066,-0.008117424324154854},{0.6327705383300781,-0.8992860913276672,5.261282920837402,6.303398132324219,1.839688777923584,0.12320677936077118,0.8525391817092896,-1.3957319259643555,3.8235437870025635,2.68792462348938,2.2613446712493896,0.565500795841217},{-0.002636740682646632,-0.0028623249381780624,-0.0071528032422065735,-0.003013935871422291,0.025591382756829262,0.0043439618311822414,-0.0005913026980124414,0.0269244946539402,-0.030280428007245064,-0.012936992570757866,-0.0051437136717140675,-0.002064584055915475},{-1.127848744392395,-1.7381292581558228,3.7370617389678955,-4.1280837059021,2.492676258087158,0.41346895694732666,-2.0462098121643066,-2.2382335662841797,-0.2611906826496124,1.9445855617523193,-1.3156335353851318,4.277655124664307},{-4.1660475730896,8.216635704040527,-2.2532286643981934,-19.442150115966797,-8.0580472946167,1.2506755590438843,-1.6988298892974854,16.113882064819336,1.4685297012329102,-11.85341739654541,-3.418262243270874,2.1063685417175293},{-0.00649432186037302,0.0030489047057926655,-0.026006506755948067,-0.04142870008945465,-0.02354632131755352,0.006333553697913885,-0.012121209874749184,0.020541071891784668,-0.1038990244269371,-0.010592492297291756,0.006871592719107866,-0.0074609373696148396},{0.003748132847249508,-0.004113746341317892,0.008179403841495514,0.04943569749593735,0.025688331574201584,-0.005696277134120464,0.013187899254262447,0.0022887415252625942,0.07474718242883682,0.0011202460154891014,-0.014083263464272022,0.008138660341501236},{0.41491958498954773,2.2701261043548584,2.6712145805358887,-6.246852874755859,2.321629524230957,7.619932174682617,1.1541664600372314,1.6166225671768188,4.634033679962158,-4.5761260986328125,-2.3961501121520996,5.799258708953857},{-0.0026653336826711893,0.00265576783567667,-0.004371466115117073,-0.043237898498773575,-0.01928902417421341,0.00554936658591032,-0.012501534074544907,-0.00023416028125211596,-0.06548897176980972,-0.0023723894264549017,0.011652370914816856,-0.007603716105222702},{-0.0022583715617656708,0.00042170603410340846,-0.004346111789345741,-0.031401608139276505,-0.0072671957314014435,0.004336235113441944,-0.010129247792065144,0.007128915283828974,-0.050702907145023346,-0.006760663818567991,0.0037763079162687063,-0.005312568042427301},{0.0026474008336663246,-0.0012840902199968696,0.004768858663737774,0.03752581402659416,0.013011346571147442,-0.005672125611454248,0.011677389033138752,-0.004693224094808102,0.061539176851511,0.005100930575281382,-0.007907466031610966,0.006846537347882986},{0.004658318590372801,-0.004433618392795324,0.012564677745103836,0.051198069006204605,0.028649814426898956,-0.005973897874355316,0.0138187101110816,-0.0004425871593412012,0.08396106958389282,0.0024245211388915777,-0.013545474037528038,0.008322600275278091},{0.0030445740558207035,0.0016760006546974182,0.007895756512880325,0.015763714909553528,-0.012269171886146069,-0.005423423834145069,0.00533483037725091,-0.022726036608219147,0.045578062534332275,0.011689966544508934,0.0017214721301570535,0.0036361597012728453},{0.002780372276902199,0.002029015216976404,0.006984170991927385,0.007028091233223677,-0.023565776646137238,-0.0037995551247149706,0.0006379911792464554,-0.024198126047849655,0.02932555601000786,0.012390215881168842,0.004267992451786995,0.002214383101090789},{-0.0016836430877447128,0.00023829158453736454,-0.003902244148775935,-0.025746295228600502,-0.0021549630910158157,0.0040551298297941685,-0.008982408791780472,0.009226685389876366,-0.04808840900659561,-0.00694217998534441,0.002647658344358206,-0.00464214663952589},{0.007798992563039064,-0.010135903023183346,0.03274555504322052,0.06519196927547455,0.04659599810838699,-0.0038335041608661413,0.008721022866666317,-0.0038511017337441444,0.11284731328487396,0.00310807628557086,-0.015848273411393166,0.00894137192517519},{-0.007050732150673866,0.0096210278570652,-0.02578161098062992,-0.0641394704580307,-0.04160323739051819,0.004150501452386379,-0.00691115390509367,-0.0009975755820050836,-0.09846474975347519,-0.0006642014486715198,0.01786681078374386,-0.009411996230483055},{-4.332263946533203,-3.3301503658294678,1.0522114038467407,-5.947566509246826,-11.35960578918457,6.045475006103516,-12.654276847839355,1.2082178592681885,-0.41656363010406494,-2.110360622406006,-0.51619553565979,5.796510696411133},{-0.002570557873696089,5.812915333081037e-06,-0.006468797568231821,-0.028785021975636482,-0.0054925172589719296,0.005685063544660807,-0.010805550962686539,0.011848780326545238,-0.05835631489753723,-0.007948664017021656,0.003314974484965205,-0.005415645893663168},{0.00011264097702223808,-0.00292684743180871,-0.001936521613970399,0.022498266771435738,0.012088264338672161,-6.429911445593461e-05,0.0006533533451147377,0.013529677875339985,0.019928527995944023,-0.0058263326063752174,-0.011786574497818947,0.005614002700895071},{-0.41904380917549133,0.9005307555198669,1.2635955810546875,0.49469059705734253,8.554685592651367,0.3730931282043457,-2.1309757232666016,0.3358985483646393,1.3539855480194092,-1.5477120876312256,-2.51990008354187,0.17268314957618713},{-0.008622500114142895,0.010705137625336647,-0.04231097921729088,-0.0667482390999794,-0.04831762611865997,0.003326134057715535,-0.008842399343848228,0.014197896234691143,-0.13197311758995056,-0.007625729311257601,0.013218246400356293,-0.008567940443754196},{0.007594746071845293,-0.0084428321570158,0.03132355585694313,0.060999732464551926,0.043607816100120544,-0.00453164940699935,0.012211340479552746,-0.006233294494450092,0.11426201462745667,0.0045959618873894215,-0.013499611057341099,0.008240504190325737},{0.005174707155674696,0.00046795469825156033,0.024582045152783394,0.02123829908668995,0.0016705372836440802,-0.006057593040168285,0.004085846245288849,-0.03777396306395531,0.09116242080926895,0.015008293092250824,-0.001128732692450285,0.007033034227788448},{-0.0006667449488304555,-0.008099883794784546,-0.0011995462700724602,0.02310069650411606,0.020049862563610077,0.004140828736126423,-0.010587447322905064,0.023351386189460754,-0.006386788561940193,-0.011576415039598942,-0.01649598218500614,0.005228533875197172},{-8.818598747253418,0.2161393165588379,0.929783821105957,-1.6140245199203491,-24.17891502380371,-3.308293581008911,-9.53600025177002,3.111900806427002,2.738065242767334,-4.258520126342773,-8.41720199584961,0.14326076209545135},{-0.37081849575042725,-1.6537213325500488,0.4065896272659302,9.456363677978516,5.662072658538818,-4.940126419067383,0.37376442551612854,-1.4585403203964233,1.2234611511230469,7.300331115722656,2.4395394325256348,-6.32900333404541},{-1.2218959331512451,-0.6759869456291199,0.6757091879844666,-6.684686183929443,0.8996044993400574,-0.6101500988006592,-0.27905169129371643,-1.447525978088379,-2.3750064373016357,3.228607654571533,-1.4358164072036743,-1.1307742595672607},{0.4958069324493408,1.0397295951843262,-0.28584176301956177,-12.827364921569824,2.995893716812134,-6.653129577636719,0.38051289319992065,3.200080633163452,-0.35337892174720764,-8.319212913513184,2.5133259296417236,-5.514707565307617},{1.0651086568832397,0.43997204303741455,1.564355492591858,-7.18760347366333,15.336063385009766,-1.3685312271118164,2.6339635848999023,0.9159907102584839,1.1144356727600098,0.3998314142227173,7.5215888023376465,-1.6717265844345093},{-0.007764648180454969,0.00959815364331007,-0.03233912214636803,-0.06375058740377426,-0.045093078166246414,0.0039586336351931095,-0.00971141830086708,0.004252783488482237,-0.11275822669267654,-0.0034725735895335674,0.015037152916193008,-0.008791900239884853},{0.007217115256935358,-0.005753956735134125,0.029735524207353592,0.052804525941610336,0.03713187202811241,-0.005506135523319244,0.015292656607925892,-0.011803293600678444,0.11387062072753906,0.007344550918787718,-0.009458404965698719,0.007188297808170319},{2.8200864791870117,-0.8528866171836853,1.5917515754699707,-1.2913892269134521,8.212342262268066,-5.709840297698975,2.4549989700317383,-1.0734078884124756,1.0030685663223267,-1.7943484783172607,5.739629745483398,-5.641882419586182},{-0.0021178030874580145,-0.004399379715323448,-0.004248900804668665,0.002044369000941515,0.018350811675190926,0.005942645017057657,-0.005725080147385597,0.023767955601215363,-0.029310747981071472,-0.010936274193227291,-0.005478738807141781,-0.0011550881899893284},{1.3434727191925049,1.4392811059951782,-0.002008136361837387,-13.285039901733398,-2.0459234714508057,1.251275897026062,0.7419390082359314,2.072211742401123,-0.7600252032279968,-2.8793201446533203,3.4553134441375732,-1.147544503211975},{-0.00400141067802906,-0.001924176118336618,-0.013221574947237968,-0.014223854057490826,0.01999838277697563,0.005208732560276985,-0.0008042008266784251,0.031672798097133636,-0.05101625621318817,-0.014851163141429424,-0.0029086703434586525,-0.004076309036463499},{-1.4763731956481934,1.2629528045654297,1.2554128170013428,-13.861800193786621,-9.771519660949707,-1.475571870803833,-1.0198088884353638,2.4414916038513184,3.365225315093994,-2.7342536449432373,-2.1566498279571533,0.17579768598079681},{1.345755696296692,-1.4744116067886353,0.6292463541030884,0.5393062829971313,9.790324211120605,3.5917046070098877,0.07774648815393448,-1.0252567529678345,0.31385767459869385,3.8378427028656006,0.8453575372695923,0.2380494773387909},{-0.003385197138413787,0.0003954353160224855,-0.007915237918496132,-0.02049502171576023,0.011465691030025482,0.0025968006812036037,-0.001297110691666603,0.015435189940035343,-0.03454775735735893,-0.010266926139593124,0.0002877148217521608,-0.004064465872943401},{0.008457359857857227,-0.010906049981713295,0.03926865756511688,0.06717543303966522,0.04865655675530434,-0.0033675895538181067,0.008178357034921646,-0.009521414525806904,0.12465384602546692,0.005616856273263693,-0.014637673273682594,0.008848997764289379},{-1.5970146656036377,-0.7613365650177002,-0.1536685973405838,-1.8290486335754395,10.810059547424316,-0.10658733546733856,1.5998939275741577,0.0026447847485542297,1.2115572690963745,-1.1575242280960083,-2.3998169898986816,0.0014412571908906102},{-0.008369393646717072,0.00886825192719698,-0.0488247349858284,-0.060861892998218536,-0.043341148644685745,0.0032401469070464373,-0.009503677487373352,0.029809195548295975,-0.14863638579845428,-0.013434477150440216,0.008332719095051289,-0.007788434624671936},{1.5119117498397827,1.5109742879867554,-3.9107115268707275,-4.796146392822266,10.000863075256348,2.896266460418701,2.573899507522583,0.6604481935501099,-3.4098238945007324,-1.453776478767395,4.854529857635498,3.3326683044433594},{-0.07623624801635742,-0.009469945915043354,-0.20918911695480347,-0.9060863256454468,0.023466624319553375,0.022431960329413414,-1.042928695678711,-0.3955264687538147,1.9375230073928833,0.3446815609931946,0.17603793740272522,-0.07024441659450531},{7.026312351226807,9.057279586791992,2.102930784225464,-23.304794311523438,16.59062385559082,0.12050502002239227,7.982314109802246,18.196857452392578,4.130007266998291,-10.103554725646973,4.990612506866455,3.5578057765960693},{0.002527427626773715,-0.000396110990550369,0.00579443946480751,0.031597357243299484,0.00792620424181223,-0.00559792248532176,0.011146169155836105,-0.00946484412997961,0.05907387658953667,0.007099086418747902,-0.00460532633587718,0.005811064038425684},{0.007860837504267693,-0.006774817127734423,0.035803746432065964,0.05484483763575554,0.03871956467628479,-0.004813813138753176,0.013853482902050018,-0.016438156366348267,0.12374824285507202,0.00912578497081995,-0.00896039605140686,0.007152739446610212},{-0.003899225266650319,0.004312204662710428,-0.00869856309145689,-0.05010293051600456,-0.02638339437544346,0.005680549889802933,-0.013151041232049465,-0.002605954883620143,-0.07564496248960495,-0.0009374470100738108,0.01436295360326767,-0.008184347301721573},{0.007215977180749178,-0.010908275842666626,0.028199031949043274,0.0666578933596611,0.04581158980727196,-0.003491288283839822,0.004411583300679922,0.0018176547018811107,0.09865730255842209,-9.15855125640519e-05,-0.01879064552485943,0.009565684013068676},{0.004730989690870047,-0.005076147615909576,0.013110397383570671,0.05304893106222153,0.030515620484948158,-0.005731701385229826,0.013492842204868793,0.000804477371275425,0.08472168445587158,0.00169586471747607,-0.014413189142942429,0.008394402451813221},{-0.005347962491214275,0.0036742116790264845,-0.01684911921620369,-0.04839864745736122,-0.02798594906926155,0.006384540814906359,-0.014691158197820187,0.006419245153665543,-0.09157314896583557,-0.005264285486191511,0.010746033862233162,-0.008024233393371105},{0.4021424949169159,-1.4105416536331177,-0.8611604571342468,-10.283051490783691,2.8164801597595215,0.19755582511425018,0.2509232461452484,1.5247656106948853,0.9265962839126587,2.540534734725952,0.09262729436159134,-0.03240232169628143},{0.008284229785203934,-0.008896698243916035,0.05087222531437874,0.06132407858967781,0.043822016566991806,-0.003079375484958291,0.008618985302746296,-0.03352171927690506,0.15366095304489136,0.014478969387710094,-0.008060232736170292,0.008002827875316143},{-0.0004791803366970271,-0.011174211278557777,-0.0013722869334742427,0.04898907244205475,0.025939110666513443,0.0061951493844389915,-0.003906307741999626,0.03566994518041611,-0.01885097846388817,-0.010920342057943344,-0.013184224255383015,0.0009893288370221853},{6.619398593902588,-6.804409980773926,0.5884124040603638,7.571465969085693,7.044724941253662,0.13313515484333038,7.57369327545166,-4.708366870880127,-2.727080821990967,-0.46979305148124695,-0.17108945548534393,-1.6586945056915283},{0.0028247246518731117,0.002458434784784913,0.007857252843677998,0.010917548090219498,-0.014271656982600689,-0.005715895444154739,0.004944880958646536,-0.025200054049491882,0.04462850093841553,0.012064117938280106,0.0026394235901534557,0.0032715846318751574},{0.004120538476854563,0.0005517075769603252,0.009659909643232822,0.022422997280955315,-0.009228989481925964,-0.005251240450888872,0.003980956040322781,-0.018280256539583206,0.04571336880326271,0.01139350887387991,-0.0006036019767634571,0.004705941304564476},{0.005364284384995699,-0.001718298182822764,0.018419353291392326,0.037427425384521484,0.016370948404073715,-0.006772283930331469,0.01135814655572176,-0.017479177564382553,0.08754373341798782,0.009723047725856304,-0.006399484816938639,0.007495654281228781},{0.002036681864410639,0.002149983076378703,0.0065933880396187305,0.0034492751583456993,-0.025691179558634758,-0.004552583675831556,-0.0019758602138608694,-0.02870776690542698,0.038362301886081696,0.012156679295003414,0.0013895801967009902,0.004495719913393259},{0.0038577429950237274,-0.004483791533857584,0.008590880781412125,0.050505414605140686,0.02681715041399002,-0.005590589717030525,0.013059742748737335,0.003174039302393794,0.07528620958328247,0.0006135605508461595,-0.014641143381595612,0.00816491898149252},{0.0009325439459644258,-0.005075731780380011,0.0009822401916608214,0.03162664920091629,0.01843379996716976,-0.0007603495614603162,0.00021996174473315477,0.015396011993288994,0.027483541518449783,-0.007462356239557266,-0.015395904891192913,0.006649479735642672},{0.0010468581458553672,-0.009046533145010471,0.005002307239919901,0.04160858690738678,0.026066944003105164,0.002119723940268159,-0.007197994738817215,0.018986711278557777,0.019474949687719345,-0.00920457486063242,-0.01771785505115986,0.006958280224353075}};
static const float mlp_extractor_policy_net_2_weight[64][64] = {{-1.6984565258026123,1.7966538667678833,-0.0022458680905401707,4.806221961975098,-0.011979978531599045,-0.5155572295188904,0.9681838750839233,-0.005916734226047993,0.0020204398315399885,4.821104049682617,-0.005283112172037363,-0.010773689486086369,0.008557670749723911,0.0021399541292339563,0.01215740479528904,0.011740658432245255,-0.011485643684864044,-0.004338925238698721,0.005238821264356375,3.516188383102417,-0.0109295304864645,-0.003527534194290638,1.4035617113113403,0.0023139554541558027,-0.0021487155463546515,0.01103195920586586,-0.011745601892471313,1.8656439781188965,-2.261791229248047,1.3992104530334473,1.116295337677002,-1.6294898986816406,0.003675327869132161,0.0013517617480829358,-1.9153728485107422,-0.011280964128673077,1.7686171531677246,-0.01247407402843237,1.7163153886795044,-0.5294699668884277,-0.010562077164649963,-0.0035640334244817495,0.5382205843925476,-0.0020851672161370516,-2.7734155654907227,-0.034406717866659164,-1.4206269979476929,0.010445174761116505,0.0011619989527389407,-0.001561396406032145,-0.006902522407472134,0.0009633759618736804,-0.004049799870699644,2.1502251625061035,0.0027285213582217693,-0.011001767590641975,1.1744862794876099,0.012198716402053833,0.010475657880306244,0.007795861456543207,0.01254395954310894,0.0011370370630174875,-0.0073643093928694725,-0.010289509780704975},{-0.991367518901825,0.6697967052459717,-0.016232570633292198,1.8927438259124756,0.003575563430786133,0.11384748667478561,0.4103168547153473,-0.015353135764598846,0.01675243116915226,0.6208541989326477,-0.013619241304695606,-0.008298180066049099,0.011122649535536766,0.018138255923986435,0.0012869203928858042,-0.002761370502412319,-0.00590991135686636,0.022441647946834564,-0.020670229569077492,-1.6188490390777588,-0.00787520781159401,0.006130324210971594,0.08317648619413376,-0.022692875936627388,0.02267693169414997,0.004159648437052965,0.002886394737288356,-0.5054457783699036,2.989537477493286,0.4563385546207428,2.3001108169555664,4.400975704193115,-0.022516649216413498,0.021359436213970184,1.0497806072235107,0.0016855797730386257,0.5597600340843201,0.0011202453169971704,0.893652081489563,0.9997622966766357,-0.001482127234339714,0.022793713957071304,0.46845343708992004,-0.02001291513442993,-2.5092544555664062,-0.5028016567230225,0.321450412273407,0.008848892524838448,0.02143099345266819,-0.017096560448408127,0.02057884819805622,0.018620124086737633,-0.01812281459569931,0.5682733058929443,0.019216852262616158,0.009775128215551376,-1.233415126800537,0.00013810870586894453,0.003686331445351243,0.012850882485508919,-0.004914384335279465,0.0171725582331419,0.008193098939955235,0.007446847856044769},{-1.3000338077545166,0.6389076113700867,-0.014876342378556728,-1.2337074279785156,0.004321333486586809,-2.320773124694824,-0.5576286315917969,-0.011145571246743202,0.015158068388700485,-1.3198219537734985,-0.013487783260643482,-0.009111713618040085,0.011439524590969086,0.01558142900466919,0.00048851064639166,-0.002997039584442973,-0.007561665493994951,0.019071169197559357,-0.018330203369259834,0.2861804664134979,-0.007858892902731895,0.00942592415958643,0.22369760274887085,-0.01880895346403122,0.018337873741984367,0.0022979588247835636,0.0091970544308424,-0.8265268206596375,1.4517961740493774,-0.45701125264167786,1.129095435142517,-1.7078418731689453,-0.018943127244710922,0.01603054627776146,0.06435869634151459,0.0049024540930986404,-0.6365655064582825,0.001522790640592575,-1.6830095052719116,-0.7199034094810486,-0.0025975448079407215,0.01918950490653515,-0.2972632348537445,-0.016366437077522278,-3.758601188659668,-0.09052301943302155,-0.598626434803009,0.00912043359130621,0.016199447214603424,-0.015348234213888645,0.018635839223861694,0.016111329197883606,-0.014608148485422134,0.014526504091918468,0.016030410304665565,0.014624145813286304,0.40905964374542236,-0.0012303332332521677,0.0029751653783023357,0.009809546172618866,-0.003834476927295327,0.015465420670807362,0.011208685114979744,0.012538564391434193},{-2.442136764526367,3.692359685897827,-0.001404385082423687,-0.42739585041999817,0.015773825347423553,-0.0586971677839756,1.931387186050415,0.013854987919330597,0.0011127329198643565,0.763644278049469,0.0004246989556122571,0.005097051616758108,-0.003828315995633602,-0.0009661858784966171,-0.013653683476150036,-0.013977070339024067,0.006740974728018045,-0.0017581838183104992,-0.002100852318108082,-0.8749599456787109,0.008503904566168785,0.011374887079000473,0.006271950900554657,0.008124960586428642,-0.004220955073833466,-0.022594215348362923,0.01875775307416916,0.8379638195037842,0.2812252342700958,0.36773189902305603,-0.3307608962059021,-1.9387001991271973,0.002232220256701112,-0.008670293726027012,0.9433556199073792,0.014911535196006298,-0.27508050203323364,0.018341202288866043,1.7027493715286255,-2.214855909347534,0.008814566768705845,-0.005143710877746344,-0.5661880373954773,0.017463181167840958,-3.8229997158050537,-0.1044526994228363,0.7105534076690674,-0.0070339385420084,-0.011074905283749104,-0.0013674322981387377,0.0032388330437242985,5.8729725424200296e-05,0.0052937837317585945,-1.5701711177825928,-0.01927354745566845,0.024696048349142075,-1.1173365116119385,-0.015157070942223072,-0.01108881738036871,-0.011933543719351292,-0.016055557876825333,0.0018261357909068465,0.013392516411840916,0.017102349549531937},{-0.5007176399230957,-2.2381279468536377,0.008076122961938381,0.5913569927215576,-0.026351725682616234,1.0091121196746826,1.5641049146652222,-0.0163237527012825,-0.007748377043753862,-2.067479133605957,0.004532838240265846,-0.007045625243335962,0.0024497914128005505,-0.004658824764192104,0.021773021668195724,0.023731399327516556,-0.009492041543126106,-0.003333232132717967,0.009736446663737297,0.4078729748725891,-0.011242135427892208,-0.017689574509859085,0.2380935251712799,-0.007528295740485191,0.0010136424098163843,0.03133712708950043,-0.03354495391249657,-1.8778132200241089,2.7922725677490234,-1.1261584758758545,0.9966468214988708,3.0695760250091553,0.0021576560102403164,0.008996009826660156,1.2931736707687378,-0.024865441024303436,-0.4644220173358917,-0.02880302630364895,-2.764704704284668,1.1174147129058838,-0.014700541272759438,0.0024918036069720984,-0.5452701449394226,-0.023511037230491638,-2.0420188903808594,0.1661568433046341,-1.782152533531189,0.008547298610210419,0.013069415464997292,0.008175368420779705,-0.011444429866969585,-0.00646907789632678,-0.002730041043832898,0.6585119366645813,0.026363352313637733,-0.0387592613697052,0.09190752357244492,0.024128302931785583,0.01735849678516388,0.013881293125450611,0.024729406461119652,-0.008925069123506546,-0.022698722779750824,-0.02922649495303631},{-0.011816700920462608,0.03588005527853966,0.002031051553785801,0.011950695887207985,-0.00044091514428146183,-0.020586589351296425,0.014948432333767414,-0.00010873136488953605,-0.002169208601117134,-0.007940896786749363,0.0027846137527376413,0.005255273077636957,-0.002755004446953535,-0.0018516496056690812,-0.0015916179399937391,-0.0005757628241553903,0.004582896828651428,-0.0010302100563421845,0.001329077291302383,0.015477815642952919,0.003353371284902096,-0.0010783718898892403,-0.04053130000829697,0.0003947952063754201,-0.0006722400430589914,0.0010061981156468391,-0.004332926589995623,0.008624167181551456,-0.024766219779849052,0.0078576123341918,-0.012945489957928658,0.01831870898604393,0.0007661085110157728,-9.013054659590125e-05,-0.010084069333970547,-4.6774381189607084e-05,0.0021981652826070786,-6.548770761583e-05,0.010009531863033772,-0.005358740221709013,0.002182228025048971,-0.0006852886872366071,0.02956763096153736,-0.0010577403008937836,-0.013899121433496475,0.01852862723171711,-0.01325709093362093,-0.003452387871220708,0.00044407034874893725,0.0020747447852045298,-0.0017335702432319522,-0.0019756571855396032,0.0013493611477315426,-0.011998321861028671,0.0012023678282275796,-0.004781598690897226,-0.004389737732708454,-0.0010390853276476264,-0.00040642425301484764,-0.00040836463449522853,-0.00010368724906584248,-0.0021622430067509413,-0.002233917126432061,-0.0033700179774314165},{0.023497803136706352,0.00975259393453598,-0.00023729770327918231,-0.01697562076151371,0.0031897148583084345,0.0027009632904082537,0.002514380495995283,0.00481666112318635,-0.00012067252100678161,-0.021265462040901184,-0.0004160507523920387,-0.0008287351229228079,0.00027344311820343137,-0.001204023719765246,-0.00036851930781267583,-0.002728530904278159,-2.3761367629049346e-05,-0.0069847931154072285,0.0050872983410954475,0.02565481700003147,0.0002849455922842026,0.005273653194308281,0.03591666370630264,0.00973433069884777,-0.00632994482293725,-0.005966407246887684,0.000138125877128914,0.03498343005776405,-0.008507998660206795,-0.0073425848968327045,0.023881783708930016,0.04864754155278206,0.006744691636413336,-0.0054128472693264484,0.011293171904981136,0.0010585766285657883,-0.03062177635729313,0.0023522130213677883,0.003243600483983755,0.019593698903918266,0.0005409909645095468,-0.008916176855564117,0.006276584230363369,0.01153143122792244,0.039712272584438324,0.005766136571764946,-0.036587052047252655,-0.00011120934505015612,-0.007260097190737724,0.00017512352496851236,-0.005478899925947189,-0.0014300079783424735,0.002251256722956896,0.00911687035113573,-0.012277687899768353,0.010718767531216145,0.000738071626983583,-0.0005193902761675417,0.0003867328050546348,-0.0025771709624677896,-0.004755291622132063,-0.00016713696822989732,0.004418961238116026,0.005163085181266069},{0.21810269355773926,0.04825316369533539,-0.018652338534593582,-0.7165199518203735,-0.0014215103583410382,0.4525470733642578,-0.37417635321617126,-0.013628482818603516,0.01879778504371643,-1.6232450008392334,-0.0171910859644413,-0.011470687575638294,0.015153632499277592,0.018854429945349693,0.006726402323693037,0.0017034857301041484,-0.010013550519943237,0.015437929891049862,-0.01659207232296467,-0.25856754183769226,-0.012380057945847511,0.008186852559447289,2.5521275997161865,-0.012364460155367851,0.01619277149438858,0.006002949550747871,0.0014091447228565812,-0.7131059765815735,-0.27629202604293823,-1.1604989767074585,-0.5801601409912109,0.3222884237766266,-0.01565401814877987,0.016036884859204292,2.457637071609497,-0.004410122521221638,0.31730759143829346,-0.003513562260195613,-0.6418659687042236,0.11902202665805817,-0.003938698675483465,0.013452813029289246,1.9356086254119873,-0.00811921339482069,1.4914332628250122,-0.23690828680992126,0.841525673866272,0.013170863501727581,0.013956640847027302,-0.01891673542559147,0.015402320772409439,0.018980566412210464,-0.017916467040777206,-0.07742980867624283,0.006823675241321325,0.003634328953921795,-0.301778644323349,0.005979527719318867,0.0075450194999575615,0.01415901817381382,0.0019117416813969612,0.018963899463415146,0.010804758407175541,0.006707160733640194},{-0.025699881836771965,0.008733023889362812,-0.003546501509845257,0.030193479731678963,-0.0032513802871108055,0.026460234075784683,-0.013990902341902256,-0.003398158121854067,0.0035292422398924828,0.0011033343616873026,-0.002701318124309182,0.0008497008238919079,0.0021469746716320515,0.0035007167607545853,0.002640859456732869,0.0027203289791941643,0.001503171632066369,0.0012431993382051587,-0.0021163509227335453,-0.034653764218091965,-0.0010782044846564531,-0.0008692322298884392,-0.0035499248187988997,-0.0005243224441073835,0.0018441766733303666,0.003453895216807723,-0.001150854746811092,-0.011081045493483543,0.01620091125369072,-0.03437253460288048,-0.015640240162611008,-0.02078462578356266,-0.0010729968780651689,0.002263382775709033,-0.06207511946558952,-0.0014637724962085485,0.034202951937913895,-0.0035322264302521944,0.005056259222328663,-0.009780105203390121,-0.002137811155989766,0.0005843963008373976,-0.03658304736018181,-0.0005930185434408486,-0.008310885168612003,-0.03715824708342552,0.018579844385385513,0.0011120452545583248,0.0019871152471750975,-0.003566969884559512,0.001295240712352097,0.0035456630866974592,-0.003057122230529785,0.028554430231451988,0.00039194486453197896,-0.0013769242214038968,0.020430460572242737,0.0028716486413031816,0.003352618310600519,0.003728023264557123,0.0032042982056736946,0.0035938038490712643,-0.0012022251030430198,-0.002389606088399887},{-0.015683094039559364,0.054203495383262634,0.001953671919181943,0.015615595504641533,-0.0007446084637194872,-0.02335030771791935,-0.0034136706963181496,0.00011106581223430112,-0.0017785781528800726,-0.0023296151775866747,0.0012213565642014146,0.0008599202265031636,-0.0007684778538532555,-0.0017427779966965318,0.0018912993837147951,0.0003949169476982206,0.0002876536163967103,-0.004034456796944141,0.004203557502478361,0.005534213501960039,-0.000638138095382601,-0.0028248000890016556,-0.031168458983302116,0.004026010166853666,-0.002745110308751464,0.0021257796324789524,-0.003427403047680855,-0.013143516145646572,-0.01796848699450493,0.02682380937039852,0.0050996276549994946,0.002614866476505995,0.0038248146884143353,-0.0010905435774475336,-0.01765129528939724,-0.0035873802844434977,-0.015646707266569138,-0.0007145358831621706,-0.0020405063405632973,0.02050803042948246,0.0013746573822572827,-0.00437090452760458,0.021216338500380516,0.002359120873734355,0.010183579288423061,0.02436390146613121,-0.015024847351014614,0.00015929434448480606,-0.0014945309376344085,0.0019026485970243812,-0.0050484733656048775,-0.0018461892614141107,0.0011745885713025928,-0.01675739884376526,-0.0022079620976001024,-0.00984223186969757,-0.00023720326134935021,0.002610709983855486,-0.001647645141929388,-0.00024055011454038322,0.0014063628623262048,-0.0018965863855555654,-0.0031897372100502253,-0.005868346896022558},{0.0160022284835577,0.03049519471824169,0.002620275365188718,0.00020302340271882713,0.0013985356781631708,-0.006289919838309288,0.005400004796683788,0.004202451556921005,-0.0027982001192867756,-0.02882864698767662,0.002350053284317255,-0.00028588066925294697,-0.0018918247660622,-0.0032505877315998077,-0.0010255540255457163,-0.0017516460502520204,6.433298403862864e-05,-0.006506721023470163,0.005375740118324757,-0.018363626673817635,0.0012514167465269566,0.0031497259624302387,-0.03637051209807396,0.00792611949145794,-0.005663786083459854,-0.002657886827364564,-0.002836068393662572,0.0012235825415700674,-0.010129946283996105,0.00045452930498868227,-0.018502140417695045,-0.022150816395878792,0.005737402942031622,-0.0044729094952344894,0.008543227799236774,-0.0007527890847995877,0.026492347940802574,0.002396124415099621,-0.013590973801910877,0.012072318233549595,0.002072553848847747,-0.007559142541140318,0.01098787784576416,0.008646265603601933,-0.010099261067807674,0.006208349019289017,-0.007914380170404911,-0.0014235404087230563,-0.0054918318055570126,0.002820829628035426,-0.006367192137986422,-0.003468825714662671,0.003111900994554162,-0.007719175890088081,-0.009310374967753887,0.0011693417327478528,0.012592391110956669,-0.0006726011633872986,-0.002922096522524953,-0.0033279070630669594,-0.0013899409677833319,-0.002855142345651984,0.0022152855526655912,0.0019336930708959699},{-0.006648321636021137,-0.05143658444285393,-0.002772945910692215,-0.02826676517724991,-0.008665683679282665,0.02143070101737976,-0.0033664486836642027,-0.003463804256170988,0.0025523765943944454,0.013692177832126617,-0.004732607863843441,-0.005609778221696615,0.006048392970114946,0.001809490961022675,0.007827570661902428,0.007984462194144726,-0.006830972153693438,-0.006304516457021236,0.00485006719827652,0.012020147405564785,-0.006971179042011499,-0.0004020257038064301,-0.0026564851868897676,0.007065825164318085,-0.004743968136608601,0.008294290862977505,-0.005542356055229902,0.008620113134384155,0.013976020738482475,-0.009050032123923302,0.029236862435936928,0.007734157145023346,0.005994715262204409,-0.0018431859789416194,0.00391316507011652,-0.007341905031353235,0.0005282552447170019,-0.009373034350574017,0.00739597762003541,-0.013460103422403336,-0.005871359724551439,-0.007262358907610178,0.002190853701904416,0.005027428735047579,-0.010362809523940086,0.022579295560717583,0.01550716906785965,0.006711281836032867,-0.002916462253779173,-0.0021879151463508606,-0.006353406235575676,0.0010425159707665443,-0.002168231178075075,0.028943128883838654,-0.004938358440995216,-0.0033757283817976713,-0.006853952072560787,0.007957934401929379,0.0074930633418262005,0.0056587145663797855,0.00999766867607832,0.00198653363622725,-0.0011291824048385024,-0.00207568914629519},{-0.04545216262340546,-0.05035846307873726,-0.00044660104322247207,-0.020039545372128487,-0.003126443363726139,-0.0043334136717021465,0.0032407024409621954,0.003183441935107112,0.00019575338228605688,0.02597787231206894,-0.0017941034166142344,-0.002987960120663047,0.0020803280640393496,-0.0010262111900374293,0.003954439423978329,0.002569465199485421,-0.004220509901642799,-0.007328025531023741,0.005474432837218046,0.03865090012550354,-0.0031801362056285143,0.0029319056775420904,0.028946440666913986,0.009489506483078003,-0.006557028274983168,0.0002838822256308049,-0.003109781537204981,-0.013428791426122189,-0.0006957424920983613,0.038590919226408005,0.02909965254366398,-0.013465650379657745,0.0067791566252708435,-0.005439708940684795,-0.006414597388356924,-0.0067216563038527966,-0.021810300648212433,-0.001705368049442768,0.015058068558573723,-0.025526946410536766,-0.0007970957085490227,-0.008926060050725937,-0.019386036321520805,0.010485456325113773,-0.00926003884524107,0.023914625868201256,0.020743828266859055,0.00283795059658587,-0.007225790061056614,2.1282676243572496e-05,-0.006733547430485487,-0.0012623763177543879,0.001612484222277999,0.011979198083281517,-0.010908422991633415,-0.0007828421075828373,-0.023787230253219604,0.005109418649226427,0.00038068980211392045,-0.0008595745312049985,0.005826055537909269,-1.0084337191074155e-05,0.0023064715787768364,-0.0003680405206978321},{0.005422340705990791,0.0349896065890789,0.002959827659651637,0.019159428775310516,0.001955968327820301,-0.014119000174105167,-0.007963757961988449,0.0068983044475317,-0.0032633545342832804,0.0043469700030982494,0.003406871110200882,0.0030221082270145416,-0.003233568277209997,-0.003953359089791775,-0.002671154448762536,-0.0012110794195905328,0.00366579438559711,-0.0037471705581992865,0.0026315362192690372,-0.014296010136604309,0.003938319161534309,0.00016737167607061565,-0.01733659766614437,0.004643629305064678,-0.0044586691074073315,-0.007553687784820795,0.0010451055131852627,0.027547232806682587,-0.01049559935927391,0.03884803503751755,-0.032466474920511246,-0.02657088078558445,0.0038379172328859568,-0.005821286700665951,0.02187458984553814,0.0036176396533846855,0.022639423608779907,0.003428438911214471,0.009513577446341515,0.012111707590520382,-6.747271254425868e-05,-0.004073813557624817,0.012004704214632511,0.006644790060818195,0.027087099850177765,-0.0016479619080200791,-0.02601052261888981,-0.003766633803024888,-0.005763398949056864,0.0031840128358453512,-0.0025077916216105223,-0.0038540191017091274,0.005206058733165264,0.0013920831261202693,-0.007101532071828842,0.006861648056656122,0.019132334738969803,-0.0035366439260542393,-0.002303839661180973,-0.0060305846855044365,-0.0040098694153130054,-0.0031236496288329363,-9.313748159911484e-05,0.0012788891326636076},{-0.030936965718865395,-0.025412149727344513,-0.0012924904003739357,-0.02643458917737007,-0.008983572944998741,0.001775700249709189,-0.02143482305109501,-0.005134463310241699,0.0010822073090821505,-0.004669253248721361,-0.002282431349158287,-0.002673839684575796,0.0038909779395908117,0.0011540089035406709,0.008473850786685944,0.008548641577363014,-0.004247215576469898,-0.004579941742122173,0.004159103147685528,0.007982690818607807,-0.005331989377737045,-0.0022379246074706316,0.020538991317152977,0.005062104668468237,-0.0026334342546761036,0.009393041022121906,-0.009383076801896095,0.005034114234149456,-0.029984408989548683,0.00499913701787591,0.0066559226252138615,0.012166221626102924,0.0040936656296253204,0.0007089221617206931,0.0008243496413342655,-0.008243417367339134,-0.013649867847561836,-0.00993258971720934,-0.005537061020731926,-0.02024444006383419,-0.005994989071041346,-0.00536566786468029,-0.021288445219397545,0.0025523598305881023,-0.011467347852885723,-0.016893647611141205,-0.004654689226299524,0.004737314768135548,-2.99764769806643e-06,-0.0008846917771734297,-0.005762089975178242,0.00044440379133448005,-0.002469077007845044,0.06410553306341171,-0.002786292228847742,-0.010988890193402767,-0.00915595330297947,0.008831269107758999,0.007729327771812677,0.00620945543050766,0.008853916078805923,0.0006370874471031129,-0.004040078725665808,-0.007661320269107819},{-0.024008072912693024,-0.011132143437862396,-0.005034825764596462,-0.025202123448252678,0.003671802580356598,-0.011578413657844067,-0.008082767948508263,-0.00016830058302730322,0.005136133637279272,0.007293451577425003,-0.005077177658677101,-0.004543231800198555,0.004138320684432983,0.004407414235174656,-0.0012889951467514038,-0.002695768605917692,-0.004512423183768988,0.003477424615994096,-0.004629642702639103,0.0116278612986207,-0.003476743819192052,0.006657544057816267,-0.01303655281662941,-0.001181325875222683,0.0030685740057379007,-0.002576392376795411,0.005309016909450293,0.0013157022185623646,-0.007730226963758469,0.015078084543347359,-0.02233215421438217,-0.04528091102838516,-0.0032541300170123577,0.0019319519633427262,0.014289549551904202,0.004219615366309881,0.014152659103274345,0.0024325645063072443,0.008560828864574432,-0.020433509722352028,2.6832911316887476e-05,0.002072463510558009,-0.0221780426800251,0.0012384862639009953,-0.020177170634269714,-0.007798976264894009,0.004565475042909384,0.003912889864295721,0.00102624436840415,-0.005128198768943548,0.004708001855760813,0.004865538794547319,-0.002927455585449934,0.014428965747356415,-0.0017663495382294059,0.009042712859809399,-0.01293316762894392,-0.002332578180357814,-0.0008524128934368491,0.0005440866807475686,-0.004881319124251604,0.0053402939811348915,0.00800482276827097,0.00953462440520525},{0.43774399161338806,0.3322891294956207,-0.009247684851288795,1.4977142810821533,-0.0033192948903888464,2.626444101333618,-1.216125726699829,-0.014074604958295822,0.009676843881607056,2.7370684146881104,-0.007616470567882061,-0.004035469610244036,0.00635557109490037,0.010937676765024662,0.005103789269924164,0.003054703352972865,-0.003988339565694332,0.01772807165980339,-0.015855979174375534,-0.419196754693985,-0.005837197415530682,0.00301628396846354,-1.0434726476669312,-0.02108949050307274,0.016928168013691902,0.013608242385089397,0.00320771848782897,-0.10341119021177292,-0.989834189414978,1.264840841293335,0.05083948373794556,1.0153155326843262,-0.017431005835533142,0.015746042132377625,-0.13427734375,-0.002683908212929964,1.4266167879104614,-0.006630894728004932,0.8138595819473267,-1.465999722480774,-0.003163763787597418,0.019910598173737526,-0.8411123752593994,-0.02433837577700615,-0.43035122752189636,0.045142289251089096,-0.5132840871810913,0.005820876453071833,0.017936762422323227,-0.009908972308039665,0.01666833460330963,0.011375505477190018,-0.011621210724115372,-0.04858716204762459,0.02574359066784382,-0.0003072425024583936,0.9285082221031189,0.005185875575989485,0.004955052398145199,0.01121359784156084,0.005363985896110535,0.009971401654183865,0.006187167018651962,0.0070929452776908875},{-0.015958305448293686,-0.011815261095762253,0.0008012515027076006,0.004056082107126713,0.0008825636468827724,-0.005177571438252926,0.0037705679424107075,-0.0005580278229899704,-0.0007444437360391021,0.010561994276940823,-0.0010592024773359299,-0.0006252768798731267,0.001744074048474431,-0.000839014130178839,-5.335589230526239e-05,-0.0016422949265688658,-0.0018117299769073725,-0.004711908753961325,0.005653852131217718,0.00018217877368442714,-0.0019471681443974376,-0.002718076342716813,-0.018417632207274437,0.004487423226237297,-0.003596521681174636,0.0012386963935568929,-0.004872860386967659,-0.03990728035569191,0.01991414651274681,0.018294384703040123,0.0016615423373878002,-0.04366355761885643,0.0049183848313987255,-0.001802719198167324,-0.0002920033293776214,-0.0020729706156998873,0.0048075090162456036,0.0007823981577530503,0.008067058399319649,-0.008984505198895931,0.002430630847811699,-0.004863790702074766,0.0053993817418813705,0.0031980518251657486,-0.017226746305823326,0.027788938954472542,0.015723008662462234,0.0019739819690585136,-0.0026616789400577545,0.0010575437918305397,-0.006052281707525253,-0.00130896782502532,0.00013813297846354544,-0.021562116220593452,-0.0028431518003344536,-0.011576506309211254,-0.01373645756393671,0.0004058781487401575,-0.0003879866562783718,0.0014057093067094684,0.0008496705559082329,-0.0012028110213577747,-0.004379629623144865,-0.007334374822676182},{0.9862076044082642,0.8056793212890625,-0.0023446709383279085,1.0537956953048706,0.003642414230853319,3.2031543254852295,-3.9187941551208496,-0.0029664819594472647,0.0026074168272316456,-0.3175380825996399,-0.0009748634183779359,0.0015355346258729696,-0.000348598143318668,0.0031622066162526608,-0.00262656481936574,-0.0033671604469418526,0.0019047700334340334,0.008662877604365349,-0.008071474730968475,-0.5064298510551453,0.0013878250028938055,0.0017182205338031054,0.3196195662021637,-0.009138206951320171,0.007203307002782822,0.0005465516005642712,0.006432229187339544,-1.503374695777893,1.3098353147506714,0.5894585251808167,-0.19733256101608276,1.3389015197753906,-0.008179114200174809,0.005092127714306116,2.1732382774353027,0.0034810611978173256,-2.0813541412353516,0.0027162879705429077,0.5793001055717468,-0.7820323705673218,0.0020334154833108187,0.009310109540820122,0.9559578895568848,-0.007948127575218678,-2.142127752304077,0.1254536509513855,0.3941233158111572,-0.0011515833903104067,0.005952096078544855,-0.002823490649461746,0.00937504693865776,0.0037105761002749205,-0.002851611701771617,3.4150781631469727,0.008144247345626354,0.005300088319927454,-0.7956459522247314,-0.002829230623319745,-0.0017901392420753837,0.0014279611641541123,-0.0029664449393749237,0.0029602653812617064,0.004028176888823509,0.006774151232093573},{-0.020761650055646896,-0.04373975098133087,-0.0007102126255631447,-0.016808409243822098,-8.19015913293697e-05,0.01622140035033226,-0.015146305784583092,0.003970131743699312,0.0004298754793126136,0.0421387143433094,0.0002146927290596068,0.0006274103652685881,-0.000537736399564892,-7.642117270734161e-05,-0.001399895059876144,0.001030355109833181,0.00041970721213147044,0.0029284341726452112,-0.004253895487636328,0.009569705463945866,0.0017049856251105666,0.0024526130873709917,0.028548995032906532,-0.0011638384312391281,0.001279207644984126,-0.00531333964318037,0.003019280033186078,-0.020527750253677368,0.01194505114108324,-0.0034325632732361555,0.023774558678269386,0.004851738456636667,-0.002771428320556879,-0.0015437209513038397,-0.007771563250571489,0.002876280341297388,-0.023972345516085625,0.0009347751620225608,0.011924265883862972,-0.0018175506265833974,-0.002348659560084343,0.0023522383999079466,-0.0320754311978817,0.0027156679425388575,-1.2596057786140591e-05,-0.018638307228684425,0.029425445944070816,-0.0013409144012257457,-0.001322731375694275,-0.000624454696662724,0.004928767215460539,0.0002512041828595102,0.0016597472131252289,0.021519042551517487,-0.0035184118896722794,0.007039740215986967,0.012307430617511272,-0.002689485205337405,0.000171541643794626,-0.0034185536205768585,-0.0011201846646144986,0.0007118989014998078,0.0029723949264734983,0.005814654752612114},{0.19636864960193634,-2.3354148864746094,-0.01833857223391533,-2.7024900913238525,0.012258308939635754,-2.3040997982025146,0.39833810925483704,-0.007624155376106501,0.01865624450147152,0.3537004888057709,-0.014715876430273056,-0.005758856423199177,0.009932050481438637,0.018497293815016747,-0.005701769143342972,-0.010354416444897652,-0.0033568162471055984,0.021282358095049858,-0.022613363340497017,1.9178646802902222,-0.0041334195993840694,0.013965040445327759,-0.006704764440655708,-0.016510792076587677,0.019817473366856575,-0.006869378499686718,0.016310496255755424,-1.5272327661514282,0.3823448717594147,-0.0071097067557275295,-2.011500358581543,1.4034547805786133,-0.020989131182432175,0.015579422935843468,-0.7638853192329407,0.010678931139409542,1.0141462087631226,0.010383838787674904,-1.2107635736465454,1.1596578359603882,0.0031595665495842695,0.0188473928719759,0.043733056634664536,-0.007515883073210716,4.605960845947266,0.17835161089897156,0.5785301923751831,0.00591767393052578,0.013694150373339653,-0.01912522129714489,0.022990647703409195,0.01968451216816902,-0.015503864735364914,0.832754373550415,0.005658750422298908,0.02383572608232498,-0.5295313596725464,-0.007885194383561611,-0.0023750877007842064,0.00664994353428483,-0.012455717660486698,0.019523002207279205,0.01822846382856369,0.019600559026002884},{0.028300277888774872,-0.025942286476492882,0.001952600316144526,-0.019102606922388077,-0.0027216067537665367,-0.010236788541078568,-0.0032563067506998777,0.0015167881501838565,-0.002057359553873539,-0.00426517054438591,0.002092105569317937,0.002796207321807742,-0.0019110679859295487,-0.002004095818847418,0.00023385300301015377,0.001893433160148561,0.002027525333687663,-0.005353439133614302,0.004369349684566259,-0.004077542573213577,0.001755682285875082,-0.002930551301687956,0.00899647269397974,0.006114048417657614,-0.004248584620654583,-4.579676533467136e-05,-0.00261790887452662,-0.026305843144655228,0.011177528649568558,0.004229320678859949,0.005214741453528404,-0.030159665271639824,0.005013656802475452,-0.0029269398655742407,0.054514896124601364,-0.002699923934414983,0.006696571595966816,-0.001118952757678926,-0.013763399794697762,-0.012000498361885548,0.000673730275593698,-0.006129053421318531,0.010411852039396763,0.005448221229016781,-0.01587882824242115,0.020544089376926422,0.0026372538413852453,-0.001959984889253974,-0.0034532281570136547,0.002065466484054923,-0.005742410197854042,-0.0022348605562001467,0.0018136984435841441,-0.01889924518764019,-0.005721171386539936,-0.00693100830540061,-0.014648906886577606,0.0006097001605667174,-4.42552482127212e-05,-0.0011145240860059857,0.004040548577904701,-0.0021516806446015835,-0.004341991618275642,-0.00777089549228549},{0.021860463544726372,-0.012645158916711807,-0.0030993837863206863,-0.002661637030541897,0.00046712657785974443,-0.0050277430564165115,-0.03283889964222908,-0.0028700020629912615,0.0033467139583081007,0.0005783454398624599,-0.002163330325856805,0.0003145707887597382,0.0011783766094595194,0.0034552819561213255,0.0014222671743482351,-0.0009332775953225791,0.0006202643853612244,0.006531405728310347,-0.007526960223913193,-0.017465809360146523,-0.000697024748660624,0.0025700016412883997,0.012412451207637787,-0.005015646573156118,0.004843889735639095,0.004542134236544371,0.00591324781998992,-0.030106080695986748,0.01859148219227791,-0.029608935117721558,0.02189909666776657,-0.011139195412397385,-0.005827505141496658,0.0027191266417503357,0.00801845919340849,-0.0016028303653001785,-0.005327615421265364,-0.0008970375056378543,-0.011007383465766907,0.004990282002836466,0.0005107250763103366,0.005959748290479183,-0.008057222701609135,-0.002169260988011956,-0.002682001329958439,-0.009503898210823536,0.01917317323386669,0.0006545123178511858,0.0027365703135728836,-0.003477948484942317,0.008611472323536873,0.004036701750010252,-0.0027186195366084576,-0.010860895738005638,0.0019126884872093797,0.002222892828285694,-0.00848273653537035,0.002079244237393141,-0.00041415655869059265,0.0026466811541467905,0.0026338216848671436,0.003672647522762418,0.005125405732542276,0.006485400255769491},{0.35539188981056213,-0.990106463432312,0.0022340428549796343,0.6587406396865845,-0.0020804943051189184,0.583171010017395,0.03572799637913704,0.00247950479388237,-0.0024374774657189846,-2.1300766468048096,0.001013234257698059,-0.00038007996045053005,-6.150636909296736e-05,-0.002931002527475357,0.0014443258987739682,0.0015209846897050738,-0.0005536760436370969,-0.0074723768047988415,0.007003447972238064,-0.7298062443733215,-0.0005985604948364198,-0.0021463402081280947,1.0187636613845825,0.007624628953635693,-0.00636484008282423,0.00027751317247748375,-0.005345991812646389,-0.02303324267268181,0.6281166076660156,-1.870740294456482,-2.8072078227996826,-0.3774958848953247,0.00719075184315443,-0.004576244857162237,0.7924638390541077,-0.003037794027477503,-2.9298555850982666,-0.0014860512455925345,0.5564415454864502,1.709549903869629,0.00025354232639074326,-0.007906531915068626,-0.5503457188606262,0.005673535168170929,-0.7485300302505493,0.19924242794513702,-0.600945770740509,0.0004275539831724018,-0.005209534429013729,0.002632969291880727,-0.007858876138925552,-0.0033915352541953325,0.002688412554562092,-1.677882432937622,-0.005359353497624397,-0.007148419972509146,0.21642780303955078,0.0019421796314418316,0.00047049697604961693,-0.0013061673380434513,0.0019078308250755072,-0.0027449345216155052,-0.0036512401420623064,-0.006223184522241354},{-0.01153593696653843,-0.011837517842650414,0.004321213345974684,-0.015683947131037712,-0.0017457265639677644,-0.02092418633401394,-0.01711743138730526,0.0021204829681664705,-0.004457178059965372,-0.0006217692862264812,0.003784005530178547,0.003980880603194237,-0.0033110203221440315,-0.004644368775188923,-0.0013270522467792034,0.0015163850039243698,0.0030034445226192474,-0.006208861246705055,0.00626352708786726,0.00449887802824378,0.0031844747718423605,-0.0027426229789853096,-0.0037341422867029905,0.005386037286370993,-0.005583055317401886,0.0006482397438958287,0.0028606203850358725,-0.0010737254051491618,-0.011173615232110023,0.02644534595310688,-0.005268160719424486,-0.03661999851465225,0.0062457057647407055,-0.004439250566065311,0.024069229140877724,0.0029735451098531485,0.002947829896584153,-0.0018438964616507292,0.005194029305130243,-0.013241307809948921,-0.00045895835501141846,-0.005996330641210079,-0.005727636162191629,0.0023290994577109814,-0.011241164989769459,-0.0027429088950157166,-0.01935143582522869,-0.003265662118792534,-0.003961861599236727,0.00456266151741147,-0.006997134070843458,-0.00475932564586401,0.004245420452207327,0.03131525591015816,-0.0015954028349369764,-0.009743118658661842,0.0026093642227351665,-0.0019297711551189423,0.0004508641141001135,-0.002257267013192177,0.001670473488047719,-0.004590237513184547,-0.003719055326655507,-0.006542685441672802},{-0.015258613042533398,0.004254685714840889,-0.004628331866115332,0.035806119441986084,-0.001727671129629016,-0.006355345714837313,-0.008143753744661808,-0.0053297383710742,0.004695045296102762,0.042955901473760605,-0.004830391611903906,-0.004549469333142042,0.004724348429590464,0.004886292386800051,0.0034667979925870895,0.001497777528129518,-0.003585048485547304,0.005131877027451992,-0.005383271258324385,-0.019438406452536583,-0.004064247477799654,0.003478456288576126,-0.0005651520332321525,-0.0048174443654716015,0.004958918318152428,0.006943451706320047,0.0002447004953864962,0.011796960607171059,0.01848636567592621,-0.0032296543940901756,-0.030095035210251808,-0.04670662432909012,-0.005337321199476719,0.004830068908631802,-0.004001743625849485,-0.0035194759257137775,0.019978391006588936,-0.004181439056992531,0.04659966751933098,-0.0052861860021948814,-0.002928576897829771,0.005036997143179178,-0.0006824382580816746,-0.004641530103981495,0.019790329039096832,-0.014420357532799244,-0.008880672976374626,0.004251714330166578,0.004759684205055237,-0.0046760886907577515,0.005524243228137493,0.004788224119693041,-0.005039611831307411,0.007374425418674946,0.004661372862756252,0.005120411515235901,-0.004629818722605705,0.0041924407705664635,0.0033229156397283077,0.005322602111846209,0.004148554988205433,0.0046178679913282394,0.0038015502505004406,0.004988592583686113},{-0.024585071951150894,-0.04905156418681145,-0.0035214233212172985,-0.008026082068681717,0.002088977489620447,-0.030345994979143143,0.002128997351974249,0.0012485188199207187,0.0032390470150858164,0.03932340070605278,-0.0038158567622303963,-0.0030721588991582394,0.0031152423471212387,0.002137962495908141,0.00046189167187549174,-0.0021652604918926954,-0.0015481843147426844,-0.0031232042238116264,0.0017652820097282529,0.03373415023088455,-0.0019428430823609233,0.0055297487415373325,0.019721487537026405,0.004830574616789818,-0.0026639699935913086,-0.0012903494061902165,0.003933159168809652,0.0005047924350947142,0.006089622620493174,0.04570164903998375,0.014049965888261795,-0.035970769822597504,0.003282679244875908,-0.0022873675916343927,0.03372848778963089,0.00037397511187009513,-0.016032911837100983,0.0010495503665879369,0.027074923738837242,-0.023843631148338318,0.0006751162582077086,-0.004481278359889984,0.002959111239761114,0.0055038658902049065,-0.0005188561044633389,0.0221216082572937,-0.0022420240566134453,0.0023192281369119883,-0.003567444160580635,-0.0031374352984130383,-0.002431157510727644,0.002102071652188897,-0.0008686287910677493,-0.0015643903752788901,-0.005639221519231796,-0.0012813388602808118,-0.0263828132301569,0.0007064147503115237,-0.00010427140659885481,9.498988220002502e-05,-0.00016076969041023403,0.0032114654313772917,0.005075543187558651,0.0020874456968158484},{0.012306717224419117,0.023784952238202095,-0.004723994992673397,0.024378173053264618,-0.0006880705477669835,-0.02414877340197563,0.02372211217880249,-0.004980479832738638,0.0050101811066269875,0.006452467292547226,-0.004619908519089222,-0.0030122187454253435,0.003902021562680602,0.005069555249065161,0.0012359744869172573,0.0009346394217573106,-0.002671647584065795,0.006890668999403715,-0.00651873555034399,0.004581218585371971,-0.003339179093018174,0.0022594970650970936,0.0020515660289674997,-0.00804345216602087,0.006441136822104454,0.003026546910405159,0.0026255017146468163,-0.002192799001932144,-0.0022637222427874804,0.015137013979256153,-0.0322539284825325,0.004566081799566746,-0.006776619702577591,0.005690278019756079,0.009461221285164356,0.0027763135731220245,-0.008438586257398129,-0.002655887044966221,-0.002376721939072013,-0.002281628316268325,-0.0016388111980631948,0.007607616484165192,0.019182750955224037,-0.008991667069494724,-0.0004665487795136869,-0.012143795378506184,-0.0012149740941822529,0.003547032130882144,0.006444959435611963,-0.004999835509806871,0.006745079066604376,0.0054048895835876465,-0.004853651858866215,-0.0407472662627697,0.009405472315847874,0.004923888016492128,0.00492075365036726,3.0131446692394093e-05,0.00264720362611115,0.004602580331265926,-0.0006853749509900808,0.005115545354783535,0.004245517309755087,0.005518813617527485},{-0.016654863953590393,-0.020890604704618454,0.002521346090361476,-0.027517268434166908,-0.0013982448726892471,0.004202395677566528,-0.027219252660870552,-0.0003837653493974358,-0.002372260205447674,-0.012045303359627724,0.0025249903555959463,0.002885314403101802,-0.002751464257016778,-0.001940467394888401,-0.0005675788852386177,0.00018475577235221863,0.002630332252010703,0.0006163669168017805,0.0005214909906499088,0.009062036871910095,0.0019810732919722795,-0.003884492442011833,0.0006035955739207566,-0.002302221255376935,0.00010243777796858922,0.003524972125887871,0.0005266957450658083,0.0030512830708175898,-0.018965886905789375,-0.005240143742412329,0.02938503958284855,0.01012104656547308,-0.00027600524481385946,-0.00026603066362440586,-0.015340477228164673,-0.0008967635803855956,-0.00023422208323609084,-0.001760837621986866,-0.005258455406874418,-0.0009267397108487785,0.0020380716305226088,0.0017492524348199368,-0.025101814419031143,-0.003771546296775341,-0.011437901295721531,-0.02031105011701584,0.004969367291778326,-0.0022771675139665604,0.0006471656379289925,0.002369122114032507,0.00022992044978309423,-0.0018415640806779265,0.0014245723141357303,0.036811795085668564,0.004446476232260466,-0.006423025857657194,-0.005335432011634111,0.00018793184426613152,-0.000880736275576055,-0.00029604375595226884,0.0038163596764206886,-0.0023535327054560184,-0.0034265927970409393,-0.0033333427272737026},{1.4922795295715332,-0.8124542236328125,0.0027787243016064167,2.465514898300171,0.002488329540938139,0.09208442270755768,-1.0560466051101685,0.001340495073236525,-0.002599959261715412,0.5619043111801147,0.003019660944119096,0.00219714199192822,-0.0029147290624678135,-0.002127898158505559,-0.0026016291230916977,-0.002176928799599409,0.0018032155930995941,0.0014273094711825252,-0.0005160504369996488,-0.30502843856811523,0.002340775215998292,-0.001840374432504177,-1.7765700817108154,-0.0019275106023997068,0.0007889146800152957,-0.002783107338473201,0.0016299438429996371,0.05077273026108742,1.6116833686828613,-0.8293295502662659,-5.299994468688965,1.2805876731872559,-0.0012654613237828016,-0.00012572504056151956,-1.6179732084274292,0.0027237783651798964,-0.29991215467453003,0.0029930060263723135,-0.22939454019069672,-0.20652136206626892,0.0014107614988461137,0.0020134993828833103,-1.3073943853378296,-0.0006775047513656318,-0.3830718696117401,-0.16836826503276825,0.906451404094696,-0.0024604403879493475,0.00040954662836156785,0.002527747070416808,0.0012922168243676424,-0.0019156961934641004,0.0018018651753664017,-0.17273393273353577,0.000387916894396767,0.004378053359687328,0.4010063111782074,-0.0028206766583025455,-0.0024484931491315365,-0.002045933622866869,-0.002899354789406061,-0.0024884932208806276,-0.0014200389850884676,0.001098981942050159},{-0.004874784499406815,-0.006257923785597086,-0.0002668372180778533,-0.024535801261663437,0.0127365468069911,-0.025571707636117935,-0.03087456524372101,0.0053726676851511,0.0004400205216370523,-0.0025562113150954247,0.002064110478386283,0.005002015270292759,-0.00490353349596262,0.0004149016458541155,-0.012346525676548481,-0.011706632561981678,0.007331422064453363,0.00909745879471302,-0.00896170549094677,0.004038749262690544,0.008632423356175423,0.005716858431696892,-0.00020446378039196134,-0.008785069920122623,0.0061520300805568695,-0.013575221411883831,0.014009393751621246,0.01432604156434536,-0.03920648619532585,0.017008552327752113,0.016808755695819855,0.0048495023511350155,-0.00844909530133009,0.0014090868644416332,0.03345714882016182,0.013956478796899319,-0.016599958762526512,0.012334594503045082,-0.013674325309693813,0.024042891338467598,0.007779323495924473,0.009721735492348671,-0.009071261622011662,-0.0038136884104460478,-0.0010983217507600784,0.001164893968962133,-0.0002841363020706922,-0.007461674511432648,0.0022673795465379953,-0.0008487513405270875,0.011287608183920383,0.0014300862094387412,0.0014458552468568087,0.026590745896100998,0.003476640908047557,0.020016230642795563,-0.0028896539006382227,-0.013136766850948334,-0.008109898306429386,-0.00700620049610734,-0.015121146105229855,0.0011768849799409509,0.007899045944213867,0.01441358495503664},{-0.878460168838501,-1.788280963897705,-0.0015183199429884553,0.4161936342716217,0.004568424075841904,0.21960517764091492,0.32360413670539856,0.0019129476277157664,0.0014829636784270406,0.5909812450408936,-0.0007603976991958916,0.0009948447113856673,-0.000352704431861639,0.001157428021542728,-0.0037116340827196836,-0.003928185440599918,0.0017033446347340941,0.002878322498872876,-0.003800461534410715,-1.3750079870224,0.002003624103963375,0.0034466441720724106,0.30691227316856384,-0.0013163529802113771,0.001502231927588582,-0.0044901249930262566,0.008162856101989746,0.007129201665520668,0.6918842792510986,1.0440737009048462,-1.7125309705734253,-1.4791579246520996,-0.0025390409864485264,-0.0006031551165506244,1.4493577480316162,0.004561800509691238,-0.8253449201583862,0.004686008673161268,-1.624665379524231,2.4917144775390625,0.0015292835887521505,0.0022597662173211575,2.114076614379883,0.0020730900578200817,-2.4919228553771973,-0.352215439081192,-0.747294545173645,-0.0015042817685753107,-0.0009300695965066552,-0.001594454632140696,0.004621381871402264,0.0015252259327098727,1.2321528629399836e-05,-1.3090426921844482,-0.002549185650423169,0.008436755277216434,-0.1715032011270523,-0.004207199905067682,-0.002273047110065818,-0.0017432059394195676,-0.004132299683988094,0.001716019818559289,0.004932095762342215,0.007737628649920225},{0.8087195158004761,-0.14513356983661652,-0.0007750911172479391,0.13965222239494324,-0.003773357020691037,-0.7802607417106628,0.20856086909770966,-0.0054594967514276505,0.000933611299842596,0.13152159750461578,-0.0007482141954824328,-0.0016226456500589848,0.001431474112905562,0.001852524233981967,0.0034460315946489573,0.0032401494681835175,-0.001511882059276104,0.00485479598864913,-0.0036520003341138363,-0.5326515436172485,-0.002227155026048422,-0.0018990396056324244,-0.29729828238487244,-0.007001005113124847,0.0045736441388726234,0.008041631430387497,-0.0028571055736392736,0.9239014983177185,-0.6069812774658203,-0.16731978952884674,-0.1313307285308838,0.16928714513778687,-0.00469776289537549,0.004660548642277718,-0.5803419947624207,-0.003643115283921361,-1.4070048332214355,-0.0050850543193519115,-0.7702984809875488,-0.031575944274663925,-0.0021279165521264076,0.006249407306313515,1.1210100650787354,-0.0091490363702178,1.1695705652236938,-0.5668355226516724,0.5630831718444824,0.0019413945265114307,0.005732607562094927,-0.000961536483373493,0.004139693919569254,0.0017335435841232538,-0.0030436310917139053,-0.2786675691604614,0.010003449395298958,-0.007173480466008186,-0.28733915090560913,0.0038561217952519655,0.002979707671329379,0.0044284095056355,0.00426421919837594,0.0008506377344019711,-0.001936966204084456,-0.001732869422994554},{-0.15969589352607727,-1.2458101511001587,-0.01029341109097004,-4.924654483795166,-0.005871934816241264,-0.16908365488052368,-0.6347208619117737,-0.010858804918825626,0.010404426604509354,-3.8732545375823975,-0.00990369450300932,-0.007842536084353924,0.009662947617471218,0.01079653948545456,0.00808659102767706,0.005451724864542484,-0.007417249493300915,0.00762091763317585,-0.0077375611290335655,-1.8419312238693237,-0.00939491018652916,0.0014957126695662737,0.0774177759885788,-0.006952778436243534,0.009019427932798862,0.009659982286393642,-0.005448110867291689,-1.9314842224121094,1.886706829071045,0.7078777551651001,-0.7663788199424744,-3.557889223098755,-0.0080573046579957,0.010589809156954288,0.18514512479305267,-0.00795283168554306,-1.1706793308258057,-0.007401867303997278,-0.24561208486557007,-1.6075714826583862,-0.005159798078238964,0.006913025863468647,-0.3692242503166199,-0.007261903025209904,-0.7223570942878723,0.278754860162735,-1.5641320943832397,0.009388110600411892,0.009636160917580128,-0.010400420986115932,0.006413094699382782,0.01055391225963831,-0.011323976330459118,0.344049870967865,0.006998193450272083,-0.007198852952569723,0.6499735116958618,0.00819486565887928,0.007935584522783756,0.011006909422576427,0.006102831568568945,0.010312497615814209,0.0027932284865528345,-0.001794756157323718},{-0.0047273188829422,0.01221377868205309,-0.001221064361743629,0.004132472909986973,-0.0049059768207371235,-0.012537844479084015,-0.025141095742583275,-0.0019593550823628902,0.0010282315779477358,0.014739928767085075,-0.001739068771712482,-0.0020118639804422855,0.0023201140575110912,0.000495468033477664,0.00627558771520853,0.00489426776766777,-0.0024341230746358633,-0.001922308118082583,0.0007052290602587163,0.0039018585812300444,-0.0028730728663504124,0.002000171924009919,0.019783297553658485,0.0015860755229368806,-0.0020498428493738174,0.008215194568037987,0.0029842397198081017,-0.028239810839295387,0.00933157466351986,-0.004294123500585556,0.013260400854051113,0.009660481475293636,0.0020539185497909784,-0.0016279215924441814,-0.018864786252379417,-0.0046126581728458405,-0.02150612697005272,-0.006451975088566542,0.004890220705419779,-0.009600293822586536,-0.004965666681528091,-0.001977261621505022,-0.0066789789125323296,-0.0009598513715900481,0.014640074223279953,-0.02646886557340622,-0.012174279429018497,0.00257491203956306,-0.001574921770952642,-0.0009350809268653393,-0.0009508411749266088,0.0003747310838662088,-0.0002512177743483335,0.0005159404827281833,0.002107321983203292,-0.014710155315697193,-0.0021866962779313326,0.006779919378459454,0.0038775538560003042,0.0027719701174646616,0.008284482173621655,0.0009172920836135745,0.002448839135468006,-0.00018188345711678267},{-0.0010200443211942911,0.0014141559367999434,0.0015493831597268581,0.010531621985137463,-0.001285583944991231,-0.02139119803905487,-0.008055338636040688,0.0032415438909083605,-0.0018625851953402162,0.021053390577435493,-9.966154175344855e-05,-0.0019398772856220603,0.0008900903048925102,-0.0029367890674620867,0.0015477602137252688,0.0018818345852196217,-0.0030344354454427958,-0.006673590745776892,0.0058678509667515755,0.014331108890473843,-0.001251442008651793,0.0020310336258262396,0.013084660284221172,0.0069628432393074036,-0.006392552983015776,0.00011786651884904131,0.0015579293249174953,-0.026503825560212135,0.020136525854468346,0.008596526458859444,0.017579082399606705,-0.009422240778803825,0.006461244076490402,-0.005391223356127739,-0.016645019873976707,-0.0009626392857171595,-0.013105155900120735,-0.0015384202124550939,0.01321374997496605,-0.024614766240119934,-0.002921035047620535,-0.007048727944493294,0.003955259919166565,0.005405824165791273,0.01602732203900814,-0.012508843094110489,-0.009588987566530704,0.0013317969860509038,-0.00577764306217432,0.002107650740072131,-0.006290188059210777,-0.003230201778933406,0.0032015994656831026,-0.025572381913661957,-0.005065350793302059,-0.005633049178868532,-0.018929563462734222,0.0012976144207641482,0.0014551280764862895,-0.0019829722587019205,0.0026692445389926434,-0.002151397056877613,0.0013559953076764941,-0.00036417582305148244},{0.025639608502388,-0.009590337984263897,-0.003573114052414894,-0.005800206679850817,-0.002293101977556944,-0.0019814029801636934,-0.006767048966139555,-0.00349323358386755,0.0037471801042556763,-0.004689447581768036,-0.0030191338155418634,-0.00291888858191669,0.002835061401128769,0.004119794815778732,0.002544347196817398,0.002623795298859477,-0.0024132938124239445,0.006359366234391928,-0.005717459134757519,-0.013519509695470333,-0.0028072367422282696,-8.601645276939962e-06,0.014126481488347054,-0.0076821413822472095,0.006248476915061474,0.0011958701070398092,-0.000605590408667922,-0.005391845479607582,-0.014152741059660912,-0.012096422724425793,0.001398743479512632,0.03786427155137062,-0.006069052964448929,0.005383673589676619,0.03842310234904289,-0.0013090531574562192,-0.005281832069158554,-0.002426793333142996,-0.044560469686985016,0.00047400989569723606,-0.002819159533828497,0.0071757519617676735,0.015172501094639301,-0.008056689985096455,-0.011967592872679234,-0.004487054888159037,0.029018819332122803,0.002891359617933631,0.006139642093330622,-0.003864130238071084,0.005930266343057156,0.004329935647547245,-0.0037973495200276375,-0.0004787491343449801,0.00830930657684803,0.006860567722469568,0.0021789337042719126,0.002062408719211817,0.0029120969120413065,0.00289861299097538,0.0007212746422737837,0.003924663178622723,0.0012588473036885262,0.001862035715021193},{-0.035808004438877106,0.04485184699296951,8.798569615464658e-05,0.025950629264116287,0.0015290438896045089,0.035562749952077866,0.0456773042678833,0.0004627913876902312,-2.07369594136253e-05,-0.03620712459087372,-0.0008344377856701612,-0.0020748497918248177,0.0009310132008977234,-0.0003324896388221532,0.0007723707822151482,-0.001018532901071012,-0.002167761791497469,-0.0035744193010032177,0.003475619712844491,-0.028583332896232605,-0.0015280920779332519,-0.0026467065326869488,-0.0605669803917408,0.003964642062783241,-0.002625860506668687,0.00036052678478881717,0.0019675330258905888,0.013528664596378803,-0.019804010167717934,0.0021837663371115923,-0.04364113509654999,0.021903177723288536,0.003500673221424222,-0.0015232155565172434,-0.060727547854185104,4.634516517398879e-05,0.016280457377433777,0.00010516602924326435,-0.015235432423651218,0.02692938782274723,-0.0008288217359222472,-0.004140608943998814,0.003594817593693733,0.0032578499522060156,-0.022031545639038086,0.03417082875967026,0.02403510920703411,0.0015212082071229815,-0.0022506294772028923,0.00016649866302032024,-0.004311629571020603,-0.0003993056889157742,0.000348018656950444,-0.001442734501324594,-0.0032015154138207436,-0.010808335617184639,0.03892653435468674,0.0008033058838918805,0.000550069089513272,-7.673910295125097e-05,-0.0010796100832521915,-0.0001365981879644096,-0.002099245321005583,-0.0057424521073699},{-0.00787569023668766,0.007645823992788792,0.0003172190045006573,-0.019586101174354553,0.0022282262798398733,-0.0019001844339072704,0.007247672416269779,0.0011532094795256853,-0.00046281269169412553,-0.02616995945572853,0.0007264350424520671,0.0016770662041381001,-0.0008647247450426221,-0.00033064064336940646,-0.0021712209563702345,-0.001641594571992755,0.0017092766938731074,-0.0003096321888733655,0.0007435837760567665,0.002129009459167719,0.0018343733390793204,0.0009348383755423129,-0.024766914546489716,0.0009800149127840996,0.00012112237891415134,-0.004262836650013924,0.0004059585917275399,-0.007563311140984297,-0.011150245554745197,0.00772611191496253,-0.0009006285690702498,-0.012781924568116665,0.00017912275507114828,0.0005056046065874398,-0.00212423549965024,0.004712953697890043,0.008602376095950603,0.0005719753680750728,-0.010553519241511822,0.006150744389742613,0.00015987709048204124,-0.0006798963877372444,-0.00920554157346487,0.0022118885535746813,-0.021898044273257256,0.013094616122543812,0.011499232612550259,-0.001514439471065998,0.00010403859050711617,0.0003876110422424972,-0.0006540490430779755,-0.00047902754158712924,0.00020260991004761308,0.0012580077163875103,-0.0028805360198020935,0.0028729995246976614,-0.009254896081984043,-0.002812325255945325,0.0010072097647935152,-0.0012370682088658214,-0.005254437681287527,-0.0004525475378613919,-0.0006119731115177274,-0.001101243426091969},{0.007087834645062685,-0.0455448143184185,-0.004048518370836973,-0.03473423048853874,-0.008158397860825062,-0.010039838962256908,-0.021695032715797424,-0.00766811752691865,0.004167515784502029,0.009804835543036461,-0.00517632719129324,-0.005970008205622435,0.006258830428123474,0.004589314106851816,0.008613054640591145,0.007836085744202137,-0.006923501379787922,0.0010512699373066425,-0.0005112646613270044,0.010625166818499565,-0.007676227483898401,-0.0054819765500724316,0.043868836015462875,-0.001978290732949972,0.002635704819113016,0.008989818394184113,-0.010271642357110977,-0.01233983226120472,-0.013422567397356033,0.014161428436636925,0.023602161556482315,0.005334615707397461,-0.0012830001069232821,0.0050251418724656105,0.05773990601301193,-0.011410050094127655,-0.02126399613916874,-0.007624465506523848,-0.03637710586190224,0.0007218237151391804,-0.0059097567573189735,0.0012427043402567506,-0.01724608615040779,-0.004319477826356888,-0.016237888485193253,-0.0005944166914559901,0.034511320292949677,0.007213391829282045,0.004817398730665445,-0.003959841560572386,-0.0006912225508131087,0.004089643247425556,-0.005706041119992733,0.014811362139880657,0.004444319289177656,-0.010880226269364357,-0.007752769626677036,0.009553155861794949,0.006452547386288643,0.007664135657250881,0.009450973011553288,0.003772654104977846,-0.005077739711850882,-0.007858652621507645},{-0.0029880686197429895,-0.05138985440135002,0.0027996620628982782,-0.0156328734010458,0.005703353323042393,-0.006151475012302399,0.013674546033143997,0.004244430921971798,-0.0026957071386277676,0.004809665493667126,0.0036103783641010523,0.005970184225589037,-0.004598465748131275,-0.0027105610352009535,-0.009343096986413002,-0.006405494641512632,0.007634397596120834,-0.0010339015861973166,0.00041511812014505267,0.024538589641451836,0.006716389674693346,0.0008265926735475659,0.018804039806127548,0.0035338839516043663,-0.0017820608336478472,-0.0064031826332211494,0.004726599436253309,-0.00542681198567152,-0.006704165134578943,0.04148196801543236,0.017182890325784683,-0.02851306088268757,0.001071542501449585,-0.002697352319955826,0.053341761231422424,0.009702787734568119,-0.008386391215026379,0.0065614464692771435,-0.003449725918471813,0.004166706930845976,0.006657092832028866,-0.002232220023870468,0.003302930388599634,0.0068871937692165375,-0.019692394882440567,0.0468180850148201,0.03212178498506546,-0.0061240000650286674,-0.0033428429160267115,0.002586611080914736,0.0004337641003075987,-0.002354199066758156,0.003129364224150777,-0.021319441497325897,-0.007972070015966892,0.00554127711802721,-0.02669111266732216,-0.009925120510160923,-0.005506426095962524,-0.004473336972296238,-0.006978947669267654,-0.0024609111715108156,0.000984497251920402,0.0031081223860383034},{1.7149652242660522,-2.0406885147094727,0.0036609689705073833,1.718106985092163,-0.005854458548128605,-0.9919068217277527,-0.4476846158504486,-0.003530331887304783,-0.0034936091396957636,0.4740888774394989,0.003424346912652254,0.000591063522733748,-0.0017018923535943031,-0.002451180247589946,0.004498759284615517,0.005052265711128712,0.00014466987340711057,-0.0010731498477980494,0.0029699550941586494,-0.5359174609184265,-0.001013755681924522,-0.0074009643867611885,-0.5657329559326172,-0.0018244694219902158,0.00023039881489239633,0.006153251975774765,-0.010734404437243938,3.991921901702881,1.9888323545455933,0.8396507501602173,-1.751153588294983,-2.066728353500366,0.0007096512708812952,0.0025229735765606165,-2.643188953399658,-0.006544227711856365,-1.3370788097381592,-0.006091086193919182,-1.1437348127365112,0.283010333776474,-0.0016794707626104355,0.0004899764899164438,-0.8833076357841492,-0.0057728709653019905,-2.1009294986724854,-0.22500675916671753,-1.3488962650299072,9.426440374227241e-05,0.0036825090646743774,0.003498256905004382,-0.0033790902234613895,-0.002823516493663192,0.00032712030224502087,-2.2447566986083984,0.00628098426386714,-0.007007300388067961,-1.9885997772216797,0.00523369200527668,0.0035106490831822157,0.002372667659074068,0.003181854262948036,-0.003650418482720852,-0.007593166548758745,-0.008929605595767498},{-0.010802501812577248,-0.06329610198736191,0.004033538978546858,-0.006451679393649101,0.007420032750815153,0.019931886345148087,-0.005154208280146122,0.00848950445652008,-0.004283718764781952,0.020770089700818062,0.005177621729671955,0.004764212295413017,-0.006001742091029882,-0.0048203119076788425,-0.0069427588023245335,-0.006073072087019682,0.004790775012224913,0.0007399623864330351,-0.0014073661295697093,0.01064271666109562,0.007062866818159819,0.005659205373376608,0.04578094556927681,-0.000399509648559615,-0.0018387730233371258,-0.01046500913798809,0.012004198506474495,-0.0017391113797202706,0.01865881122648716,-0.031841203570365906,0.03968217223882675,0.010224084369838238,-0.0003233462921343744,-0.005401649512350559,-0.004064392298460007,0.009266137145459652,-0.009662667289376259,0.0067934077233076096,0.012009503319859505,-0.013313710689544678,0.0025472717825323343,0.0011120892595499754,-0.027722809463739395,0.0026474432088434696,-0.005257476586848497,-0.016415579244494438,0.01205438282340765,-0.006670688278973103,-0.004730443935841322,0.0040145451202988625,0.0033095700200647116,-0.0042470768094062805,0.006326775532215834,0.03751634806394577,-0.002649265341460705,0.013421736657619476,-0.009314030408859253,-0.008155258372426033,-0.0040986728854477406,-0.00840255431830883,-0.00853626150637865,-0.0038350680842995644,0.00655706599354744,0.010321295820176601},{0.014292871579527855,-0.01783323474228382,-0.005980233196169138,0.002687985310330987,-0.0027343544643372297,-0.013000618666410446,-0.0038696862757205963,-0.006839910056442022,0.0058790710754692554,0.005159315187484026,-0.0051682754419744015,-0.00441876333206892,0.005029246676713228,0.0061096507124602795,0.004281402565538883,0.003456639125943184,-0.002601039130240679,0.006980032194405794,-0.0076210228726267815,-0.00860986951738596,-0.0035514733754098415,0.0026836676988750696,0.02183418907225132,-0.007028425578027964,0.006505773402750492,0.005799028556793928,0.0034030189272016287,-0.032744646072387695,0.015573238953948021,0.02183791622519493,0.008701030164957047,-0.011498555541038513,-0.006798506248742342,0.005953583400696516,0.022228004410862923,-0.000794381252489984,-0.019852781668305397,-0.00548089575022459,-0.021220793947577477,0.018254509195685387,-0.006635952740907669,0.007123223971575499,-0.005803828593343496,-0.006579576060175896,-0.0033933352679014206,-0.00032780220499262214,0.038745760917663574,0.0039024746511131525,0.006528366357088089,-0.005984409712255001,0.00754049327224493,0.006118613760918379,-0.005950912367552519,-0.037710245698690414,0.0063526262529194355,0.0035085096023976803,0.016444362699985504,0.0036626472137868404,0.007021179888397455,0.0065643563866615295,0.0028843912295997143,0.00594822783023119,0.0035912450402975082,0.004386587999761105},{-0.033448752015829086,-0.02758621983230114,0.002012701705098152,-0.0007645839359611273,0.003918936010450125,-0.015212108381092548,0.009380915202200413,0.005385839845985174,-0.00202122307382524,0.036064404994249344,0.0016016997396945953,0.001766491332091391,-0.0025247400626540184,-0.0028202729299664497,-0.004460673313587904,-0.004572698846459389,0.002372878836467862,-0.0071866256184875965,0.00633300980553031,0.016747865825891495,0.003019982483237982,0.00020752119598910213,0.00611989526078105,0.008057390339672565,-0.0062670279294252396,-0.005861038342118263,0.0007603971171192825,0.017386512830853462,-0.013440382666885853,0.038054145872592926,-0.02172250673174858,-0.0368085540831089,0.0068482691422104836,-0.005460645072162151,0.02838532254099846,0.001167371985502541,0.013530535623431206,0.00598452053964138,0.029181448742747307,-0.021299319341778755,0.005852682515978813,-0.00803838949650526,-0.007252088747918606,0.007808785419911146,-0.012455224990844727,0.015769880264997482,0.013215765357017517,-0.002791907172650099,-0.006412068847566843,0.0021239551715552807,-0.007465646602213383,-0.0027984343469142914,0.0035562277771532536,0.008786763995885849,-0.007862593047320843,-0.007203851826488972,-0.012560431845486164,-0.003853099187836051,-0.0058603473007678986,-0.00474195834249258,-0.0028404141776263714,-0.0020281386096030474,-0.0004889047704637051,-0.004028102848678827},{0.16935235261917114,2.009793758392334,0.012961059808731079,-6.198273658752441,-0.016194917261600494,1.196598768234253,1.1967594623565674,-0.0016668259631842375,-0.012877543456852436,-0.0755295604467392,0.010989510454237461,0.002310169395059347,-0.0067061432637274265,-0.01153827365487814,0.010516548529267311,0.014896727167069912,-0.000877715356182307,-0.00638613011687994,0.0085255466401577,-0.23466350138187408,-1.6093297745101154e-05,-0.010867568664252758,-1.501407504081726,0.0008205245831049979,-0.006740797311067581,0.01623823307454586,-0.009616296738386154,1.3688668012619019,0.850064754486084,1.7913131713867188,-0.3346739113330841,0.7207927703857422,0.006576065439730883,-0.005011730827391148,-1.5373940467834473,-0.011933377012610435,-1.299115777015686,-0.016727885231375694,2.538933515548706,-2.2006211280822754,-0.009300821460783482,-0.0029685061890631914,-0.5665449500083923,-0.006380495149642229,0.2770533561706543,0.2338312566280365,-0.17630058526992798,-0.0020819108467549086,-0.0017628304194658995,0.013046934269368649,-0.007766320835798979,-0.012058070860803127,0.008145516738295555,-1.0760588645935059,0.008214281871914864,-0.02261010743677616,-0.5339096784591675,0.01219432707875967,0.007536685559898615,0.0007156863575801253,0.018455812707543373,-0.013304369524121284,-0.011706977151334286,-0.010959798470139503},{0.0028453110717236996,0.035851091146469116,0.004030405078083277,-0.00810408964753151,0.0014144827146083117,-0.033461835235357285,0.003507285611703992,0.006276613101363182,-0.004375035408884287,-0.03639191761612892,0.00410211319103837,0.0019631078466773033,-0.0036491199862211943,-0.005320297088474035,7.252160867210478e-05,-0.0007047776598483324,0.002462865086272359,-0.007715488318353891,0.005067034624516964,0.001178052043542266,0.0029361234046518803,0.0047583868727087975,-0.04973265528678894,0.01026455033570528,-0.008502604439854622,-0.002038715872913599,0.004899180959910154,-0.03232954442501068,-0.03078596293926239,0.027589786797761917,-0.006066031754016876,-0.012099304236471653,0.007792448624968529,-0.00874653272330761,-0.002788401674479246,0.0008367273258045316,0.007865012623369694,0.0007004659273661673,-0.02295754663646221,-0.0032000164501369,-7.487001130357385e-05,-0.009321100078523159,0.020845241844654083,0.01124225091189146,-0.034639645367860794,0.01535742450505495,-0.0022936274763196707,-0.003224017331376672,-0.009585472755134106,0.004328242503106594,-0.004550751298666,-0.005294507835060358,0.006278810556977987,-0.021961480379104614,-0.011361603625118732,0.007963204756379128,-0.0018118142616003752,0.00042968805064447224,-0.001906925579532981,-0.004784984979778528,-0.0008365419344045222,-0.004248864017426968,0.005846256855875254,0.008702188730239868},{-0.03809955716133118,-0.0946260392665863,-0.0016354036051779985,0.44251152873039246,-0.02250373363494873,-0.2985653281211853,-0.03574749082326889,-0.01616867631673813,0.0016932779690250754,-0.1431887298822403,-0.004152127541601658,-0.00963321328163147,0.008288613520562649,0.0032100181560963392,0.020463867112994194,0.01996520534157753,-0.011355899274349213,-0.0030540626030415297,0.005582801997661591,-0.4669479429721832,-0.013846154324710369,-0.007845613174140453,0.04512396454811096,-0.0022192851174622774,0.0014062628615647554,0.02772597223520279,-0.025252118706703186,-0.12749053537845612,-0.13753654062747955,0.41687294840812683,-0.1290743499994278,-0.17555883526802063,0.0018257183255627751,0.00862626451998949,0.7913545966148376,-0.0226570013910532,0.19414597749710083,-0.024976957589387894,-0.3931806683540344,0.5830361247062683,-0.012337949126958847,-0.000900008250027895,-0.4656691551208496,-0.01324163656681776,-0.11984439939260483,-0.18348868191242218,0.233246311545372,0.012050936929881573,0.009748476557433605,-0.0012913882965222,-0.008686256594955921,0.0016573541797697544,-0.007837655022740364,-0.04389334097504616,0.014836389571428299,-0.03586458042263985,0.33853650093078613,0.022433340549468994,0.015922214835882187,0.01576869562268257,0.023899449035525322,0.0007295578834600747,-0.011493470519781113,-0.022039735689759254},{0.010019107721745968,-0.0522942878305912,0.01055526826530695,-0.039078690111637115,0.002853952581062913,0.017788883298635483,0.011550520546734333,0.006986312102526426,-0.010394617915153503,-0.027041476219892502,0.009153764694929123,0.006179113406687975,-0.0077253724448382854,-0.010005438700318336,-0.003951972350478172,-0.0032847383990883827,0.005323297809809446,-0.009644373320043087,0.011677493341267109,0.028968757018446922,0.005433827638626099,-0.011075543239712715,0.016986748203635216,0.0067999595776200294,-0.008912323042750359,-0.005535351112484932,-0.005265351850539446,0.008972150273621082,0.0026140627451241016,-0.0063934787176549435,0.04770340025424957,0.015883781015872955,0.009767365641891956,-0.007667589001357555,0.018454868346452713,0.0017634003888815641,-0.016170820221304893,0.005823281593620777,-0.006518274080008268,0.0038651847280561924,0.006706495303660631,-0.008059742860496044,-0.0012032558443024755,0.0035893009044229984,-0.011887169443070889,0.026294352486729622,-0.0009684457327239215,-0.006090488284826279,-0.0068331388756632805,0.010610757395625114,-0.011644399724900723,-0.010300889611244202,0.00877397321164608,0.01841975376009941,-0.0026810094714164734,-0.008085309527814388,-0.012912489473819733,-0.0033404275309294462,-0.007953296415507793,-0.007408039178699255,-0.003913768567144871,-0.010727712884545326,-0.012813970446586609,-0.011895289644598961},{0.0019626955036073923,0.051473960280418396,-0.0004278926644474268,-0.0062058353796601295,-0.0037820572033524513,-0.0019329879432916641,-0.0053619942627847195,-0.0012800459517166018,0.0003333417989779264,-0.043535199016332626,-0.0002273853897349909,-0.0014209621585905552,0.0002529651974327862,0.00035458055208437145,0.0018467330373823643,0.003877845127135515,-0.0013653201749548316,-0.00021389382891356945,0.0001331665989710018,0.010148013941943645,-0.000607104564551264,0.0041912696324288845,-0.04843105003237724,8.268509554909542e-05,0.0003754523058887571,0.0022422608453780413,0.00034371300716884434,-0.03654627874493599,0.01553285215049982,-0.015173873864114285,0.036879077553749084,0.012825398705899715,-9.512926226307172e-06,0.0009676961926743388,-0.06602631509304047,-0.0011866408167406917,-0.01637638546526432,-0.004108200315386057,-0.017310868948698044,0.022189922630786896,-0.0036904069129377604,-0.00033785123378038406,-0.0002863991248887032,-0.0009432844235561788,-0.0016131324227899313,0.03588203713297844,-6.007794218021445e-05,0.0004937712801620364,0.001119209104217589,-0.0003692607569973916,-0.000816727289929986,0.0003337633970659226,-0.0005042776465415955,-0.01414998434484005,0.0009430006030015647,-0.006896560080349445,0.010597361251711845,0.0016946569085121155,0.003338975366204977,0.0009518525912426412,0.0031357717234641314,0.00035931853926740587,0.0031390113290399313,0.0010289119090884924},{0.016225917264819145,-0.21152976155281067,-0.0006521671894006431,-2.6552863121032715,0.00018610685947351158,0.266344279050827,-0.9523519277572632,0.0032527523580938578,0.0004000139597337693,-2.030763864517212,-0.0015630212146788836,-0.0015932312235236168,0.0016908093821257353,-0.0005937668611295521,0.00024857482640072703,-0.00033320143120363355,-0.0014957410749047995,-0.007243321742862463,0.00595665629953146,-0.8889235854148865,-0.0012324060080572963,0.0014526920858770609,-1.325515866279602,0.009118541143834591,-0.005794428754597902,-0.002917427569627762,-0.0032635608222335577,0.11619308590888977,0.7418251633644104,-2.216113805770874,-0.7591426372528076,-0.628707230091095,0.006745151709765196,-0.004090518224984407,0.5282703638076782,-0.001005652011372149,-1.1496760845184326,0.0010005248477682471,-1.0603772401809692,1.3928964138031006,0.0006282050162553787,-0.008816798217594624,0.6850072741508484,0.008864452131092548,1.655353307723999,-0.27370592951774597,-0.4570794105529785,0.001438584760762751,-0.0056483070366084576,-0.000224262970732525,-0.007396531291306019,-0.0009060396114364266,0.001195874297991395,0.4925670623779297,-0.009212790988385677,-0.0031910582911223173,-0.4147081971168518,0.0002687854284886271,-0.00047336722491309047,-0.0016286810860037804,-0.0005678471643477678,0.00019955381867475808,0.0001078295535990037,-0.0037659979425370693},{-0.05860047787427902,0.19645875692367554,0.004468459170311689,-0.8581479787826538,0.004427170846611261,0.5334280133247375,-0.9152585864067078,0.005889357067644596,-0.004460756201297045,0.024858392775058746,0.004519360605627298,0.0044082654640078545,-0.004991393070667982,-0.004844075068831444,-0.004944782238453627,-0.004375404212623835,0.003965354990214109,-0.0044116973876953125,0.004440646152943373,0.6774576902389526,0.004873539321124554,-0.0013177066575735807,-0.3438607156276703,0.00433966051787138,-0.004643675871193409,-0.005892190616577864,0.001193225383758545,0.7738696336746216,-0.2802044749259949,-0.8553617000579834,-0.44900840520858765,-0.7438151836395264,0.004541959147900343,-0.005075371358543634,0.0784521996974945,0.0036358076613396406,-0.6939961910247803,0.005911114625632763,0.2697175145149231,-0.654632031917572,0.0045478129759430885,-0.004382656887173653,-0.9068929553031921,0.0041915117762982845,-1.2467832565307617,-0.5372753143310547,0.056867945939302444,-0.0048867808654904366,-0.004939916078001261,0.004447982180863619,-0.004118960350751877,-0.004625539295375347,0.005404540803283453,-0.5081542134284973,-0.004041663371026516,0.001905808225274086,0.2092045396566391,-0.004770976025611162,-0.005888453219085932,-0.006131893489509821,-0.004697415977716446,-0.004337693098932505,-0.001402716152369976,-0.000496452848892659},{0.03730279207229614,-0.051610466092824936,0.0038017381448298693,-0.023572798818349838,-0.0024682418443262577,-0.00975415576249361,-0.009295597672462463,0.005143206100910902,-0.003949348349124193,-0.013564635999500751,0.002586595481261611,0.0008026013965718448,-0.0017400393262505531,-0.004761924967169762,0.0023311926051974297,0.0023356981109827757,-0.00010811433458002284,-0.008222403936088085,0.007249888498336077,0.0054480708204209805,0.00018465959874447435,-0.0016059475019574165,0.02160896547138691,0.009052732028067112,-0.007927711121737957,-0.0013445895165205002,-0.004424328450113535,-0.017223697155714035,0.01883096806704998,-0.0069937556982040405,0.03718839958310127,-0.033971477299928665,0.00826376210898161,-0.007178916595876217,0.05389777570962906,-0.005490238778293133,-0.010622004047036171,-0.0008044270216487348,-0.019116466864943504,0.00681636668741703,-0.0010416865115985274,-0.008869435638189316,0.007756025996059179,0.008901736699044704,-0.011500794440507889,0.017294835299253464,0.007219958584755659,-0.0006010435172356665,-0.007918111979961395,0.004122752230614424,-0.007427303120493889,-0.004950289614498615,0.0051752720028162,-0.00580768845975399,-0.00886064674705267,-0.00433050561696291,-0.01023015659302473,0.003339578863233328,-0.0003691326710395515,-0.003722859313711524,0.003004603087902069,-0.004102956037968397,-0.0022259464021772146,-0.0029064530972391367},{-0.010588226839900017,0.037734754383563995,-0.001608529593795538,0.002889110706746578,-0.007557973265647888,-0.015341204591095448,0.037779297679662704,-0.005759323947131634,0.0016695345984771848,0.011253764852881432,-0.003014612477272749,-0.0031286352314054966,0.004393313080072403,0.0021995501592755318,0.006543684285134077,0.006937483325600624,-0.0048795160837471485,-0.0017373450100421906,0.003476522397249937,0.016026446595788002,-0.005757880862802267,-0.004778263624757528,-0.03711582347750664,-0.0004337765567470342,0.0008946812595240772,0.005910996347665787,-0.012050168588757515,0.04159832373261452,-0.0280558280646801,0.02131015434861183,-0.06036609038710594,0.011471289210021496,0.00093952810857445,0.004247994162142277,0.010316627100110054,-0.0072493902407586575,0.011714761145412922,-0.006806768011301756,0.017669063061475754,-0.009684748947620392,-0.004583807662129402,-0.0009239954524673522,0.017979111522436142,-0.0045521748252213,-0.005130840931087732,-0.012920048087835312,-0.024792246520519257,0.005366383586078882,0.004374844487756491,-0.0014117880491539836,-0.0053853304125368595,0.0014238539151847363,-0.0039602057076990604,-0.017727786675095558,0.004747059196233749,-0.007230145391076803,0.0007807571673765779,0.006499457638710737,0.005796259734779596,0.005831179674714804,0.006635014433413744,0.0011174101382493973,-0.0068316408433020115,-0.01043410412967205},{0.015857836231589317,-0.019151203334331512,-0.007074842695146799,-0.009651155211031437,0.0019509713165462017,-0.010549461469054222,0.01068380381911993,-0.005213290452957153,0.006985179148614407,-0.002249263459816575,-0.004998188000172377,-0.0015974488342180848,0.0037922686897218227,0.007383893709629774,0.00037660004454664886,-0.0011710005346685648,-0.0012609491823241115,0.010928582400083542,-0.011198082007467747,0.002300101798027754,-0.0017257619183510542,0.007748793810606003,-0.008915530517697334,-0.010469994507730007,0.009827561676502228,-1.8853215806302615e-05,0.0050631132908165455,-0.019024429842829704,0.010267525911331177,0.022968588396906853,0.00406291987746954,-0.024556506425142288,-0.010957147926092148,0.007890045642852783,0.047026894986629486,0.00250112172216177,-0.00992655660957098,0.000666314794216305,-0.025661492720246315,0.01971030794084072,-0.001470512943342328,0.011045821942389011,0.015267234295606613,-0.007687578909099102,-0.014290179125964642,0.03455183282494545,0.022573811933398247,0.002159849274903536,0.008160336874425411,-0.007279306184500456,0.011862865649163723,0.007572894915938377,-0.006806671619415283,-0.03133472427725792,0.007223309483379126,0.015710903331637383,-0.0012515460839495063,-0.0005419947556219995,0.002407265128567815,0.004754769615828991,-0.0027760162483900785,0.007267986889928579,0.008451585657894611,0.011261357925832272},{0.016773074865341187,-0.027164610102772713,0.005315979477018118,-0.017471978440880775,0.012463154271245003,0.029081061482429504,0.04794023558497429,0.00953712873160839,-0.005400132853537798,-0.0007419559406116605,0.006215625908225775,0.005902370437979698,-0.007228225469589233,-0.005776694510132074,-0.011476177722215652,-0.012385876849293709,0.008863967843353748,-0.006711721885949373,0.005800312384963036,0.04160286486148834,0.00919347070157528,0.006464984733611345,0.023981517180800438,0.008772877044975758,-0.006473724264651537,-0.014109516516327858,0.0033040838316082954,0.047963280230760574,0.015335851348936558,-0.007716746535152197,0.014774412848055363,0.048034459352493286,0.0064055728726089,-0.006748246494680643,0.01087871752679348,0.01064471434801817,-0.01925143599510193,0.013757004402577877,0.02720196358859539,-0.004196057096123695,0.010854803025722504,-0.007943696342408657,0.02955031953752041,0.011588805355131626,0.023844443261623383,0.03569074720144272,-0.025833871215581894,-0.008630669675767422,-0.007789396680891514,0.005254208110272884,-0.005964560899883509,-0.005594045855104923,0.006443887483328581,0.00774114765226841,-0.01258822064846754,0.008185318671166897,-0.002438717056065798,-0.011502793990075588,-0.01115745771676302,-0.009533325210213661,-0.014642742462456226,-0.005138638895004988,0.0034181626979261637,0.0042609102092683315},{0.018772067502141,-0.0619756281375885,-0.003925973083823919,-0.021386876702308655,-0.00037974168662913144,0.011374092660844326,-0.007551431190222502,0.001837930059991777,0.003765439847484231,0.0008598864660598338,-0.005106569267809391,-0.003507226938381791,0.004891432821750641,0.002160332864150405,0.0026980533730238676,0.0007689435733482242,-0.0038600913248956203,-0.005472813732922077,0.003159741871058941,0.028834454715251923,-0.004551755730062723,0.004911405965685844,0.06897048652172089,0.009152556769549847,-0.00435190973803401,-0.0003901965683326125,0.0033118296414613724,0.027884438633918762,0.019720425829291344,-0.02466784603893757,0.05502719059586525,0.015577735379338264,0.005135213024914265,-0.0030930673237890005,0.024561872705817223,0.0007019364275038242,-0.018459876999258995,-0.0024279283825308084,0.020987236872315407,-0.00027798477094620466,-0.0025245272554457188,-0.008124882355332375,-0.007948063313961029,0.010710254311561584,0.020813943818211555,0.013423648662865162,-0.020956143736839294,0.0047067441046237946,-0.005440286360681057,-0.003516721772029996,-0.004410496912896633,0.0021149597596377134,-0.0008624704787507653,0.02834709733724594,-0.011432998813688755,-0.0009002005099318922,-0.02042548730969429,0.0016986920963972807,0.002861936576664448,0.0006922662723809481,0.0008159404387697577,0.003641525050625205,0.00519035616889596,0.0022385006304830313},{0.016528289765119553,-0.0028935985174030066,-0.0004111040907446295,-0.004905835725367069,0.002726674545556307,-0.011275917291641235,-0.003229827154427767,-0.0027710881549865007,0.0008229634840972722,0.01219374593347311,-0.000376375624909997,-0.0004994970513507724,0.00013805556227453053,0.0015200745547190309,-0.0012461490696296096,-0.002229947131127119,-0.0007671565399505198,0.004286130424588919,-0.0027420504484325647,0.006261572241783142,-0.0007218765676952899,-0.0013599673984572291,0.020334189757704735,-0.005448807962238789,0.004125619772821665,0.0014098596293479204,0.0020885691046714783,0.04875569045543671,-0.013246260583400726,0.00665192399173975,-0.011599435470998287,0.015183500945568085,-0.003714646678417921,0.0036866222508251667,0.034238047897815704,0.0028872606344521046,0.0007362804608419538,0.0013344095787033439,0.01867545209825039,0.011034679599106312,0.0014519834658131003,0.004951890558004379,-0.003161943517625332,-0.006419402081519365,0.021151183173060417,-0.03100612200796604,-0.025419648736715317,0.0006620333297178149,0.004215677734464407,-0.0008122441940940917,0.003360810922458768,0.001828512060455978,-0.0019286072347313166,0.010180236771702766,0.007067482452839613,-0.002985555911436677,0.0006929128430783749,-0.001639768946915865,-0.0017039281083270907,0.0013822494074702263,-0.003612868022173643,0.0008841500384733081,-0.00017505246796645224,0.00024343111726921052},{0.002667102962732315,0.03730795904994011,-0.00789040420204401,0.028738057240843773,0.006748285610228777,0.01700371690094471,-0.011755306273698807,-0.008113475516438484,0.008283850736916065,0.005693379789590836,-0.0055071585811674595,-0.0010895226150751114,0.003409766126424074,0.009396631270647049,-0.0035484826657921076,-0.0065145110711455345,0.00044953112956136465,0.016079550608992577,-0.015321264043450356,-0.041501451283693314,-0.0007614943315275013,0.006777224130928516,-0.018658220767974854,-0.01660660095512867,0.014833900146186352,0.0012378656538203359,0.007542565930634737,0.014248833991587162,0.011801506392657757,-0.04445510730147362,-0.03498294577002525,0.01454304438084364,-0.01597031019628048,0.012590949423611164,-0.040638960897922516,0.005468577146530151,0.027181662619113922,0.0046522049233317375,-3.6526213079923764e-05,0.0017381410580128431,0.0036073727533221245,0.01678743213415146,-0.011678834445774555,-0.015119827352464199,0.010642972774803638,-0.05192933231592178,-0.010524023324251175,0.001462075742892921,0.013502685353159904,-0.00864019151777029,0.016241038218140602,0.010012655518949032,-0.009236644022166729,0.015541506931185722,0.015020916238427162,0.010204226709902287,0.03130875527858734,-0.00426569115370512,-0.002183972392231226,0.005658090580254793,-0.005943696945905685,0.008749738335609436,0.008580540306866169,0.011307413689792156},{0.00516267167404294,-0.02170400321483612,-0.0031763557344675064,-0.0040548392571508884,0.0008625477785244584,0.016110116615891457,-0.0164601132273674,-0.004728611093014479,0.0031977135222405195,-0.00014503614511340857,-0.0028243951965123415,-0.0018618757603690028,0.0026865967083722353,0.0037263401318341494,-0.0004549414443317801,-0.0007984370458871126,0.00012960076855961233,0.004418224096298218,-0.003896708833053708,-0.02222316712141037,-0.0008781921351328492,0.0011790520511567593,0.02687794715166092,-0.005973812658339739,0.004905294626951218,0.002132170833647251,-0.0010905280942097306,-0.028311561793088913,0.020054209977388382,-0.015010297298431396,-0.011080283671617508,-0.024040646851062775,-0.004929398652166128,0.005501001141965389,0.0060558924451470375,0.0007401164621114731,0.018440399318933487,-0.0002867344010155648,-0.020362891256809235,-0.00505314115434885,-0.00134280847851187,0.00527071300894022,-0.03743252530694008,-0.007901500910520554,-0.025418931618332863,-0.032525110989809036,0.04148067906498909,0.0014146736357361078,0.005973787512630224,-0.0032391513232141733,0.0034547375980764627,0.0035337323788553476,-0.004459749441593885,0.008701338432729244,0.008443267084658146,-0.0031838000286370516,0.019510747864842415,-0.0010019391775131226,0.0021053380332887173,0.0038902985397726297,-0.0005902232369408011,0.00311135477386415,0.0005632055108435452,4.0262490074383095e-05},{-0.011941256932914257,-0.017567187547683716,-0.00062233314383775,-0.01680801250040531,0.00036112265661358833,0.004602598026394844,-0.040278542786836624,0.0038897518534213305,0.0002528346376493573,0.07371102273464203,-0.0014512318884953856,-0.002808511024340987,0.0020829939749091864,-0.0007300424040295184,0.0026392806321382523,7.806564099155366e-05,-0.003108193399384618,-0.006150064989924431,0.004370177164673805,-0.01566222682595253,-0.002646970096975565,0.0024073158856481314,0.009549353271722794,0.008036313578486443,-0.005477635655552149,-0.0031523576471954584,-0.0028154049068689346,-0.014444483444094658,0.011280642822384834,-0.015554184094071388,-0.002509168814867735,-0.03468093276023865,0.005806336645036936,-0.004868611227720976,0.027292903512716293,-0.0018610726110637188,-0.006836841348558664,0.0009519947925582528,0.021511143073439598,-0.006295100785791874,-0.00011674639245029539,-0.007500507403165102,-0.019920896738767624,0.009063995443284512,0.015188300982117653,-0.016803542152047157,0.008326821029186249,0.002570802578702569,-0.006156899034976959,