
#include "nn_compute.h"

#define g 9.82
#define mass 0.033
#define kf 3.16e-10
#define hoverRPM sqrtf((g * mass) / (4 * kf))

static const int structure[3][2] = {{64, 12},{64, 64},{4, 64}};
static float output_0[64];
static float output_1[64];
static float output_2[4];
static const float mlp_extractor_policy_net_0_weight[64][12] = {{0.5840518474578857,0.46122580766677856,-0.00301117030903697,-0.870063066482544,0.5926251411437988,-0.1525574028491974,0.973054051399231,0.7652834057807922,0.007084043696522713,-0.1672157496213913,0.6289172172546387,0.1730440855026245},{-0.4492044150829315,0.562848687171936,-0.03294723108410835,-0.6691288948059082,0.7501776814460754,0.30382731556892395,0.20694559812545776,0.5840956568717957,-0.21332953870296478,0.02116987109184265,0.18616701662540436,0.9140291810035706},{0.4732684791088104,0.19868282973766327,-0.057415083050727844,-0.07638876885175705,1.5822044610977173,-0.045455630868673325,1.3346611261367798,0.6086291074752808,-0.16432888805866241,0.044335752725601196,0.3066147565841675,-0.24672915041446686},{-0.9592348337173462,0.08438694477081299,0.009495238773524761,-0.059883493930101395,0.47472599148750305,0.03174740821123123,-0.35304686427116394,0.3168000280857086,-0.5072624087333679,-0.04642028734087944,-0.002091000322252512,0.12555693089962006},{-0.8745129108428955,0.1272754818201065,0.08943574130535126,0.08552467823028564,-0.9360880851745605,-0.10276681929826736,-1.1195011138916016,-0.2048526257276535,-0.1931830495595932,0.08352673053741455,-0.7336997389793396,0.19074960052967072},{0.43695977330207825,-0.06999961286783218,0.10538303107023239,0.3698732852935791,0.3139527142047882,0.02464432083070278,0.5795590877532959,0.24766772985458374,-0.06483808904886246,0.18670973181724548,0.3818584084510803,0.2716188430786133},{0.03785061463713646,-0.6997795701026917,0.0459657683968544,0.534134030342102,-0.31612980365753174,0.22856231033802032,-0.006924991961568594,-0.22928376495838165,0.012061277404427528,0.07970655709505081,-0.13035456836223602,-1.0415164232254028},{0.8743367195129395,0.16708095371723175,0.11891864240169525,-0.8081811666488647,0.4420497417449951,0.12960845232009888,1.1752458810806274,0.15974046289920807,0.405330091714859,-0.1350531131029129,0.5509805083274841,0.4423975944519043},{0.10254964232444763,-0.897576093673706,0.044613659381866455,0.9683979749679565,-0.10411205887794495,-0.023128904402256012,-0.137873575091362,-0.8967891931533813,-0.006216920912265778,0.2418934851884842,-0.02601238526403904,0.6519264578819275},{-0.4200117588043213,-0.30278506875038147,-0.08942490816116333,1.5360294580459595,1.3754092454910278,-0.17065951228141785,1.0089019536972046,-0.33070695400238037,-0.15784744918346405,-0.057754937559366226,0.25598636269569397,-0.009388086386024952},{-0.8752405643463135,0.21129436790943146,-0.0767747014760971,-0.2786058485507965,-0.8465735912322998,0.04556243121623993,-0.9690201282501221,0.09100119024515152,0.1613396257162094,-0.09288042783737183,-0.4386657476425171,-0.7145076394081116},{0.49413585662841797,0.4497443735599518,-0.1451992243528366,0.16931764781475067,0.30748501420021057,0.1423509120941162,0.42090001702308655,0.8953822255134583,-0.10045614093542099,0.1945427507162094,-0.002409671898931265,-0.6999826431274414},{-0.34416308999061584,-0.9212464690208435,0.1998693197965622,0.6784854531288147,-0.5430281162261963,-0.13825581967830658,-0.45268678665161133,-0.29697221517562866,0.1356104612350464,-0.052249837666749954,-0.05405003949999809,-0.25177210569381714},{0.3674010932445526,0.5393692255020142,-0.43259766697883606,0.5886505246162415,1.2700250148773193,-0.29318422079086304,0.8117954134941101,0.42103275656700134,-0.0963444784283638,0.29924193024635315,0.565532386302948,-0.5670692324638367},{-0.54238361120224,-0.3588959872722626,0.12136857956647873,0.6490985751152039,-1.1014167070388794,-0.05692961439490318,-1.049046277999878,-0.3198656737804413,-0.09226645529270172,-0.0938245952129364,-0.6654894948005676,-0.3708052337169647},{0.20843219757080078,-0.5579001307487488,0.17661035060882568,0.813901960849762,-0.3796238601207733,-0.3053494095802307,0.22968146204948425,-0.907736599445343,0.38195258378982544,0.253005713224411,-0.1063975840806961,-0.4159538745880127},{-0.4268219769001007,0.14807680249214172,-0.1487809419631958,0.34838709235191345,-0.608502209186554,-0.11096423864364624,-0.17655576765537262,-0.14630265533924103,0.06641004234552383,-0.28644102811813354,-0.26701757311820984,0.2621002495288849},{-0.22710685431957245,0.6250024437904358,0.12032092362642288,-1.5732885599136353,-0.8776533603668213,0.21570947766304016,-0.5842540264129639,1.1273423433303833,-0.03607335314154625,-0.2998482584953308,0.20748242735862732,-0.19381579756736755},{-0.23630116879940033,0.7419325113296509,-0.10176681727170944,-1.6564061641693115,-0.1437813937664032,0.2007894515991211,0.10368206351995468,1.4546160697937012,-0.33407241106033325,-0.6356425285339355,-0.10475223511457443,0.19143883883953094},{-0.2749607563018799,-0.3604659140110016,0.3367915749549866,0.3481960892677307,0.31196650862693787,-0.3454269766807556,0.2322642058134079,-0.547195553779602,-0.10623909533023834,-0.29434582591056824,0.3439762592315674,-0.03658352792263031},{-0.1561902016401291,-0.8816797733306885,0.12065450847148895,0.8929467797279358,0.8984039425849915,-0.10782212764024734,0.616560697555542,-0.6879527568817139,-0.04295915365219116,0.017961004748940468,-0.1252109706401825,0.263606995344162},{0.17424249649047852,-0.37602701783180237,0.010486403480172157,0.8380191922187805,0.8121013641357422,0.02300005964934826,0.48707762360572815,-0.8281282782554626,-0.5201056599617004,0.22291472554206848,-0.1159767210483551,0.5872529149055481},{0.028800254687666893,0.3783724904060364,0.03940248489379883,-0.9710609316825867,0.14409832656383514,0.33258214592933655,0.1437963992357254,0.2751382291316986,-0.025355225428938866,0.1299450397491455,-0.13488370180130005,1.0774052143096924},{0.2068747580051422,-0.49068790674209595,-0.033179666846990585,1.6817365884780884,0.7798924446105957,-0.023934634402394295,0.578113317489624,-1.206449031829834,-0.010881369933485985,0.72397780418396,-0.08592922985553741,0.06351548433303833},{0.4767966866493225,-0.8842238187789917,0.44798383116722107,0.3643512725830078,0.890142023563385,-0.16372628509998322,0.9111244082450867,-0.37607258558273315,-0.02244541421532631,0.18130122125148773,0.10530820488929749,-0.01815825141966343},{0.5970830321311951,0.4173891842365265,-0.02493251860141754,-1.1356115341186523,0.6950604915618896,0.07286566495895386,0.5560516119003296,1.0489516258239746,0.08931233733892441,-0.19741427898406982,0.6398328542709351,0.1735270470380783},{0.6519035696983337,0.10235248506069183,0.038872916251420975,-0.47990015149116516,1.2637654542922974,0.12570424377918243,1.2431141138076782,0.2550019919872284,-0.23725545406341553,0.06436769664287567,0.7179997563362122,-0.22768262028694153},{-0.022090231999754906,0.4465363621711731,-0.1481897532939911,-0.5680140852928162,0.7030080556869507,0.13336026668548584,0.7479833960533142,0.22801637649536133,0.2568299472332001,-0.08181684464216232,0.12197994440793991,0.43497928977012634},{0.038360413163900375,0.09033946692943573,0.1752534806728363,-1.1925259828567505,-0.826472282409668,-0.06284315884113312,0.0686240941286087,0.5457081198692322,0.18966318666934967,-0.2258910983800888,0.16232243180274963,-0.23981110751628876},{0.29294928908348083,0.9720624685287476,-0.1907600313425064,0.02690628543496132,0.5512442588806152,0.2895466983318329,0.7780558466911316,0.7082982659339905,-0.47721099853515625,0.20411035418510437,0.42885130643844604,-0.12881803512573242},{-0.3270094394683838,-0.78236323595047,0.059539441019296646,1.0261270999908447,0.4084479808807373,-0.09019704908132553,-0.03296013921499252,-0.36416298151016235,-0.2550210952758789,-0.16879619657993317,-0.0016605493146926165,-0.7791166305541992},{0.0715453252196312,-0.4306534230709076,0.46645811200141907,-0.9620965719223022,-0.6817363500595093,-0.17477989196777344,0.1050066128373146,-0.2761751115322113,-0.183842271566391,-0.1689225733280182,-0.021223558112978935,0.43773356080055237},{0.07193075865507126,0.3299785256385803,-0.36634957790374756,0.505765974521637,0.12819482386112213,0.4096212387084961,-0.09351609647274017,0.02529062330722809,-0.0985855907201767,0.38594385981559753,-0.27614980936050415,1.022754430770874},{0.6170215010643005,0.39872750639915466,0.014778416603803635,-1.6637357473373413,0.4880944788455963,0.23191386461257935,0.8726293444633484,0.9853940606117249,0.03801819682121277,-0.1474071592092514,0.5997563004493713,0.1536882072687149},{0.7984964847564697,0.8089501261711121,-0.2992495000362396,-0.6355502605438232,-0.6879949569702148,0.1258874535560608,-0.06465912610292435,0.30852532386779785,0.11019256711006165,0.020612046122550964,-0.06481780111789703,-0.18815495073795319},{-0.1089521124958992,-0.7288051843643188,-0.020248983055353165,1.5068379640579224,1.0354218482971191,0.025815512984991074,0.3902793824672699,-0.9019504189491272,-0.23687075078487396,-0.1176416426897049,0.22067533433437347,0.09503348171710968},{-0.23463129997253418,0.191896453499794,0.09002774208784103,-0.3514307737350464,0.05580267682671547,-0.3027859926223755,-0.16170869767665863,0.1786007285118103,0.02103850431740284,0.003922241274267435,-0.035090960562229156,-0.8379666805267334},{-0.2268638163805008,-0.8119061589241028,-0.09913714975118637,2.1461126804351807,0.34613391757011414,0.08426949381828308,-0.13911212980747223,-1.7945407629013062,0.14558586478233337,1.3286347389221191,0.2703899145126343,-0.19573736190795898},{0.17354236543178558,-0.5033426880836487,0.12373650819063187,0.3438059389591217,-1.131389856338501,-0.24506805837154388,-0.44463950395584106,-0.12915818393230438,-0.0327407605946064,0.05666198208928108,-0.24540534615516663,0.3081701099872589},{-0.5259989500045776,0.11641431599855423,-0.08816647529602051,0.25226643681526184,-0.8265523314476013,-0.29911789298057556,-0.8841792941093445,0.2496120184659958,-0.11902665346860886,0.08969636261463165,-0.39665281772613525,-0.5713080763816833},{0.5070039629936218,-0.8499437570571899,-0.016314905136823654,0.7743239402770996,0.2846510410308838,0.2509172856807709,0.10933233797550201,-0.22934119403362274,0.12105041742324829,0.3928148150444031,0.2595602571964264,-0.8159213066101074},{0.03017226792871952,-0.6389398574829102,0.11229577660560608,0.25354263186454773,0.9739216566085815,0.03432588651776314,1.058845043182373,-0.7006814479827881,-0.035300664603710175,0.2475723773241043,0.3285670280456543,0.7561671733856201},{0.6752565503120422,-0.5961000919342041,0.23538750410079956,0.12827710807323456,0.15547190606594086,0.1287686973810196,0.5115406513214111,-0.05348551645874977,0.034378811717033386,-0.11041820794343948,0.22867600619792938,0.07700218260288239},{-0.2537364065647125,0.6916880011558533,-0.15715165436267853,-0.7726178765296936,-1.371903419494629,0.4314320981502533,-0.778654158115387,0.5497342944145203,0.25721144676208496,-0.24009215831756592,-0.3211263418197632,-0.011873952113091946},{0.6445078253746033,-0.19235759973526,0.09229960292577744,-0.8524621725082397,0.08560576289892197,-0.1784779131412506,0.3731071352958679,-0.5264091491699219,0.36827564239501953,-0.19470492005348206,0.5701414346694946,0.15470851957798004},{0.6263517141342163,0.5011796951293945,-0.08402227610349655,-0.2787536382675171,0.7040757536888123,-0.059354424476623535,0.3756675124168396,0.828392505645752,0.021129315719008446,-0.1354215145111084,0.4068475663661957,-0.9319167137145996},{-0.024356380105018616,1.1221846342086792,-0.09510423243045807,-0.1840321570634842,0.02556433714926243,-0.20070716738700867,0.7777183055877686,-0.062428440898656845,-0.10126406699419022,-0.02558114565908909,0.0290699265897274,0.0675756111741066},{-0.18748509883880615,0.02145998738706112,-0.22475963830947876,0.2658805549144745,-0.9941573739051819,0.17513972520828247,-0.970392644405365,-0.43937182426452637,0.2707516849040985,0.012920865789055824,-0.6745914816856384,-0.051069218665361404},{0.05369070544838905,1.0434216260910034,-0.08445359766483307,0.22870777547359467,-0.8087145090103149,-0.160941481590271,0.01894780993461609,0.5953786969184875,0.10326862335205078,0.18061687052249908,-0.1511724889278412,-0.6471468806266785},{-0.354923278093338,0.011643982492387295,0.02196924388408661,0.5424590110778809,0.6219311356544495,0.21729931235313416,-0.8048572540283203,-0.4064432680606842,-0.2436075657606125,0.22635109722614288,0.02184184081852436,0.6073424220085144},{-0.028449025005102158,1.1650307178497314,-0.2476976215839386,-0.9378036260604858,-0.175711989402771,-0.008801434189081192,0.34818577766418457,1.375967025756836,-0.07181846350431442,-0.3617813289165497,-0.028147799894213676,-0.3984052538871765},{0.04800643026828766,-0.46332427859306335,-0.06661916524171829,1.662856936454773,0.9234021902084351,0.3033820390701294,0.2625648081302643,-0.8918372988700867,-0.21740609407424927,0.2981971204280853,0.04728258401155472,0.5153664350509644},{-0.6649012565612793,-0.0482591912150383,0.09250561147928238,-0.3567344546318054,-1.1169792413711548,-0.033599451184272766,-0.6989021897315979,-0.041198812425136566,-0.1690223515033722,-0.02499007061123848,-0.48957234621047974,0.30161699652671814},{0.45269954204559326,0.5447264313697815,-0.182697132229805,-0.19297827780246735,1.1294254064559937,0.24704307317733765,0.9307602047920227,0.5509310364723206,-0.07892889529466629,0.1917794793844223,0.12981019914150238,0.05071546882390976},{-0.9309670329093933,-0.5073137879371643,-0.06516356021165848,1.425682544708252,1.0844296216964722,-0.2084149867296219,0.1319885551929474,-0.6623671054840088,-0.28317269682884216,-0.297194242477417,0.08525547385215759,-0.044824887067079544},{0.9513241052627563,0.41279488801956177,0.07168632745742798,-1.0023455619812012,-0.1320275217294693,-0.04539503902196884,0.532487690448761,0.6683136820793152,0.512465238571167,-0.21875712275505066,-0.0032169721089303493,-0.40089690685272217},{-0.12533719837665558,0.6755351424217224,-0.1464945524930954,-0.3589899241924286,1.148589015007019,0.2753339409828186,0.4074973165988922,0.3194241523742676,-0.36721932888031006,0.11086462438106537,-0.014921150170266628,-0.34662097692489624},{-1.1389461755752563,0.0821334645152092,-0.14628416299819946,0.09451410919427872,-0.747589647769928,0.029135651886463165,-0.978591799736023,-0.05957433581352234,0.051153842359781265,0.04230242967605591,-0.3638882040977478,0.7516312599182129},{-0.4159494638442993,-0.2618676424026489,0.13665129244327545,-0.0412072092294693,-0.7067998051643372,-0.31641045212745667,-1.0014899969100952,0.0847412571310997,-0.14770853519439697,0.11973157525062561,-0.4367462992668152,-0.21462219953536987},{0.5209233164787292,-0.8787127733230591,0.059240102767944336,-0.5603556632995605,0.5712229013442993,-0.23121492564678192,0.15700340270996094,0.3850622773170471,0.12897337973117828,0.25937163829803467,0.04146410897374153,-0.7654737234115601},{-0.25102725625038147,0.4563702344894409,-0.06615320593118668,-1.001857042312622,1.2180215120315552,0.5660150051116943,0.906831681728363,-0.06377732753753662,-0.28857889771461487,-0.08472725003957748,0.33223289251327515,0.7544986009597778},{-0.004960884340107441,0.39780259132385254,-0.2143082320690155,-0.17079271376132965,-1.158605933189392,0.16448073089122772,-0.9000738859176636,0.14680488407611847,0.1809297651052475,0.12219560891389847,-0.2520897388458252,-0.09476705640554428},{-0.2075960487127304,-1.131196141242981,0.28092074394226074,-0.939542293548584,-0.6003906726837158,-0.15085744857788086,-0.17459358274936676,-0.44682377576828003,0.2603648602962494,0.028450801968574524,-0.2252422422170639,0.13357748091220856},{-0.7317702174186707,-0.40493571758270264,-0.08531209081411362,0.7586625814437866,-0.5991972088813782,0.46860310435295105,-1.349805474281311,-0.20936515927314758,-0.10671597719192505,-0.003096353029832244,-0.19195733964443207,-0.14669150114059448}};
static const float mlp_extractor_policy_net_2_weight[64][64] = {{-0.05317871645092964,-0.06833920627832413,0.11017993092536926,-0.058385901153087616,-0.22512096166610718,0.2519812285900116,-0.6501848697662354,0.13150398433208466,0.329423189163208,0.3033507466316223,-0.028365397825837135,0.0829707607626915,-0.10551352798938751,0.04030763730406761,-0.2513236701488495,-0.7231531143188477,0.2036818563938141,0.07770583778619766,0.4474067687988281,0.12617039680480957,0.2420317679643631,0.12868362665176392,0.23338571190834045,0.16983547806739807,-0.1407499462366104,-0.010726789943873882,0.24562683701515198,0.1287214607000351,-0.13790805637836456,0.2675631642341614,0.11085233092308044,0.272044837474823,0.15180593729019165,0.03782884404063225,0.031487949192523956,0.28240635991096497,-0.11822576820850372,-0.19665300846099854,-0.04829872399568558,-0.06852540373802185,-0.2672472298145294,0.11391430348157883,-0.06601168215274811,-0.2833283543586731,-0.46274513006210327,-0.23414558172225952,0.3997802138328552,0.16990384459495544,-0.2712232768535614,0.022517956793308258,0.39812013506889343,0.20945723354816437,0.04918563365936279,0.056222159415483475,0.3017498254776001,-0.26654255390167236,0.22171597182750702,0.4204446077346802,-0.41655898094177246,-0.09233599901199341,0.4501688778400421,0.019482837989926338,-0.3477008640766144,-0.11981109529733658},{-0.0751754492521286,-0.7208128571510315,-0.17840617895126343,-0.1316496580839157,0.3083690404891968,0.3929622769355774,0.3919112980365753,-0.12402310967445374,0.08652829378843307,-0.06519167870283127,0.41772377490997314,-0.05698008090257645,0.211473748087883,-0.07511883229017258,0.2508389353752136,0.6015966534614563,-0.22829629480838776,-0.0068968115374445915,0.037157196551561356,0.2917296886444092,0.18735170364379883,-0.034471295773983,-0.47212401032447815,-0.3265306353569031,-0.20082511007785797,0.2000848650932312,-0.01944139413535595,0.2160860300064087,-0.11108755320310593,-0.46700066328048706,0.3915741741657257,0.15409190952777863,-0.4208351671695709,-0.3354051113128662,-0.014379013329744339,0.2709428668022156,-0.2170064002275467,-0.012414677068591118,0.008887879550457,0.22518938779830933,0.32491374015808105,-0.29334771633148193,-0.0924820676445961,-0.08801911771297455,0.17895834147930145,0.3034457564353943,-0.33550897240638733,0.15408378839492798,-0.030947575345635414,-0.21235965192317963,0.11865045130252838,-0.26787495613098145,0.07684189081192017,-0.17684663832187653,-0.06940401345491409,0.2053910344839096,-0.25668540596961975,0.024510536342859268,0.011704585514962673,-0.05379902198910713,-0.3801688849925995,-0.03128224238753319,-0.03908177465200424,-0.2803422510623932},{-0.10898302495479584,-0.06152958795428276,-0.2173301875591278,-0.18285802006721497,0.2232591062784195,-0.1804545819759369,0.016775719821453094,-0.07568836957216263,0.23977960646152496,0.3887133300304413,-0.10800718516111374,-0.49406176805496216,-0.006947122048586607,0.00014962561544962227,-0.04319828003644943,-0.1904250532388687,-0.039895884692668915,0.07554448395967484,0.028341377153992653,0.27829107642173767,0.3676721453666687,-0.03606892749667168,-0.06476226449012756,-0.04545930400490761,0.026636289432644844,-0.04264939948916435,-0.12012338638305664,0.10195785015821457,-0.0775587186217308,-0.3199405074119568,-0.04824714735150337,0.14835941791534424,0.1372002810239792,-0.3734842836856842,0.13961730897426605,0.7138209342956543,0.07253929227590561,-0.6397719979286194,0.07004241645336151,-0.21574877202510834,-0.2867451608181,0.35391488671302795,-0.07312808185815811,0.03744284808635712,0.023531557992100716,-0.07828573137521744,-0.4911379814147949,-0.012943685986101627,-0.09314931929111481,-0.2735385596752167,0.0809330865740776,-0.026798216626048088,-0.32210081815719604,-0.1379394382238388,-0.14647360146045685,-0.49464061856269836,-0.25217998027801514,0.004982373211532831,-0.11075668781995773,0.12514770030975342,-0.29646602272987366,-0.3458031117916107,0.07267963886260986,0.025603946298360825},{-0.16586431860923767,-0.12662576138973236,-0.1275736540555954,-0.13210932910442352,-0.00586671382188797,0.09555938839912415,0.08175365626811981,0.15752388536930084,0.10082362592220306,-0.17195558547973633,-0.045995455235242844,-0.09045076370239258,0.2977556586265564,-0.07463191449642181,-0.05552823096513748,0.5119236707687378,-0.03336619958281517,0.12134350836277008,-0.46303316950798035,-0.2416042983531952,-0.0986616387963295,0.035793058574199677,-0.24844832718372345,-0.23270194232463837,0.14587518572807312,-0.1586693525314331,0.01931159757077694,-0.18018445372581482,0.298301100730896,-0.307351291179657,0.13951973617076874,0.0607590526342392,-0.1314547210931778,0.1020343080163002,-0.027092987671494484,0.27965307235717773,-0.142722025513649,-0.13962732255458832,-0.04821600392460823,-0.2504853308200836,0.42347410321235657,-0.10464666783809662,0.20946520566940308,0.26756802201271057,0.2835075855255127,-0.3794759511947632,0.08102649450302124,-0.16856776177883148,-0.24456501007080078,0.24255816638469696,-0.17700521647930145,-0.12537074089050293,0.09395147860050201,-0.42082998156547546,-0.3112456798553467,0.036213263869285583,-0.5232561230659485,-0.473221093416214,-0.22243069112300873,0.24981552362442017,-0.6913202404975891,-0.044246383011341095,0.3607022166252136,-0.44254252314567566},{-0.1054932102560997,-0.21759358048439026,-0.09509122371673584,-0.03171391412615776,-0.3608953356742859,0.226816788315773,0.25794318318367004,0.19921942055225372,0.14298498630523682,-0.15055981278419495,-0.07020237296819687,0.17288033664226532,-0.1300598680973053,-0.21060006320476532,0.07526570558547974,0.4805101454257965,0.2641792595386505,-0.11566856503486633,-0.371419757604599,0.1646929681301117,0.4354274570941925,-0.3389919400215149,-0.110408253967762,0.2166798859834671,0.09358345717191696,-0.016172248870134354,0.4385005235671997,-0.028979932889342308,0.13309335708618164,-0.03692309185862541,-0.1594444215297699,0.21452811360359192,-0.3180023431777954,0.3833247125148773,-0.26663386821746826,0.3021649122238159,0.05880320817232132,0.0826578438282013,0.09148453921079636,-0.0157160647213459,0.06968133896589279,-0.17174558341503143,0.10902263969182968,0.07227355241775513,0.13909320533275604,0.14827857911586761,-0.35118478536605835,-0.04675992578268051,0.19479034841060638,-0.2829679548740387,-0.1814030259847641,0.013609339483082294,-0.20633172988891602,0.1486547291278839,0.12968242168426514,0.26147139072418213,-0.3177172839641571,-0.5491629242897034,-0.1800791323184967,0.1885242909193039,-0.25385281443595886,-0.22999686002731323,0.27730050683021545,0.17153184115886688},{0.17398925125598907,-0.21663428843021393,0.1601036787033081,0.15481610596179962,-0.5499765872955322,0.16125258803367615,0.21752317249774933,0.21534065902233124,0.1088048666715622,0.05747271701693535,-0.31105566024780273,-0.16742996871471405,0.11939365416765213,-0.019982531666755676,-0.27303624153137207,0.175371453166008,-0.31237849593162537,0.33669307827949524,-0.34014803171157837,0.01668279990553856,0.19252951443195343,0.020463867112994194,0.180723637342453,-0.2869431972503662,0.2874000668525696,0.21407391130924225,0.2482578456401825,-0.238066166639328,-0.0594414621591568,-0.00767391687259078,-0.08160308748483658,-0.03633556514978409,0.05247478559613228,0.35885506868362427,0.07936528325080872,-0.059844970703125,-0.05190920829772949,0.39832380414009094,0.05350906774401665,-0.10888910293579102,0.07344668358564377,0.05591440945863724,0.3592202067375183,-0.2203124761581421,0.5156856775283813,0.01155836321413517,-0.07003975659608841,-0.18522563576698303,-0.17554287612438202,0.15453049540519714,-0.18747158348560333,-0.16806524991989136,-0.3076721429824829,0.2207953929901123,-0.3744531571865082,0.2072836011648178,-0.26075416803359985,0.1996418684720993,-0.32565316557884216,0.2879524230957031,0.029024364426732063,-0.32665830850601196,0.6426315903663635,-0.11184713989496231},{0.04054497554898262,-0.1389153152704239,-0.047472283244132996,-0.25856131315231323,-0.18055924773216248,0.05906621739268303,0.05880536884069443,-0.1327867954969406,-0.159657821059227,0.2154974788427353,-0.05953340232372284,-0.11462684720754623,0.3644804358482361,-0.05212521553039551,-0.2422858625650406,-0.0027026135940104723,-0.023467496037483215,0.09597815573215485,-0.21386970579624176,0.420397013425827,0.05792742967605591,-0.6149126291275024,-0.5419231057167053,-0.21057337522506714,0.36956366896629333,-0.1508939117193222,-0.3322344422340393,-0.03647834062576294,0.11365151405334473,-0.19313663244247437,0.5352193713188171,0.04127630963921547,-0.34362322092056274,-0.024761086329817772,-0.20832370221614838,0.21632979810237885,-0.0483393669128418,-0.1557137817144394,-0.023955482989549637,0.023749906569719315,-0.06598085910081863,0.06879483163356781,0.2920677363872528,-0.15299028158187866,0.16036449372768402,0.3191450536251068,-0.1560944765806198,-0.04723728075623512,0.31154653429985046,-0.2708018124103546,-0.25988537073135376,-0.25169065594673157,-0.3085203766822815,-0.18558044731616974,0.2744414806365967,0.2767045199871063,-0.049571502953767776,-0.1411392092704773,-0.14907541871070862,0.07748180627822876,-0.13760414719581604,0.1902417093515396,0.06404145061969757,-0.3583720028400421},{0.007906737737357616,-0.2765481173992157,-0.020093433558940887,-0.4276444911956787,0.2613406479358673,-0.15259787440299988,0.07919728755950928,-0.003194752149283886,-0.06639299541711807,-0.6575753092765808,-0.011225465685129166,0.11174660176038742,0.23897682130336761,-0.24303178489208221,0.33423903584480286,0.3278568685054779,-0.010869188234210014,0.09660658240318298,-0.22954340279102325,-0.12026726454496384,-0.057157572358846664,-0.10374400019645691,0.08251098543405533,0.33432936668395996,0.01551992166787386,0.01780257560312748,-0.3531630039215088,-0.18066029250621796,0.3203759491443634,-0.3618428409099579,0.061789777129888535,0.04499945044517517,0.01743946596980095,-0.10048498213291168,0.10668781399726868,0.27864012122154236,-0.22732245922088623,0.6402826905250549,0.15833725035190582,-0.0025015391875058413,-0.2285843789577484,-0.2401346117258072,0.24097709357738495,-0.06029098480939865,0.09473880380392075,-0.06162843108177185,0.13837307691574097,0.05093338340520859,-0.07234406471252441,-0.12021757662296295,0.010328982956707478,-0.21719901263713837,-0.1514064520597458,-0.267463356256485,-0.43327030539512634,0.2469310313463211,-0.18912029266357422,-0.15777119994163513,0.12576381862163544,0.05657726526260376,-0.038969311863183975,-0.29250389337539673,0.5101411938667297,0.4910444915294647},{-0.16839627921581268,-0.3081458806991577,0.04801703989505768,-0.005032678600400686,-0.09039412438869476,0.05055433139204979,0.3727972209453583,-0.26034533977508545,0.06740874797105789,0.25122568011283875,0.05862146243453026,0.11088094860315323,0.4710398316383362,0.19565583765506744,0.08304314315319061,0.3574926555156708,-0.24009296298027039,0.11329403519630432,0.014188622124493122,-0.13443659245967865,0.20126624405384064,-0.15507259964942932,-0.40440937876701355,-0.20291471481323242,0.30318766832351685,-0.07658485323190689,0.03989994525909424,-0.22987228631973267,-0.20173560082912445,-0.05727589875459671,0.04012204334139824,0.2749823331832886,-0.12363823503255844,0.3310519754886627,0.07921218872070312,0.22261843085289001,0.4201519787311554,-0.5406933426856995,0.12379105389118195,0.047821853309869766,-0.14922772347927094,0.03643310070037842,0.12891601026058197,-0.1517636477947235,-0.0162222757935524,0.5303441882133484,0.03541425243020058,-0.23308643698692322,0.014699071645736694,-0.006749172229319811,0.4709630608558655,0.17111362516880035,0.1512540727853775,-0.09530941396951675,0.2691415548324585,-0.14087527990341187,-0.02628832496702671,-0.08232451230287552,0.028132276609539986,-0.08372701704502106,-0.015339750796556473,-0.2944927215576172,-0.13644413650035858,0.10694275796413422},{-0.2665363550186157,-0.12927581369876862,-0.11045534908771515,-0.1020844578742981,0.21900734305381775,0.06880182772874832,0.4197159707546234,-0.10255881398916245,-0.4205334186553955,-0.31272849440574646,0.11067558825016022,0.09455840289592743,0.5042589902877808,0.16141852736473083,-0.11036942154169083,0.18662752211093903,0.24546602368354797,0.30425727367401123,-0.2306194305419922,0.37643247842788696,0.06729812920093536,-0.1526096612215042,-0.22556400299072266,0.011652919463813305,-0.20705197751522064,-0.27515140175819397,-0.19407977163791656,-0.20827502012252808,-0.13208340108394623,0.1297997236251831,-0.23029860854148865,-0.24978114664554596,-0.20924413204193115,-0.13815928995609283,0.0872691348195076,-0.11030074954032898,-0.10052397847175598,0.12601184844970703,0.03489945828914642,-0.006741023622453213,0.39168840646743774,-0.0449090339243412,-0.12432718276977539,-0.014444533735513687,-0.13511613011360168,0.07999294251203537,0.23310518264770508,-0.04237392917275429,-0.022769222036004066,-0.29913240671157837,0.26497307419776917,-0.05514703318476677,0.33321860432624817,0.1497519612312317,-0.2408185601234436,0.14355336129665375,0.1588471680879593,-0.08053665608167648,-0.03313317894935608,0.11754300445318222,-0.26436570286750793,0.20100335776805878,0.1904226839542389,-0.10889280587434769},{-0.2044939398765564,0.05665411800146103,-0.2620922029018402,0.0021228990517556667,0.4124859869480133,0.032221660017967224,-0.11438338458538055,0.011308924295008183,-0.12391039729118347,-0.20496304333209991,-0.004142336547374725,-0.27819252014160156,0.142859548330307,-0.344357430934906,0.047365427017211914,-0.16609148681163788,0.21154160797595978,0.2791552245616913,0.010510500520467758,-0.32917916774749756,0.16823513805866241,-0.16650021076202393,0.1518760770559311,0.15557348728179932,0.22932620346546173,0.036209069192409515,-0.08210486173629761,0.20913565158843994,0.0005324849626049399,-0.11720029264688492,-0.05533448979258537,0.46929842233657837,0.2610037922859192,-0.3031269311904907,-0.008581905625760555,-0.21884001791477203,0.323269784450531,0.32592469453811646,-0.04271550849080086,-0.29592472314834595,0.07254482805728912,0.010851371102035046,-0.008677664212882519,-0.10000308603048325,0.24937704205513,-0.44986382126808167,-0.11491575092077255,0.17604832351207733,0.1378212422132492,0.1408516764640808,-0.09921688586473465,0.1264025717973709,0.40404456853866577,-0.12334582209587097,0.0038307367358356714,0.1857513040304184,-0.6480978727340698,0.2669183909893036,0.15875716507434845,-0.2088637351989746,-0.14681918919086456,0.16678205132484436,0.42737525701522827,0.13636468350887299},{-0.4441627562046051,-0.6756969690322876,-0.09297965466976166,-0.187849760055542,-0.3000675141811371,0.15046541392803192,0.5153235793113708,-0.43556874990463257,0.7654719352722168,0.8367257714271545,-0.42675983905792236,-0.5069690346717834,0.5771409273147583,0.2629099190235138,0.08491590619087219,0.5595954060554504,-0.0641094520688057,-1.3827189207077026,-1.1771544218063354,1.1600791215896606,1.1177552938461304,0.8209749460220337,-0.6247512698173523,1.4653598070144653,0.8627830147743225,-0.7560513019561768,-0.0014249520609155297,-0.20697061717510223,-0.5713582038879395,-0.5111799240112305,0.3564298450946808,0.040182165801525116,0.16588930785655975,-1.0596097707748413,-0.5331993699073792,1.3020068407058716,-0.010704589076340199,1.4996033906936646,0.11243148893117905,-0.22038665413856506,0.5171969532966614,0.787024736404419,0.2979576587677002,-0.736143171787262,0.08540374785661697,-0.5376819372177124,-0.31408488750457764,-0.12884224951267242,-0.2795587182044983,0.2739053964614868,-1.375638723373413,0.93018639087677,-0.5806617140769958,-0.5267277956008911,0.9112486243247986,-0.3681298792362213,-0.23813214898109436,-0.27087506651878357,0.0486658550798893,-0.22777405381202698,-0.32681024074554443,-0.9570287466049194,0.0770614892244339,0.007383434567600489},{-0.16456151008605957,-0.32291847467422485,0.2778603434562683,0.14987961947917938,0.044729139655828476,0.2706664800643921,-0.2471671849489212,-0.13891538977622986,-0.3314049541950226,-0.05873753875494003,0.5579030513763428,0.3325798213481903,-0.05808613449335098,0.184738889336586,0.11058676242828369,-0.01852639578282833,0.3530944287776947,0.038583263754844666,0.22623960673809052,0.09907756745815277,-0.1366266906261444,-0.20570960640907288,-0.12539418041706085,-0.19367967545986176,-0.0017273958073928952,-0.08480823040008545,-0.18178695440292358,-0.2099209874868393,-0.044609688222408295,0.05818679556250572,0.06020693853497505,-0.10009673237800598,0.056216154247522354,0.2964353561401367,0.2074420154094696,0.025928368791937828,0.3299103081226349,0.30416542291641235,0.04042160138487816,0.10669916123151779,-0.05903853476047516,-0.2761600613594055,-0.2091623991727829,0.1521836519241333,0.05618555098772049,0.12909983098506927,-0.06933417171239853,-0.07090096175670624,0.15976235270500183,-0.04770712926983833,-0.1534489244222641,-0.32891011238098145,0.3277188837528229,-0.02860843390226364,-0.10723505914211273,-0.009816544130444527,0.3890135586261749,-0.09063941985368729,0.2475384622812271,0.41362208127975464,-0.44306063652038574,-0.0727902203798294,-0.053832635283470154,-0.004954618401825428},{0.41980114579200745,-0.20093660056591034,0.24359558522701263,-0.04410964250564575,-0.10518968105316162,-0.20958851277828217,0.014532421715557575,-0.0622507706284523,-0.28852757811546326,0.46254676580429077,0.2459401786327362,0.09199147671461105,-0.15927504003047943,0.06192326545715332,-0.024226512759923935,-0.19304703176021576,0.4141484498977661,0.010739579796791077,0.08375092595815659,-0.1899687498807907,-0.3009348213672638,0.010374894365668297,-0.5403912663459778,0.005265166983008385,0.2902027666568756,0.04572964459657669,0.2801630198955536,-0.09643866121768951,-0.3633747398853302,0.3606490194797516,-0.000245407602051273,-0.11784575134515762,-0.2548035979270935,-0.2895464301109314,-0.18936753273010254,0.2975129187107086,0.05152016505599022,-0.26613765954971313,0.051157377660274506,0.3424655795097351,0.21147823333740234,-0.3242025077342987,-0.31320711970329285,-0.06338940560817719,0.041993509978055954,0.288871705532074,0.06031770631670952,0.16645695269107819,0.045648567378520966,0.09653401374816895,0.3867528736591339,0.25348570942878723,-0.18384726345539093,0.42882853746414185,0.04207580164074898,0.0442093200981617,0.7102085947990417,0.01700342446565628,-0.15655362606048584,0.07122719287872314,0.001964729744940996,-0.1821475476026535,-0.4134787619113922,-0.025402996689081192},{0.026429736986756325,0.020791757851839066,-0.20106488466262817,0.21333318948745728,0.18087738752365112,-0.20420525968074799,-0.11827367544174194,-0.736880362033844,-0.01289924792945385,-0.33358141779899597,0.5350475907325745,0.23305808007717133,0.048849523067474365,0.11600635945796967,0.014053604565560818,-0.3213037848472595,0.1312924176454544,0.272419273853302,0.4141857922077179,-0.21106933057308197,-0.1118319109082222,0.018761878833174706,-0.4869955778121948,-0.13233689963817596,-0.40674862265586853,-0.14892110228538513,-0.4533994197845459,0.2549934387207031,0.12262199819087982,-0.26100271940231323,-0.21797572076320648,0.17659971117973328,-0.007000335492193699,-0.3516765832901001,-0.17858733236789703,-0.20483316481113434,-0.06103869900107384,-0.47448059916496277,0.02056904137134552,0.4774988889694214,-0.28305092453956604,-0.4487616717815399,0.0983252227306366,0.2510191798210144,-0.2660667598247528,0.17408743500709534,0.18782909214496613,0.32607877254486084,0.25418660044670105,0.14882420003414154,0.10501465201377869,-0.10347103327512741,0.15983714163303375,0.06310458481311798,0.2255977988243103,-0.021921753883361816,0.11061430722475052,0.2640094757080078,-0.056645601987838745,-0.1778711974620819,-0.4975178837776184,0.2674727141857147,0.13075624406337738,-0.07029327750205994},{-0.017954112961888313,-0.18162153661251068,0.25456228852272034,-0.15780381858348846,-0.24366384744644165,-0.15307344496250153,0.4010103940963745,0.13073955476284027,-0.12321373075246811,0.012866315431892872,-0.017437772825360298,-0.38732630014419556,-0.2723596394062042,0.19739864766597748,0.0006769677856937051,-0.3070286512374878,0.13001298904418945,-0.06204365938901901,0.12192898243665695,0.06362717598676682,-0.11531979590654373,-0.1592067927122116,-0.05262754485011101,0.11365116387605667,-0.4653560221195221,0.11383429169654846,0.07075503468513489,-0.047882892191410065,0.23288074135780334,0.2524559199810028,-0.1083146408200264,0.14759083092212677,-0.0024199362378567457,0.07758211344480515,-0.06743761152029037,-0.01551900990307331,0.11540604382753372,0.32806822657585144,0.22466939687728882,0.3564335107803345,0.33683454990386963,-0.001412146375514567,0.1541510671377182,-0.02829737402498722,-0.1019091084599495,0.13233575224876404,-0.29752594232559204,-0.5027108788490295,-0.14765021204948425,-0.023352699354290962,0.2501559257507324,-0.039106812328100204,0.22195939719676971,0.26656192541122437,0.12308638542890549,-0.052000779658555984,0.29640311002731323,-0.06133783981204033,-0.2229892760515213,-0.06840847432613373,-0.13211533427238464,-0.057632748037576675,-0.19530844688415527,0.19461464881896973},{-0.3632756471633911,0.23552516102790833,0.033085718750953674,0.20587985217571259,-0.22366470098495483,-0.052428632974624634,-0.09300258010625839,0.07926660776138306,0.009932905435562134,-0.03526882827281952,0.1898464411497116,0.1927563101053238,-0.12438822537660599,0.19673225283622742,0.025968434289097786,-0.2651471495628357,-0.1370709091424942,-0.1472293883562088,0.1839619278907776,0.010227689519524574,-0.09786380082368851,0.04521588236093521,-0.12174272537231445,-0.1971450001001358,-0.11762174218893051,0.028800591826438904,-0.5754155516624451,0.08516643196344376,0.05237262696027756,0.5484633445739746,0.1554953008890152,0.2072216421365738,0.2240115851163864,-0.3893584907054901,0.199312224984169,0.09449560195207596,-0.09512123465538025,-0.39988380670547485,-0.26854845881462097,0.0353492833673954,0.3230946660041809,-0.46607476472854614,-0.007525757886469364,-0.05696608126163483,-0.10768355429172516,0.2559029161930084,-0.25624561309814453,0.3163529336452484,0.03385451063513756,-0.18114148080348969,0.30493631958961487,0.21586960554122925,-0.012678432278335094,0.2576292157173157,0.493418425321579,-0.23249761760234833,0.3315031826496124,0.2018982321023941,-0.11464755982160568,0.10028567165136337,0.11133154481649399,-0.17205685377120972,-0.3299998641014099,0.14821891486644745},{0.013168342411518097,-0.10913927853107452,0.39962059259414673,-0.37910401821136475,-0.30178457498550415,0.13555102050304413,0.007002653554081917,0.2917862832546234,0.07524693012237549,0.23514187335968018,-0.17797765135765076,-0.18162578344345093,0.30295076966285706,0.2509731352329254,-0.16028845310211182,0.015582782216370106,-0.04815692454576492,0.3115561306476593,0.10062074661254883,0.1411648839712143,-0.09886714816093445,-0.0411086231470108,0.03659392520785332,0.0577310211956501,0.055330969393253326,0.037319622933864594,0.3949955999851227,0.3312010169029236,0.3453734517097473,-0.046308863908052444,0.08584382385015488,-0.03487202525138855,0.15841007232666016,0.21371006965637207,-0.03534121811389923,0.2215733379125595,-0.10947920382022858,-0.2930324971675873,0.04554261639714241,-0.06954667717218399,-0.040567707270383835,0.15532387793064117,0.06150977686047554,0.03579327464103699,0.20209018886089325,-0.24611137807369232,-0.23835276067256927,-0.06982042640447617,-0.09867221117019653,0.0486154779791832,-0.16610586643218994,0.6150181293487549,-0.27956199645996094,0.4682711660861969,0.10950677841901779,-0.08234824240207672,-0.12254251539707184,-0.27878493070602417,0.2945695221424103,0.11061538010835648,0.5116927027702332,-0.3218514621257782,-0.03375191241502762,-0.29041588306427},{-0.21021611988544464,0.1878075748682022,-0.07472484558820724,-0.1273750364780426,0.02321322076022625,-0.19342952966690063,-0.22913211584091187,-0.3864597976207733,-0.02851911447942257,-0.11782996356487274,-0.2403402328491211,-0.05042637884616852,-0.22052238881587982,-0.00660160044208169,0.03030884452164173,-0.1565416306257248,0.02999293990433216,0.02045118249952793,0.24141468107700348,0.03992089629173279,-0.10726058483123779,-0.05098625645041466,0.48529288172721863,-0.053643036633729935,-0.07517977803945541,-0.12317341566085815,-0.0282779298722744,0.35944005846977234,-0.16126149892807007,-0.03698688745498657,-0.37467628717422485,0.1668728142976761,-0.11321371793746948,0.09756790846586227,0.10115040838718414,-0.22824913263320923,0.03421110287308693,0.1976909041404724,-0.6005262732505798,0.16367687284946442,-0.18560610711574554,0.13939538598060608,0.06487482786178589,0.24923856556415558,-0.06479249149560928,-0.3125002682209015,-0.1314249485731125,0.2290877252817154,0.07452201098203659,0.3245582580566406,0.03277048096060753,0.004872426390647888,0.368537962436676,0.04918636754155159,0.031558260321617126,-0.22655931115150452,0.2973804473876953,0.13947369158267975,-0.2835495173931122,-0.2654874324798584,0.42742419242858887,-0.3829057812690735,-0.23270303010940552,-0.14017485082149506},{-0.17437367141246796,-0.44124096632003784,-0.6662780046463013,-0.18360954523086548,0.3144907057285309,0.2272123247385025,0.3802197575569153,-0.03329576924443245,0.2989487946033478,-0.0566006600856781,0.03800227493047714,0.14730577170848846,0.0924651026725769,-0.026412008330225945,0.3169001638889313,0.09369529038667679,0.012726045213639736,-0.13429057598114014,-0.18006063997745514,0.10743629932403564,0.29575756192207336,-0.25005877017974854,-0.06917086243629456,-0.10650479793548584,0.2919529378414154,-0.36422696709632874,-0.3572034537792206,-0.4242475628852844,0.4044845402240753,-0.5211657285690308,-0.18182846903800964,-0.02459678240120411,-0.09745106101036072,-0.6022450923919678,-0.035631146281957626,0.0599251426756382,0.14925053715705872,-0.09821569174528122,0.1852845549583435,0.09406641870737076,0.26845860481262207,-0.2179335206747055,-0.004409163258969784,0.28706905245780945,0.05205848813056946,0.062767393887043,0.0919324979186058,0.3052482306957245,-0.17350000143051147,0.2606399953365326,-0.373685359954834,-0.11738276481628418,0.22052602469921112,-0.24732764065265656,-0.1770019382238388,-0.21239981055259705,-0.10455606132745743,0.20830591022968292,0.17517054080963135,-0.058439936488866806,-0.1856321394443512,0.06721202284097672,0.28698673844337463,0.019830461591482162},{0.22531966865062714,-0.09856002032756805,-0.35535311698913574,-0.1778617650270462,-0.2919682562351227,0.10727307945489883,-0.07541526108980179,0.39540454745292664,-0.0691443383693695,0.08371364325284958,-0.1387496143579483,-0.24230770766735077,0.2138577252626419,0.08343210071325302,-0.08719746023416519,0.39500337839126587,0.1834680140018463,-0.06288184970617294,-0.20200154185295105,0.4162490963935852,-0.09250426292419434,-0.0048203542828559875,0.046416547149419785,-0.4262067675590515,0.4762544631958008,0.4687082767486572,0.013924753293395042,0.22207170724868774,0.2598688006401062,-0.6402598023414612,0.12518228590488434,0.14790672063827515,-0.028380639851093292,0.3021218180656433,-0.34116873145103455,-0.0336938202381134,0.09725982695817947,-0.35417604446411133,-0.010245784185826778,-0.2960408926010132,0.14085470139980316,0.25249022245407104,0.3874587416648865,-0.21711497008800507,-0.03710756078362465,-0.2506333887577057,0.18125726282596588,-0.04449693113565445,-0.03736242651939392,-0.4299105405807495,-0.08673781156539917,-0.07958665490150452,-0.17340901494026184,-0.10138291865587234,0.26010844111442566,0.0695781335234642,-0.30083903670310974,0.03323006629943848,0.0467049703001976,-0.3274518847465515,-0.4179973304271698,-0.5987886786460876,0.3480805456638336,-0.06338950991630554},{-0.1456911861896515,0.11412085592746735,0.09003632515668869,-0.36836764216423035,0.016882041469216347,0.11571004986763,0.2709246873855591,-0.10106184333562851,0.25148409605026245,0.13080883026123047,-0.09818635135889053,-0.1290028989315033,-0.23589177429676056,0.2474704086780548,0.1542631834745407,-0.1340005099773407,0.09426437318325043,-0.11116886138916016,0.5182942152023315,-0.21127071976661682,-0.0644763708114624,0.0891813114285469,0.20388223230838776,0.023673363029956818,-0.046464040875434875,-0.041649457067251205,-0.2356724888086319,-0.28810518980026245,-0.5590059161186218,0.21759425103664398,0.20521998405456543,-0.023680487647652626,0.41463086009025574,-0.1228700578212738,-0.42160218954086304,0.44812682271003723,0.021908944472670555,-0.29831454157829285,-0.02806016430258751,-0.34873780608177185,0.03131726384162903,0.036632027477025986,0.17465411126613617,0.016346493735909462,-0.06470223516225815,-0.11629550904035568,-0.19065964221954346,0.10854856669902802,0.14821134507656097,-0.014766985550522804,0.1018347218632698,0.08390488475561142,-0.06594172865152359,-0.10968354344367981,-0.017625754699110985,0.18565689027309418,0.21696192026138306,0.13452190160751343,-0.17110979557037354,-0.1793449968099594,0.23405992984771729,-0.14176301658153534,-0.2528702914714813,-0.19410346448421478},{-0.012325726449489594,-0.18655388057231903,-0.24060635268688202,-0.1596309095621109,-0.05618064105510712,0.05226733908057213,-0.03809326887130737,0.030455321073532104,0.10465144366025925,0.11835372447967529,0.1457250565290451,-0.3369932174682617,0.41663500666618347,-0.13044026494026184,-0.24427621066570282,0.479390025138855,0.2820611596107483,-0.16817797720432281,-0.093354232609272,0.30261096358299255,-0.13916277885437012,0.07482009381055832,-0.1768043488264084,0.12435265630483627,-0.14465054869651794,-0.1395488828420639,-0.23070575296878815,0.2781033217906952,-0.06629534810781479,-0.1258022040128708,-0.1127050518989563,0.30866044759750366,-0.1637422740459442,-0.12890127301216125,-0.08165320008993149,0.16645902395248413,0.3571694493293762,-0.024387463927268982,-0.29662254452705383,-0.1610090583562851,0.28174757957458496,-0.18305014073848724,0.17329493165016174,0.22872421145439148,0.23918277025222778,-0.029876746237277985,-0.21367676556110382,-0.23273210227489471,-0.20231318473815918,0.08102414757013321,-0.13131895661354065,-0.019411137327551842,-0.4222647249698639,-0.6498461961746216,0.13517513871192932,-0.3181942105293274,-0.2771800756454468,0.47779375314712524,0.10031194984912872,0.001696063787676394,0.15369227528572083,0.12104140967130661,0.18855997920036316,0.07725891470909119},{0.13112179934978485,0.3511867821216583,0.4240604043006897,-0.24678948521614075,0.15204469859600067,0.006707890424877405,-0.21257922053337097,-0.07616457343101501,-0.05169476196169853,-0.14282454550266266,0.13289205729961395,0.2550297677516937,0.016118248924613,-0.06196874752640724,-0.08085599541664124,0.3416517972946167,-0.21513088047504425,0.014311909675598145,-0.14415788650512695,0.09443069994449615,0.10980324447154999,-0.17859645187854767,0.18675310909748077,0.12953035533428192,0.1978435218334198,0.3261822462081909,0.21751804649829865,-0.2791389226913452,0.03396967798471451,-0.3020995557308197,-0.35705655813217163,0.07300316542387009,-0.20221972465515137,0.14983493089675903,0.057050611823797226,-0.0665779635310173,0.226974755525589,-0.4215601086616516,-0.1539258360862732,0.2440924048423767,0.40619733929634094,0.10715941339731216,0.028438979759812355,-0.4004761576652527,0.05779383331537247,-0.3153936266899109,-0.02642921917140484,0.030896414071321487,0.07618322223424911,-0.09266234934329987,-0.3372257351875305,0.09159339964389801,-0.1691168248653412,0.05688822641968727,-0.2640923857688904,0.01974915899336338,-0.23123835027217865,0.17239239811897278,-0.11077768355607986,0.06402768194675446,-0.2814657390117645,-0.0392942801117897,0.35631808638572693,-0.22978100180625916},{-0.1418299376964569,0.4354299008846283,-0.04567093402147293,-0.013114307075738907,0.3917168378829956,-0.17868757247924805,-0.3070390224456787,-0.2038295567035675,0.3730770945549011,0.18471454083919525,-0.11403024196624756,-0.13617278635501862,0.022379446774721146,-0.2753484547138214,-0.051469746977090836,-0.3830762505531311,0.18710856139659882,-0.1465207040309906,0.18964442610740662,-0.1150597631931305,-0.0869513601064682,0.210174098610878,0.09923291951417923,-0.5386145710945129,-0.1691833883523941,0.31100374460220337,-0.43103864789009094,0.08801169693470001,-0.014122751541435719,-0.07681813836097717,-0.2929653823375702,0.08646465092897415,0.27595391869544983,0.2921951711177826,-0.24272415041923523,0.3037988543510437,-0.12173040211200714,0.1030726209282875,-0.24570339918136597,-0.00038304319605231285,-0.07239577174186707,0.155704066157341,-0.2382579892873764,-0.02378096990287304,-0.2468847781419754,-0.13453394174575806,-0.0415990836918354,0.1095670610666275,-0.10001688450574875,0.14848345518112183,0.13166101276874542,0.3431718051433563,0.2882184088230133,0.1811748743057251,0.4173080623149872,-0.11616373807191849,0.23033519089221954,0.4196208417415619,-0.0062771691009402275,0.1927390843629837,0.4340222179889679,0.35635727643966675,-0.19055700302124023,0.3054429590702057},{-0.059111882001161575,-0.03820749744772911,-0.31741824746131897,0.0458836667239666,0.12611155211925507,-0.15777207911014557,-0.20597849786281586,0.029417209327220917,-0.2527502477169037,-0.30474820733070374,-0.06594503670930862,0.25917503237724304,-0.09520751982927322,-0.12928219139575958,0.06670837104320526,-0.11516055464744568,-0.009511085227131844,-0.1691123992204666,-0.08759013563394547,-0.20282618701457977,-0.30406343936920166,0.18652887642383575,0.46165937185287476,0.5931507349014282,0.07160183042287827,0.21586643159389496,-0.11059983819723129,0.11352112889289856,0.16981352865695953,0.3229290246963501,-0.06637582927942276,-0.2629270851612091,0.2722260653972626,0.5219799280166626,-0.12333708256483078,-0.08659821003675461,-0.03388269245624542,0.22260089218616486,-0.0057809920981526375,-0.02620137482881546,-0.16104978322982788,0.0860833004117012,-0.018137836828827858,-0.39121174812316895,0.19518639147281647,0.1110415831208229,-0.15676353871822357,0.03417680040001869,-0.04885651543736458,0.35717424750328064,-0.057784389704465866,-0.07993925362825394,0.3430032730102539,0.3270391523838043,-0.3541190028190613,-0.3483235836029053,0.05469827353954315,0.0014845640398561954,-0.03202683478593826,-0.10650818794965744,0.2022079974412918,0.42170748114585876,0.23431849479675293,-0.2523261308670044},{0.27969875931739807,-0.5846884846687317,0.24097585678100586,-0.2562679350376129,-0.22412225604057312,-0.010318566113710403,-0.16352301836013794,-0.1850188970565796,-0.3505735695362091,-0.05036942660808563,-0.24676255881786346,0.05158611387014389,-0.2426234781742096,0.10354717075824738,-0.126601442694664,0.14383761584758759,-0.31332066655158997,-0.012199503369629383,-0.08992452174425125,0.2648563086986542,0.020728575065732002,-0.1533260941505432,-0.439139723777771,-0.10880082845687866,0.17933611571788788,0.15132765471935272,0.3224645256996155,-0.05443769320845604,0.10090314596891403,-0.1426285356283188,0.07636546343564987,0.034835465252399445,0.18826279044151306,-0.07962653040885925,0.09107989072799683,-0.04027726501226425,0.3413427174091339,-0.07380528002977371,-0.17159482836723328,-0.06034025549888611,0.5049630403518677,-0.2262861579656601,-0.18379589915275574,-0.06074261665344238,-0.13478070497512817,0.5625462532043457,0.014299137517809868,-0.36126112937927246,0.13327105343341827,-0.09675640612840652,0.31736376881599426,-0.011322165839374065,-0.17828543484210968,-0.017473354935646057,0.23062008619308472,0.2541426718235016,0.2725902497768402,-0.640596866607666,-0.2613008916378021,0.299150288105011,-0.05275949463248253,0.01592857763171196,-0.04062587767839432,-0.1218370571732521},{0.014022489078342915,-0.38350701332092285,0.24411579966545105,-0.49661752581596375,-0.03574085980653763,-0.10888681560754776,0.04670622572302818,0.06543417274951935,-0.058964528143405914,0.3548770546913147,-0.2637346684932709,0.03839980065822601,0.18857690691947937,0.2549061179161072,0.01853512041270733,0.1652514487504959,0.31921759247779846,-0.2292652130126953,-0.24665890634059906,0.184108167886734,0.5196847915649414,0.2560843527317047,-0.26850801706314087,-0.27657774090766907,-0.14173486828804016,-0.1340683400630951,-0.049089398235082626,-0.24668611586093903,-0.02776147611439228,0.00978029053658247,0.46441805362701416,0.07342453300952911,-0.3099319040775299,-0.1785585880279541,-0.14224688708782196,0.04775034636259079,-0.09107156842947006,-0.4357949495315552,-0.18786337971687317,0.09726358205080032,-0.047359634190797806,-0.25896450877189636,0.07909701019525528,-0.021885082125663757,-0.12117096781730652,0.04986219480633736,-0.23688636720180511,0.1985192447900772,0.2824523150920868,0.14702914655208588,0.15803247690200806,-0.031185312196612358,-0.20157890021800995,-0.05008256435394287,-0.031015940010547638,-0.13482870161533356,-0.24134346842765808,-0.17672330141067505,-0.11868085712194443,-0.11068909615278244,-0.23615983128547668,-0.0803157314658165,-0.04383859410881996,0.28550323843955994},{-0.047277893871068954,0.05584235116839409,0.015604207292199135,0.07391522824764252,0.07554250210523605,0.10946443676948547,-0.23221439123153687,0.32225510478019714,-0.035084132105112076,-0.014433631673455238,0.12276984751224518,-0.11207939684391022,-0.10612952709197998,0.1727696657180786,-0.060123540461063385,-0.12275195121765137,-0.3324629068374634,-0.1434805989265442,-0.5166327953338623,-0.6176915168762207,-0.25273436307907104,-0.20468436181545258,0.1582518070936203,0.20977847278118134,-0.19854965806007385,-0.18423601984977722,-0.0481938011944294,0.26964327692985535,0.06847243010997772,0.0066388980485498905,-0.08948671817779541,-0.17830835282802582,-0.20748160779476166,0.19213318824768066,0.07207981497049332,-0.07800961285829544,0.14688216149806976,0.3516497015953064,-0.012583006173372269,0.25163379311561584,0.12350424379110336,-0.05142350122332573,-0.0015651665162295103,-0.11051148176193237,-0.17977887392044067,0.10870902240276337,0.1615884155035019,0.055571503937244415,0.2998850643634796,-0.12164045870304108,-0.22939860820770264,0.24953019618988037,0.33511945605278015,-0.2190292775630951,-0.48171886801719666,0.19860544800758362,0.23855526745319366,0.020018838346004486,0.034196458756923676,0.04090501740574837,0.09767339378595352,0.02403957210481167,0.33584633469581604,0.023247836157679558},{0.5377342700958252,0.2265811413526535,0.145281583070755,0.00240720110014081,-0.4084762930870056,-0.005960376001894474,0.2551429867744446,0.6611355543136597,-0.39359092712402344,-0.1768043339252472,-0.049369148910045624,0.14704537391662598,0.20160913467407227,0.1793316900730133,0.14112524688243866,0.053376276046037674,-0.18010123074054718,0.19460365176200867,-0.03338199481368065,0.02899203449487686,0.1993601769208908,-0.0012660097563639283,-0.13447628915309906,0.10255292803049088,0.19856011867523193,0.2632370591163635,0.2816483974456787,0.2378990799188614,-0.1370680183172226,0.0016659133834764361,-0.22772759199142456,-0.016571687534451485,0.17820791900157928,0.15694688260555267,-0.2646681070327759,0.14755967259407043,-0.010289641097187996,0.14495371282100677,-0.26243314146995544,-0.07489070296287537,-0.11944139748811722,0.12271471321582794,0.22376082837581635,0.04574715346097946,-0.26381608843803406,0.16486087441444397,-0.03943257033824921,-0.10574180632829666,0.01293012872338295,0.03734947368502617,-0.2169504314661026,-0.08519790321588516,0.12416306138038635,-0.05000327154994011,-0.1810566931962967,-0.0379977822303772,-0.1202104240655899,-0.17149579524993896,-0.20503991842269897,0.46095624566078186,0.16394536197185516,-0.08493264019489288,-0.07436191290616989,-0.022385967895388603},{-0.32902348041534424,0.10649550706148148,-0.052066635340452194,-0.24369817972183228,0.0035181003622710705,-0.18916282057762146,0.30736103653907776,-0.49491551518440247,-0.24832022190093994,0.19302524626255035,0.2113770693540573,0.270594984292984,0.10206577926874161,0.15241213142871857,0.12700492143630981,0.11903125047683716,-0.12700361013412476,-0.013981429859995842,-0.04959530010819435,0.002608551876619458,-0.20108690857887268,-0.10806594043970108,0.03681369870901108,0.03592027723789215,-0.11308053135871887,-0.06838775426149368,0.3408729135990143,0.19318634271621704,0.24875563383102417,0.3619885742664337,0.29439061880111694,0.13523775339126587,0.189435675740242,-0.0018873356748372316,-0.049262892454862595,-0.10727509111166,0.21720388531684875,0.19976551830768585,0.12138108164072037,0.3163505792617798,0.20110446214675903,-0.3053929805755615,-0.25649553537368774,0.06892061978578568,-0.1891164779663086,0.5328298807144165,0.4104105234146118,0.18524742126464844,-0.030459068715572357,0.08199547976255417,-0.1605587899684906,-0.27794766426086426,0.01594521477818489,0.09200049191713333,-0.28844594955444336,0.35985785722732544,0.2447582632303238,0.06670915335416794,-0.007165576331317425,0.369813472032547,-0.43421247601509094,0.12619717419147491,-0.27865007519721985,0.13997817039489746},{0.2002624124288559,0.009374231100082397,0.16348932683467865,-0.10731363296508789,-0.17349539697170258,-0.16532497107982635,0.10037842392921448,0.27852752804756165,0.12332513928413391,0.0449700802564621,-0.048470109701156616,-0.052195075899362564,0.11590030789375305,-0.17782822251319885,-0.0436658151447773,0.47223961353302,0.3102811574935913,-0.18595533072948456,-0.32251429557800293,0.24026639759540558,0.01916540414094925,-0.05149606615304947,0.09049331396818161,-0.41131821274757385,-0.031010737642645836,-0.059045128524303436,0.15244033932685852,0.15544924139976501,0.2096000760793686,-0.6115981340408325,-0.17498916387557983,0.39453575015068054,-0.1331072896718979,-0.29951146245002747,0.11913629621267319,0.17831896245479584,0.38126036524772644,-0.33271878957748413,-0.10163997858762741,-0.035736095160245895,-0.2767474949359894,-0.11708066612482071,0.3404635488986969,-0.6256166100502014,0.30745264887809753,-0.028669875115156174,0.20719394087791443,-0.2530793845653534,-0.02247295342385769,-0.21907973289489746,-0.22291570901870728,-0.2941875755786896,0.1628299057483673,-0.057449668645858765,0.10196056216955185,0.25371676683425903,-0.42123597860336304,-0.22064734995365143,0.007746577728539705,0.17764076590538025,0.022317254915833473,0.006665083114057779,0.25407272577285767,-0.4939917027950287},{-0.013083754107356071,0.22197027504444122,-0.17255233228206635,0.16218702495098114,0.12311240285634995,-0.05158716440200806,-0.31998616456985474,0.1024535596370697,-0.1396041065454483,0.05679197981953621,-0.06761179864406586,0.3522801101207733,-0.00872823316603899,-0.10020165145397186,0.1472579389810562,0.3687979578971863,-0.017484260722994804,0.44525402784347534,-0.6406500339508057,-0.22251392900943756,-0.00014730672410223633,-0.0003888575010932982,0.3480944335460663,0.032643768936395645,-0.12138190120458603,0.16297662258148193,-0.09060808271169662,-0.17505864799022675,0.23181648552417755,-0.14429226517677307,-0.258694052696228,0.32118502259254456,0.20232269167900085,0.0684279352426529,-0.26375052332878113,-0.40221792459487915,0.09916594624519348,0.3292880654335022,0.14123933017253876,-0.018060525879263878,-0.08126257359981537,0.17626908421516418,-0.04227089509367943,0.21305371820926666,-0.153691828250885,-0.09040863066911697,-0.2742271423339844,0.11398470401763916,-0.18446525931358337,-0.0934489294886589,-0.1301514357328415,-0.22018815577030182,0.16287143528461456,-0.1165342926979065,-0.44566842913627625,0.28161635994911194,-0.19629546999931335,0.05161435902118683,0.3908197581768036,-0.08529721945524216,0.13813744485378265,0.16191478073596954,0.7136564254760742,-0.45906776189804077},{0.5356500744819641,0.06110846623778343,0.2779207229614258,0.17263858020305634,0.015987908467650414,-0.148540198802948,-0.15004578232765198,0.1819801777601242,0.1848062425851822,-0.016050972044467926,-0.3181636333465576,-0.030604669824242592,0.22679412364959717,-0.1728362888097763,0.1206452026963234,0.12382331490516663,-0.21555066108703613,-0.28184404969215393,0.013888911344110966,0.21060603857040405,0.0196957066655159,0.06224175915122032,0.3378029763698578,0.09040506184101105,0.16658234596252441,-0.32526883482933044,-0.2825717628002167,0.2751747667789459,0.04392455145716667,-0.27989187836647034,-0.11276762932538986,0.5679727792739868,0.01190907508134842,0.43357378244400024,-0.08891286700963974,-0.32379230856895447,0.16898265480995178,-0.013756657019257545,0.1998928189277649,-0.2766762673854828,0.04605652391910553,0.10076875984668732,0.02924562431871891,0.0808640569448471,0.20083537697792053,-0.30136391520500183,0.02386624552309513,0.19216288626194,-0.06377008557319641,-0.23791208863258362,0.0358704999089241,0.17106188833713531,0.058637771755456924,0.2525613605976105,-0.5039937496185303,0.04783958941698074,-0.23461677134037018,-0.017036860808730125,-0.15869992971420288,0.1108495220541954,-0.14225369691848755,0.0036322143860161304,0.17448870837688446,-0.24923335015773773},{0.21327075362205505,0.27046483755111694,-0.5143139362335205,0.025941504165530205,0.3959522247314453,0.07651723176240921,-0.39177027344703674,0.10433781892061234,0.30812549591064453,0.19800588488578796,-0.031758252531290054,0.13445475697517395,0.0665668323636055,-0.15931464731693268,0.37140169739723206,0.099556565284729,-0.13416418433189392,0.18711541593074799,0.10022327303886414,0.1821584403514862,-0.19527937471866608,-0.15920817852020264,-0.10779619961977005,-0.07549799233675003,-0.37732359766960144,-0.2577182948589325,0.03616408258676529,0.002028690418228507,0.11833816766738892,0.16658492386341095,-0.13205622136592865,-0.15646329522132874,0.47178250551223755,0.061233341693878174,-0.06341923773288727,-0.3820997476577759,-0.10286282002925873,-0.01765727438032627,0.03984290733933449,-0.2287376970052719,-0.0563071072101593,0.15715976059436798,0.2707265615463257,-0.2726547420024872,0.09037859737873077,-0.3775615990161896,-0.06543479859828949,-0.12064500153064728,0.4214763045310974,0.3612743318080902,-0.17655101418495178,0.15325132012367249,0.17996397614479065,-0.1099313423037529,-0.13906998932361603,-0.052334584295749664,-0.06981489062309265,0.40583065152168274,0.03443267568945885,0.04581880569458008,0.09497956186532974,0.012598027475178242,0.2318018525838852,0.11489945650100708},{0.30328547954559326,-0.10063421726226807,0.2936550974845886,0.037486832588911057,0.08770125359296799,0.03505481779575348,0.12386010587215424,0.16127720475196838,-0.12167027592658997,0.17987768352031708,0.13661880791187286,-0.0767955332994461,-0.21472381055355072,0.23750457167625427,-0.3423152565956116,-0.25149765610694885,0.14511217176914215,0.2972118854522705,-0.07989576458930969,0.08731331676244736,-0.2613483965396881,0.24745266139507294,0.3281264007091522,-0.045806676149368286,0.26952245831489563,0.019467094913125038,0.20062144100666046,0.09253054857254028,0.16386334598064423,0.1588943898677826,-0.23779930174350739,0.04091232270002365,-0.1401815414428711,0.3154503107070923,0.20475423336029053,-0.05074060708284378,-0.15071606636047363,-0.05965665355324745,-0.3632054030895233,-0.16085374355316162,0.08478759974241257,-0.08085092157125473,0.12970301508903503,-0.23581179976463318,-0.17852120101451874,0.5869577527046204,0.0050702583976089954,0.0017920356476679444,0.2667021155357361,0.04471488296985626,-0.013755652122199535,-0.060075607150793076,-0.0042299628257751465,0.23289863765239716,-0.022620420902967453,0.18784236907958984,-0.11859135329723358,-0.16714660823345184,0.09244229644536972,0.10282442718744278,-0.0876656323671341,-0.023723995313048363,-0.18705256283283234,0.09384118020534515},{-0.1670798361301422,0.2719113528728485,0.5278380513191223,0.16608630120754242,0.12219598889350891,0.24440181255340576,-0.020373724400997162,0.08535599708557129,0.021426571533083916,0.10541483014822006,0.12390077859163284,0.17448706924915314,-0.45728132128715515,0.30379483103752136,-0.087247334420681,-0.12740427255630493,-0.11788331717252731,0.1938253790140152,-0.13040079176425934,0.14531567692756653,-0.08442960679531097,-0.04667576029896736,-0.261930912733078,0.07488789409399033,0.2442033439874649,0.18157121539115906,0.07198894768953323,0.2138032615184784,0.10146280378103256,0.07167259603738785,0.021872516721487045,-0.30082738399505615,0.14765094220638275,0.1594986766576767,-0.361493855714798,-0.2883531153202057,0.3093266785144806,0.035243235528469086,-0.07687520980834961,0.023194264620542526,-0.20143228769302368,-0.07882453501224518,0.07863953709602356,-0.046889644116163254,0.06325336545705795,-0.057460665702819824,0.13239367306232452,-0.12743262946605682,-0.2157975286245346,0.019844098016619682,0.15058274567127228,-0.07118312269449234,0.1356731653213501,0.2483234405517578,-0.4340706765651703,-0.01775394193828106,0.038898713886737823,-0.1822318583726883,-0.18500927090644836,-0.15126290917396545,0.28656789660453796,0.23157446086406708,-0.1430993676185608,0.3100140392780304},{0.03620555251836777,-0.26337170600891113,-0.36921176314353943,0.24509191513061523,0.3712898790836334,0.2147369384765625,0.14287175238132477,-0.1455150991678238,-0.1964581459760666,-0.6411128044128418,-0.1569412499666214,-0.10085698962211609,-0.05828683823347092,0.2375829815864563,0.054346635937690735,0.33095452189445496,-0.05193103477358818,0.1927482783794403,-0.35481682419776917,-0.12532120943069458,-0.19793887436389923,-0.3776523172855377,-0.04331508278846741,-0.15830495953559875,-0.2183830887079239,-0.14494135975837708,-0.12137320637702942,-0.0650487020611763,0.024147605523467064,0.006335807964205742,0.12211550027132034,-0.17761005461215973,-0.3535614311695099,0.07503115385770798,-0.2001008689403534,0.012890099547803402,0.22334915399551392,0.04291427880525589,0.38240525126457214,-0.3136852979660034,0.06981237232685089,-0.07422114908695221,0.029843769967556,-0.10187403112649918,-0.16366815567016602,-0.05142908915877342,-0.16304679214954376,0.2670722007751465,-0.4291551113128662,0.4065227210521698,-0.22673065960407257,-0.22235138714313507,-0.1562138944864273,0.057584263384342194,-0.13374856114387512,0.27405980229377747,-0.2492479532957077,0.029116209596395493,0.05571333318948746,0.481972336769104,-0.11317747086286545,-0.03469683974981308,0.12528815865516663,0.183124378323555},{-0.015755143016576767,0.03371572494506836,0.1940995305776596,-0.05779792368412018,-0.2248106300830841,0.1285497546195984,0.2757703363895416,-0.35034796595573425,0.019335638731718063,-0.06697919964790344,0.06767426431179047,0.029975710436701775,-0.03002149425446987,0.5963799953460693,0.4239615499973297,-0.8742743730545044,0.3151281774044037,-0.119271419942379,0.09592816978693008,0.008729074150323868,0.011527578346431255,0.21873019635677338,-0.3352169692516327,-0.09103807061910629,-0.12122061103582382,-0.1636216640472412,0.3208179771900177,-0.092720627784729,-0.03415018692612648,0.11317601054906845,0.06292245537042618,-0.16775251924991608,0.006482022348791361,0.20763257145881653,0.01945761777460575,0.05950554460287094,-0.06579425930976868,-0.05534612387418747,-0.3032931387424469,-0.08011072874069214,0.0887758731842041,-0.3181084394454956,-0.36239418387413025,-0.20196332037448883,0.009125147946178913,0.46297386288642883,-0.2382661998271942,-0.21970915794372559,-0.2097642868757248,-0.221991628408432,0.3993230164051056,0.2963773012161255,-0.4961961805820465,-0.08527496457099915,0.14807401597499847,0.026349645107984543,0.3698471188545227,0.0031566955149173737,-0.15927180647850037,-0.056561242789030075,0.1126675084233284,-0.18593817949295044,-0.5453097224235535,-0.07328341156244278},{-0.27599239349365234,-0.40233632922172546,-0.24736174941062927,-0.4080856144428253,-0.20702138543128967,0.16256342828273773,-0.11507143080234528,-0.07864250987768173,-0.10916777700185776,-0.16121909022331238,0.01827143132686615,-0.31843695044517517,-0.009476195089519024,-0.45018336176872253,0.436652809381485,0.2861080765724182,-0.2840101718902588,0.2161857932806015,-0.2614690363407135,0.15769816935062408,0.007129271049052477,0.21353769302368164,-0.10210103541612625,-0.14446505904197693,-0.11318015307188034,-0.4932730793952942,-0.3036227226257324,-0.1427178978919983,0.002927021821960807,-0.3872110843658447,-0.17013812065124512,0.21740221977233887,-0.24596616625785828,-0.34147605299949646,-0.2746930718421936,0.18431097269058228,-0.036587733775377274,-0.3710647225379944,-0.17823627591133118,-0.16451337933540344,-0.21116343140602112,0.16823427379131317,0.1683281660079956,0.12352070957422256,0.37581372261047363,-0.19926390051841736,0.04894254356622696,0.2221812903881073,-0.14588625729084015,-0.19841329753398895,-0.1639503687620163,-0.10055825859308243,0.13827817142009735,-0.17354470491409302,0.12698149681091309,0.14457394182682037,-0.21365982294082642,0.3079121708869934,0.3134971857070923,-0.06556043773889542,-0.49088287353515625,0.2249949872493744,0.1811331808567047,0.23087403178215027},{0.7516675591468811,0.3454524278640747,-0.0036599207669496536,-0.1673957109451294,-0.3432379364967346,0.07721976190805435,-0.4058084487915039,0.08499892801046371,-0.05914320424199104,0.05332183837890625,0.3512290418148041,-0.4656628966331482,0.06373059004545212,-0.20400883257389069,0.02315269410610199,-0.08462122827768326,0.372658908367157,0.25722816586494446,0.1479777991771698,-0.1618550717830658,-0.179803729057312,-0.3220718502998352,0.2243519425392151,-0.026111148297786713,-0.5964270234107971,0.3808499872684479,-0.36929744482040405,0.007073467597365379,0.37646937370300293,0.12387221306562424,0.21550144255161285,-0.4153892993927002,0.06869243085384369,0.24847421050071716,0.2730620205402374,-0.19915446639060974,0.15116481482982635,-0.04357393458485603,-0.287371426820755,-0.343589723110199,-0.2501281797885895,0.23455910384655,0.014282522723078728,0.1849990040063858,0.3134256601333618,0.33878451585769653,0.43148544430732727,0.3873235881328583,-0.2668003439903259,-0.2197961062192917,-0.019477689638733864,-0.14884714782238007,0.10512281209230423,0.10846441984176636,0.3694891333580017,0.08146116882562637,-0.2913336157798767,-0.17710456252098083,-0.5387409329414368,-0.40292081236839294,0.3573586344718933,-0.05920692905783653,-0.04869846627116203,-0.05379024147987366},{-0.10269799828529358,-0.11060458421707153,-0.11773412674665451,0.540330171585083,0.33138468861579895,0.024714430794119835,-0.3416261672973633,-0.10200101137161255,0.06784974038600922,0.13673709332942963,0.09470729529857635,0.18437032401561737,0.09400968998670578,0.1795996129512787,0.14372794330120087,-0.2510066628456116,0.1410328894853592,0.2662503123283386,0.23547035455703735,-0.1909630298614502,-0.28391727805137634,-0.10042772442102432,0.2957846522331238,-0.1902896761894226,-0.21066558361053467,0.04320972040295601,-0.17072293162345886,-0.09016457200050354,-0.06475076824426651,0.49923691153526306,-0.10481251776218414,-0.034523215144872665,0.295891672372818,-0.22042720019817352,-0.23212744295597076,0.14161694049835205,-0.08687815070152283,0.020669465884566307,-0.25591400265693665,0.4627739191055298,-0.04645182937383652,0.10440243035554886,-0.0964788869023323,0.08339302241802216,-0.023333726450800896,0.13023090362548828,0.23340751230716705,-0.14186514914035797,0.10875613987445831,0.05118726193904877,0.10158640891313553,0.25375601649284363,-0.3711055815219879,0.13155587017536163,0.06171819195151329,-0.12630870938301086,0.3810462951660156,-0.04954870790243149,-0.31183385848999023,-0.2946436405181885,0.019504830241203308,0.285280704498291,-0.7526326179504395,0.18945005536079407},{0.3040775954723358,0.39358705282211304,-0.04894379898905754,0.3800264596939087,-0.3520861566066742,0.2632172107696533,-0.34184330701828003,-0.07201538234949112,-0.6459642052650452,0.1869051456451416,-0.4266890585422516,0.023458443582057953,0.20999552309513092,0.2173069417476654,-0.11833261698484421,-0.6781363487243652,0.03683220595121384,0.2631983757019043,0.7361010313034058,-0.05869224667549133,-0.12368926405906677,0.020037487149238586,0.12558093667030334,-0.6467490792274475,-0.47077488899230957,0.4694994390010834,0.2324894219636917,0.09661778062582016,0.04043233394622803,0.014872695319354534,-0.18166619539260864,-0.36662235856056213,-0.03068239986896515,0.27409642934799194,0.0067441645078361034,0.13487115502357483,0.044483963400125504,-0.867344319820404,0.1573754996061325,0.17961400747299194,-0.21618525683879852,-0.3190454840660095,-0.0025055089499801397,0.06857780367136002,0.234670028090477,0.17181676626205444,0.1644975244998932,0.12889723479747772,0.20354345440864563,-0.18092039227485657,0.4594297707080841,-0.4866836667060852,0.003170226700603962,0.07279688119888306,-0.13447564840316772,0.10592557489871979,0.01230886671692133,-0.26027825474739075,0.024039966985583305,-0.2229602038860321,0.4262678623199463,0.04406551644206047,-0.42585062980651855,0.11323311924934387},{0.12279067933559418,0.12246845662593842,0.43378499150276184,-0.2267317920923233,-0.6187862753868103,0.03363748639822006,-0.1947275847196579,0.32933560013771057,0.40140780806541443,-0.2658276855945587,-0.11010683327913284,-0.03619128838181496,0.2481844127178192,0.15698350965976715,-0.2621147334575653,-0.08958707004785538,-0.11480608582496643,-0.0932098850607872,-0.0025450079701840878,0.08670343458652496,-0.23351041972637177,0.08573897182941437,0.03944598510861397,-0.28251951932907104,0.1962404102087021,0.33756548166275024,0.5567382574081421,0.06622259318828583,0.09944896399974823,0.42018187046051025,-0.3488411009311676,-0.23134766519069672,-0.20449301600456238,0.07674110680818558,-0.2076808363199234,0.10073272138834,0.03738001734018326,0.15271341800689697,0.40147531032562256,-0.6255661845207214,-0.05332953482866287,0.4088856875896454,-0.09870671480894089,-0.14082643389701843,0.04197380691766739,0.2731125056743622,-0.1924712210893631,-0.07402145862579346,0.20823046565055847,0.12259981781244278,-0.024659983813762665,-0.043154507875442505,-0.20914192497730255,0.12083394080400467,-0.3502914011478424,-0.0251853596419096,-0.08320656418800354,-0.3710632026195526,-0.16931897401809692,-0.2121909260749817,0.18966728448867798,-0.14999063313007355,0.06275582313537598,-0.007973702624440193},{0.01957518793642521,0.3690742552280426,0.03178843855857849,0.20939768850803375,-0.24802474677562714,0.27297407388687134,-0.054339006543159485,-0.21009600162506104,-0.23394712805747986,-0.12888766825199127,-0.023993439972400665,-0.038236744701862335,-0.41075676679611206,0.09624333679676056,-0.10988491028547287,0.1482277363538742,0.08449140936136246,-0.1754475235939026,0.2108989655971527,-0.630791962146759,0.034253038465976715,-0.1340826004743576,0.10523246973752975,0.1306605339050293,0.006066087633371353,-0.06243516132235527,0.2112351804971695,-0.11973865330219269,0.12741202116012573,0.1121831014752388,-0.08159913122653961,0.10756518691778183,0.20039525628089905,0.17534901201725006,0.16330131888389587,-0.1096191555261612,-0.3390461206436157,0.45208755135536194,-0.117865189909935,-0.24126139283180237,-0.03686986863613129,0.08052095025777817,-0.04661732539534569,-0.1883656084537506,-0.4246264696121216,-0.03688400238752365,0.05675540119409561,-0.20529524981975555,0.09020871669054031,0.14836229383945465,0.010441198945045471,0.15293684601783752,-0.11156446486711502,0.5481956005096436,-0.7033424973487854,-0.2869139611721039,0.4025171995162964,0.07161442190408707,0.17402076721191406,-0.07303943485021591,0.1979072242975235,0.35650086402893066,-0.1791246086359024,0.052199896425008774},{-0.06716892868280411,0.2550877332687378,0.2259400486946106,-0.20493236184120178,-0.019665349274873734,0.07298607379198074,-0.35260069370269775,0.4075809121131897,-0.09022454172372818,0.3611704409122467,-0.5569337606430054,-0.023432092741131783,-0.1439090222120285,0.0019564731046557426,-0.2986340820789337,0.09190154075622559,-0.048006363213062286,0.0013737843837589025,0.34012359380722046,-0.07704903930425644,0.2877200245857239,0.34994858503341675,0.06650350242853165,0.22102609276771545,0.07771720737218857,0.3913625478744507,-0.04144776985049248,0.048983510583639145,0.16663573682308197,0.007169464603066444,-0.38061171770095825,0.0951821431517601,-0.24620097875595093,0.18789060413837433,-0.09393838047981262,-0.1541893631219864,-0.06901292502880096,0.06850661337375641,0.2476595789194107,-0.4220496714115143,-0.20606692135334015,0.10767914354801178,0.1591433733701706,-0.1427696943283081,0.1847383826971054,0.18130896985530853,0.04355049505829811,-0.4214768409729004,-0.09835636615753174,-0.11160869896411896,-0.34106123447418213,0.4304659366607666,-0.05264370143413544,0.07129660248756409,0.0007112386520020664,0.07538017630577087,-0.17448820173740387,0.09544481337070465,-0.26862818002700806,0.09089118242263794,0.1642448902130127,-0.41710364818573,-0.23497368395328522,-0.2915371358394623},{0.10149261355400085,-0.15886135399341583,0.04010782390832901,0.21226857602596283,-0.05255792289972305,-0.2963390052318573,0.014224180951714516,-0.12175850570201874,-0.022385839372873306,-0.2276717871427536,-0.35393190383911133,0.315196692943573,-0.16742174327373505,0.306851327419281,0.21571944653987885,0.18015903234481812,0.22158516943454742,0.38007137179374695,-0.06010230630636215,-0.18824276328086853,-0.6487380862236023,-0.22288009524345398,-0.22429707646369934,0.11243876069784164,-0.12277133017778397,0.14426760375499725,0.1707458794116974,-0.10535649210214615,0.08139558136463165,0.06190976873040199,0.2893295884132385,-0.06162679195404053,-0.24124300479888916,-0.05016959831118584,0.26243510842323303,-0.08198633044958115,0.07025053352117538,0.5482901334762573,-0.11276962608098984,0.02010841853916645,0.07554088532924652,-0.08086993545293808,-0.18062596023082733,0.07568176835775375,0.03835904970765114,0.2414846569299698,0.1508851796388626,0.08070894330739975,0.11590960621833801,-0.48476430773735046,-0.3848899304866791,-0.1284407079219818,0.34562966227531433,0.01029980182647705,-0.051483236253261566,-0.2334720343351364,-0.06839065253734589,0.1754724085330963,-0.12388558685779572,0.04732578992843628,0.013562481850385666,0.36440587043762207,0.04760023579001427,0.15553376078605652},{-0.27692458033561707,-0.7993043661117554,0.0305800698697567,0.15186820924282074,-0.07733882963657379,-0.3720899522304535,0.38908225297927856,-0.37508952617645264,-0.15774524211883545,0.08020637929439545,0.4279593527317047,-0.12287770956754684,0.03925596550107002,-0.20170171558856964,0.060581110417842865,0.09010457247495651,0.08676186949014664,-0.17362509667873383,-0.009052345529198647,0.17404069006443024,0.11490093171596527,-0.24422059953212738,-0.30172955989837646,-0.17353731393814087,-0.12851287424564362,0.09239897131919861,-0.13082438707351685,-0.23955020308494568,-0.014955354854464531,-0.16955043375492096,0.08737587928771973,0.0170582365244627,-0.12262076884508133,-0.21707576513290405,-0.3090498447418213,-0.24136774241924286,-0.03390122205018997,-0.19133146107196808,-0.08145405352115631,0.03116060607135296,0.17300090193748474,-0.1847357302904129,0.23915041983127594,-0.07726773619651794,-0.1310127079486847,0.11763663589954376,0.17756065726280212,0.3386143743991852,-0.04858509451150894,-0.27266281843185425,-0.1741245836019516,0.25399351119995117,0.010899880900979042,-0.48727869987487793,-0.10426481068134308,-0.039485566318035126,-0.24471604824066162,-0.2585502862930298,0.14632916450500488,0.36392077803611755,-0.23026947677135468,-0.03522692993283272,0.16872510313987732,-0.11473467200994492},{0.39253413677215576,0.043136946856975555,0.2450566291809082,-0.3274819254875183,-0.5002717971801758,0.09582813084125519,-0.0721035972237587,0.10972898453474045,0.05894336476922035,0.34604740142822266,0.04665723070502281,0.2838366627693176,-0.09527929127216339,0.3059448003768921,-0.410999596118927,-0.10456747561693192,0.016296355053782463,0.0024111114908009768,-0.26162979006767273,-0.05153919756412506,0.03132408857345581,0.002054257318377495,-0.11227307468652725,0.10432525724172592,0.22340424358844757,0.17455188930034637,0.24238508939743042,0.2281235158443451,-0.21658870577812195,0.07405310124158859,0.04030866175889969,0.3733324408531189,-0.2329043745994568,0.2383337914943695,-0.22592751681804657,-0.06126699224114418,-0.31982582807540894,0.03493945300579071,0.02499021217226982,-0.19230787456035614,0.5793396234512329,0.4197382628917694,0.11369849741458893,-0.4088064730167389,0.4286821782588959,0.2989211678504944,0.01510748639702797,-0.5825271606445312,-0.3144460618495941,-0.18321123719215393,-0.1398429125547409,-0.16099317371845245,-0.06329721212387085,0.1471877545118332,0.053332529962062836,-0.13291926681995392,-0.15900784730911255,-0.5722634196281433,-0.05753207951784134,0.38504958152770996,0.33997926115989685,-0.45791375637054443,-0.12737789750099182,0.1486344039440155},{-0.07363009452819824,0.06086473912000656,0.08850422501564026,0.2568003237247467,0.25571632385253906,-0.0658746212720871,-0.14928889274597168,0.08810430765151978,0.02204230986535549,-0.4331488013267517,0.07197894901037216,0.05086074024438858,0.14918364584445953,0.01189904659986496,-0.09989842772483826,-0.3596012592315674,-0.03800306096673012,0.06941549479961395,-0.19993355870246887,-0.43576300144195557,0.07716511189937592,0.37830543518066406,0.030769651755690575,0.22383618354797363,-0.15126550197601318,0.27635571360588074,0.3733249604701996,-0.09259536117315292,0.04295334964990616,0.05613730102777481,0.09410527348518372,0.008217650465667248,0.23017260432243347,0.3424801230430603,0.06212611868977547,-0.36309459805488586,0.2735556662082672,0.008119639940559864,0.059642139822244644,-0.17198172211647034,0.11218602955341339,0.1776307076215744,0.29856783151626587,0.21745136380195618,-0.08413330465555191,-0.008660792373120785,-9.378043614560738e-06,-0.06462287157773972,0.25860974192619324,-0.07770694047212601,-0.22276753187179565,-0.34662994742393494,0.026118647307157516,0.557850182056427,-0.32807648181915283,0.05630074813961983,0.5784711241722107,0.05769664794206619,-0.04367465153336525,0.13653576374053955,0.3888942301273346,0.03137529268860817,-0.26257002353668213,-0.008088847622275352},{-0.18189002573490143,-0.07090181112289429,-0.6144270300865173,-0.1766427606344223,0.001278384355828166,-0.027957025915384293,-0.058295488357543945,0.12765175104141235,0.10890618711709976,-0.48305872082710266,-0.007730645593255758,-0.30708420276641846,0.10371259599924088,-0.2882038652896881,0.0893879383802414,0.281401664018631,0.1744762510061264,0.06545418500900269,-0.19123250246047974,0.09216266125440598,0.060615018010139465,0.26316529512405396,-0.08948929607868195,-0.20662063360214233,0.19145391881465912,-0.22867392003536224,-0.5477290153503418,-0.15824738144874573,-0.020346686244010925,-0.352575421333313,-0.03635011240839958,0.22397509217262268,0.34827330708503723,-0.09926827996969223,0.28201937675476074,-0.04912335053086281,-0.03448610007762909,-0.23368634283542633,0.4041716456413269,0.30146077275276184,-0.31522291898727417,0.3784087300300598,-0.12215963751077652,-0.12605543434619904,-0.030479291453957558,-0.6301237940788269,-0.3738850951194763,0.2240658551454544,-0.17074048519134521,0.23633022606372833,-0.5348788499832153,0.18377816677093506,0.09166824072599411,-0.5031000971794128,-0.388004332780838,0.28642022609710693,-0.5589497089385986,0.23910966515541077,-0.0743882954120636,-0.3553292751312256,0.0026863047387450933,0.07634643465280533,0.013934750109910965,0.14858673512935638},{0.24980653822422028,0.21320229768753052,0.11549215018749237,0.1342279016971588,0.2473500370979309,0.07890075445175171,-0.16779957711696625,-0.5077492594718933,-0.12736892700195312,-0.03304803743958473,0.009757851250469685,-0.059665847569704056,-0.30311986804008484,0.15391874313354492,-0.19784873723983765,-0.3855229914188385,0.14204472303390503,-0.2190965861082077,-0.03266765549778938,-0.1386752873659134,0.08397409319877625,0.04609758406877518,0.24682113528251648,-0.15433676540851593,-0.09757640212774277,0.10175248980522156,-0.006298806518316269,0.12376653403043747,0.24851839244365692,0.6292515993118286,-0.20907597243785858,0.050870977342128754,0.4150178134441376,-0.10824368894100189,-0.01669599860906601,0.1712811440229416,-0.3249962627887726,0.03644135594367981,0.10825121402740479,0.03956880420446396,-0.3800464868545532,-0.022337717935442924,-0.13066285848617554,0.18520718812942505,0.22166937589645386,-0.2969377934932709,0.2065560668706894,0.07606304436922073,0.2806295156478882,-0.11322294920682907,0.37469589710235596,0.19910816848278046,0.29898279905319214,-0.20737966895103455,0.33218914270401,-0.36491021513938904,0.34201779961586,0.6092023253440857,-0.0790880098938942,-0.20799030363559723,0.48611122369766235,0.0033090284559875727,-0.6663354635238647,0.003405862720683217},{0.7276967167854309,0.43614280223846436,0.08910143375396729,0.21424755454063416,-0.2566460072994232,-0.35265201330184937,-0.3561750650405884,0.269668310880661,-0.14681841433048248,-0.21297578513622284,-0.07600763440132141,0.1952802687883377,-0.2613769471645355,0.04160080477595329,-0.2218862920999527,-0.46154484152793884,-0.02044091559946537,0.7305911183357239,0.4955209195613861,0.07292510569095612,0.2990725636482239,-0.18297360837459564,0.11867158859968185,-0.7944985628128052,-0.3752833604812622,0.6446406245231628,-0.01306175161153078,0.38470110297203064,0.15803967416286469,0.5994777679443359,0.05495467036962509,-0.17630627751350403,-0.11270324140787125,0.6578077077865601,0.03094000741839409,0.05405004322528839,0.22216299176216125,-0.7391955256462097,-0.29738348722457886,-0.18407681584358215,-0.26448097825050354,-0.1278306394815445,-0.18135927617549896,0.14247316122055054,0.1269974708557129,0.2349132001399994,0.5846497416496277,-0.3328826129436493,0.055796120315790176,-0.051374223083257675,0.06016525253653526,-0.23667852580547333,0.03873385488986969,0.3409018814563751,-0.2865467667579651,0.2323445975780487,0.19976487755775452,-0.07156926393508911,0.2616561949253082,-0.5034076571464539,0.3390420377254486,-0.08070312440395355,-0.19942332804203033,-0.26146116852760315},{-0.12919285893440247,0.11271259933710098,-0.5805899500846863,-0.1283532679080963,0.3162439167499542,-0.005133761093020439,-0.1644991934299469,-0.30373862385749817,0.2523551285266876,-0.2970956861972809,0.2239539474248886,-0.5524149537086487,-0.06533744931221008,-0.20662827789783478,0.10879414528608322,0.42501896619796753,0.0550631545484066,0.2264198511838913,-0.06464404612779617,0.11649628728628159,0.029232678934931755,0.36639487743377686,0.23488223552703857,0.06804829835891724,0.15270793437957764,-0.4517914652824402,-0.2500670254230499,-0.12550023198127747,-0.1244390457868576,-0.22852778434753418,-0.058295298367738724,-0.023550130426883698,0.11812720447778702,-0.09245874732732773,-0.011751176789402962,-0.04670560732483864,-0.07416334003210068,0.11321691423654556,0.27893295884132385,0.14507576823234558,-0.10318810492753983,-0.5742912292480469,0.05492391064763069,0.21821673214435577,-0.1262836456298828,-0.25520703196525574,0.03847494721412659,0.2014453262090683,0.008734600618481636,-0.2912294268608093,-0.30268216133117676,-0.017908617854118347,0.2846637964248657,-0.10442476719617844,-0.20589634776115417,-0.05328591167926788,-0.27638524770736694,-0.038249362260103226,-0.10875420272350311,-0.04596572741866112,0.12231659889221191,0.1558953821659088,0.5314943790435791,0.059752847999334335},{-0.13503529131412506,-0.09660284966230392,-0.14676880836486816,0.02609241008758545,-0.1284276396036148,-0.25314900279045105,-0.27727222442626953,0.298164963722229,0.042803794145584106,-0.19365593791007996,0.1063067764043808,-0.6067588329315186,0.2905770540237427,0.29667237401008606,0.48661503195762634,0.563728928565979,-0.17966675758361816,0.19513051211833954,-0.49200302362442017,0.30336031317710876,0.3220492899417877,-0.32458463311195374,0.18983791768550873,0.11879982799291611,0.2640827000141144,0.19747872650623322,-0.08634698390960693,-0.2857762575149536,-0.026320334523916245,-0.5465179085731506,-0.028624478727579117,0.19384829699993134,-0.14621417224407196,0.06673331558704376,-0.10732726007699966,0.12060666084289551,-0.22797220945358276,0.012250462546944618,0.41712215542793274,-0.24101854860782623,0.22256213426589966,-0.016347290948033333,0.13170333206653595,-0.01997130736708641,0.27013111114501953,-0.1388837695121765,-0.00738871144130826,-0.11426333338022232,0.0770893320441246,0.39718642830848694,-0.35643818974494934,-0.19501174986362457,0.07661636173725128,-0.23839020729064941,-0.21991586685180664,0.15141813457012177,-0.585120677947998,0.07926244288682938,0.18426193296909332,0.07565237581729889,-0.11147276312112808,0.18424344062805176,0.1958872675895691,-0.0086522800847888},{-0.007204275578260422,0.13854864239692688,0.1711360067129135,-0.26146841049194336,-0.20090700685977936,0.24437592923641205,0.24363668262958527,0.36739686131477356,0.10367629677057266,0.19887417554855347,-0.30260151624679565,-0.27927327156066895,-0.22998912632465363,0.46403220295906067,-0.12207308411598206,0.19091328978538513,0.06422186642885208,-0.09726612269878387,-0.2153834104537964,0.28579050302505493,0.1451493203639984,0.2375495880842209,-0.32394832372665405,0.22822657227516174,0.1457783430814743,0.31151050329208374,0.35328495502471924,-0.0012239385396242142,-0.19227288663387299,0.05501994490623474,-0.006289614364504814,0.40799209475517273,-0.1479358673095703,0.22749505937099457,0.19163283705711365,0.16752156615257263,0.0663047656416893,0.5385568141937256,0.07729634642601013,-0.14906436204910278,0.1746215522289276,0.46124985814094543,0.2839990258216858,-0.3610115349292755,0.5892243385314941,0.2122078537940979,0.15803056955337524,0.21687473356723785,-0.05620913207530975,0.15859930217266083,0.05364830791950226,0.2829279601573944,-0.5165714621543884,-0.1725384145975113,0.13509981334209442,-0.22978489100933075,0.32775720953941345,-0.6572927832603455,-0.006952076684683561,0.2871163785457611,0.02754703350365162,-0.10897859185934067,0.14697228372097015,-0.20097172260284424},{-0.044086672365665436,-0.10626724362373352,0.32947221398353577,-0.12781795859336853,0.18748070299625397,-0.13132111728191376,0.04133433848619461,0.012026550248265266,-0.2454545944929123,0.38148459792137146,0.08279862254858017,0.1561226099729538,-0.4326823055744171,-0.00044261012226343155,0.033305421471595764,-0.004496217705309391,0.07230538874864578,-0.10057641565799713,0.10025300830602646,0.030838167294859886,0.054880812764167786,0.18241314589977264,-0.2782200276851654,-0.10007257014513016,-0.08949282020330429,-0.5433524250984192,-0.010719403624534607,0.052660271525382996,-0.13149119913578033,0.002969960682094097,-0.15180045366287231,0.10520950704813004,0.06044944375753403,0.11510521173477173,0.04099925234913826,0.4958113133907318,-0.013843802735209465,0.048939600586891174,0.2577168643474579,0.2033008188009262,0.322389155626297,0.2712983191013336,-0.03989105671644211,0.03029085509479046,-0.07271113991737366,0.09226402640342712,0.38696688413619995,0.1839238554239273,0.32524430751800537,-0.0003984042559750378,0.07462844997644424,-0.03927413001656532,-0.4091111123561859,-0.13839955627918243,0.4896853268146515,-0.32312721014022827,-0.2253069281578064,0.24275311827659607,-0.0775962769985199,-0.40730783343315125,0.2979898154735565,0.047525230795145035,-0.24814370274543762,-0.2974950075149536},{-0.25604555010795593,-0.2720864415168762,-0.017129430547356606,0.18155908584594727,-0.10504582524299622,-0.2713020145893097,0.4092869460582733,-0.030422503128647804,0.02408641390502453,0.06715915352106094,0.15901847183704376,-0.10022778809070587,0.08676380664110184,-0.19154024124145508,-0.05530165508389473,0.4495719075202942,0.026536935940384865,0.38704371452331543,-0.09181041270494461,-0.009463704191148281,0.05853228271007538,-0.09687598049640656,-0.41069844365119934,0.19567182660102844,-0.06455528736114502,-0.3343851864337921,-0.1882472038269043,-0.08488620817661285,0.3602527379989624,-0.3889329731464386,0.05314236879348755,-0.01524167787283659,-0.16616669297218323,-0.05782385542988777,-0.24739962816238403,-0.027886148542165756,0.03051183372735977,0.018763750791549683,-0.11216185986995697,0.031351830810308456,0.26539531350135803,-0.3551039397716522,-0.4930075705051422,-0.42229121923446655,0.07776958495378494,0.047782741487026215,-0.004541405476629734,0.28387612104415894,0.185272678732872,-0.09896465390920639,0.14726735651493073,-0.4861341118812561,-0.013321839272975922,-0.4236086905002594,0.12865866720676422,-0.04905177280306816,0.163587749004364,-0.07777883857488632,-0.03169932961463928,0.14076077938079834,-0.3113709092140198,-0.18134863674640656,-0.14843802154064178,0.018871350213885307},{-0.05642859637737274,0.06418529152870178,0.13520972430706024,0.03498545289039612,0.02784762904047966,-0.04500119015574455,-0.12908972799777985,-0.1889507919549942,0.17416219413280487,-0.3469715118408203,-0.1621752381324768,0.13702180981636047,-0.0878000259399414,-0.07318644970655441,-0.0626334547996521,-0.06713051348924637,0.21726420521736145,0.2414333075284958,0.08451254665851593,-0.18852151930332184,0.07436652481555939,-0.21278348565101624,-0.05185382068157196,-0.037221506237983704,0.02487722970545292,-0.1668691784143448,0.11101999133825302,0.014242184348404408,-0.12762130796909332,0.21535202860832214,0.10546554625034332,-0.5016041994094849,0.12477710098028183,-0.03377339616417885,-0.07426727563142776,-0.16562196612358093,0.13312940299510956,0.21686699986457825,0.0645468682050705,0.4502629339694977,0.30336928367614746,-0.2027653157711029,0.36556702852249146,-0.023396646603941917,-0.11310696601867676,0.48492637276649475,-0.129359170794487,0.10509046912193298,-0.12638264894485474,-0.03876606747508049,0.4231540858745575,-0.006609484553337097,0.11485443264245987,-0.014832604676485062,-0.14846271276474,-0.1394016593694687,0.24696388840675354,0.07109473645687103,0.4968292713165283,0.22981049120426178,-0.2544041872024536,0.10828704386949539,-0.5953078269958496,-0.019054310396313667},{-0.1399070769548416,-0.15448780357837677,0.3272610902786255,-0.01662023924291134,0.011953623965382576,0.2282128483057022,0.08527026325464249,-0.2153865098953247,-0.011752694845199585,0.17201413214206696,-0.29464125633239746,-0.16453826427459717,0.1454826444387436,-0.4243214428424835,0.461340993642807,0.08718850463628769,0.3056587874889374,0.03390606865286827,-0.11555439233779907,0.07037443667650223,0.369015634059906,0.06386366486549377,0.09432777017354965,-0.2058028131723404,0.11143722385168076,-0.1268523633480072,-0.24123139679431915,0.5713992714881897,-0.2874215543270111,-0.18621854484081268,0.032796069979667664,-0.05190331116318703,0.14510411024093628,-0.28129842877388,0.11244820803403854,0.15197604894638062,-0.23306192457675934,-0.5660531520843506,0.2896482050418854,-0.12779368460178375,0.013131976127624512,-0.04907890409231186,0.022029025480151176,-0.06204669922590256,-0.080014668405056,0.020980801433324814,-0.0493454672396183,0.027660543099045753,-0.08860237896442413,0.06588229537010193,-0.3197861909866333,0.06302621215581894,-0.11045300960540771,-0.2543107867240906,0.23918871581554413,-0.2012518048286438,0.17528313398361206,0.023703772574663162,-0.22087444365024567,-0.2945781648159027,-0.15118135511875153,-0.10863512754440308,0.24722686409950256,0.07471762597560883},{0.15498235821723938,0.14164207875728607,0.26821717619895935,-0.025044504553079605,-0.007523702923208475,0.12554828822612762,-0.1884089708328247,0.6116011738777161,0.2693677246570587,-0.07669442147016525,-0.5935903787612915,-0.4825807809829712,0.22025416791439056,-0.02767009846866131,-0.42233261466026306,0.12936903536319733,-0.04404876381158829,-0.2842676341533661,0.006258315406739712,0.2911074757575989,0.1375558227300644,-0.19790863990783691,-0.11797918379306793,0.12677736580371857,0.1831192970275879,0.12067992240190506,0.4024623930454254,-0.13131128251552582,-0.054415639489889145,-0.1956440657377243,-0.21464046835899353,0.4237895607948303,0.31207671761512756,0.3968617916107178,-0.17044943571090698,0.1469365805387497,-0.4521946310997009,-0.423816442489624,-0.1475195586681366,-0.2923476994037628,-0.07353536039590836,0.2936284840106964,0.07019931077957153,-0.0292621161788702,0.3910430073738098,0.09232498705387115,-0.05330381914973259,-0.008846692740917206,-0.4469214379787445,0.04671061411499977,-0.4475000202655792,-0.05700119957327843,0.05251926928758621,-0.08570858091115952,-0.06375311315059662,0.20713287591934204,-0.28488555550575256,-0.05233413726091385,0.032742131501436234,-0.3081424832344055,0.11421133577823639,-0.38865870237350464,0.39578133821487427,-0.038341447710990906},{-0.09231743961572647,0.3719457685947418,-0.2853746712207794,-0.1261197328567505,0.03459534794092178,0.07471800595521927,-0.013395959511399269,0.36284515261650085,0.08134396374225616,-0.4250796437263489,-0.1410370022058487,-0.05877700820565224,-0.10935388505458832,-0.39239609241485596,-0.30855581164360046,-0.006965539883822203,-0.06756550073623657,0.1395368129014969,-0.32222118973731995,0.11558742821216583,-0.12433256953954697,0.03695503994822502,0.6679913401603699,-0.004989102017134428,-0.26694580912590027,-0.039731789380311966,-0.058389388024806976,-0.10925520211458206,-0.2790882885456085,-0.6830411553382874,0.19273869693279266,0.21090255677700043,0.25667604804039,0.04654134809970856,-0.2342398762702942,-0.06409706920385361,-0.10599255561828613,-0.001545286038890481,0.2705777883529663,-0.20089927315711975,-0.26373204588890076,0.08245185017585754,-0.185955211520195,0.19414788484573364,0.266200453042984,-0.15195511281490326,-0.008880390785634518,-0.11140034347772598,0.1658780723810196,0.33738046884536743,-0.23460032045841217,0.5045199990272522,0.10018490999937057,-0.1374015510082245,-0.2400379329919815,-0.3218037188053131,-0.314443439245224,0.36704882979393005,-0.08475938439369202,-0.13474906980991364,0.02776901051402092,-0.026191670447587967,0.31280288100242615,0.0452851764857769},{-0.061477307230234146,-0.053177930414676666,-0.06134197115898132,0.00825363490730524,0.10338779538869858,-0.2888874411582947,0.08830897510051727,-0.261802077293396,-0.12215566635131836,0.3399333655834198,0.1741763949394226,0.22485773265361786,-0.10144133865833282,0.2384544312953949,-0.24585789442062378,-0.4722304046154022,-0.10419929027557373,-0.01822604052722454,0.29917868971824646,0.021134454756975174,0.047102246433496475,0.05750168114900589,-0.037211742252111435,-0.17498601973056793,-0.3199232816696167,-0.2222512811422348,0.1828252524137497,-0.0982312262058258,-0.3035004138946533,0.19692037999629974,-0.03694242984056473,-0.037615515291690826,0.2595469355583191,-0.12875492870807648,0.2037382423877716,0.4351924955844879,-0.15116210281848907,0.18163546919822693,0.17273952066898346,-0.22866809368133545,-0.12299045920372009,-0.3683163523674011,0.23719817399978638,-0.09617788344621658,-0.09508516639471054,0.043176665902137756,-0.48686614632606506,0.2619110345840454,-0.43083980679512024,-0.0830673798918724,0.15803739428520203,0.3080926835536957,0.004597831517457962,-0.1307985931634903,0.48164477944374084,-0.20315907895565033,0.7585815191268921,0.01711406745016575,-0.12204551696777344,-0.5195690989494324,0.08343340456485748,0.09502234309911728,-0.7690350413322449,0.45556411147117615},{-0.3070586621761322,0.07219450920820236,-0.1109103113412857,-0.10086145997047424,0.303165465593338,0.04131421819329262,-0.027157001197338104,-0.18821962177753448,-0.13361778855323792,-0.07401927560567856,0.11461225897073746,0.02183842472732067,-0.07513562589883804,-0.2630596458911896,0.2376982569694519,-0.2773490846157074,-0.13456030189990997,-0.09726803004741669,-0.27248793840408325,-0.16240961849689484,-0.4427427649497986,-0.22529299557209015,-0.19252221286296844,-0.018429554998874664,-0.24115212261676788,-0.01688213460147381,-0.1655874401330948,-0.1386934369802475,-0.38014665246009827,0.2668474614620209,-0.2572445273399353,-0.023511486127972603,0.21117524802684784,-0.055713552981615067,0.14367784559726715,-0.32887089252471924,0.030474776402115822,0.43597084283828735,-0.03727377578616142,0.1835569143295288,-0.20914378762245178,-0.5633031129837036,-0.2001171112060547,0.016886388882994652,-0.3283362090587616,-0.13537512719631195,0.31211480498313904,0.132905051112175,0.05962247774004936,-0.01597977802157402,-0.03155437484383583,-0.2254183143377304,-0.06049336865544319,0.33365580439567566,-0.013162456452846527,-0.44741737842559814,-0.007330387830734253,0.09166807681322098,0.12620306015014648,-0.17758908867835999,-0.05506957694888115,0.019552847370505333,-0.39876773953437805,-0.1871965229511261}};
